-0.061803166
0.00039115263
0.037349176
-0.0027711317
0.04892992
-0.060598012
-0.06307304
0.038370356
-0.032825906
-0.025841773
0.05022816
0.026242211
-0.020342536
-0.110024646
0.070072874
-0.07642775
0.04745432
-0.060675856
-0.03191264
-0.080900036
-0.026330434
-0.047413856
-0.01240582
-0.0496908
0.0047827284
-0.063076
-0.0021266087
0.07307031
-0.010403066
-0.0059828795
0.030027254
-0.03282793
0.046974875
-0.11591723
0.024136871
-0.05895935
-0.05247733
0.05272367
0.05814822
-0.028034478
-0.03254633
-0.048196733
0.016648347
0.034377392
0.048094098
-0.039917745
0.021640157
-0.046213638
0.09243527
0.068102084
-0.05552295
0.0059995693
0.0076523144
0.059909277
0.024279995
0.05087147
0.10929354
-0.055606734
-0.06512328
0.0765966
0.09511879
-0.00114212
-0.06795521
-0.01991678
-0.03903726
0.02087628
0.052646626
0.040142644
-0.017348718
-0.08849613
0.06572288
0.08731341
-0.08966738
-0.04087133
0.060777623
0.037141457
0.0048799324
0.04657367
-0.04443593
0.062652335
-0.016032169
-0.053551722
-0.038620055
-0.05300379
0.061779875
-0.04415856
-0.0147418855
-0.010691226
-0.026790421
0.008001994
-0.01990475
0.011396321
-0.07366394
-0.12008807
-0.05224178
-0.057770412
0.032249328
-0.058556143
0.023701014
-0.066110834
-0.06938475
0.0075234016
-0.001688598
0.0030601248
-0.09998401
0.067716986
-0.053035673
-0.0044880803
-0.017323468
0.04483734
-0.036624085
-0.03668651
-0.08527635
-0.06549036
0.04779172
-0.027737107
0.034564696
0.025041573
0.038861256
-0.0405333
0.04965611
0.03536875
-0.0142784305
0.055512223
-0.00986395
-0.06889844
-0.0077088918
-0.16311498
-0.025044717
-0.034411263
0.07643454
-0.048283312
-0.108187
0.08718487
-0.07363428
0.0077539487
0.014300221
-0.0021374256
-0.044420615
-0.02979852
-0.07636997
0.03150387
0.0739243
0.0146226
-0.03494816
-0.012503216
0.007076107
0.09597048
-0.036218774
0.054953597
0.07768701
-0.10081876
0.010709781
0.063111626
-0.108680636
0.11069299
-0.06287425
-0.019544823
-0.04004874
0.028169008
-0.059868176
0.046139605
-0.036316175
-0.09378505
-0.03192896
0.08382445
-0.02421003
-0.07569148
0.063617274
-0.004883808
0.005180968
0.0025446496
-0.0937221
0.05896839
-0.021851363
-0.022421166
0.065266214
-0.10307716
0.038516995
-0.01966146
0.0457499
-0.042444613
0.016221767
0.055991746
-0.060187917
0.035760336
-0.074994795
0.019702012
-0.099159464
-0.09929016
-0.0041276184
0.011356224
-0.05423053
-0.013903924
0.026458254
0.08163515
-0.006728831
0.112300426
-0.041957386
0.03934946
-0.044779338
-0.023131397
0.072690114
-0.042379394
-0.0067618634
0.045871682
-0.03493732
-0.026721137
0.005763983
-0.014840744
-0.002885937
-0.05009192
-0.0037819303
0.069341935
-0.0023671486
0.10691218
0.079957984
0.02822892
0.0082218945
-0.05482647
0.100380406
0.04373388
0.049390435
-0.030343216
0.034896865
-0.015560268
0.079954766
-0.02390659
-0.07978259
0.008209938
0.014486968
0.068349816
-0.095796555
-0.071180485
0.095341615
-0.04484977
0.12072652
-0.099106126
0.018350817
-0.06434784
0.023788255
0.08931953
0.031137852
-0.042550676
0.016328057
-0.07592587
0.1030766
0.046466842
-0.014197401
0.0027547472
-0.007536845
-0.063396215
0.097467355
0.09362992
0.072101556
0.05560269
0.007824088
-0.021907952
0.022905812
0.015551791
0.015383404
-0.014127257
0.067531385
0.023981784
-0.045704957
0.07608792
-0.0152948545
-0.06514037
-0.036969613
-0.010546636
-0.027116397
-0.0789904
-0.0043951147
0.081007786
-0.076285
0.06721874
-0.05686396
0.046020873
0.06973642
0.032514244
0.06519699
-0.0350238
-0.06436125
0.06502975
-0.05222193
-0.108081736
-0.0328889
-0.06118222
0.03664367
0.06651331
0.022252208
-0.05300508
-0.08628461
-0.066709675
0.0034279106
-0.0072848103
0.020175755
0.023908328
-0.05981431
-0.014829874
-0.018914593
0.008402795
0.0728753
0.028105523
-0.05527489
-0.0299422
0.069012836
0.008512912
-0.07673729
-0.0195335
-0.0038463543
-0.045941036
0.0020885689
-0.03406259
0.06090833
0.027350895
0.11252668
-0.08001744
-0.044640716
0.011905299
0.022659728
-0.03800459
0.025534343
-0.027412247
-0.055815514
-0.06775878
-0.0298486
-0.012874309
0.047290042
-0.06555581
0.072909296
-0.039057232
0.09684038
-0.061019853
-0.009772196
-0.0048010782
0.008033237
0.0892902
-0.042295665
-0.044851918
0.01583295
-0.12293125
-0.012222617
0.04478051
0.048573673
-0.06515614
-0.007701662
-0.058067784
0.025975011
0.02211153
0.023372624
-0.036439285
-0.038299087
0.08615416
0.093752384
0.0047177197
-0.010894885
-0.029194864
0.04615245
-0.009678881
-0.0043457607
-0.1229621
0.033607725
0.029003164
-0.0376477
0.057457276
-0.11075183
-0.0802624
-0.013793751
0.02773208
0.05484823
0.09998535
0.012387861
-0.014743144
0.048131686
0.049520057
-0.08965082
0.0025678254
-0.021681663
0.08067622
0.012151622
0.0013589832
-0.01615444
0.06460705
-0.09294084
0.044655778
0.013112388
0.07415435
-0.013279172
0.03539938
0.0008617201
-0.037169088
-0.043885812
-0.05831265
-0.046312034
-0.007955022
0.016040582
0.065311514
0.06261323
0.003325707
0.10263536
0.0892512
-0.08749354
0.07413305
0.013446144
-0.05565943
0.051527005
-0.042413164
-0.07105558
5.7990324e-05
-0.059613794
-0.009939011
0.009903934
0.020699197
0.06641332
-0.07282307
0.080181144
-0.085101165
0.043471623
0.109852575
-0.06365203
-0.027856003
-0.0070491633
-0.01208614
-0.0694275
-0.023365472
0.0333721
0.05509734
-0.059676964
0.038443536
-0.052819338
0.04708189
0.030921096
-0.012514857
0.02029364
-0.06903159
-0.04979313
0.07220364
-0.09723875
-0.030089801
-0.07268242
0.012061038
0.055399675
-0.05036841
0.025929369
0.079691835
-0.048871987
-0.0016204813
-0.0007698984
0.012498844
0.06259461
0.100221924
-0.052860774
-0.10028347
-0.06999826
-0.02469381
0.043968692
0.035574343
-0.07241888
0.07153709
-0.02900557
-0.016036693
0.10142409
-0.027557869
-0.008606422
0.022498865
0.030461844
0.003400709
0.040252134
-0.013579923
-0.010382627
0.08165836
0.09793179
-0.119941264
-0.054975215
0.0059772814
0.03817648
-0.050116733
0.042672776
-0.045039844
-0.039025016
-0.0763121
-0.054997597
-0.078227915
0.059453998
0.05253379
0.008848993
-0.093940094
-0.051024918
0.08654643
0.061084766
-0.00023713442
-0.03156051
0.09199754
-0.018881293
0.079135306
0.05292936
0.016835013
-0.013014885
0.001786593
-0.064814486
-0.0033932931
-0.0564298
-0.09889948
0.0543562
0.048355173
0.007153021
0.028385913
0.0413747
-0.12686451
-0.11704758
0.036885936
