3.524255007505416870e-03
-4.386398941278457642e-02
-5.696121603250503540e-02
-6.682357285171747208e-03
-4.963246732950210571e-02
7.356224209070205688e-02
-7.668303698301315308e-02
-2.490261197090148926e-02
7.864630222320556641e-02
8.421014994382858276e-02
6.305544823408126831e-02
-1.255634892731904984e-02
6.180419400334358215e-02
-4.319654777646064758e-02
-1.345528941601514816e-02
-1.061539426445960999e-01
-1.856163889169692993e-02
9.523709118366241455e-02
8.136884123086929321e-02
1.076912879943847656e-01
-6.923025939613580704e-03
3.886536508798599243e-02
-5.428951606154441833e-02
-1.543568912893533707e-02
3.381710872054100037e-02
2.835964970290660858e-02
4.717903956770896912e-02
2.589839696884155273e-02
1.125731393694877625e-01
-1.693484932184219360e-02
-1.291851997375488281e-01
-2.391156926751136780e-02
1.190748661756515503e-01
9.581732749938964844e-02
-2.459996193647384644e-02
5.149076879024505615e-02
-6.008790433406829834e-02
-1.156844012439250946e-02
6.736772134900093079e-03
-9.797678142786026001e-02
2.711622044444084167e-02
-2.684833668172359467e-02
7.036338746547698975e-02
5.853016301989555359e-02
1.113471575081348419e-02
-1.292661298066377640e-02
8.384807035326957703e-03
5.744290351867675781e-02
5.226960405707359314e-02
-1.402710331603884697e-03
2.964919246733188629e-02
4.410412535071372986e-02
9.862789884209632874e-03
6.965138018131256104e-02
4.541453346610069275e-02
-8.380111306905746460e-02
-1.407738178968429565e-01
6.232661195099353790e-03
4.042392224073410034e-02
-6.997414678335189819e-02
5.529694259166717529e-02
-6.740967184305191040e-02
-2.618558704853057861e-02
-1.382821518927812576e-02
1.265386305749416351e-02
-5.088104307651519775e-02
-9.279584139585494995e-02
5.112221464514732361e-02
8.233590424060821533e-02
3.304580226540565491e-02
-1.710881292819976807e-02
-8.287930488586425781e-02
6.528266519308090210e-02
-2.878746762871742249e-02
4.677955992519855499e-03
-4.250952973961830139e-02
3.993089869618415833e-02
-6.139551475644111633e-02
7.317993789911270142e-02
-5.738915875554084778e-02
-4.501066729426383972e-02
1.312028616666793823e-02
-3.839923441410064697e-02
3.163764998316764832e-02
-1.051751896739006042e-01
-3.407904878258705139e-02
-5.752101540565490723e-03
-6.004860997200012207e-02
-3.644374012947082520e-02
3.772028163075447083e-02
-8.134700357913970947e-02
4.275665804743766785e-02
-5.135019496083259583e-02
8.832410722970962524e-02
-1.600784659385681152e-01
-2.235266612842679024e-03
-4.153578355908393860e-02
1.246542576700448990e-02
3.059980832040309906e-02
-2.230215445160865784e-02
4.182791709899902344e-02
-6.941140443086624146e-02
4.731399938464164734e-02
9.527007932774722576e-04
-1.788188703358173370e-02
1.384090483188629150e-01
-9.521822445094585419e-03
-1.300383452326059341e-02
-1.489507257938385010e-01
-4.751833155751228333e-02
5.261757969856262207e-02
3.766867890954017639e-02
-1.198734194040298462e-01
-7.094036787748336792e-02
3.056283481419086456e-02
-7.094979286193847656e-02
-7.724273949861526489e-02
-1.415040995925664902e-02
2.682087197899818420e-02
-3.789617866277694702e-02
9.079304523766040802e-03
1.678842864930629730e-02
2.711255103349685669e-02
-7.066645473241806030e-02
-5.723235756158828735e-02
-4.738326743245124817e-02
3.546707704663276672e-02
2.454286906868219376e-03
-8.677994459867477417e-02
-1.785608567297458649e-02
-1.226691603660583496e-01
6.975556164979934692e-02
1.351546049118041992e-01
6.265111267566680908e-03
-5.069052800536155701e-03
-8.499919436872005463e-03
1.101517770439386368e-02
-7.850074023008346558e-02
-8.142752200365066528e-02
2.349226921796798706e-02
3.009239584207534790e-02
-2.117158379405736923e-03
3.323408216238021851e-02
1.775342971086502075e-03
-1.541919913142919540e-02
-6.626351736485958099e-03
1.208048611879348755e-01
5.031532421708106995e-02
5.864243581891059875e-02
-6.322537362575531006e-02
4.672515019774436951e-02
8.635449409484863281e-02
-5.049072951078414917e-02
-1.316984593868255615e-01
7.891746610403060913e-02
-3.870826587080955505e-02
-7.221996039152145386e-02
4.216371476650238037e-02
-1.313824765384197235e-02
-5.148700252175331116e-02
-1.433129906654357910e-01
-7.920637726783752441e-02
-6.916403770446777344e-02
-1.295252442359924316e-01
2.174676768481731415e-02
-3.192374110221862793e-02
-5.113285407423973083e-02
-9.531930834054946899e-02
-1.181205064058303833e-01
5.104643478989601135e-02
-7.982692867517471313e-02
5.511210486292839050e-02
3.710771724581718445e-02
-2.398500405251979828e-02
-4.397568479180335999e-02
-4.426411539316177368e-02
-6.362345069646835327e-02
-5.387303978204727173e-02
3.098331578075885773e-02
3.054845845326781273e-03
9.670139104127883911e-02
-5.419436097145080566e-02
6.949716061353683472e-02
-1.143779456615447998e-01
-3.627971187233924866e-02
1.053051948547363281e-01
-1.493833493441343307e-02
-8.977337181568145752e-02
-5.274853482842445374e-02
-1.017795410007238388e-02
-3.858726099133491516e-02
-5.165151134133338928e-02
4.841496422886848450e-02
-6.639721244573593140e-02
-4.202779754996299744e-02
3.226261213421821594e-02
4.666295647621154785e-02
4.777926951646804810e-02
-4.728795588016510010e-02
2.032048627734184265e-02
-9.983474761247634888e-02
-4.421456903219223022e-02
4.377684742212295532e-02
-5.774234235286712646e-02
5.093062296509742737e-02
2.175992913544178009e-02
6.796969100832939148e-03
-8.485631644725799561e-02
-4.659262672066688538e-02
-1.202017143368721008e-01
1.474829614162445068e-01
-7.756196707487106323e-02
-4.103562235832214355e-02
2.925958856940269470e-02
-1.701777875423431396e-01
-3.263619914650917053e-02
2.426868118345737457e-02
-4.016872495412826538e-02
8.459293097257614136e-02
-1.063430234789848328e-01
-4.715757817029953003e-02
-2.038562111556529999e-02
-4.056825861334800720e-02
-2.022311463952064514e-02
-2.649210393428802490e-03
-3.986686933785676956e-03
-1.037063524127006531e-01
-1.188424825668334961e-01
5.221203342080116272e-02
-5.305568873882293701e-02
5.823852866888046265e-02
-1.507076323032379150e-01
1.075542196631431580e-01
5.020067840814590454e-02
-6.049701198935508728e-02
-3.030643332749605179e-03
9.843622148036956787e-02
1.589033007621765137e-02
-1.437840517610311508e-02
-1.127106621861457825e-01
-2.702393382787704468e-02
1.642086170613765717e-02
-1.323696877807378769e-02
-8.755493164062500000e-02
-1.415238380432128906e-01
-7.948502898216247559e-02
1.215211898088455200e-01
6.028870120644569397e-02
9.209706448018550873e-03
2.369835227727890015e-02
5.852434039115905762e-02
1.097876727581024170e-01
2.010207809507846832e-02
5.868563428521156311e-02
7.531449198722839355e-02
-1.268301624804735184e-03
1.005258690565824509e-02
-6.690256297588348389e-02
4.630512371659278870e-02
-1.354937721043825150e-02
-9.019453078508377075e-02
-3.281765675637871027e-04
-1.181688830256462097e-01
-1.306146942079067230e-02
-5.316678434610366821e-02
3.970237076282501221e-02
-5.711252614855766296e-02
6.490203738212585449e-02
7.676392793655395508e-02
6.440788507461547852e-02
-3.024935722351074219e-02
-6.562934815883636475e-02
7.487745583057403564e-02
7.684675604104995728e-02
9.123852103948593140e-02
-1.704061217606067657e-02
-8.375559747219085693e-02
2.869780361652374268e-02
5.155665427446365356e-02
-7.778549194335937500e-02
-4.104357585310935974e-02
-1.197263300418853760e-01
5.506181716918945312e-02
-3.376449644565582275e-02
-5.807746574282646179e-02
-1.018424704670906067e-01
-8.007048815488815308e-02
1.115019321441650391e-01
2.423587255179882050e-02
-9.266401082277297974e-02
-5.714964121580123901e-02
-1.000044271349906921e-01
-7.798078656196594238e-02
9.191282093524932861e-02
1.399294752627611160e-02
3.505848348140716553e-02
5.713568627834320068e-02
-4.540693387389183044e-02
-8.621539920568466187e-02
-6.136509031057357788e-02
5.327945947647094727e-02
2.567588910460472107e-02
-9.733900427818298340e-03
5.114392191171646118e-02
5.156173836439847946e-03
6.387153267860412598e-02
-6.763091683387756348e-02
8.722315728664398193e-02
2.045435830950737000e-02
5.628192052245140076e-02
-3.369295969605445862e-02
9.958570590242743492e-04
2.179514244198799133e-02
8.799231052398681641e-02
-8.492940664291381836e-02
-2.088840492069721222e-02
6.626959424465894699e-03
-6.669277697801589966e-02
-3.232317045331001282e-02
-6.607628613710403442e-02
-4.826772958040237427e-02
1.110887601971626282e-01
-1.139360740780830383e-01
6.714562326669692993e-02
5.948617681860923767e-02
-6.836459785699844360e-02
4.678835347294807434e-02
6.077757105231285095e-02
-2.190776355564594269e-02
7.977721095085144043e-02
5.367919430136680603e-02
-3.218632563948631287e-02
1.065780669450759888e-01
-1.178174465894699097e-01
-1.111230701208114624e-01
-1.172605380415916443e-01
5.285716056823730469e-02
6.461202353239059448e-02
-3.204618021845817566e-02
6.169085204601287842e-02
2.374147437512874603e-02
7.551647257059812546e-03
2.842496521770954132e-02
-8.578599244356155396e-02
6.022404506802558899e-02
-9.045166522264480591e-02
-1.477389335632324219e-01
-6.539264321327209473e-02
-1.420945953577756882e-02
-5.633759498596191406e-02
7.262376695871353149e-02
1.719203218817710876e-02
1.610039323568344116e-01
1.274956017732620239e-01
-1.008531972765922546e-01
1.166961994022130966e-02
-6.082794070243835449e-02
-9.427624754607677460e-03
4.887898638844490051e-02
8.926936239004135132e-02
4.565008729696273804e-02
-9.010015428066253662e-02
-1.438857894390821457e-02
-7.904651761054992676e-02
1.163334324955940247e-01
1.307496726512908936e-01
-7.830009609460830688e-02
-2.222018130123615265e-02
-6.059123575687408447e-02
6.423385441303253174e-02
-5.955641716718673706e-02
-9.138884954154491425e-03
5.197572708129882812e-02
-5.218960717320442200e-02
-6.124185398221015930e-02
5.865067988634109497e-02
-7.845747470855712891e-02
5.748165771365165710e-02
-5.597890540957450867e-02
-1.246075145900249481e-02
7.066215574741363525e-02
-6.478533893823623657e-02
-1.937606371939182281e-02
-1.920041255652904510e-02
8.164144307374954224e-02
4.703627899289131165e-02
-9.542889147996902466e-02
-1.478583272546529770e-02
-8.988662809133529663e-02
-4.886540118604898453e-03
-1.020190194249153137e-01
8.819997310638427734e-02
-6.686338037252426147e-02
-7.810282707214355469e-02
-3.522922843694686890e-02
-2.892999676987528801e-03
7.461444009095430374e-03
2.343390323221683502e-02
-1.793528208509087563e-04
2.462412789463996887e-02
-5.463031306862831116e-02
3.979591652750968933e-03
-1.054860427975654602e-01
2.310296893119812012e-02
8.840505033731460571e-02
1.909091509878635406e-02
-4.287885874509811401e-02
-7.783144712448120117e-02
-7.677237503230571747e-03
7.823022454977035522e-02
3.258847817778587341e-02
7.342122495174407959e-02
1.413714885711669922e-01
5.201157648116350174e-03
1.315005123615264893e-02
-1.327841132879257202e-01
7.010159641504287720e-02
5.338277295231819153e-02
-6.704274564981460571e-02
9.827469289302825928e-02
-5.191060900688171387e-02
-3.891480714082717896e-02
3.932319954037666321e-02
-4.925733804702758789e-02
3.235208988189697266e-02
9.581879526376724243e-02
2.990297786891460419e-02
8.012763224542140961e-03
-1.258144080638885498e-01
-8.076555281877517700e-02
-1.067922189831733704e-01
-4.945598170161247253e-02
1.365498267114162445e-02
-8.352443575859069824e-02
-1.171601340174674988e-01
-1.093118917196989059e-02
-9.298145771026611328e-02
-1.905519515275955200e-02
1.117478869855403900e-02
-6.633470766246318817e-03
-4.419805109500885010e-02
-1.058400943875312805e-01
5.150897055864334106e-02
6.608397513628005981e-02
1.633313857018947601e-02
-1.021709963679313660e-01
-2.848999388515949249e-02
-7.800575345754623413e-02
-1.133976597338914871e-02
8.712232857942581177e-02
-8.662815205752849579e-03
-5.667469650506973267e-02
-2.166407927870750427e-02
-6.491657346487045288e-02
-2.120053581893444061e-02
-3.701682016253471375e-02
-6.144132837653160095e-02
-3.787839412689208984e-02
-3.797229751944541931e-02
1.314361207187175751e-02
-3.782226890325546265e-02
8.791760355234146118e-02
2.226486243307590485e-02
-4.159676283597946167e-02
1.167491227388381958e-01
4.707703739404678345e-02
7.309924066066741943e-02
-1.235331315547227859e-02
4.349241405725479126e-02
7.163843140006065369e-03
-6.555172055959701538e-02
-7.300785742700099945e-03
-3.532427549362182617e-02
-3.071065060794353485e-02
1.407852768898010254e-01
2.366150962188839912e-03
-7.217237353324890137e-02
3.644704120233654976e-03
-3.111640550196170807e-02
8.739724010229110718e-02
4.372207075357437134e-02
-1.058283522725105286e-01
-6.097953394055366516e-02
-2.658373862504959106e-02
2.219622395932674408e-02
2.741932496428489685e-02
-4.905695095658302307e-03
-3.977283835411071777e-02
4.529601335525512695e-02
3.742556273937225342e-02
-4.422983154654502869e-02
2.451524510979652405e-02
-9.670852869749069214e-02
-3.877962753176689148e-02
7.997846230864524841e-03
-3.028127597644925117e-03
1.123780757188796997e-01
4.337764903903007507e-02
-6.648048758506774902e-02
8.132768422365188599e-02
2.761086449027061462e-02
-8.210106194019317627e-02
1.694652065634727478e-02
1.137807592749595642e-02
5.362391821108758450e-04
-8.196227997541427612e-02
-5.915329605340957642e-02
-1.785187423229217529e-02
-5.656844750046730042e-02
-3.771222010254859924e-02
9.378178045153617859e-03
-5.421834066510200500e-02
