-5.819591134786605835e-02 1.039975062012672424e-01 3.648431971669197083e-02 1.932775229215621948e-02 7.839639484882354736e-02 1.574431173503398895e-02 -4.735203832387924194e-02 -1.252701133489608765e-01 9.545525908470153809e-02 -3.627087920904159546e-02 -4.040432628244161606e-03 2.459608763456344604e-02 1.594517827033996582e-01 7.897465676069259644e-02 4.595597740262746811e-03 6.048003211617469788e-02 1.221587359905242920e-01 -7.412020117044448853e-02 -2.437074482440948486e-02 -2.609668299555778503e-02 1.379727125167846680e-01 -3.501147031784057617e-02 -3.588316263630986214e-03 -9.830585680902004242e-03 1.519679650664329529e-02 1.666465997695922852e-01 -1.697419094853103161e-03 4.992395266890525818e-02 -1.301144901663064957e-02 4.369189217686653137e-02 5.878268182277679443e-02 -3.793237358331680298e-02 1.253555119037628174e-01 -4.647221788763999939e-02 -4.838864132761955261e-02 4.912395030260086060e-02 6.748720258474349976e-02 6.552668660879135132e-02 4.643281921744346619e-02 5.927130207419395447e-02 3.225836530327796936e-02 -1.517224591225385666e-02 3.761065006256103516e-02 -5.458097904920578003e-02 -2.174561470746994019e-02 8.682416379451751709e-02 -1.863788813352584839e-02 -4.304040595889091492e-02 -1.194106489419937134e-01 3.031691722571849823e-02 5.590208247303962708e-02 -9.303450584411621094e-02 1.702268123626708984e-01 9.988982230424880981e-02 1.151444837450981140e-01 -7.268639281392097473e-03 1.043322160840034485e-01 8.476521819829940796e-02 -6.179478764533996582e-02 -1.188849434256553650e-01 1.536410301923751831e-01 1.168353185057640076e-01 2.895196527242660522e-02 3.597819886635988951e-04 -6.327033042907714844e-02 5.255683884024620056e-02 -2.343779243528842926e-02 3.442808985710144043e-02 4.152245074510574341e-02 7.500007003545761108e-02 -3.549913689494132996e-02 -6.152596324682235718e-02 -1.277298927307128906e-01 7.179505378007888794e-02 -2.026231586933135986e-02 5.283658951520919800e-02 7.903574407100677490e-02 3.998876810073852539e-01 9.770973771810531616e-02 -8.694387972354888916e-02 1.248719841241836548e-01 5.093581974506378174e-02 -5.404156818985939026e-02 -3.696025162935256958e-02 8.795775473117828369e-02 3.303374648094177246e-01 2.624153792858123779e-01 5.216020718216896057e-02 -4.900600388646125793e-02 -7.307243347167968750e-02 5.300954356789588928e-02 -2.119114808738231659e-02 4.710263106971979141e-03 4.034401476383209229e-02 -8.551380038261413574e-02 -1.656120084226131439e-02 -3.343583643436431885e-01 -1.742366105318069458e-01 -2.074933983385562897e-02 2.244001254439353943e-02 1.132058426737785339e-01 5.470114946365356445e-01 1.047525703907012939e-01 -5.222098156809806824e-02 1.595075577497482300e-01 2.627869509160518646e-02 -1.297014206647872925e-02 -9.309667348861694336e-02 3.969731330871582031e-01 5.346113443374633789e-01 5.272812843322753906e-01 3.719247281551361084e-01 -1.253672093152999878e-01 -5.823668837547302246e-02 2.885350584983825684e-02 -8.870247751474380493e-02 -3.376939147710800171e-02 -9.918841719627380371e-02 -5.117612704634666443e-02 1.788782030344009399e-01
-1.806276589632034302e-01 -3.174402415752410889e-01 9.295404702425003052e-02 1.038826163858175278e-02 -8.282034844160079956e-02 -2.239556759595870972e-01 3.841783106327056885e-02 1.963740773499011993e-02 -8.495719730854034424e-02 8.763661235570907593e-02 -3.050296101719141006e-03 -3.892779722809791565e-02 8.548071980476379395e-02 6.286042183637619019e-02 1.405528280884027481e-02 -1.729353219270706177e-01 2.154694050550460815e-01 4.639349505305290222e-02 -3.360929340124130249e-02 -1.134649589657783508e-01 -6.625974178314208984e-02 -7.468221336603164673e-02 -2.299031056463718414e-02 -7.183687388896942139e-02 -1.443596482276916504e-01 -1.897819042205810547e-01 -5.727216228842735291e-02 1.237096488475799561e-01 -3.746793419122695923e-02 -2.312673032283782959e-01 5.160609632730484009e-02 8.208837360143661499e-02 -4.469715058803558350e-03 8.658261597156524658e-02 -1.379420310258865356e-01 5.922947451472282410e-02 8.521743118762969971e-02 -7.882860489189624786e-03 -3.454906865954399109e-02 -2.299328148365020752e-01 4.634542763233184814e-02 -1.056768521666526794e-01 -7.755792140960693359e-02 7.604211568832397461e-02 3.877872973680496216e-02 -3.998277336359024048e-02 -2.341938391327857971e-02 6.316961348056793213e-02 -3.798274323344230652e-02 -9.244803339242935181e-02 -5.605594441294670105e-02 1.180020645260810852e-01 -4.301157221198081970e-02 -6.700800359249114990e-02 -1.069554984569549561e-01 3.927315399050712585e-02 -7.782766968011856079e-02 -5.527564510703086853e-02 -1.296015232801437378e-01 -3.095010295510292053e-02 1.323305070400238037e-01 -1.139496546238660812e-02 -7.472955435514450073e-02 -1.443872004747390747e-01 -6.123760342597961426e-02 -1.194596290588378906e-01 -1.103120520710945129e-01 -2.292080409824848175e-02 -4.266543686389923096e-02 -1.746497582644224167e-03 -8.062293380498886108e-02 -5.481446534395217896e-02 1.952056437730789185e-01 1.410256326198577881e-01 3.864225745201110840e-02 4.431479796767234802e-02 -8.849721401929855347e-02 1.519166827201843262e-01 -3.622740972787141800e-03 1.389804929494857788e-01 -1.601282693445682526e-02 -4.110421612858772278e-02 -1.286987364292144775e-01 -2.092488482594490051e-02 1.212128251791000366e-01 1.406219750642776489e-01 -8.319868147373199463e-02 -3.446238934993743896e-01 -1.565786600112915039e-01 -7.397595047950744629e-02 7.877904921770095825e-03 -1.407682709395885468e-02 3.269292414188385010e-02 5.622005090117454529e-02 -2.512393891811370850e-02 5.617807433009147644e-02 3.070609569549560547e-01 4.984979033470153809e-01 -3.787934407591819763e-02 2.548179216682910919e-02 -1.188568249344825745e-01 2.816963791847229004e-01 5.595175316557288170e-04 1.488790661096572876e-02 9.671774506568908691e-02 3.182709217071533203e-02 -1.764173060655593872e-01 1.530140787363052368e-01 -5.386967211961746216e-02 2.791338264942169189e-01 1.757960170507431030e-01 -3.571059107780456543e-01 -5.501732230186462402e-01 9.734876453876495361e-02 -1.714755743741989136e-01 -8.972886204719543457e-02 -6.045927107334136963e-02 1.136641278862953186e-01 1.325204409658908844e-02 1.558707002550363541e-02
4.003234505653381348e-01 1.147579550743103027e-01 6.213640328496694565e-03 -5.233069509267807007e-02 -3.772100433707237244e-02 4.350164905190467834e-02 -2.555009722709655762e-02 4.099684208631515503e-02 6.229565665125846863e-02 4.850687459111213684e-02 2.212545368820428848e-03 -6.959997117519378662e-02 3.022605478763580322e-01 -1.113394722342491150e-01 -4.624071717262268066e-02 5.197745934128761292e-02 -1.066460311412811279e-01 -3.565132152289152145e-03 -2.857624320313334465e-03 -4.360014200210571289e-02 -3.837034478783607483e-02 -4.813436791300773621e-02 -2.429034095257520676e-03 -3.819146007299423218e-02 2.098431587219238281e-01 2.010848224163055420e-01 -1.143189817667007446e-01 -2.749244309961795807e-02 -1.173335835337638855e-01 1.575790643692016602e-01 1.556545794010162354e-01 -5.049069970846176147e-02 -3.785103932023048401e-02 1.651480048894882202e-01 1.330466121435165405e-01 6.993231922388076782e-02 9.305641055107116699e-02 -1.065044701099395752e-01 2.344437129795551300e-02 -6.197718437761068344e-03 -8.177457004785537720e-02 -7.541106082499027252e-03 2.902572602033615112e-02 1.503422949463129044e-02 -2.018843032419681549e-02 1.176850125193595886e-02 -2.010916173458099365e-02 2.344134263694286346e-02 -9.831934422254562378e-02 1.869686543941497803e-01 -1.155691407620906830e-02 -3.765300661325454712e-02 -1.117978990077972412e-01 1.866144090890884399e-01 1.166911348700523376e-01 5.791244283318519592e-02 -3.308178111910820007e-02 8.867453783750534058e-03 3.484495356678962708e-02 -4.846081510186195374e-02 2.283830344676971436e-01 -1.072115600109100342e-01 -1.121698692440986633e-01 -7.646071910858154297e-02 -1.025550365447998047e-01 2.843547146767377853e-03 5.370198562741279602e-02 -5.616077408194541931e-02 -4.018284752964973450e-02 -3.445368260145187378e-02 4.439567402005195618e-02 -7.577666640281677246e-02 -4.143466949462890625e-01 1.740846186876296997e-01 -9.632634371519088745e-02 3.356510400772094727e-02 -4.232585057616233826e-02 1.583702862262725830e-01 1.881948262453079224e-01 -1.221444979310035706e-01 -4.371929913759231567e-02 7.486091554164886475e-02 2.602183446288108826e-02 1.232830341905355453e-03 1.954163759946823120e-01 -1.792136281728744507e-01 -1.212621480226516724e-01 5.688134953379631042e-02 1.315988600254058838e-02 -4.106672480702400208e-03 8.056959509849548340e-02 -1.989872194826602936e-02 1.897856406867504120e-02 -3.859762474894523621e-02 -8.597295731306076050e-02 -1.489249616861343384e-02 -8.042291998863220215e-01 6.165239214897155762e-02 -6.749324966222047806e-03 4.569388180971145630e-02 5.369329079985618591e-02 1.100996434688568115e-01 1.087631434202194214e-01 -3.268443420529365540e-02 2.391512133181095123e-02 1.066891029477119446e-01 1.720757782459259033e-01 1.058042794466018677e-01 5.456833839416503906e-01 -4.264858067035675049e-01 2.125635892152786255e-01 1.967859566211700439e-01 1.079058200120925903e-01 -9.029825031757354736e-02 -4.463931545615196228e-02 -6.856743246316909790e-02 -6.829091906547546387e-02 -9.075630456209182739e-02 -5.835732072591781616e-02 -3.477983549237251282e-02
-3.689940571784973145e-01 -5.622596293687820435e-02 -1.134237796068191528e-01 -1.223618257790803909e-02 -1.282363981008529663e-01 -3.343881294131278992e-02 -1.299597322940826416e-01 -1.517286524176597595e-02 9.843451529741287231e-02 1.595946252346038818e-01 4.168988764286041260e-02 3.274384513497352600e-02 2.420945651829242706e-02 -3.558366000652313232e-02 -6.017221510410308838e-02 6.987977027893066406e-02 1.370830694213509560e-03 5.615942552685737610e-02 -1.597043126821517944e-02 -4.293181002140045166e-02 4.619478434324264526e-02 8.658009022474288940e-02 6.328130513429641724e-02 -6.027593091130256653e-02 -3.062343001365661621e-01 1.087860092520713806e-01 -1.015157178044319153e-01 3.422722220420837402e-02 8.106474578380584717e-02 -4.628511890769004822e-02 2.320105768740177155e-02 -7.539626676589250565e-03 1.115475222468376160e-01 1.391189843416213989e-01 8.968185633420944214e-02 5.857007205486297607e-02 -2.498117508366703987e-03 -4.566441848874092102e-02 9.240881772711873055e-04 5.650821328163146973e-02 1.048349291086196899e-01 1.719974353909492493e-02 -3.464864101260900497e-03 4.670403897762298584e-02 -5.883840471506118774e-02 7.007965445518493652e-02 -2.228385023772716522e-02 -1.334246830083429813e-03 -3.393438877537846565e-03 1.574134826660156250e-02 -6.281241029500961304e-02 -1.346747428178787231e-01 8.023986965417861938e-02 -2.804493159055709839e-02 -1.105312630534172058e-01 6.928184628486633301e-02 4.231250286102294922e-02 2.342261187732219696e-02 -1.627858169376850128e-02 -2.480183355510234833e-02 1.398109495639801025e-01 1.115305721759796143e-01 5.872695520520210266e-02 2.349629811942577362e-02 -1.197987701743841171e-02 1.272279471158981323e-01 -3.330712439492344856e-03 -8.538369089365005493e-02 6.610386073589324951e-02 2.240454405546188354e-02 -9.645607788115739822e-04 -1.364007778465747833e-02 1.106116175651550293e-01 7.234137505292892456e-02 -4.403218999505043030e-02 7.532254094257950783e-04 1.889315433800220490e-02 -2.918558008968830109e-02 1.883016526699066162e-02 2.890472859144210815e-02 5.882203206419944763e-02 -2.643224596977233887e-02 -2.709630317986011505e-02 6.589471548795700073e-02 1.452665477991104126e-01 1.154733672738075256e-01 5.576286092400550842e-02 5.836262926459312439e-02 -1.923150382936000824e-02 1.464915275573730469e-01 4.513353109359741211e-02 1.725669018924236298e-02 7.600666582584381104e-02 3.506095334887504578e-02 -7.852039486169815063e-02 -7.067550439387559891e-03 4.175294935703277588e-01 3.967009484767913818e-01 -6.189664825797080994e-02 6.291377823799848557e-03 1.581925302743911743e-01 -2.574666962027549744e-02 -5.961779505014419556e-02 1.733610928058624268e-01 5.958975106477737427e-02 1.055516153573989868e-01 -1.764468662440776825e-02 8.271130919456481934e-02 4.466009736061096191e-01 2.084604650735855103e-01 1.130206324160099030e-02 2.501887679100036621e-01 -1.138233989477157593e-01 9.690265357494354248e-02 -7.271479815244674683e-02 5.651754513382911682e-02 -8.687113970518112183e-02 -2.863971749320626259e-03 -5.213408917188644409e-02 9.509909152984619141e-02
-2.684882842004299164e-02 -7.282967567443847656e-01 1.109564304351806641e-01 1.731583476066589355e-01 7.714412361383438110e-02 -5.644428133964538574e-01 1.498453766107559204e-01 -1.153901591897010803e-01 -7.872148603200912476e-02 2.682951278984546661e-02 -3.676422685384750366e-02 -7.938136905431747437e-02 -1.060810461640357971e-01 5.606796219944953918e-02 -3.721110895276069641e-02 -1.166431233286857605e-01 1.497214287519454956e-01 3.902877867221832275e-02 3.843756020069122314e-02 3.849580883979797363e-02 -1.484930980950593948e-04 4.848161339759826660e-02 -7.390955463051795959e-03 -9.358685463666915894e-03 -5.236124154180288315e-03 -3.909449279308319092e-01 5.070405453443527222e-02 1.953190118074417114e-01 3.693680837750434875e-02 -4.966738224029541016e-01 1.874400079250335693e-01 -2.220826968550682068e-02 6.005174014717340469e-03 3.272324800491333008e-02 -1.007366701960563660e-01 -8.000122755765914917e-02 -8.052210509777069092e-02 7.187490910291671753e-02 -3.582761436700820923e-02 -1.010148897767066956e-01 5.431958660483360291e-02 -3.159164637327194214e-02 4.807936400175094604e-02 -3.918635193258523941e-03 -5.453114211559295654e-02 -1.677493378520011902e-02 4.348482564091682434e-02 7.065807282924652100e-02 3.970332443714141846e-02 9.124719537794589996e-03 5.719073116779327393e-02 8.134884387254714966e-02 -1.061791647225618362e-02 -5.533374547958374023e-01 6.485833972692489624e-02 4.776288568973541260e-02 1.909817382693290710e-02 1.054637357592582703e-01 -8.549447520636022091e-04 -3.095946274697780609e-02 -1.174091175198554993e-01 9.295347332954406738e-02 6.478067487478256226e-02 -2.266957163810729980e-01 -5.704032629728317261e-02 -3.166351094841957092e-02 -1.462491601705551147e-02 2.376371622085571289e-02 -2.306579798460006714e-02 4.056914523243904114e-02 -5.615985486656427383e-03 -2.655381709337234497e-02 5.326044186949729919e-02 3.594034314155578613e-01 5.394330620765686035e-02 9.536738693714141846e-02 -6.143173668533563614e-03 -4.614464640617370605e-01 1.216479986906051636e-01 -5.655333027243614197e-02 1.078822016716003418e-01 1.122947856783866882e-01 -2.504399744793772697e-03 -7.901257276535034180e-02 -1.088070124387741089e-01 -5.627523059956729412e-04 6.247320026159286499e-02 -1.858400255441665649e-01 -1.194326877593994141e-01 -1.337184309959411621e-01 4.905779287219047546e-02 1.141738221049308777e-01 -5.603738129138946533e-02 -6.498920172452926636e-02 5.771468579769134521e-02 2.482115291059017181e-02 1.597798615694046021e-01 6.734197735786437988e-01 -2.488837763667106628e-02 1.591283679008483887e-01 -1.637351959943771362e-01 -4.328579008579254150e-01 -7.393687963485717773e-02 1.030323468148708344e-02 5.547144636511802673e-02 1.928779631853103638e-01 -1.849353611469268799e-01 2.178913541138172150e-02 -1.979766488075256348e-01 4.374623298645019531e-02 1.428270339965820312e-01 -1.348448395729064941e-01 -2.123820930719375610e-01 -5.341187492012977600e-02 1.104413717985153198e-02 -9.828620590269565582e-03 -4.160572215914726257e-02 -2.737688831984996796e-03 1.772227138280868530e-02 2.692220173776149750e-02
-1.868329346179962158e-01 5.239164456725120544e-02 -1.489062458276748657e-01 5.327225849032402039e-02 1.319368463009595871e-02 -1.435236539691686630e-02 5.596372298896312714e-03 1.184946522116661072e-01 5.174599587917327881e-02 -5.181818082928657532e-02 -1.395297423005104065e-02 5.119457468390464783e-02 -2.149630710482597351e-02 6.192060932517051697e-02 -5.873061344027519226e-02 7.862410694360733032e-02 1.294045150279998779e-01 -2.623202838003635406e-02 -2.114355750381946564e-02 -4.489151388406753540e-02 -7.244526408612728119e-03 -2.085151337087154388e-02 6.610128097236156464e-03 1.538779027760028839e-02 -8.691249042749404907e-02 3.084014728665351868e-02 -1.153875142335891724e-01 -3.850058466196060181e-02 5.701752752065658569e-02 -5.233589559793472290e-02 -9.738237410783767700e-02 1.263830065727233887e-01 4.230206087231636047e-02 -1.786832213401794434e-01 1.059398986399173737e-02 -2.882883511483669281e-02 -1.142352372407913208e-01 9.198567830026149750e-03 -2.522515133023262024e-02 4.459695518016815186e-02 2.423202246427536011e-01 2.249575033783912659e-02 -1.552159199491143227e-03 2.295514568686485291e-02 1.552502345293760300e-02 9.114278480410575867e-03 5.016039684414863586e-02 3.327069431543350220e-02 9.242454916238784790e-02 1.510605216026306152e-01 -5.782337486743927002e-02 -3.310216590762138367e-02 1.448863279074430466e-02 -4.718803986907005310e-02 -7.533717900514602661e-02 8.441209793090820312e-02 2.053534612059593201e-02 -1.616057306528091431e-01 -2.376580610871315002e-03 -1.227295622229576111e-01 9.492671489715576172e-02 -5.843025073409080505e-02 9.104070812463760376e-02 -1.914678514003753662e-02 5.070149898529052734e-02 -3.574262186884880066e-02 -2.527522109448909760e-02 5.503541976213455200e-02 7.392265368252992630e-03 3.373834118247032166e-02 7.563169300556182861e-02 -9.453285485506057739e-03 2.006359845399856567e-01 1.404289156198501587e-01 -9.917240589857101440e-02 9.174015372991561890e-03 -9.586266428232192993e-02 8.913805335760116577e-02 1.283613592386245728e-02 1.244698762893676758e-01 1.239122003316879272e-01 -1.543821841478347778e-01 -1.128327250480651855e-01 3.679910302162170410e-02 1.556262522935867310e-01 -4.672918096184730530e-02 -1.288755983114242554e-02 -2.454784363508224487e-01 7.681318558752536774e-03 -1.454644137993454933e-03 2.413976937532424927e-02 7.376760989427566528e-02 2.240957925096154213e-03 -8.575659245252609253e-03 9.746780991554260254e-02 -9.726102463901042938e-03 1.884139478206634521e-01 -1.292055845260620117e-02 -6.844472885131835938e-02 8.234989643096923828e-02 -3.369281440973281860e-02 1.869127601385116577e-01 -6.046723574399948120e-02 1.501508355140686035e-01 1.261450648307800293e-01 -2.227206081151962280e-01 -1.300858259201049805e-01 3.121999837458133698e-02 2.951675951480865479e-01 -1.361342817544937134e-01 9.390930831432342529e-02 -3.973901867866516113e-01 -2.939067184925079346e-01 -4.888739436864852905e-02 -7.104363292455673218e-02 1.644129008054733276e-01 -1.180678755044937134e-01 -1.420120615512132645e-02 5.023291707038879395e-02 -5.163841322064399719e-02
1.228564456105232239e-01 1.562433242797851562e-01 5.588655546307563782e-02 4.526835680007934570e-02 -2.393807657063007355e-02 6.082553416490554810e-02 -2.554665133357048035e-02 -8.140496164560317993e-02 5.011355504393577576e-02 -1.480733901262283325e-01 -9.114229679107666016e-02 2.139350026845932007e-02 -1.355818659067153931e-01 -1.009816117584705353e-02 3.052780404686927795e-02 1.424529105424880981e-01 3.390950337052345276e-02 2.029539830982685089e-02 -3.426932543516159058e-02 3.463126346468925476e-02 -5.428474768996238708e-02 1.702908053994178772e-02 -1.800895854830741882e-02 -2.659689402207732201e-03 -5.305581539869308472e-02 2.470778673887252808e-02 1.136962771415710449e-01 -3.336614742875099182e-02 -2.291847020387649536e-03 1.130956336855888367e-01 -1.184218126581981778e-04 7.632081955671310425e-02 5.200925841927528381e-02 -1.203292980790138245e-01 -1.291340291500091553e-01 -8.771223574876785278e-02 -4.832062125205993652e-02 -1.639011502265930176e-02 7.183366268873214722e-02 1.881365925073623657e-01 3.115011565387248993e-02 3.594607114791870117e-02 -1.417036447674036026e-02 -5.092313978821039200e-03 6.956097483634948730e-02 1.456873212009668350e-02 -1.974257454276084900e-02 -2.885896712541580200e-02 9.240175038576126099e-02 -9.020859748125076294e-02 3.510858863592147827e-02 -4.403003305196762085e-02 7.564641535282135010e-02 8.459413796663284302e-02 2.101766876876354218e-03 4.489078372716903687e-02 -5.762204900383949280e-02 -1.785861551761627197e-01 -9.044389426708221436e-02 -1.197737455368041992e-01 1.832546317018568516e-03 3.951421007513999939e-02 8.146288990974426270e-02 1.269832253456115723e-01 -6.202922016382217407e-02 2.824018709361553192e-02 -6.275437027215957642e-02 8.304901421070098877e-03 -6.090465933084487915e-02 -2.090532891452312469e-02 5.409130826592445374e-02 1.767184003256261349e-03 3.025011392310261726e-03 -3.189187645912170410e-01 -1.517540868371725082e-02 2.696028351783752441e-02 -2.700982615351676941e-02 7.245082873851060867e-03 -1.431069821119308472e-01 -2.023757994174957275e-02 4.756390675902366638e-02 -1.277320384979248047e-01 4.833285231143236160e-03 -7.504204660654067993e-02 4.516433179378509521e-02 6.453134864568710327e-02 2.879296801984310150e-02 -1.870362204499542713e-03 -5.382046476006507874e-02 -4.400498420000076294e-02 -4.159894213080406189e-02 -2.900579711422324181e-03 -5.811981856822967529e-02 2.282828465104103088e-02 -2.159465104341506958e-02 2.974583208560943604e-02 5.028854310512542725e-02 -7.893575429916381836e-01 -3.574089147150516510e-03 -3.805805742740631104e-02 6.315773725509643555e-02 1.403509676456451416e-01 -7.326216250658035278e-02 -1.132726389914751053e-02 -9.145960211753845215e-02 -1.278841793537139893e-01 -9.534116834402084351e-02 -1.602686792612075806e-01 6.242983043193817139e-02 2.391419187188148499e-02 -1.080759167671203613e-01 -2.088251262903213501e-01 -1.944603770971298218e-01 -1.105821058154106140e-01 1.639447920024394989e-02 -1.256011519581079483e-02 1.309681385755538940e-01 1.607884652912616730e-02 4.141374304890632629e-02 1.113009899854660034e-01
2.823469974100589752e-02 9.703046828508377075e-02 6.535694748163223267e-02 9.437307715415954590e-02 1.007169634103775024e-01 3.455214574933052063e-02 -1.900658756494522095e-01 -3.623040765523910522e-02 3.280650451779365540e-02 2.098853588104248047e-01 -3.156597539782524109e-02 -7.955639809370040894e-02 -1.783961653709411621e-01 1.539679616689682007e-02 1.441652141511440277e-02 2.382442951202392578e-01 2.193770110607147217e-01 6.699208170175552368e-02 2.528380416333675385e-02 -1.212872192263603210e-02 3.956426680088043213e-02 4.156690835952758789e-02 -4.737584292888641357e-02 1.786722615361213684e-02 9.613467752933502197e-02 2.061061188578605652e-02 2.092779986560344696e-02 1.160972267389297485e-01 1.051446199417114258e-01 1.076782569289207458e-01 -2.412657886743545532e-01 -2.878318727016448975e-02 8.952306956052780151e-02 1.775448173284530640e-01 -2.612440474331378937e-02 -1.611527800559997559e-02 -7.588429749011993408e-02 1.416862569749355316e-02 4.303973168134689331e-02 1.514505147933959961e-01 1.913857609033584595e-01 1.150102168321609497e-02 -9.069065004587173462e-02 -2.112894784659147263e-03 -4.283532872796058655e-02 1.943736895918846130e-02 3.391057718545198441e-03 4.429700970649719238e-02 -8.179899305105209351e-02 1.216219142079353333e-01 9.460277110338211060e-02 -2.737753279507160187e-02 1.603475809097290039e-01 7.949928194284439087e-02 -2.573539614677429199e-01 1.649907790124416351e-02 1.193721964955329895e-01 1.947428882122039795e-01 -9.442158043384552002e-02 3.072802163660526276e-02 7.884637266397476196e-02 -1.435415633022785187e-02 1.185621172189712524e-01 2.022576481103897095e-01 1.437750607728958130e-01 -1.003936901688575745e-01 -6.454337388277053833e-02 -4.659999161958694458e-03 1.084064878523349762e-02 -5.423897132277488708e-02 8.313281089067459106e-02 6.216210871934890747e-02 7.006833795458078384e-03 -7.697378285229206085e-03 7.347482442855834961e-02 1.814170926809310913e-02 1.363822370767593384e-01 7.269841432571411133e-02 -2.056857496500015259e-01 -9.821636229753494263e-02 1.222880184650421143e-01 2.410764545202255249e-01 6.009955331683158875e-02 -8.094535022974014282e-02 1.074602305889129639e-01 1.061700433492660522e-01 6.083863973617553711e-02 1.250254660844802856e-01 8.492222428321838379e-02 4.986543208360671997e-04 1.860547438263893127e-02 5.990644171833992004e-02 5.384809523820877075e-02 6.496834754943847656e-02 2.049651741981506348e-02 -3.178818849846720695e-03 2.881914190948009491e-02 1.173255816102027893e-01 -3.317274525761604309e-02 -1.786149591207504272e-01 2.044240981340408325e-01 2.962911725044250488e-01 -1.777369976043701172e-01 -3.968018293380737305e-02 -4.659005627036094666e-02 1.609327495098114014e-01 8.320903778076171875e-02 -1.112407445907592773e-01 5.617299675941467285e-01 2.337180674076080322e-01 1.746108531951904297e-01 -7.319246977567672729e-02 1.109486632049083710e-02 2.016902416944503784e-01 -1.156467571854591370e-01 5.474585294723510742e-02 3.629466146230697632e-02 1.166490986943244934e-01 2.005520649254322052e-02 -1.713719815015792847e-01
2.083956897258758545e-01 8.272193372249603271e-02 -1.041324585676193237e-01 -6.488884985446929932e-02 -8.290541172027587891e-02 8.941475301980972290e-02 8.493694663047790527e-02 -1.743098199367523193e-01 -4.653546586632728577e-02 3.991717472672462463e-02 8.072969317436218262e-02 1.513685882091522217e-01 -1.104717254638671875e-01 -9.945418685674667358e-02 2.476954832673072815e-02 1.888415813446044922e-01 -1.530285477638244629e-01 1.328763514757156372e-01 -6.802506744861602783e-02 1.099431887269020081e-02 -8.127699792385101318e-02 -8.191327750682830811e-02 -4.613883420825004578e-02 1.072055399417877197e-01 2.720730006694793701e-01 1.508502066135406494e-01 -5.845623835921287537e-02 -2.839696407318115234e-02 -6.098989024758338928e-02 7.799231261014938354e-02 -1.277023646980524063e-02 -7.348918169736862183e-02 -6.342881917953491211e-02 9.482037276029586792e-02 -6.954893004149198532e-03 1.107755228877067566e-01 -1.026815325021743774e-01 -9.623990952968597412e-02 -3.540316596627235413e-02 2.500891387462615967e-01 -2.863103747367858887e-01 3.912921622395515442e-02 -8.838828653097152710e-02 6.160171329975128174e-02 -7.099629193544387817e-02 -6.427247822284698486e-02 -1.297945827245712280e-01 2.273242361843585968e-02 3.119994103908538818e-01 4.521773755550384521e-02 -5.554613471031188965e-02 1.817510463297367096e-02 7.933921366930007935e-02 9.661756455898284912e-02 7.218213379383087158e-02 7.238093763589859009e-02 -6.665093451738357544e-02 3.085755184292793274e-02 -1.146968528628349304e-01 1.222002953290939331e-01 8.498859405517578125e-02 -1.468956004828214645e-02 5.391788110136985779e-02 6.171036139130592346e-02 -3.131590187549591064e-01 -4.275981336832046509e-02 -1.039534062147140503e-01 -4.453155770897865295e-02 -6.701921671628952026e-02 -1.000902522355318069e-02 -2.227232232689857483e-02 2.920892275869846344e-02 3.500863015651702881e-01 1.797053664922714233e-01 6.542374845594167709e-03 1.108217537403106689e-01 -3.891437128186225891e-02 2.693766951560974121e-01 3.023604489862918854e-02 -2.126293443143367767e-02 7.960146665573120117e-02 5.330711603164672852e-02 -1.034769415855407715e-01 1.167756617069244385e-01 1.138758584856987000e-01 -2.191009745001792908e-02 -9.280033409595489502e-02 1.379010151140391827e-03 -3.010348677635192871e-01 -1.203965470194816589e-01 -4.837747663259506226e-02 4.149756208062171936e-02 -8.316135406494140625e-02 -9.923365712165832520e-02 -5.000718683004379272e-02 -4.924903437495231628e-02 1.676063835620880127e-01 4.320430010557174683e-02 -4.578682780265808105e-02 1.796898543834686279e-01 -2.741831541061401367e-02 3.955586552619934082e-01 1.004694327712059021e-01 -5.993263795971870422e-02 4.425814375281333923e-02 2.821389026939868927e-02 -2.092201113700866699e-01 1.752388626337051392e-01 3.805830180644989014e-01 1.053865626454353333e-01 1.006557941436767578e-01 -7.393223792314529419e-02 -5.957983732223510742e-01 -2.217852771282196045e-01 -1.745738089084625244e-01 1.345668584108352661e-01 -9.962891787290573120e-02 -1.359283778583630919e-04 8.671575225889682770e-03 -1.415732353925704956e-01
2.706428170204162598e-01 1.098536476492881775e-01 -1.310763601213693619e-02 3.733651712536811829e-02 8.059814572334289551e-02 -1.002057492733001709e-01 1.314091235399246216e-01 -1.100737974047660828e-01 -1.608208008110523224e-02 6.860129535198211670e-02 -5.548734962940216064e-02 -1.830698363482952118e-02 -6.117818877100944519e-03 -2.352156937122344971e-01 6.993037462234497070e-02 1.006291434168815613e-01 3.083599358797073364e-02 -3.658578917384147644e-02 3.638460859656333923e-02 2.531564608216285706e-02 3.004224784672260284e-02 -1.150998100638389587e-02 6.152608618140220642e-02 -3.940259292721748352e-02 1.764523386955261230e-01 5.256070941686630249e-02 -6.865139305591583252e-02 -1.888329535722732544e-02 -5.652919039130210876e-02 -8.788564056158065796e-02 1.049011051654815674e-01 -1.353787779808044434e-01 -5.872650817036628723e-02 1.018107384443283081e-01 -2.879945561289787292e-02 -6.395155936479568481e-02 -9.322237968444824219e-02 -1.990318000316619873e-01 -7.901053875684738159e-02 -1.727072522044181824e-02 1.601062901318073273e-02 -5.755081772804260254e-02 6.970949470996856689e-02 -6.311332806944847107e-03 6.126838177442550659e-02 -2.094898559153079987e-02 2.207776159048080444e-02 1.777529902756214142e-02 -6.840628571808338165e-03 1.864145845174789429e-01 7.098438590764999390e-02 1.383200380951166153e-02 4.010241106152534485e-02 3.170010447502136230e-02 4.445306211709976196e-02 -7.191698253154754639e-02 -2.318713068962097168e-02 7.979485392570495605e-02 -1.226247171871364117e-03 3.230966627597808838e-02 6.167202070355415344e-02 -2.729225158691406250e-01 1.153340265154838562e-01 5.907032638788223267e-02 1.972313225269317627e-02 -1.087019070982933044e-01 1.020649671554565430e-01 5.632822215557098389e-02 -1.211924850940704346e-02 -1.488438807427883148e-02 -2.036077529191970825e-02 1.430162042379379272e-02 -1.469743996858596802e-01 2.655169069766998291e-01 -9.806491434574127197e-02 -5.082917958498001099e-02 1.849538236856460571e-01 2.692089378833770752e-01 7.258687913417816162e-02 -1.404586881399154663e-01 1.199585795402526855e-01 1.461405307054519653e-01 -2.491499483585357666e-02 -4.854682460427284241e-02 1.174726411700248718e-01 -2.828283011913299561e-01 1.575491279363632202e-01 9.098584949970245361e-02 -1.718616038560867310e-01 1.394793204963207245e-02 7.501054555177688599e-02 -2.966491039842367172e-03 -3.889613971114158630e-02 9.616971760988235474e-02 -5.598080158233642578e-02 2.627729997038841248e-02 -4.146288335323333740e-01 1.888113170862197876e-01 -9.630515426397323608e-02 1.124395504593849182e-01 9.752000868320465088e-02 2.136887758970260620e-01 1.552391052246093750e-01 -3.429824411869049072e-01 2.226574867963790894e-01 1.878136545419692993e-01 6.367326527833938599e-02 4.506426304578781128e-02 4.508585631847381592e-01 -3.612670004367828369e-01 2.130793184041976929e-01 2.955203056335449219e-01 -2.619711160659790039e-01 -7.184087485074996948e-02 -6.393253803253173828e-02 1.518385112285614014e-02 -9.021899104118347168e-02 3.927903622388839722e-02 1.801877468824386597e-02 -7.201382517814636230e-02
9.438559412956237793e-02 3.245620429515838623e-01 1.812364906072616577e-02 -1.531516164541244507e-01 -6.092464923858642578e-02 -3.079956471920013428e-01 -2.657677978277206421e-02 4.086923599243164062e-02 -4.430713877081871033e-02 -1.141635584644973278e-03 -4.495587199926376343e-02 -7.068619132041931152e-02 -3.264818713068962097e-02 1.073226891458034515e-02 6.560330837965011597e-02 -1.433698683977127075e-01 -9.004231542348861694e-02 8.529288321733474731e-02 3.743987530469894409e-02 -1.002719346433877945e-02 3.312386572360992432e-02 -6.012461706995964050e-02 -2.312106825411319733e-02 3.507583960890769958e-02 1.597524285316467285e-01 3.492011502385139465e-02 3.126836568117141724e-02 2.874508686363697052e-02 8.189819753170013428e-02 -2.901948094367980957e-01 2.161864563822746277e-02 9.639269858598709106e-02 5.308359488844871521e-02 -9.047677367925643921e-02 3.279494494199752808e-02 4.658138379454612732e-02 5.711999163031578064e-02 -1.068203300237655640e-01 -4.459961876273155212e-02 5.457232892513275146e-02 -1.493933051824569702e-01 9.024791419506072998e-02 -1.873502880334854126e-02 -6.574753671884536743e-02 -1.552351471036672592e-02 2.078766748309135437e-02 -8.454888593405485153e-04 1.527248043566942215e-02 -6.805550307035446167e-03 -6.701023131608963013e-02 3.546305000782012939e-03 -7.416956126689910889e-02 1.105766370892524719e-01 -7.215769588947296143e-02 9.978587180376052856e-02 1.012972816824913025e-01 2.509741857647895813e-02 -1.401146501302719116e-01 -6.645215302705764771e-02 4.866632446646690369e-02 1.453832723200321198e-02 -5.342495813965797424e-02 -5.058578401803970337e-02 -4.125322028994560242e-02 -2.808560729026794434e-01 -3.509898856282234192e-02 4.678644612431526184e-02 1.883087307214736938e-02 -3.038060851395130157e-02 -8.705451339483261108e-02 7.981843315064907074e-03 -5.978410318493843079e-02 -3.856632113456726074e-02 -1.786264032125473022e-01 -5.443002097308635712e-03 3.898777067661285400e-02 2.250979654490947723e-02 -5.396061390638351440e-02 1.193438097834587097e-01 4.591621831059455872e-02 -6.765091419219970703e-02 -6.773465871810913086e-02 -1.335937678813934326e-01 -3.805456683039665222e-02 4.615778848528862000e-02 3.567245602607727051e-02 3.255992382764816284e-02 -1.555850952863693237e-01 -4.807049036026000977e-01 3.344155475497245789e-02 -4.700785130262374878e-02 5.824954435229301453e-02 6.371510680764913559e-03 -1.173340752720832825e-01 -3.134908899664878845e-02 -5.304108932614326477e-02 -1.243571490049362183e-01 -3.432743251323699951e-01 -2.092200145125389099e-02 -3.689486533403396606e-02 4.614656418561935425e-02 1.441043019294738770e-01 1.558043956756591797e-01 -6.911978125572204590e-02 3.465776145458221436e-02 -1.791581660509109497e-01 -1.228961944580078125e-01 -2.407985180616378784e-02 3.043285608291625977e-01 5.373994261026382446e-02 -4.142519086599349976e-02 -3.245852589607238770e-01 -7.722370028495788574e-01 1.368915289640426636e-01 -2.328451164066791534e-02 3.253671526908874512e-02 -4.108317941427230835e-02 1.405652314424514771e-01 7.900094240903854370e-02 -1.433578599244356155e-02
-2.134158313274383545e-01 -4.011020064353942871e-02 -4.177721962332725525e-02 5.887319520115852356e-02 4.546876996755599976e-02 -3.193813264369964600e-01 -6.332792807370424271e-03 -6.592094898223876953e-02 -1.056878492236137390e-01 -5.362706258893013000e-02 1.888659782707691193e-02 8.268690854310989380e-02 -1.954364124685525894e-03 2.588839270174503326e-02 6.772845238447189331e-02 -2.594675868749618530e-02 3.607585653662681580e-02 -1.000404008664190769e-03 -2.946787048131227493e-03 4.347664117813110352e-02 -3.939366340637207031e-02 -1.194915920495986938e-02 -2.133126370608806610e-03 -2.820843458175659180e-02 -3.895402327179908752e-02 1.087643280625343323e-01 -6.852529197931289673e-02 4.169592633843421936e-02 3.166782110929489136e-02 -2.722449302673339844e-01 -7.419862598180770874e-02 -1.105938181281089783e-01 -7.176975905895233154e-02 -1.043489873409271240e-01 -2.634719945490360260e-02 -6.812261790037155151e-02 -6.976950168609619141e-02 1.197378560900688171e-01 -3.052942082285881042e-02 -4.714684560894966125e-02 1.469140499830245972e-01 2.387909404933452606e-02 -3.961144387722015381e-02 2.948908321559429169e-02 -3.448161482810974121e-02 3.009462542831897736e-02 -1.649982854723930359e-02 1.144559029489755630e-02 2.435445040464401245e-02 3.034513443708419800e-02 6.435588002204895020e-02 3.039726288989186287e-03 -1.561763416975736618e-02 -1.794772408902645111e-02 -1.394202373921871185e-02 -5.877570435404777527e-02 -6.115919351577758789e-02 -9.876409173011779785e-02 -1.150806434452533722e-02 -4.142356291413307190e-02 -3.402033448219299316e-02 2.381757050752639771e-01 1.159282326698303223e-01 -1.230793148279190063e-01 4.538529552519321442e-03 -3.793288767337799072e-02 4.394895955920219421e-02 2.103637345135211945e-02 -3.314387798309326172e-02 -2.127263322472572327e-02 8.083802647888660431e-03 -4.368428140878677368e-03 3.284257352352142334e-01 -9.266390651464462280e-02 -7.919853925704956055e-02 1.051570773124694824e-01 -8.379810303449630737e-02 1.942755430936813354e-01 -6.164966896176338196e-02 -7.149660587310791016e-02 1.184200197458267212e-01 -7.653301209211349487e-02 1.612506359815597534e-01 7.846907526254653931e-02 3.836466372013092041e-02 3.002164959907531738e-01 1.142878308892250061e-01 -1.199336946010589600e-01 -4.034881666302680969e-02 -4.496044293045997620e-02 -3.589623840525746346e-03 1.566490158438682556e-02 1.714296452701091766e-02 -7.012505829334259033e-02 5.513433832675218582e-03 1.558925490826368332e-03 5.738748311996459961e-01 -1.405969560146331787e-01 7.562543451786041260e-02 -3.437663987278938293e-02 4.748815670609474182e-02 4.673300981521606445e-01 -1.508752107620239258e-01 -6.061161309480667114e-02 1.231641918420791626e-01 -1.586050093173980713e-01 9.221474081277847290e-02 -5.291137471795082092e-02 -2.468599937856197357e-02 3.718196153640747070e-01 4.822753369808197021e-01 2.759306319057941437e-02 -5.284027382731437683e-02 -1.464515626430511475e-01 3.526968508958816528e-02 3.377603739500045776e-02 8.186608552932739258e-03 -4.234198480844497681e-02 1.196715980768203735e-02 1.428873986005783081e-01
-4.053939580917358398e-01 2.360172271728515625e-01 -3.231713920831680298e-02 2.999441698193550110e-03 2.782947197556495667e-02 4.249808192253112793e-02 -2.318755351006984711e-02 -6.390585750341415405e-02 -1.521559897810220718e-02 6.085494533181190491e-02 -2.371263504028320312e-02 6.566215306520462036e-02 1.862859725952148438e-01 2.056987881660461426e-01 9.790819138288497925e-02 3.571237251162528992e-02 -7.302194088697433472e-02 1.639095693826675415e-01 -6.008382886648178101e-02 -8.447840809822082520e-02 1.019533798098564148e-01 -3.218455240130424500e-02 3.291198983788490295e-02 -6.429659575223922729e-02 -2.798243761062622070e-01 2.133263051509857178e-01 1.731343194842338562e-02 6.926173716783523560e-02 3.997945412993431091e-02 9.161109477281570435e-02 9.058595448732376099e-02 -5.090472474694252014e-02 9.548207372426986694e-02 -4.092392046004533768e-03 4.145454242825508118e-02 -3.625045716762542725e-02 2.291162870824337006e-02 1.887773722410202026e-01 -3.212038427591323853e-02 3.267598152160644531e-02 -1.272407472133636475e-01 1.230020374059677124e-01 1.356879435479640961e-02 -7.155421376228332520e-02 -2.891607582569122314e-02 -1.594547182321548462e-02 4.800616577267646790e-02 -4.480183497071266174e-02 -1.224226504564285278e-02 2.212627232074737549e-01 8.312899619340896606e-03 7.025545835494995117e-02 3.680383786559104919e-02 2.224044799804687500e-01 2.119477093219757080e-02 7.558389008045196533e-02 1.625136733055114746e-01 -1.523414906114339828e-02 1.642655953764915466e-02 -7.114952802658081055e-02 1.022773981094360352e-01 2.360166460275650024e-01 2.733250521123409271e-02 1.006162241101264954e-01 3.056675195693969727e-03 4.967063292860984802e-02 -1.404119888320565224e-03 6.906697154045104980e-02 2.513246610760688782e-02 -3.382224217057228088e-02 1.245810533873736858e-03 -7.379254698753356934e-02 1.905451416969299316e-01 -8.228825777769088745e-02 1.029263734817504883e-01 -1.028343569487333298e-02 6.978391855955123901e-02 4.169929623603820801e-01 3.924503922462463379e-02 1.233301907777786255e-01 1.165967434644699097e-01 1.407491415739059448e-01 -6.040449067950248718e-02 -1.183375250548124313e-02 1.369434595108032227e-01 3.558379411697387695e-01 7.294975221157073975e-02 2.603977918624877930e-02 -1.025945618748664856e-01 3.844783082604408264e-02 -1.303641498088836670e-01 7.419265806674957275e-03 1.105262786149978638e-01 -1.618524640798568726e-02 2.178954705595970154e-02 4.282149672508239746e-02 4.894353747367858887e-01 -2.647169232368469238e-01 5.711757391691207886e-02 -5.700617656111717224e-02 1.449660360813140869e-01 5.462495684623718262e-01 1.646864861249923706e-01 1.677698642015457153e-01 1.007481142878532410e-01 1.845015138387680054e-01 -4.517563059926033020e-02 -9.374605119228363037e-02 3.142395019531250000e-01 4.846270680427551270e-01 1.444590538740158081e-01 4.348070174455642700e-02 -3.874412924051284790e-02 -5.620110407471656799e-02 -3.856473043560981750e-02 -5.042864382266998291e-02 1.015301328152418137e-02 -5.532904714345932007e-02 -6.004037708044052124e-02 1.487697809934616089e-01
-3.182290196418762207e-01 1.887090653181076050e-01 5.180970579385757446e-02 9.390280395746231079e-02 5.747598409652709961e-02 1.367085278034210205e-01 5.407694727182388306e-02 -1.158576682209968567e-01 5.074790865182876587e-02 5.581843107938766479e-02 6.253254413604736328e-02 -8.158887177705764771e-02 1.224844604730606079e-01 1.043389141559600830e-01 -5.130666866898536682e-02 2.039865553379058838e-01 2.207604795694351196e-01 1.186038628220558167e-01 -1.826152205467224121e-02 -5.083467438817024231e-02 2.730767801403999329e-02 -3.490393608808517456e-02 4.530618712306022644e-02 -4.787125438451766968e-02 -2.077036648988723755e-01 1.698142848908901215e-02 1.948880404233932495e-02 1.322977542877197266e-01 5.802643671631813049e-02 1.612348407506942749e-01 2.490937337279319763e-02 -1.535929292440414429e-01 1.034966930747032166e-01 -2.186751225963234901e-03 5.396314710378646851e-02 -8.267874270677566528e-02 -3.457617387175559998e-02 -7.692385464906692505e-02 4.947931319475173950e-02 9.503847360610961914e-02 9.464029222726821899e-02 3.804070502519607544e-02 -1.764395833015441895e-02 1.162201073020696640e-02 4.011169448494911194e-02 -4.439812153577804565e-02 -5.224336564424447715e-05 4.558147117495536804e-02 -1.193635910749435425e-01 -7.414251565933227539e-02 8.326841890811920166e-02 6.574752181768417358e-02 -4.155148193240165710e-02 1.523009985685348511e-01 1.282133162021636963e-01 -1.640868782997131348e-01 9.041190147399902344e-02 -8.898308500647544861e-03 1.039723902940750122e-01 2.516284584999084473e-03 7.379516959190368652e-02 -1.656611263751983643e-01 7.994102686643600464e-02 1.267733573913574219e-01 -2.124659717082977295e-03 2.671603299677371979e-02 2.638074802234768867e-03 2.568964473903179169e-02 6.002050638198852539e-02 1.242525130510330200e-01 8.814461529254913330e-02 7.995964586734771729e-02 1.372926086187362671e-01 -3.076545000076293945e-01 7.959847338497638702e-03 -2.442214265465736389e-02 2.664063312113285065e-02 1.003495901823043823e-01 1.280772835016250610e-01 -9.483098238706588745e-02 1.289791613817214966e-01 6.588160991668701172e-02 1.507106572389602661e-01 9.136267006397247314e-03 2.420908398926258087e-02 -2.578476369380950928e-01 4.679283872246742249e-02 -4.097468033432960510e-02 6.805182248353958130e-02 1.359485983848571777e-01 1.551068201661109924e-02 -4.757751151919364929e-02 2.537533175200223923e-03 3.471108898520469666e-02 7.666125893592834473e-03 -2.007924579083919525e-02 2.016211301088333130e-01 -5.537525415420532227e-01 -4.180262610316276550e-02 -2.414694987237453461e-02 1.508983224630355835e-01 5.831983685493469238e-02 5.617187544703483582e-02 -6.272955238819122314e-02 9.961351752281188965e-02 -3.544492274522781372e-02 1.640382111072540283e-01 4.872480407357215881e-02 2.675235271453857422e-02 -4.397760033607482910e-01 1.718646585941314697e-01 -1.347332149744033813e-01 2.436892092227935791e-01 1.675639301538467407e-02 -1.797925829887390137e-01 9.552981704473495483e-02 -7.656433433294296265e-02 3.951009362936019897e-02 -6.711738556623458862e-02 1.301559507846832275e-01
3.434793949127197266e-01 -7.238872349262237549e-03 4.785101488232612610e-02 -1.189855299890041351e-02 2.109890989959239960e-02 -1.728294044733047485e-02 3.189019113779067993e-02 2.451114915311336517e-02 -3.446193039417266846e-02 1.796566992998123169e-01 -1.210406646132469177e-01 3.557544946670532227e-02 -2.005216106772422791e-02 -2.968768179416656494e-01 7.125572115182876587e-02 2.300659269094467163e-01 -8.147291839122772217e-02 2.998400852084159851e-02 3.935478453058749437e-04 -3.862641006708145142e-02 6.717722862958908081e-02 9.242686629295349121e-02 3.545370697975158691e-02 -3.506716340780258179e-02 3.458969593048095703e-01 3.227625787258148193e-02 -1.533660851418972015e-02 4.391088616102933884e-03 -3.449508547782897949e-02 -1.609419435262680054e-01 -9.127226471900939941e-02 -1.149597670882940292e-02 3.327603638172149658e-02 1.909714043140411377e-01 -2.970396727323532104e-02 8.836453408002853394e-02 -8.527851104736328125e-02 -2.061977386474609375e-01 2.123101800680160522e-02 1.591030210256576538e-01 -7.401368767023086548e-02 8.297079242765903473e-03 4.152721911668777466e-02 -1.932695694267749786e-02 -2.693986147642135620e-02 1.326157944276928902e-03 -5.079033598303794861e-02 -5.852133780717849731e-02 3.080969750881195068e-01 6.036427989602088928e-02 -1.279936172068119049e-02 -1.635567657649517059e-02 7.265342772006988525e-02 -1.931573897600173950e-01 -4.057726263999938965e-02 -9.475240856409072876e-02 -3.016663342714309692e-02 2.174474149942398071e-01 1.459719426929950714e-02 -4.370229318737983704e-02 2.073270268738269806e-02 -3.222300112247467041e-01 3.373104706406593323e-02 -3.196513652801513672e-02 -5.133451893925666809e-02 -9.712693840265274048e-02 5.863897129893302917e-02 -6.866201013326644897e-02 5.880272760987281799e-02 6.021296605467796326e-02 -7.748002652078866959e-03 5.392072722315788269e-02 3.589324355125427246e-01 -1.769573688507080078e-01 -5.475409328937530518e-02 7.109946012496948242e-02 1.895890198647975922e-02 -1.654040217399597168e-01 -7.037080079317092896e-02 -2.148290723562240601e-02 -1.117587909102439880e-01 1.789330244064331055e-01 -7.394391298294067383e-02 -2.311251312494277954e-02 1.815932989120483398e-02 -2.717531025409698486e-01 -7.502330094575881958e-02 -4.813610389828681946e-02 9.851118922233581543e-02 5.349575355648994446e-02 -3.740470856428146362e-03 -3.797788918018341064e-02 -2.850295603275299072e-02 -3.798895701766014099e-02 5.343933776021003723e-02 -1.204237900674343109e-02 3.199823200702667236e-01 -1.150925979018211365e-01 6.176393479108810425e-02 9.164870530366897583e-02 1.445854306221008301e-01 -3.931444585323333740e-01 -3.864318132400512695e-02 -1.340610384941101074e-01 -1.038020700216293335e-01 1.630985438823699951e-01 -1.389747560024261475e-01 1.515463441610336304e-01 2.154867649078369141e-01 -4.752508997917175293e-01 -2.741312384605407715e-01 -8.540121465921401978e-02 -2.822148613631725311e-02 5.852291360497474670e-02 8.714810013771057129e-02 -1.490424852818250656e-02 2.549750916659832001e-02 -5.217034369707107544e-02 9.085981547832489014e-02 -5.053475871682167053e-02
-2.527386844158172607e-01 -2.941297292709350586e-01 6.112857162952423096e-02 -4.160611331462860107e-02 1.811417634598910809e-03 -5.255266558378934860e-03 -1.593990996479988098e-02 -6.185613572597503662e-02 8.893188089132308960e-02 6.642177235335111618e-03 -9.922325611114501953e-03 1.471379771828651428e-02 -6.800022721290588379e-02 -4.659187793731689453e-02 1.010249182581901550e-01 1.394363492727279663e-02 -1.290098875761032104e-01 -6.126706954091787338e-03 5.433686822652816772e-02 -7.833377271890640259e-02 1.995895244181156158e-02 -8.053699880838394165e-02 1.982999220490455627e-02 1.843826100230216980e-02 -6.727938354015350342e-02 -2.275581657886505127e-01 -1.831807382404804230e-02 7.556983083486557007e-02 -1.895864680409431458e-02 -9.765339642763137817e-02 -1.355016529560089111e-01 4.178297892212867737e-02 1.170729324221611023e-01 9.610823541879653931e-02 3.896579518914222717e-02 -3.945753350853919983e-02 -1.495879590511322021e-01 9.159664064645767212e-02 -2.806801535189151764e-02 1.597606986761093140e-01 -1.831710897386074066e-02 -6.420292705297470093e-02 1.159998029470443726e-02 -2.181615121662616730e-02 2.459774352610111237e-02 -5.824190750718116760e-02 9.039997309446334839e-02 1.099228858947753906e-01 1.385199725627899170e-01 2.312218304723501205e-03 5.795390531420707703e-02 -3.447226062417030334e-02 -1.284952759742736816e-01 6.612113118171691895e-02 -6.497304141521453857e-02 1.149338930845260620e-01 1.299783438444137573e-01 1.305678784847259521e-01 8.310718089342117310e-02 4.407178144901990891e-03 -1.388471424579620361e-01 6.065906956791877747e-02 1.198377385735511780e-01 2.631199955940246582e-01 -2.889239462092518806e-03 -2.476574853062629700e-02 -7.330854237079620361e-02 8.447782136499881744e-03 -4.629969969391822815e-02 -4.335942864418029785e-02 4.304971918463706970e-02 -4.576403275132179260e-02 1.308757215738296509e-01 1.911675930023193359e-01 -3.056113980710506439e-02 -1.013454198837280273e-01 -1.117846742272377014e-02 1.365801244974136353e-01 3.854780271649360657e-02 -4.972959682345390320e-02 1.182831376791000366e-01 1.063946485519409180e-01 1.035804003477096558e-01 -8.931809104979038239e-03 -1.362345367670059204e-01 -4.576739296317100525e-02 1.008658856153488159e-01 3.296697735786437988e-01 3.517152741551399231e-02 -5.283812806010246277e-02 4.507690668106079102e-03 7.039867341518402100e-02 -5.586303398013114929e-02 -7.282723486423492432e-02 -1.899485068861395121e-04 -1.380888000130653381e-02 3.090208470821380615e-01 1.833247393369674683e-01 6.545384973287582397e-02 -3.961614891886711121e-02 2.233018912374973297e-02 2.191336899995803833e-01 -4.363551363348960876e-02 1.150157228112220764e-01 1.175110861659049988e-01 1.390337944030761719e-01 1.066850274801254272e-01 -6.138568744063377380e-02 -3.527878224849700928e-01 8.553039282560348511e-03 1.872379779815673828e-01 2.737362980842590332e-01 -1.529204100370407104e-01 2.382596731185913086e-01 1.119890809059143066e-02 9.449514746665954590e-02 7.585194706916809082e-02 -5.810777842998504639e-02 4.999276623129844666e-02 1.104358583688735962e-03
-4.855808243155479431e-02 3.760825097560882568e-02 6.908580660820007324e-02 -2.244356833398342133e-02 1.815196685492992401e-02 6.364031881093978882e-02 -1.386075317859649658e-01 -5.059186369180679321e-02 -3.680099500343203545e-03 1.245237812399864197e-01 5.475407838821411133e-02 4.192129895091056824e-02 1.979880221188068390e-02 -4.559411667287349701e-03 -7.543400675058364868e-02 1.268087774515151978e-01 -1.568333990871906281e-02 -1.781312376260757446e-02 -1.054802164435386658e-01 -3.037763386964797974e-02 1.929501444101333618e-02 6.068920344114303589e-02 8.427894115447998047e-02 -3.681838139891624451e-02 -3.340948373079299927e-02 1.076641529798507690e-01 3.122087195515632629e-02 -2.722216211259365082e-02 -2.162523567676544189e-02 -9.328304231166839600e-02 -4.591467604041099548e-02 -1.510137766599655151e-01 9.550353884696960449e-02 9.640688449144363403e-02 7.976693660020828247e-02 -5.099617410451173782e-03 -4.164901748299598694e-02 2.747344970703125000e-02 -2.040385268628597260e-02 5.304898950271308422e-04 -4.005101695656776428e-02 -4.348622635006904602e-02 4.862844012677669525e-03 -3.240883233956992626e-05 -6.748088449239730835e-02 -7.583568990230560303e-02 8.312122523784637451e-02 -3.775368630886077881e-02 1.430258061736822128e-02 -6.792859733104705811e-02 1.611169427633285522e-02 2.234827540814876556e-02 1.130045298486948013e-02 -1.472295969724655151e-01 -9.862373769283294678e-02 -1.482645124197006226e-01 6.566128879785537720e-02 1.021369174122810364e-01 -9.538295120000839233e-02 -2.265930175781250000e-02 -5.021691694855690002e-02 -1.242081746459007263e-01 -2.687908150255680084e-02 1.384466439485549927e-01 1.023194566369056702e-01 5.931152030825614929e-02 -9.007272869348526001e-02 -2.081405185163021088e-02 -7.068025320768356323e-02 6.854527443647384644e-02 5.033650621771812439e-02 6.060191988945007324e-02 7.922747731208801270e-02 5.915990844368934631e-02 9.108273684978485107e-02 -7.578734308481216431e-02 1.598601974546909332e-02 -1.697173714637756348e-01 -5.840883776545524597e-02 -1.462089121341705322e-01 -4.888703301548957825e-02 1.432872116565704346e-01 2.177970297634601593e-02 -5.981231480836868286e-02 -3.651624321937561035e-01 5.845211073756217957e-02 -1.739086210727691650e-02 1.705961227416992188e-01 1.622445136308670044e-01 5.055104196071624756e-02 -1.960685700178146362e-01 -1.311098635196685791e-01 7.277690619230270386e-02 2.090827189385890961e-02 3.012909367680549622e-02 2.234385162591934204e-02 -4.029991477727890015e-02 -1.373933702707290649e-01 -2.088648825883865356e-02 1.210714131593704224e-02 -1.097463145852088928e-01 -8.579190820455551147e-02 -1.521211415529251099e-01 -1.783379316329956055e-01 -8.631584793329238892e-02 1.999623924493789673e-01 8.385469764471054077e-02 -5.908023938536643982e-02 -5.113912224769592285e-01 1.201552432030439377e-02 4.558200389146804810e-02 2.770334780216217041e-01 2.645398378372192383e-01 -1.036932542920112610e-01 -1.323055326938629150e-01 -2.692248113453388214e-02 -1.057317629456520081e-01 7.307577412575483322e-03 -1.033845841884613037e-01 1.920981556177139282e-01
-1.257344335317611694e-01 -3.058361709117889404e-01 5.142353475093841553e-02 -2.405344712315127254e-04 7.214139401912689209e-02 7.198277860879898071e-02 -4.398182779550552368e-02 4.598617553710937500e-02 -2.366613782942295074e-02 -8.977111428976058960e-02 -5.141414329409599304e-02 4.607617110013961792e-02 -3.786085173487663269e-02 7.451676297932863235e-03 5.682661011815071106e-02 -1.173936799168586731e-01 -3.236004710197448730e-02 8.547684550285339355e-02 2.552824327722191811e-03 1.029016524553298950e-01 2.688934467732906342e-02 -2.465421892702579498e-02 6.427794229239225388e-03 8.113822340965270996e-02 -1.274215728044509888e-01 -2.693881094455718994e-01 -5.573843047022819519e-02 -1.147786341607570648e-02 4.422368481755256653e-02 -9.405664354562759399e-02 6.041115894913673401e-02 -5.016533285379409790e-02 -7.786007970571517944e-02 -1.737574115395545959e-02 2.052851952612400055e-02 7.489424198865890503e-02 -7.964302599430084229e-02 3.350710868835449219e-02 1.021676231175661087e-02 2.504333481192588806e-02 1.313585638999938965e-01 7.991219311952590942e-02 4.317478835582733154e-02 -3.967225924134254456e-02 4.353179037570953369e-02 7.289971411228179932e-02 -1.063472405076026917e-01 6.921170651912689209e-02 2.499577216804027557e-02 3.609710931777954102e-02 2.891557663679122925e-02 2.765068970620632172e-02 -4.892832040786743164e-02 -9.636984765529632568e-02 1.172194071114063263e-02 -4.324527457356452942e-02 -8.368291705846786499e-02 -1.035890430212020874e-01 1.290159821510314941e-01 -8.177076466381549835e-03 -9.138278663158416748e-02 1.216978486627340317e-02 9.957627207040786743e-02 4.618176445364952087e-02 7.295075803995132446e-02 1.843716353178024292e-01 -6.063259765505790710e-02 7.648444175720214844e-02 2.272895351052284241e-02 -3.598479181528091431e-02 4.949974268674850464e-02 2.501728385686874390e-02 2.214924395084381104e-01 3.390138149261474609e-01 1.176406443119049072e-02 -1.060185488313436508e-02 4.637716338038444519e-02 -1.123720556497573853e-01 -1.724351383745670319e-02 4.783490300178527832e-02 -2.844277024269104004e-02 -2.606220729649066925e-02 1.168137639760971069e-01 1.743386536836624146e-01 -6.901751458644866943e-02 -7.748562842607498169e-02 4.544939845800399780e-02 6.075993552803993225e-02 4.167870059609413147e-02 1.979608386754989624e-01 -5.771779268980026245e-02 -2.367992699146270752e-02 2.370915189385414124e-02 9.328537434339523315e-02 -2.881703898310661316e-03 -2.094589546322822571e-02 3.765700757503509521e-01 7.932006716728210449e-01 4.833414033055305481e-02 2.255553379654884338e-02 -3.331425413489341736e-02 -1.343857795000076294e-01 -1.574380137026309967e-02 -6.190107762813568115e-02 1.102159637957811356e-02 -1.101349070668220520e-01 -2.717530168592929840e-02 2.635743916034698486e-01 -7.190081477165222168e-02 -4.961740225553512573e-02 -6.416550278663635254e-02 1.415440887212753296e-01 4.552876204252243042e-02 8.935321122407913208e-02 -1.335305906832218170e-02 7.025066018104553223e-02 1.909856311976909637e-02 -2.288328669965267181e-02 1.115463450551033020e-01 -1.385484337806701660e-01
8.650397509336471558e-02 -7.357418537139892578e-01 -5.165986716747283936e-02 -2.165544964373111725e-02 1.150190830230712891e-01 1.139467954635620117e-01 4.861758649349212646e-02 -4.182551801204681396e-02 -7.822431623935699463e-02 -5.641071498394012451e-02 2.870935574173927307e-02 4.022005572915077209e-02 1.603563725948333740e-01 -4.635896533727645874e-02 2.337681502103805542e-02 -2.083448320627212524e-01 -6.829436123371124268e-02 1.501637510955333710e-02 -9.676968678832054138e-03 -8.455749601125717163e-02 1.782923005521297455e-02 -2.487066434696316719e-03 -2.518390677869319916e-02 6.492472440004348755e-02 4.121631756424903870e-02 -4.837054908275604248e-01 6.019829958677291870e-02 -1.203879117965698242e-01 1.933849975466728210e-02 1.842579245567321777e-01 3.091462701559066772e-02 8.016330003738403320e-02 1.375439297407865524e-02 -1.130961999297142029e-01 1.050290092825889587e-01 8.667989075183868408e-02 6.739601492881774902e-02 -5.861468147486448288e-03 -3.922577574849128723e-02 -1.085978448390960693e-01 -1.268015205860137939e-01 -4.506813362240791321e-02 -8.068329095840454102e-02 -8.485749363899230957e-03 2.428510226309299469e-02 5.236450210213661194e-02 -3.535133553668856621e-03 -5.265486240386962891e-02 1.241516470909118652e-01 -1.009636446833610535e-01 -4.095757007598876953e-02 5.320905242115259171e-03 -5.835123732686042786e-02 1.187256500124931335e-01 -7.820871472358703613e-02 6.780000985600054264e-04 -3.093856759369373322e-02 -1.588211059570312500e-01 8.625830709934234619e-02 -4.741513112094253302e-05 -4.879897460341453552e-02 5.397602543234825134e-02 -7.605022192001342773e-02 5.377620086073875427e-02 -8.482392132282257080e-02 8.488199114799499512e-02 -7.603728026151657104e-02 -4.923054575920104980e-02 6.414148211479187012e-02 4.785600677132606506e-02 -1.492733974009752274e-02 1.669407822191715240e-02 3.307035565376281738e-02 4.176121950149536133e-01 -4.594593495130538940e-02 2.355175651609897614e-02 5.155384540557861328e-02 1.629075855016708374e-01 -6.293878704309463501e-02 -2.214467711746692657e-02 -7.221919298171997070e-02 -9.740603715181350708e-02 -3.452321887016296387e-02 6.693055480718612671e-02 2.815621905028820038e-02 -1.215080916881561279e-01 2.532922662794589996e-02 6.098929792642593384e-02 -3.925485908985137939e-02 2.247952856123447418e-02 2.701679430902004242e-02 -3.365245880559086800e-03 -1.137584261596202850e-02 7.753600180149078369e-02 -9.861058741807937622e-02 -5.366279184818267822e-02 2.051922120153903961e-02 1.032421350479125977e+00 4.980765283107757568e-02 6.082630902528762817e-02 -1.073193624615669250e-01 -5.524178035557270050e-03 -1.332447230815887451e-01 -1.019835993647575378e-01 -1.125195994973182678e-01 -2.601673603057861328e-01 -7.817994803190231323e-03 1.130370497703552246e-01 -6.940191984176635742e-02 -1.091863438487052917e-01 -7.108343392610549927e-02 1.504614055156707764e-01 -2.613816559314727783e-01 1.103501394391059875e-01 -1.637250930070877075e-02 9.060063213109970093e-02 -6.683744490146636963e-02 4.194930568337440491e-02 2.603244967758655548e-02 -8.963558822870254517e-02
3.972369432449340820e-01 1.633662581443786621e-01 -4.827357083559036255e-02 -9.477933496236801147e-02 -1.073777303099632263e-01 1.993213444948196411e-01 1.297099292278289795e-01 3.182034194469451904e-02 -4.092661291360855103e-02 -1.147887185215950012e-01 1.642667502164840698e-01 -6.643877923488616943e-02 2.396764755249023438e-01 1.377418190240859985e-01 2.543514780700206757e-02 -7.760302722454071045e-02 -8.332386612892150879e-02 -7.274642586708068848e-02 7.519083563238382339e-03 5.294167250394821167e-02 -4.007228091359138489e-02 2.503621391952037811e-02 5.758620426058769226e-02 -3.042013198137283325e-02 2.290157675743103027e-01 7.830813527107238770e-02 -7.075025141239166260e-02 -5.891286209225654602e-02 -5.130670964717864990e-02 8.056709915399551392e-02 4.210735857486724854e-02 -1.513104438781738281e-01 5.161650851368904114e-02 2.657229825854301453e-02 2.851201407611370087e-02 -4.438292235136032104e-02 1.552249789237976074e-01 4.883961006999015808e-02 6.629789248108863831e-03 -5.475952103734016418e-02 -1.251590996980667114e-01 -5.097214505076408386e-02 -4.064045846462249756e-02 5.942267179489135742e-02 1.067439280450344086e-02 -6.007385626435279846e-02 2.398138865828514099e-02 -1.814389601349830627e-02 1.193698495626449585e-01 1.362157315015792847e-01 -7.538488507270812988e-02 8.057351410388946533e-02 -4.010701924562454224e-02 -1.259435992687940598e-02 6.967907398939132690e-02 -1.896305382251739502e-01 -2.136431634426116943e-02 5.709265917539596558e-02 1.581410020589828491e-01 -3.085092641413211823e-03 -5.479608103632926941e-02 -7.372578233480453491e-02 -1.033329637721180916e-03 4.119412228465080261e-02 -1.139833480119705200e-01 4.233134165406227112e-02 1.462794374674558640e-02 3.257571533322334290e-02 -7.401382178068161011e-02 9.717084467411041260e-02 6.395202875137329102e-02 -7.615371793508529663e-02 -1.417559236288070679e-01 2.033568620681762695e-01 6.254827603697776794e-03 -1.813251897692680359e-02 3.933787345886230469e-02 -2.747352793812751770e-02 -2.265407703816890717e-02 -2.706859409809112549e-01 3.544878587126731873e-02 -1.965932175517082214e-02 1.239493191242218018e-01 4.385964944958686829e-02 -4.504799842834472656e-02 -1.049614623188972473e-01 -4.452128708362579346e-02 1.974808126688003540e-01 -1.246657967567443848e-02 -1.257839798927307129e-01 1.513045374304056168e-02 9.342383593320846558e-02 2.639834955334663391e-02 5.973579734563827515e-02 4.787801578640937805e-02 3.436341881752014160e-02 -2.613956332206726074e-01 1.677697449922561646e-01 -9.034840017557144165e-02 1.200610697269439697e-01 1.505037099123001099e-01 -2.821142971515655518e-01 2.500227838754653931e-02 -2.630502581596374512e-01 3.599831461906433105e-02 1.420660167932510376e-01 1.206720843911170959e-01 1.387804895639419556e-01 -9.678046405315399170e-02 -2.707209289073944092e-01 3.816015552729368210e-03 7.823549509048461914e-01 2.355712093412876129e-02 2.117827981710433960e-01 3.845918178558349609e-02 -4.915148392319679260e-02 -3.389337286353111267e-02 1.056703156791627407e-03 1.870970875024795532e-01 1.316496753133833408e-03
-2.126031368970870972e-01 -5.197814851999282837e-02 2.783119678497314453e-02 5.488795042037963867e-02 -4.115877300500869751e-02 8.826729841530323029e-03 -6.611385196447372437e-02 -1.666927486658096313e-01 2.518597245216369629e-01 1.839969120919704437e-02 1.186839491128921509e-01 5.375372618436813354e-02 -1.242713555693626404e-01 -9.754318743944168091e-02 1.306885778903961182e-01 -4.679851233959197998e-02 -1.257810890674591064e-01 1.086023449897766113e-01 -1.822671387344598770e-03 -3.521906957030296326e-02 6.158889830112457275e-02 -2.802134864032268524e-02 -1.021492034196853638e-01 -4.101806506514549255e-02 -1.705993562936782837e-01 -1.186246424913406372e-01 -1.198180671781301498e-02 -3.389830142259597778e-02 1.742412522435188293e-02 -1.802974008023738861e-02 -6.377059966325759888e-02 -3.169792518019676208e-02 2.678355276584625244e-01 2.176593057811260223e-02 1.747658997774124146e-01 -9.502609260380268097e-03 -1.516517251729965210e-01 -1.217861846089363098e-01 2.128398567438125610e-01 3.437422960996627808e-02 -1.262337714433670044e-01 5.019165948033332825e-02 4.678665846586227417e-02 -3.725873678922653198e-02 -1.360372304916381836e-01 7.590232044458389282e-02 3.671732917428016663e-02 -3.217774629592895508e-02 -1.661190539598464966e-01 -2.781381085515022278e-02 1.226606033742427826e-02 5.809087306261062622e-02 7.819841615855693817e-03 -1.417146325111389160e-01 -6.934325397014617920e-02 -1.890614330768585205e-01 3.108558952808380127e-01 1.948904693126678467e-01 4.989847540855407715e-02 -5.377674102783203125e-02 9.951952099800109863e-02 -2.439281493425369263e-01 3.420919552445411682e-02 1.182009465992450714e-03 6.626126170158386230e-02 2.561266161501407623e-02 5.878854170441627502e-02 -1.253121793270111084e-01 -1.924954354763031006e-02 3.158533573150634766e-02 -1.512798219919204712e-01 -2.842420339584350586e-02 3.942232578992843628e-03 -2.222391664981842041e-01 -5.325420573353767395e-02 7.214853912591934204e-02 4.459924995899200439e-03 -1.786479651927947998e-01 1.012576669454574585e-01 -1.113326177000999451e-01 2.480860203504562378e-01 1.933174766600131989e-02 8.026711642742156982e-02 -2.911847829818725586e-02 2.844257093966007233e-02 -2.140367478132247925e-01 -2.660923823714256287e-02 -1.571398526430130005e-01 2.220797538757324219e-01 1.683359295129776001e-01 2.191052585840225220e-02 -1.525285467505455017e-02 -4.386170580983161926e-02 1.396376919001340866e-02 4.695403948426246643e-02 -1.276345849037170410e-01 9.612095355987548828e-02 -2.548977136611938477e-01 -2.437157370150089264e-02 -3.099465928971767426e-02 4.226010758429765701e-03 -4.028651416301727295e-01 -6.147138774394989014e-02 -2.012786418199539185e-01 1.926040351390838623e-01 2.451829239726066589e-02 2.449878454208374023e-01 4.534809291362762451e-02 6.370284408330917358e-02 -1.584007441997528076e-01 -2.888919711112976074e-01 -7.270292937755584717e-02 2.381595075130462646e-01 2.254667580127716064e-01 -6.249116733670234680e-02 6.497386842966079712e-02 -3.110778629779815674e-01 -1.292050350457429886e-02 -1.821353472769260406e-02 -6.536788493394851685e-02
-3.019564747810363770e-01 -4.669387340545654297e-01 -5.261666327714920044e-02 7.524242252111434937e-02 3.824143111705780029e-02 -2.048151940107345581e-02 -1.801719814538955688e-01 7.351434975862503052e-02 -2.628436684608459473e-02 1.539029926061630249e-01 1.087570413947105408e-01 -5.560794845223426819e-02 -1.192826479673385620e-01 -8.004189282655715942e-02 5.579300224781036377e-02 -7.530293613672256470e-02 -1.232709363102912903e-01 -7.891526818275451660e-02 -3.013145364820957184e-02 1.303823590278625488e-01 -4.102573171257972717e-02 9.529400267638266087e-04 -3.199474141001701355e-02 -2.236517518758773804e-02 -1.280114799737930298e-01 -2.882555723190307617e-01 -2.405839040875434875e-02 7.772716879844665527e-02 1.125515326857566833e-01 -2.233069203794002533e-02 -1.702798306941986084e-01 -8.425712585449218750e-02 -1.951242052018642426e-02 1.410387754440307617e-01 9.889842569828033447e-02 1.025016754865646362e-01 -1.262599676847457886e-01 3.202926134690642357e-03 -3.131421655416488647e-02 1.202252656221389771e-01 -9.509493410587310791e-02 2.644537948071956635e-02 -4.243476688861846924e-02 -6.432185322046279907e-02 1.680390723049640656e-02 3.637611493468284607e-02 -5.288688465952873230e-02 2.294485270977020264e-02 7.568571716547012329e-02 -5.938538163900375366e-02 5.190306156873703003e-02 5.976367369294166565e-02 9.092349559068679810e-02 -6.711601465940475464e-02 -1.790637671947479248e-01 3.857827931642532349e-02 8.904656767845153809e-02 1.140533364377915859e-03 1.170536279678344727e-01 1.784616149961948395e-03 -6.945852935314178467e-02 -8.695938438177108765e-02 5.973981460556387901e-04 6.147681176662445068e-02 -1.168179437518119812e-01 -1.431983616203069687e-02 -1.472939550876617432e-02 4.689858853816986084e-02 5.359063297510147095e-02 -4.096035627298988402e-05 -9.143448621034622192e-02 -7.126425858587026596e-03 1.869721561670303345e-01 3.342972993850708008e-01 1.042218431830406189e-01 9.338612854480743408e-02 1.467341929674148560e-01 -9.642504155635833740e-02 -1.076055020093917847e-01 -1.047481968998908997e-01 -2.857412770390510559e-02 5.239243432879447937e-02 -3.845615684986114502e-02 5.395624041557312012e-02 3.081118874251842499e-02 -1.938360482454299927e-01 8.881472051143646240e-03 1.335862725973129272e-01 -1.089267246425151825e-02 -7.621430791914463043e-03 -2.506083250045776367e-02 1.935366168618202209e-02 -4.707913473248481750e-02 4.360602796077728271e-02 -2.195737883448600769e-02 -5.498827621340751648e-02 5.103268623352050781e-01 6.792833805084228516e-01 -1.207343582063913345e-02 -6.188298389315605164e-02 -2.009663544595241547e-02 -1.597240865230560303e-01 -1.325518041849136353e-01 -4.712192714214324951e-02 -1.167173609137535095e-01 4.508116096258163452e-02 -2.563551440834999084e-02 2.164443023502826691e-02 -5.640821531414985657e-02 -2.305445969104766846e-01 -1.259854435920715332e-01 9.945239871740341187e-02 -2.568675577640533447e-01 -1.214837953448295593e-01 -6.863909214735031128e-02 -4.857865720987319946e-02 8.876014500856399536e-02 1.126522794365882874e-01 -2.723792381584644318e-02 -1.407394707202911377e-01
-3.040545582771301270e-01 -3.116288781166076660e-01 6.331781297922134399e-02 2.763538062572479248e-02 1.910073608160018921e-01 1.127070784568786621e-01 -1.024937629699707031e-01 -1.252066045999526978e-01 7.073412090539932251e-02 9.460951387882232666e-02 -1.740608923137187958e-02 5.253668129444122314e-02 4.190078377723693848e-02 7.353382557630538940e-02 -2.244083210825920105e-02 5.738139152526855469e-02 -1.046266853809356689e-01 -1.725468412041664124e-02 -9.236244484782218933e-03 1.238041594624519348e-01 5.163626745343208313e-03 -5.770431831479072571e-02 2.964382618665695190e-02 -9.181530028581619263e-02 -1.520233452320098877e-01 -1.424237787723541260e-01 -2.010028995573520660e-02 1.761118508875370026e-02 9.294002503156661987e-02 7.784780859947204590e-02 -3.109350986778736115e-02 1.877687312662601471e-02 1.040508523583412170e-01 8.402889966964721680e-02 1.532336045056581497e-02 9.060795605182647705e-02 7.931853644549846649e-03 -3.698034584522247314e-02 -5.414441693574190140e-03 3.011679090559482574e-02 -1.332863047719001770e-02 -3.960529807955026627e-03 6.214443594217300415e-02 5.662211403250694275e-02 -6.343592889606952667e-03 3.367344662547111511e-02 6.465167738497257233e-03 -2.383405901491641998e-02 -1.152834147214889526e-01 1.526922136545181274e-01 2.236693724989891052e-02 3.894940391182899475e-02 -3.793189674615859985e-02 9.358965605497360229e-02 -1.756795793771743774e-01 -3.621407086029648781e-03 -5.787767469882965088e-02 6.303300708532333374e-02 7.256825268268585205e-02 6.242193281650543213e-02 -2.396859079599380493e-01 -1.528472304344177246e-01 -5.725410580635070801e-02 1.614093780517578125e-01 -9.298104047775268555e-02 6.545300036668777466e-02 4.991067107766866684e-03 7.009359449148178101e-02 8.368116617202758789e-02 -6.607170403003692627e-02 -4.859749600291252136e-02 -2.800853364169597626e-02 -1.419487893581390381e-01 4.410668313503265381e-01 4.546114802360534668e-02 3.749988973140716553e-02 -4.206185042858123779e-02 3.349485620856285095e-02 -2.187641561031341553e-01 -1.179975271224975586e-01 -3.249712660908699036e-02 1.763458847999572754e-01 5.201593413949012756e-02 -4.365810193121433258e-03 -3.096888065338134766e-01 -1.454648077487945557e-01 -1.879457198083400726e-02 1.955755949020385742e-01 7.596357166767120361e-02 2.068692818284034729e-02 -5.380935966968536377e-03 -1.671833684667944908e-03 7.984663546085357666e-02 -3.391825407743453979e-02 -7.047577202320098877e-02 9.503421932458877563e-02 7.963053137063980103e-02 9.042823910713195801e-01 4.631013050675392151e-02 1.397409592755138874e-03 -7.229435443878173828e-02 4.474918916821479797e-02 -2.047000229358673096e-01 -4.147568717598915100e-02 -8.281338214874267578e-02 1.574947983026504517e-01 1.292568258941173553e-02 -8.208131045103073120e-02 -5.730813145637512207e-01 2.303119748830795288e-02 -1.939632184803485870e-02 4.007715880870819092e-01 5.477258190512657166e-02 -1.311100274324417114e-01 5.923892930150032043e-02 1.039244532585144043e-01 -1.081357710063457489e-02 -5.502431839704513550e-02 -2.626058645546436310e-02 4.981469828635454178e-03
5.154677629470825195e-01 -5.413083359599113464e-02 -1.162518262863159180e-01 2.700375206768512726e-02 -2.781317196786403656e-02 -5.617262050509452820e-02 -1.086321324110031128e-01 7.167082279920578003e-02 -5.999688059091567993e-02 8.525728248059749603e-03 9.173783659934997559e-02 5.647435039281845093e-02 4.582643136382102966e-02 4.395192116498947144e-02 5.452984571456909180e-02 2.412151247262954712e-01 1.257515861652791500e-03 2.556710317730903625e-02 -1.753874495625495911e-02 1.907411590218544006e-02 -4.859094694256782532e-02 -8.178521692752838135e-02 5.929104983806610107e-02 -5.624509975314140320e-02 2.962775528430938721e-01 -4.779157787561416626e-02 3.122784383594989777e-02 -6.377674639225006104e-03 -6.837467849254608154e-02 -8.163817226886749268e-03 -4.676757380366325378e-02 -1.043011620640754700e-01 6.034405529499053955e-02 -1.006866768002510071e-01 6.418585777282714844e-02 7.297284901142120361e-02 1.361100524663925171e-01 1.004379838705062866e-01 -5.762875080108642578e-02 9.995462745428085327e-02 -9.384775161743164062e-02 6.470830738544464111e-02 -2.473930828273296356e-03 4.144325107336044312e-02 -1.687555015087127686e-02 -7.663090527057647705e-02 6.690623611211776733e-02 4.304882511496543884e-02 -8.639376610517501831e-02 -1.210664305835962296e-02 3.695247322320938110e-02 2.023795386776328087e-03 -4.319493845105171204e-02 1.155237630009651184e-01 8.708762004971504211e-03 -8.773401379585266113e-03 2.505358308553695679e-02 -9.809736907482147217e-02 -9.643338620662689209e-02 -3.708100691437721252e-02 1.199157210066914558e-03 4.155504330992698669e-02 1.806738041341304779e-02 2.261618711054325104e-02 -3.972819820046424866e-02 -8.124214410781860352e-02 -7.827852852642536163e-03 3.915620222687721252e-02 6.103601679205894470e-02 1.827993802726268768e-02 -4.444478452205657959e-02 4.812323302030563354e-02 -3.487965762615203857e-01 -8.943361043930053711e-02 -1.074932739138603210e-01 1.226473003625869751e-01 1.460289582610130310e-02 4.602237790822982788e-02 -6.209428235888481140e-02 -5.080026015639305115e-02 -3.171262145042419434e-02 -2.951611578464508057e-02 -9.961310774087905884e-02 -4.985385015606880188e-02 3.287738189101219177e-02 1.773341745138168335e-01 -9.389508515596389771e-02 -3.634088113903999329e-02 -3.942125141620635986e-01 -9.364696592092514038e-02 -4.402638226747512817e-02 7.075017783790826797e-03 -1.865270361304283142e-02 5.886937305331230164e-02 2.127830497920513153e-02 -4.990870505571365356e-02 -8.940384984016418457e-01 5.472504720091819763e-02 -3.243091702461242676e-02 -9.764140471816062927e-03 -8.740245550870895386e-02 3.748065531253814697e-01 2.568287029862403870e-02 -1.034422963857650757e-01 1.119966208934783936e-01 2.734138071537017822e-02 -7.494145631790161133e-02 5.856183171272277832e-02 1.985621452331542969e-01 2.298557013273239136e-01 7.012003660202026367e-02 -2.702667117118835449e-01 -6.457064747810363770e-01 -6.611039489507675171e-02 2.458450011909008026e-02 1.475967466831207275e-01 -2.338508144021034241e-02 -1.049044309183955193e-03 1.184123009443283081e-02 9.994312375783920288e-02
2.744163386523723602e-02 -7.448206655681133270e-03 7.703049480915069580e-02 1.190376952290534973e-01 1.072534546256065369e-01 1.844471246004104614e-01 -1.312878876924514771e-01 2.648754231631755829e-02 -3.839951008558273315e-02 2.217950075864791870e-01 6.139701232314109802e-02 9.488661587238311768e-02 -1.771959811449050903e-01 5.132664740085601807e-02 -7.490096241235733032e-02 -8.396995812654495239e-02 -1.631801761686801910e-02 -5.949475616216659546e-02 -3.063225932419300079e-02 4.742972552776336670e-02 -4.291997104883193970e-02 -4.123787209391593933e-02 8.148101624101400375e-04 -5.722214654088020325e-02 -1.211806312203407288e-01 2.996971830725669861e-02 6.490648537874221802e-02 1.841803342103958130e-01 3.603340126574039459e-03 1.253337115049362183e-01 -1.622082144021987915e-01 -1.132684946060180664e-02 -6.692551076412200928e-02 1.709419935941696167e-01 -3.617279231548309326e-02 1.054956093430519104e-01 4.849335551261901855e-02 7.831869274377822876e-02 -2.576489560306072235e-02 -8.279209583997726440e-02 -6.681976467370986938e-02 1.747518591582775116e-02 -5.853246524930000305e-02 6.684563308954238892e-02 4.367137793451547623e-03 -2.970240637660026550e-02 4.792119190096855164e-02 -5.594392493367195129e-02 -1.353359818458557129e-01 -4.113192111253738403e-02 -6.085616350173950195e-02 3.672541677951812744e-02 7.266340777277946472e-03 4.775752872228622437e-02 -2.200232148170471191e-01 -3.079364262521266937e-02 6.703280657529830933e-02 1.281352937221527100e-01 -8.785822242498397827e-02 7.534380257129669189e-02 -6.404337286949157715e-02 1.114848479628562927e-01 -1.135518476366996765e-01 -1.034723818302154541e-01 -5.429451819509267807e-03 -4.886402562260627747e-02 -9.098085761070251465e-02 -2.047266438603401184e-02 -7.581423036754131317e-03 -2.345492132008075714e-03 6.622278690338134766e-02 2.366588637232780457e-02 -5.165030956268310547e-01 -6.935203820466995239e-02 8.229079842567443848e-02 4.304546862840652466e-02 8.890701457858085632e-03 8.644312620162963867e-02 -2.071690857410430908e-01 9.410907328128814697e-02 6.251651793718338013e-02 2.524707913398742676e-01 6.272159516811370850e-02 1.618507690727710724e-02 1.580388844013214111e-02 1.499627232551574707e-01 8.774822577834129333e-03 -6.222838163375854492e-02 3.586357459425926208e-02 -4.687725752592086792e-02 -8.856358379125595093e-02 3.700629621744155884e-02 -8.925967663526535034e-02 7.303676754236221313e-02 -2.792236208915710449e-02 1.554372627288103104e-02 -7.435636520385742188e-01 -1.407482177019119263e-01 6.461448222398757935e-02 1.482509970664978027e-01 -1.319934427738189697e-01 4.576127231121063232e-02 -2.231826931238174438e-01 1.126190721988677979e-01 -9.188799187541007996e-03 1.420128792524337769e-01 6.250280886888504028e-02 -6.565577536821365356e-02 -3.731538653373718262e-01 3.866760134696960449e-01 2.167430520057678223e-01 -4.713753238320350647e-02 2.953072190284729004e-01 -1.689241081476211548e-01 -3.939681500196456909e-02 1.154293790459632874e-01 1.002589315176010132e-01 9.233457036316394806e-03 -2.827860787510871887e-02 -1.137649863958358765e-01
5.129063129425048828e-01 -5.048934817314147949e-01 -9.540152549743652344e-02 -2.876499434933066368e-03 -6.657017022371292114e-02 5.650823563337326050e-02 5.690045282244682312e-02 3.820214793086051941e-02 -1.001826208084821701e-02 1.041338443756103516e-01 5.151123553514480591e-02 -4.158930480480194092e-02 -1.667377352714538574e-01 -8.858695626258850098e-02 5.115826055407524109e-02 2.835112065076828003e-02 2.149998694658279419e-01 -4.028495401144027710e-02 -6.514850258827209473e-02 1.484022941440343857e-02 -4.181144759058952332e-02 -7.902069948613643646e-03 5.660475790500640869e-02 -1.679300563409924507e-03 3.033875524997711182e-01 -2.597398161888122559e-01 -1.075395867228507996e-01 3.109883703291416168e-02 -8.803904056549072266e-03 4.124293476343154907e-02 6.714388728141784668e-02 4.750408977270126343e-02 -5.814809724688529968e-02 3.211060538887977600e-02 -6.683741509914398193e-02 1.837842166423797607e-02 -7.569156587123870850e-02 -5.694054998457431793e-03 -7.216698676347732544e-02 -4.631675407290458679e-02 1.008292436599731445e-01 7.062131538987159729e-03 2.723740413784980774e-02 7.175165414810180664e-02 -5.618252232670783997e-02 -2.370060607790946960e-02 -1.923406496644020081e-03 1.502297539263963699e-02 -3.177257999777793884e-02 -7.770044356584548950e-02 4.276305437088012695e-02 -8.541566133499145508e-02 6.003436818718910217e-02 -1.515918672084808350e-01 4.365758597850799561e-02 -2.704493887722492218e-02 6.225956231355667114e-02 1.134645193815231323e-01 -9.553161263465881348e-02 -1.005780547857284546e-01 -9.037221223115921021e-02 -2.326793596148490906e-02 9.069098532199859619e-02 -6.633990257978439331e-02 1.255417317152023315e-01 -1.397197507321834564e-02 -1.350065227597951889e-02 1.341774035245180130e-02 1.654551550745964050e-02 2.614066749811172485e-02 -5.536141805350780487e-03 -8.508272469043731689e-02 -2.283406853675842285e-01 3.248604536056518555e-01 8.443341590464115143e-03 -1.015295609831809998e-01 -9.415807202458381653e-03 -1.661380380392074585e-01 -5.020642280578613281e-02 8.172055333852767944e-02 -6.140997260808944702e-02 4.038316383957862854e-02 -2.141759544610977173e-02 3.561008721590042114e-02 -1.565216183662414551e-01 4.676233977079391479e-02 9.120358526706695557e-02 -2.241427451372146606e-02 -5.245192442089319229e-03 -1.823104918003082275e-02 1.898699789308011532e-03 -4.289798066020011902e-02 1.960751228034496307e-02 5.425283219665288925e-03 6.755801290273666382e-02 5.565023049712181091e-02 -6.455924510955810547e-01 7.449193596839904785e-01 -6.300301849842071533e-02 1.120778098702430725e-01 8.334194310009479523e-03 -1.582276672124862671e-01 -1.873598992824554443e-01 6.721599400043487549e-02 7.422198355197906494e-02 1.062439382076263428e-01 1.368419267237186432e-02 1.165757700800895691e-01 -1.749747246503829956e-01 2.898899614810943604e-01 4.006515443325042725e-02 1.103812828660011292e-01 -1.651562750339508057e-01 2.835226655006408691e-01 -3.126206621527671814e-02 4.205596446990966797e-02 -4.991337284445762634e-02 -4.231248795986175537e-02 -1.992182247340679169e-02 -1.206316053867340088e-01
-5.099074840545654297e-01 5.615062117576599121e-01 7.661285251379013062e-02 8.774767816066741943e-02 -2.182839252054691315e-02 -9.353366494178771973e-02 -6.911683082580566406e-02 -4.178743064403533936e-02 8.027332276105880737e-02 -7.242140918970108032e-02 -4.673959687352180481e-02 1.389223616570234299e-02 -1.730693131685256958e-01 4.087857156991958618e-02 -7.548525929450988770e-02 1.339250802993774414e-01 7.737588137388229370e-02 -9.049431979656219482e-02 3.286188468337059021e-02 3.758772090077400208e-02 -2.974663861095905304e-02 -1.197285503149032593e-01 -2.949975430965423584e-02 9.512352757155895233e-03 -2.153084129095077515e-01 1.233941614627838135e-01 -8.185335248708724976e-02 -1.923839002847671509e-02 -8.536037057638168335e-02 9.068366140127182007e-02 -8.171672374010086060e-02 2.978285308927297592e-03 6.140607967972755432e-02 2.336937468498945236e-03 -3.491441905498504639e-02 7.367179729044437408e-03 7.818416506052017212e-02 5.665146186947822571e-02 -1.256934087723493576e-02 2.025592029094696045e-01 1.991691626608371735e-02 -2.749771811068058014e-02 4.575233906507492065e-02 8.929893374443054199e-02 -7.179224491119384766e-02 -3.266940265893936157e-02 -8.096243441104888916e-02 -6.435991078615188599e-02 2.764654532074928284e-02 -2.923014461994171143e-01 1.551395468413829803e-02 6.139773502945899963e-02 6.610266864299774170e-02 -1.216233428567647934e-02 4.455009847879409790e-02 -2.893800660967826843e-02 -5.330317094922065735e-02 -4.278071224689483643e-02 -5.188876390457153320e-02 -8.424911648035049438e-03 5.379506200551986694e-02 -1.267418116331100464e-01 -2.970959991216659546e-02 6.776055321097373962e-03 -2.354260161519050598e-02 -3.886540234088897705e-02 4.068927094340324402e-02 2.482080459594726562e-02 -6.312990444712340832e-04 -4.908335581421852112e-02 -7.025788724422454834e-02 -6.058321520686149597e-02 3.690703213214874268e-01 -8.436185717582702637e-01 -7.673731446266174316e-02 5.338401347398757935e-02 -4.212436731904745102e-03 1.250453591346740723e-01 -3.135850653052330017e-02 2.198648452758789062e-02 -2.848074305802583694e-03 1.974010281264781952e-02 2.096842415630817413e-02 6.756705790758132935e-02 3.611629456281661987e-02 -6.209047511219978333e-02 3.148493915796279907e-02 -4.289652034640312195e-02 -8.057402819395065308e-02 -1.293900609016418457e-02 2.493688464164733887e-02 4.471830651164054871e-02 3.527784720063209534e-02 1.613344810903072357e-02 -5.092656984925270081e-02 3.483379259705543518e-02 7.400816679000854492e-01 -1.444974184036254883e+00 6.357883661985397339e-02 1.231836806982755661e-02 -7.133676111698150635e-02 2.381993830204010010e-01 -9.532705880701541901e-03 3.777084499597549438e-02 6.390093360096216202e-03 -2.299972064793109894e-02 1.344968825578689575e-01 1.076738461852073669e-01 -1.613823771476745605e-01 -1.638821959495544434e-01 -5.957960709929466248e-02 -5.022794753313064575e-02 -1.802075356245040894e-01 4.650440067052841187e-02 6.761238723993301392e-02 -2.305542118847370148e-02 1.155582889914512634e-01 -3.035159222781658173e-02 -6.715883314609527588e-02 7.804051786661148071e-02
7.987765222787857056e-02 -4.277392029762268066e-01 -8.802295476198196411e-02 2.002437599003314972e-02 8.891953527927398682e-02 1.740777492523193359e-02 2.283002436161041260e-01 9.465449303388595581e-02 -6.239864509552717209e-03 2.951941452920436859e-02 3.877792134881019592e-02 -7.722549885511398315e-02 -7.952672243118286133e-02 -3.649011254310607910e-02 6.075693294405937195e-02 -6.778530031442642212e-02 4.195327870547771454e-03 -1.832813210785388947e-02 9.851362556219100952e-03 -4.268488287925720215e-02 -7.660830765962600708e-02 7.514111697673797607e-02 6.262791156768798828e-02 4.613403603434562683e-02 -1.171423792839050293e-01 -1.948436796665191650e-01 4.361543804407119751e-02 -1.866984739899635315e-02 6.221138313412666321e-02 -1.412337124347686768e-01 2.014496028423309326e-01 -3.944989293813705444e-02 5.906204879283905029e-02 -6.747490167617797852e-02 -6.804623454809188843e-02 -2.238288894295692444e-02 -4.756617546081542969e-02 -9.114712476730346680e-02 1.104274019598960876e-01 3.486750880256295204e-03 9.428222477436065674e-02 -1.498388359323143959e-03 -2.240414172410964966e-02 -6.728962808847427368e-02 -8.589322119951248169e-02 -6.834472715854644775e-02 -4.932214319705963135e-02 -4.286081716418266296e-02 -2.607166580855846405e-02 -7.405168563127517700e-02 5.511337146162986755e-02 6.825897842645645142e-02 4.940744955092668533e-03 -8.053168654441833496e-02 2.687948942184448242e-01 1.715792156755924225e-02 -5.179667845368385315e-02 -1.109189987182617188e-01 8.985682576894760132e-02 -8.408474177122116089e-02 -7.452542334794998169e-02 6.807091087102890015e-02 -2.264314331114292145e-02 -6.972735375165939331e-02 1.152960434556007385e-01 3.991140797734260559e-02 8.422356098890304565e-03 -1.625692471861839294e-02 -5.899664014577865601e-02 -6.473444867879152298e-03 4.225524887442588806e-02 2.547799237072467804e-02 -2.308551818132400513e-01 3.139632642269134521e-01 2.064393460750579834e-02 -8.929497562348842621e-03 -5.766312777996063232e-02 -1.123492941260337830e-01 1.261404454708099365e-01 9.115746617317199707e-02 1.840730756521224976e-02 -9.519997984170913696e-02 5.387382581830024719e-02 -1.020315438508987427e-01 -5.950757861137390137e-02 -3.413973748683929443e-02 8.091851137578487396e-03 -2.804605988785624504e-03 1.398819088935852051e-01 1.821460435166954994e-03 8.001825958490371704e-02 5.882139131426811218e-02 -6.384038925170898438e-02 -3.901654854416847229e-02 5.872764438390731812e-02 -3.788693621754646301e-02 -2.428953945636749268e-01 5.068645477294921875e-01 1.813644543290138245e-02 2.400244958698749542e-02 -1.667205542325973511e-01 -1.926358789205551147e-01 1.522354036569595337e-01 -5.195014178752899170e-02 1.064241304993629456e-01 -5.549225606955587864e-04 9.766979515552520752e-02 -5.446054413914680481e-02 -4.363993108272552490e-01 1.342089176177978516e-01 -9.317360073328018188e-02 -1.546209901571273804e-01 4.761486053466796875e-01 1.441074162721633911e-02 1.705038845539093018e-01 -1.336037833243608475e-02 7.176843285560607910e-02 -1.889864355325698853e-02 -7.662605494260787964e-02 3.777285665273666382e-02
-2.531807124614715576e-01 -3.753959536552429199e-01 -8.217851072549819946e-02 -6.467039138078689575e-02 2.818081155419349670e-02 -4.376263171434402466e-02 -2.476086840033531189e-02 -9.048478305339813232e-02 4.725560545921325684e-02 8.653541654348373413e-02 7.288569584488868713e-03 6.413415074348449707e-02 4.497339576482772827e-02 -1.402182281017303467e-01 3.923991695046424866e-02 -2.818184494972229004e-01 -6.685770303010940552e-02 7.560045272111892700e-02 8.317822217941284180e-02 4.497513920068740845e-02 -5.976106598973274231e-02 1.154329255223274231e-01 -1.182529181241989136e-01 -4.463163018226623535e-02 -1.601186245679855347e-01 -1.579310297966003418e-01 -1.031380519270896912e-01 7.354411762207746506e-03 -9.876579791307449341e-02 4.075588285923004150e-02 -8.046738058328628540e-02 -7.845852524042129517e-02 1.420506834983825684e-01 -2.610146999359130859e-02 1.582456380128860474e-01 5.211310088634490967e-02 1.162935607135295868e-02 -1.205137968063354492e-01 9.978034533560276031e-03 1.144152227789163589e-02 5.462411791086196899e-02 1.151659432798624039e-02 6.413230299949645996e-02 -3.164502233266830444e-02 -4.723476991057395935e-02 -5.850206315517425537e-02 -1.138390824198722839e-01 6.525532901287078857e-02 -7.681512832641601562e-02 -7.047536224126815796e-02 2.795516699552536011e-02 4.515937343239784241e-02 -5.468203127384185791e-02 -9.475530683994293213e-02 -7.670915126800537109e-02 6.253060419112443924e-03 1.214954033493995667e-01 1.301276683807373047e-01 1.317443400621414185e-01 6.257120519876480103e-02 -6.057465821504592896e-02 -6.342405080795288086e-02 6.303720921277999878e-02 -3.494545817375183105e-02 1.958356238901615143e-02 5.193281173706054688e-02 3.539953753352165222e-02 1.134667545557022095e-01 -1.741545647382736206e-01 -7.012403011322021484e-02 -1.046361252665519714e-01 -1.486440002918243408e-02 2.992511494085192680e-03 1.310762912034988403e-01 -4.221918433904647827e-02 1.135972961783409119e-01 -6.672798842191696167e-02 -1.000698879361152649e-01 -9.475476294755935669e-02 4.696496296674013138e-03 7.228606194257736206e-02 -8.398316055536270142e-02 -6.141435354948043823e-03 1.744938269257545471e-02 1.433413177728652954e-01 8.047879673540592194e-03 -6.632379442453384399e-02 -1.252301931381225586e-01 5.250698700547218323e-02 -2.274730987846851349e-02 4.912478104233741760e-02 4.977414757013320923e-02 -8.029147982597351074e-02 -9.900358505547046661e-03 -1.237120777368545532e-01 1.079708803445100784e-02 1.746631264686584473e-01 3.528109788894653320e-01 1.638724934309720993e-03 -4.016199149191379547e-03 -1.734156608581542969e-01 -1.534478664398193359e-01 -3.081395290791988373e-02 -9.360261261463165283e-02 7.618120312690734863e-02 -4.596274346113204956e-02 8.144456893205642700e-02 -4.956987220793962479e-03 2.973296642303466797e-01 -1.260211616754531860e-01 -1.141228452324867249e-01 3.132791817188262939e-02 -6.566517055034637451e-02 1.601449586451053619e-02 3.598032519221305847e-02 1.276739872992038727e-02 -2.681777477264404297e-01 -5.891693010926246643e-02 1.145608257502317429e-02 1.102977152913808823e-02
-4.053857624530792236e-01 -3.365357816219329834e-01 -4.111063107848167419e-02 -3.293007612228393555e-02 -1.065735518932342529e-02 8.266288042068481445e-02 -1.110255420207977295e-01 1.789926588535308838e-01 1.795032806694507599e-02 -7.369564473628997803e-02 3.327208012342453003e-02 1.360633131116628647e-02 1.088001765310764313e-03 -4.423775523900985718e-02 -4.228101670742034912e-02 -1.416675150394439697e-01 2.517993152141571045e-01 -4.456649720668792725e-02 -5.953355878591537476e-02 -1.880040951073169708e-02 -2.127437293529510498e-02 -1.357640046626329422e-02 -8.797980099916458130e-02 1.580536365509033203e-02 -3.536256551742553711e-01 -1.761282533407211304e-01 -7.392802089452743530e-02 -1.250801384449005127e-01 6.852114200592041016e-02 1.008967012166976929e-01 -1.722361594438552856e-01 9.674743749201297760e-03 -3.148444741964340210e-02 -1.752627342939376831e-01 -1.059948578476905823e-01 2.593802101910114288e-02 -2.467402629554271698e-02 -3.781021386384963989e-02 6.054715439677238464e-02 -8.279898762702941895e-02 2.883619070053100586e-01 6.001855805516242981e-02 8.650668896734714508e-03 -5.576015636324882507e-02 -4.146473482251167297e-02 -3.891962114721536636e-03 -1.898056454956531525e-02 9.952615946531295776e-03 -3.227822110056877136e-02 5.949924141168594360e-02 -6.488284468650817871e-02 2.793347463011741638e-02 1.619295775890350342e-02 1.753394752740859985e-01 -1.153572872281074524e-01 4.855538904666900635e-02 6.736962497234344482e-02 -1.283289194107055664e-01 -7.923960685729980469e-02 -6.503088027238845825e-02 7.407564669847488403e-02 -1.049131602048873901e-01 7.901678234338760376e-02 -1.493825465440750122e-01 1.531389504671096802e-01 1.607850193977355957e-02 -3.284036368131637573e-02 2.343074593227356672e-04 -9.291343390941619873e-02 -1.239273604005575180e-02 -3.737793117761611938e-02 -1.988532952964305878e-02 2.272842079401016235e-01 2.014688104391098022e-01 -2.155652828514575958e-02 -1.129378452897071838e-01 8.182003349065780640e-02 2.141470909118652344e-01 6.795306224375963211e-03 -1.120611838996410370e-02 1.020284369587898254e-01 -2.605375051498413086e-01 -7.036765664815902710e-02 -5.158223211765289307e-02 2.432829290628433228e-01 -1.596862636506557465e-02 9.534502401947975159e-03 -2.263032644987106323e-01 2.849490344524383545e-01 -9.514619410037994385e-02 5.439330637454986572e-02 -4.871660470962524414e-02 9.772674180567264557e-03 -7.443115115165710449e-02 -8.470020256936550140e-03 8.324566483497619629e-02 5.072507262229919434e-01 5.817613601684570312e-01 5.910781212151050568e-03 -6.266617029905319214e-02 -2.080297842621803284e-02 1.142907738685607910e-01 1.181271299719810486e-02 1.904156059026718140e-01 7.801387459039688110e-02 -3.806269764900207520e-01 -3.955869004130363464e-02 -2.534444630146026611e-02 -1.159865874797105789e-02 1.306088119745254517e-01 5.557738989591598511e-02 -6.152720451354980469e-01 1.794687807559967041e-01 -5.070063471794128418e-02 7.972443848848342896e-02 -2.117307670414447784e-02 -4.099742323160171509e-02 4.241260513663291931e-02 -1.303762048482894897e-01 2.090218104422092438e-02
2.047543078660964966e-01 -2.485597729682922363e-01 -3.494763746857643127e-02 -1.068876683712005615e-01 1.214089468121528625e-01 9.522928297519683838e-02 4.342322051525115967e-02 2.284474112093448639e-02 1.976768299937248230e-02 -5.423116311430931091e-02 4.291516263037919998e-03 -5.642511695623397827e-02 -4.168320447206497192e-02 5.808379501104354858e-02 1.585496030747890472e-02 1.070535331964492798e-01 1.801145076751708984e-02 8.458534628152847290e-02 5.531846079975366592e-03 6.591419130563735962e-02 5.051344260573387146e-02 -4.681462049484252930e-02 3.329560160636901855e-02 -6.595385819673538208e-02 4.006556794047355652e-02 -1.564385592937469482e-01 9.474191814661026001e-02 -7.129790633916854858e-02 6.206415127962827682e-03 1.889188773930072784e-02 1.144670695066452026e-01 -5.188193917274475098e-02 -5.494505167007446289e-02 -8.734880387783050537e-02 -3.795801475644111633e-02 -6.164795532822608948e-02 -1.811067163944244385e-01 -3.840151801705360413e-02 -6.057431548833847046e-02 2.180376090109348297e-03 1.595317758619785309e-02 3.023733571171760559e-02 4.185167327523231506e-02 1.932194456458091736e-02 -4.222637787461280823e-02 3.185240924358367920e-02 4.320252686738967896e-02 2.761140093207359314e-02 5.677331984043121338e-02 -8.256176114082336426e-02 -1.029450818896293640e-02 3.691973537206649780e-02 -2.681660465896129608e-02 1.041970849037170410e-01 2.856291458010673523e-02 -3.182128444314002991e-02 -3.910567238926887512e-02 -1.261029094457626343e-01 -7.062628865242004395e-02 1.089552231132984161e-02 -1.120540797710418701e-01 -1.217657774686813354e-01 -1.525208503007888794e-01 6.534373015165328979e-02 -8.471431583166122437e-02 1.849532686173915863e-02 -6.471569836139678955e-02 2.170032588765025139e-03 5.938582122325897217e-02 -2.681037038564682007e-02 3.093528561294078827e-02 -7.377000898122787476e-02 1.259285658597946167e-01 3.509709984064102173e-02 9.955183416604995728e-02 6.346331536769866943e-02 1.265079975128173828e-01 5.454163998365402222e-02 1.345087215304374695e-02 -7.369121909141540527e-02 3.228171914815902710e-02 -9.696567803621292114e-02 8.350930362939834595e-02 -1.220214553177356720e-02 -1.543666422367095947e-01 -9.954436123371124268e-02 -1.547230482101440430e-01 4.269937798380851746e-02 -1.041284203529357910e-01 4.900148883461952209e-02 -9.639148600399494171e-03 1.526006404310464859e-02 -3.818202018737792969e-02 1.010061893612146378e-02 -2.376605384051799774e-02 -2.057497575879096985e-02 1.364718973636627197e-01 4.649078547954559326e-01 3.256317228078842163e-02 4.294010624289512634e-02 4.318585991859436035e-02 -1.039258316159248352e-01 -8.707752078771591187e-02 -5.642807856202125549e-02 -1.098135709762573242e-01 -1.633716523647308350e-01 -5.352287366986274719e-02 -1.431750506162643433e-01 -2.251872271299362183e-01 -4.239404201507568359e-01 -3.043521940708160400e-01 -8.320882916450500488e-02 -7.947067916393280029e-02 6.464239954948425293e-02 -5.039510875940322876e-02 7.229945063591003418e-02 7.367987185716629028e-02 1.103555783629417419e-01 9.552788734436035156e-02 -9.346167556941509247e-03
3.580292761325836182e-01 -9.167398214340209961e-01 1.424531452357769012e-02 9.743378031998872757e-04 1.318887155503034592e-02 2.240619361400604248e-01 7.459823787212371826e-02 3.862196952104568481e-02 1.297010201960802078e-02 -6.971901655197143555e-02 -6.365939974784851074e-02 -9.925014339387416840e-03 1.745117455720901489e-02 1.634686626493930817e-02 -7.394000142812728882e-02 3.710928559303283691e-02 1.321842670440673828e-01 -8.115743845701217651e-02 3.029410168528556824e-02 -3.070035576820373535e-02 -3.428450599312782288e-02 1.719094067811965942e-02 -6.921709328889846802e-02 -9.904241189360618591e-03 1.486674249172210693e-01 -4.410746991634368896e-01 -3.564898297190666199e-02 1.448190584778785706e-02 8.812064677476882935e-02 1.673645824193954468e-01 -9.346804767847061157e-02 -5.952418968081474304e-02 -1.968883723020553589e-02 8.686840534210205078e-02 -1.056119427084922791e-02 -1.627096906304359436e-02 -1.020404621958732605e-01 -5.042706802487373352e-02 3.987780306488275528e-03 2.074095793068408966e-02 1.123316809535026550e-01 -6.728398054838180542e-02 2.508132345974445343e-02 4.052686970680952072e-03 -2.752425335347652435e-02 6.446314509958028793e-03 -5.837176460772752762e-03 9.443758055567741394e-03 -4.117429256439208984e-02 -6.363417208194732666e-02 -4.908800497651100159e-02 -2.993107400834560394e-02 9.816095978021621704e-02 2.052188515663146973e-01 -1.171474009752273560e-01 -5.712699517607688904e-02 -9.764577448368072510e-02 -8.267059177160263062e-02 4.469045624136924744e-02 3.484177216887474060e-02 -2.879231423139572144e-02 9.234389662742614746e-02 -3.585465624928474426e-02 -2.811654843389987946e-02 1.695414334535598755e-01 -6.127990316599607468e-03 4.872562363743782043e-02 -5.114792380481958389e-03 1.922624418511986732e-03 4.449947550892829895e-02 -8.872142061591148376e-03 -3.502604365348815918e-02 -3.075758516788482666e-01 6.481201648712158203e-01 5.972544848918914795e-02 -2.194552123546600342e-02 -5.444278009235858917e-03 1.139157637953758240e-01 -1.072915047407150269e-01 -3.500085324048995972e-02 3.513823822140693665e-02 -1.009834334254264832e-01 -3.815713524818420410e-02 -1.058626174926757812e-02 -2.039318829774856567e-01 1.189159974455833435e-01 6.530750542879104614e-02 -1.596000045537948608e-01 1.533474773168563843e-03 4.886715114116668701e-02 -5.773568525910377502e-03 6.697588413953781128e-02 2.017811127007007599e-02 5.198119673877954483e-03 1.119741797447204590e-02 -3.511562943458557129e-02 -6.114262938499450684e-01 1.560467839241027832e+00 5.503264442086219788e-02 -4.112401232123374939e-02 -3.212609142065048218e-02 1.526503115892410278e-01 -1.874698102474212646e-01 -1.016723811626434326e-01 -7.614248991012573242e-02 -1.649154722690582275e-01 -7.296615093946456909e-02 -5.018611904233694077e-03 -3.188541829586029053e-01 1.052183359861373901e-01 -6.086661666631698608e-02 -2.653189301490783691e-01 -2.079394608736038208e-01 2.898324131965637207e-01 5.919700488448143005e-02 -7.895878702402114868e-02 2.393417246639728546e-02 -1.296168379485607147e-02 4.610637947916984558e-02 5.727411434054374695e-02
