5.205310508608818054e-02 -5.996979773044586182e-02 -6.842360645532608032e-02 9.681507945060729980e-02 -1.998648643493652344e-01 5.979429557919502258e-02 -9.480113536119461060e-02 -1.465098280459642410e-02 -1.397359836846590042e-02 -1.374923996627330780e-02 -2.102492377161979675e-02 -1.299664080142974854e-01 6.532797217369079590e-02 1.750337891280651093e-02 -1.093594636768102646e-02 -7.732887566089630127e-02 5.854331329464912415e-02 -1.115767881274223328e-01 -5.438508093357086182e-02 -4.109592735767364502e-02 6.913769245147705078e-02 -4.655320942401885986e-02 7.943610846996307373e-02 -1.616307534277439117e-02 5.710682366043329239e-03 -1.262359321117401123e-01 6.217973679304122925e-02 -2.122714668512344360e-01 4.587655887007713318e-02 -1.144734323024749756e-01 2.144338190555572510e-02 -2.375243231654167175e-02 8.786531537771224976e-02 -1.288718432188034058e-01 -1.069718897342681885e-01 3.266944782808423042e-03 5.442807450890541077e-02 -1.394232828170061111e-02 -2.140644937753677368e-01 -1.080398038029670715e-01 3.717537038028240204e-03 -9.488246589899063110e-02 -1.450696140527725220e-01 -1.371021866798400879e-01 5.967406556010246277e-02 7.659907639026641846e-02 -1.816585659980773926e-03 6.184577569365501404e-02 1.591695994138717651e-01 -8.279206603765487671e-02 4.259766638278961182e-02 -9.586326032876968384e-02 2.457847259938716888e-02 5.714873224496841431e-02 -7.288435101509094238e-02 1.309170871973037720e-01 -1.449974952265620232e-03 -7.400175184011459351e-02 -4.038872197270393372e-02 -1.910317391157150269e-01 -2.188619226217269897e-03 -6.745806336402893066e-02 -9.062365628778934479e-03 -4.265905544161796570e-02 -8.753149956464767456e-02 -3.927445411682128906e-02 -5.194303765892982483e-02 1.922028139233589172e-02 3.593485429883003235e-02 -9.539780765771865845e-02 -2.833058126270771027e-02 3.012352995574474335e-02 1.207099035382270813e-01 -9.524977207183837891e-02 -7.805518060922622681e-02 -4.092704504728317261e-03 1.778715550899505615e-01 -5.912766233086585999e-02 -2.258696779608726501e-02 7.530022412538528442e-02 3.520821034908294678e-02 1.213731244206428528e-01 -1.931603401899337769e-01 -3.157523274421691895e-02 -8.683976531028747559e-02 -9.264944493770599365e-02 -1.305400673300027847e-02 -7.743859291076660156e-02 -8.228605240583419800e-02 2.396364137530326843e-02 -8.437354862689971924e-02 1.085615977644920349e-01 2.704893052577972412e-02 -1.282015256583690643e-02 3.423827141523361206e-02 -1.852480918169021606e-01 7.470207288861274719e-03 -8.625397831201553345e-02 5.873885750770568848e-02 -2.070580981671810150e-02 1.142103970050811768e-01 -2.018505521118640900e-02 -2.511579915881156921e-02 1.418112218379974365e-01 -3.021244890987873077e-02 -1.478098481893539429e-01 1.846968680620193481e-01 -9.177807718515396118e-02 9.426234662532806396e-02 -7.377260178327560425e-02 -7.598183304071426392e-02 -4.818747937679290771e-02 6.017281860113143921e-02 -1.910704746842384338e-02 1.222052723169326782e-01 -8.531069755554199219e-02 1.053002998232841492e-01 -1.595592647790908813e-01 7.939472794532775879e-02 3.847851604223251343e-02 1.449987292289733887e-01 3.196667879819869995e-02 1.244306191802024841e-01 2.924874983727931976e-02 1.507418975234031677e-02 1.459060311317443848e-01 -1.277239620685577393e-01 -1.143085584044456482e-01 -4.271482676267623901e-02 -3.872780501842498779e-02 -1.319251507520675659e-01 -2.476534098386764526e-01 4.639839753508567810e-02 -6.508003175258636475e-02 7.038164138793945312e-02 1.024949029088020325e-01 5.550161004066467285e-02 -3.559760225471109152e-04 -2.338940976187586784e-03 2.538440749049186707e-02 -1.034222450107336044e-02 5.954177305102348328e-02 1.535619050264358521e-01 6.586115062236785889e-02 6.342678517103195190e-02 -4.427349939942359924e-02 6.141905114054679871e-02 9.411504864692687988e-02 -5.959386005997657776e-02 8.250446617603302002e-02 2.789836004376411438e-02 1.127248406410217285e-01 -3.671439364552497864e-02 -1.614652946591377258e-02 -8.453609049320220947e-02 3.730240091681480408e-02 -2.814775109291076660e-01 -1.885303109884262085e-01 -2.153661251068115234e-01 5.556684359908103943e-02 -5.735768750309944153e-02 1.460324674844741821e-01 -2.035470306873321533e-01 -9.012991562485694885e-03 -1.610597074031829834e-01 -8.539847284555435181e-02 -1.324629336595535278e-01 1.013643741607666016e-01 7.276421040296554565e-02 3.994379565119743347e-02 -4.767289757728576660e-02 5.523487925529479980e-02 3.856571763753890991e-02 2.026996389031410217e-02 8.268589526414871216e-02 -3.177581727504730225e-02 -5.580463632941246033e-02 9.686267934739589691e-03 -4.761425405740737915e-02 1.068075224757194519e-01 3.199715018272399902e-01 -6.023338809609413147e-02 -1.586731672286987305e-01 -8.870713412761688232e-03 -3.331691026687622070e-02 7.486359775066375732e-02 -3.377607092261314392e-02 -6.012177467346191406e-02 -1.260088086128234863e-01 8.848828263580799103e-03 -9.284920990467071533e-02 1.369419544935226440e-01 -4.188917577266693115e-02 -2.132368087768554688e-01 1.062562763690948486e-01 -5.012128502130508423e-02 -1.018982473760843277e-02 7.164997077779844403e-05 -7.353691011667251587e-02 -3.340530395507812500e-02 -2.842007018625736237e-02 7.682335097342729568e-03 -1.579165756702423096e-01 -4.148008301854133606e-02 9.983532130718231201e-02 -6.498050689697265625e-02 4.847983270883560181e-02 1.192845925688743591e-01 -7.835859060287475586e-02 -2.535731159150600433e-02 1.098268404603004456e-01 1.952298101969063282e-03 -1.071759536862373352e-01 -1.003412678837776184e-01 -8.166215568780899048e-02 -1.125840246677398682e-01 -2.856967970728874207e-02 -6.600982695817947388e-02 -5.140582472085952759e-02 -2.905879318714141846e-01 1.018846556544303894e-01 4.694890603423118591e-02 -4.822484031319618225e-02 7.574709504842758179e-02 9.283453971147537231e-02 -1.315105706453323364e-01 -1.762617193162441254e-02 -1.258519827388226986e-03 -1.773573085665702820e-02 -2.105764485895633698e-02 -7.915516197681427002e-02 1.035393327474594116e-01 1.049077659845352173e-01 -2.363283745944499969e-02 6.369972229003906250e-02 -3.626012802124023438e-02 -1.812502555549144745e-02 1.132795810699462891e-01 1.058048978447914124e-01 6.602042168378829956e-02 -9.219322353601455688e-02 7.717540860176086426e-02 3.742544353008270264e-02 -6.454680114984512329e-02 -6.568623334169387817e-02 -9.628748893737792969e-02 1.856838762760162354e-01 -1.096779331564903259e-01 -1.178974062204360962e-01 -1.042172610759735107e-01 -6.701330840587615967e-02 7.288070023059844971e-02 9.406118653714656830e-03 5.115092545747756958e-02 9.341572970151901245e-02 -1.858202517032623291e-01 -7.245228439569473267e-02 -5.989376083016395569e-02 8.346121013164520264e-02 1.055293250828981400e-02 -1.631327867507934570e-01 -1.426964700222015381e-01 3.490697592496871948e-02 1.347257643938064575e-01 -8.037729561328887939e-02 4.695850983262062073e-02 4.512761160731315613e-02 -3.714742511510848999e-02 3.285426273941993713e-02 -1.369563788175582886e-01 -4.625071771442890167e-03 1.908374018967151642e-02 8.251091837882995605e-02 -3.448035567998886108e-02 -5.796654894948005676e-02 -7.342885434627532959e-02 -2.137265801429748535e-01 -8.448991924524307251e-03 1.659330278635025024e-01 -1.385710202157497406e-02 -4.161416739225387573e-02 -2.116624824702739716e-02 2.161719836294651031e-02 -1.234971266239881516e-02 -4.901331663131713867e-02 6.802523881196975708e-02 2.009403705596923828e-02 4.186414927244186401e-02 1.527748405933380127e-01 5.605385452508926392e-02 1.359668523073196411e-01 1.068137884140014648e-01 5.611843429505825043e-03 1.291533708572387695e-01 -7.134909182786941528e-02 -1.159542351961135864e-01 1.458845008164644241e-02 -1.337299048900604248e-01 -1.091096922755241394e-01 4.961411003023386002e-03 -2.065104898065328598e-03 -1.445691008120775223e-02 -1.462264358997344971e-01 -1.505051553249359131e-02 7.284642755985260010e-02 1.693002432584762573e-01 3.752065077424049377e-02 1.345853693783283234e-02 5.175897851586341858e-02 1.475439071655273438e-01 1.839322969317436218e-02 4.510710015892982483e-03 -1.938561648130416870e-01 -7.328590750694274902e-02 -5.487915873527526855e-02 -1.887953281402587891e-02 6.779754906892776489e-02 -7.075024396181106567e-02 -4.758470132946968079e-02 -1.944442391395568848e-01 -1.198023408651351929e-01 -3.678392618894577026e-02 -1.302086114883422852e-01 1.517733782529830933e-01 2.381402403116226196e-01 4.126916453242301941e-02 1.582816988229751587e-01 -6.626261025667190552e-02 8.478403836488723755e-02 8.485896885395050049e-02 1.060189753770828247e-01 -1.227676793932914734e-01 9.825801849365234375e-02 1.921839863061904907e-01 1.632397174835205078e-01 6.690461933612823486e-02 5.926018953323364258e-02 -3.178032860159873962e-02 1.025234311819076538e-01 3.704946115612983704e-02 -5.912547558546066284e-02 -1.149638816714286804e-01 -1.789424270391464233e-01 -8.765698969364166260e-02 -1.960210874676704407e-02 1.051762476563453674e-01 -1.716150902211666107e-02 -1.741828620433807373e-01 -1.133123263716697693e-01 4.810209572315216064e-02 -1.182647049427032471e-02 1.416233181953430176e-02 -7.134328037500381470e-02 -9.979661554098129272e-02 -6.522834300994873047e-02 -6.219840794801712036e-02 -7.445971015840768814e-03 -4.634309932589530945e-02 -9.630953520536422729e-02 9.154593199491500854e-02 -2.161019481718540192e-02 3.488288074731826782e-02 -4.030130058526992798e-02 -6.260255724191665649e-02 9.916573762893676758e-03 -5.817355122417211533e-03 -1.940989941358566284e-01 6.024689413607120514e-03 -2.338317632675170898e-01 3.247297182679176331e-02 -9.885407239198684692e-02 1.740023307502269745e-02 -8.747983723878860474e-02 -6.534211337566375732e-02 1.752222478389739990e-01 -4.142205417156219482e-02 -5.418290942907333374e-02 9.205856174230575562e-02 4.246914759278297424e-02 -7.124395668506622314e-02 -6.085800006985664368e-02 2.611106261610984802e-03 -1.445327103137969971e-01 -1.736427843570709229e-01 7.202289998531341553e-02 1.071176528930664062e-01 -7.712707854807376862e-03 -8.075086772441864014e-02 -8.256655931472778320e-02 -8.362285047769546509e-02 9.912627749145030975e-03 7.190849632024765015e-02 -7.962697744369506836e-02 -1.220054477453231812e-01 4.464127123355865479e-02 7.794234156608581543e-02 8.305484056472778320e-02 -6.273015588521957397e-02 -1.524239480495452881e-01 -6.851132959127426147e-02 -2.012787200510501862e-02 5.680288746953010559e-02 -2.897148393094539642e-02 -2.985722571611404419e-02 4.943804815411567688e-02 1.128457486629486084e-01 -5.064953118562698364e-02 -5.579646676778793335e-03 -4.559578746557235718e-02 1.363789886236190796e-01 -1.078305952250957489e-02 -1.420166995376348495e-02 6.896565109491348267e-02 2.740229852497577667e-02 2.090599387884140015e-02 -1.370638608932495117e-01 -1.039379462599754333e-02 -9.127464145421981812e-02 -2.770111337304115295e-02 -5.287222191691398621e-02 -7.158455997705459595e-02 -6.164520606398582458e-02 3.954125195741653442e-02 -1.460560597479343414e-02 1.052172034978866577e-01 3.650462254881858826e-02 -5.576153099536895752e-02 3.135281205177307129e-01 -6.464232504367828369e-02 3.200723603367805481e-02 -9.375039488077163696e-02 -1.371928304433822632e-01 -3.999045863747596741e-02 2.542094700038433075e-02 -9.608352184295654297e-02 2.529739737510681152e-01 -1.056490093469619751e-01 1.424384266138076782e-01 -1.110979095101356506e-01 1.022445112466812134e-01 -7.726984471082687378e-02 -1.564811319112777710e-01 9.192903339862823486e-02 5.389131233096122742e-02 2.300649136304855347e-01 -1.776045858860015869e-01 -5.901833623647689819e-02 4.164458438754081726e-02 5.775197967886924744e-02 6.345396488904953003e-02 -3.414951637387275696e-02 1.719627380371093750e-01 1.322114318609237671e-01 -4.795341193675994873e-02 -2.012667804956436157e-02 -5.126930773258209229e-02 -2.435760386288166046e-02 -6.392842531204223633e-02 6.294374912977218628e-02 8.904213458299636841e-02 -7.168937474489212036e-02 1.067880439222790301e-04 5.777939688414335251e-03 9.606049954891204834e-02 1.196782439947128296e-01 -6.179123371839523315e-02 -1.180242970585823059e-01 3.640095889568328857e-02 -1.452752295881509781e-02 -1.670873761177062988e-01 -1.883390247821807861e-01 1.449708342552185059e-01 -1.531173288822174072e-01 -8.928801864385604858e-02 2.918602526187896729e-02 -2.104026637971401215e-02 -5.204744264483451843e-02 -5.384039878845214844e-02 -6.944109499454498291e-02 -1.495354901999235153e-02 -4.055405408143997192e-02 -8.300327509641647339e-02 -2.718958631157875061e-02 7.527626305818557739e-02 -1.383074373006820679e-01 1.755614392459392548e-02 6.788738071918487549e-02 -8.208592981100082397e-02 -4.925720859318971634e-03 4.503140691667795181e-03 1.043601185083389282e-01 6.827726215124130249e-02 -8.646065741777420044e-02 -7.043340592645108700e-04 2.931603975594043732e-02 -6.101598963141441345e-02 -5.275049433112144470e-02 5.116325989365577698e-02 1.407862734049558640e-02 -5.644574016332626343e-02 -2.658904157578945160e-02 -2.288602143526077271e-01 -2.518856525421142578e-02 -1.387883909046649933e-02 -1.166995912790298462e-01 -9.769444912672042847e-02 4.697589948773384094e-02 2.166352421045303345e-02 -3.143109381198883057e-02 1.331357657909393311e-01 -6.750381737947463989e-02 3.148553520441055298e-02
2.299470454454421997e-02 1.052390486001968384e-01 -1.427315175533294678e-01 4.563049972057342529e-02 3.322124481201171875e-02 -4.710861295461654663e-02 9.391219168901443481e-02 1.246743053197860718e-01 1.930158771574497223e-02 -7.954496145248413086e-02 -4.625258967280387878e-02 -6.457031518220901489e-02 3.736608102917671204e-02 -8.987288922071456909e-02 7.346726953983306885e-02 1.978453062474727631e-02 4.693397134542465210e-02 8.137502521276473999e-02 1.593844220042228699e-02 -1.063081696629524231e-01 -2.144277654588222504e-02 1.511125564575195312e-01 3.856806084513664246e-02 -8.161327242851257324e-02 1.496973335742950439e-01 6.136084347963333130e-02 -6.530661135911941528e-02 -9.855999052524566650e-02 6.150132045149803162e-02 4.688848555088043213e-02 2.816473133862018585e-02 1.293910592794418335e-01 -1.786166615784168243e-02 -7.135048508644104004e-02 9.708599746227264404e-02 5.559764802455902100e-02 -7.163875550031661987e-02 4.230299592018127441e-02 6.109059602022171021e-02 2.529964037239551544e-02 -6.340663135051727295e-02 -1.216996908187866211e-01 9.242933243513107300e-03 -8.133070915937423706e-02 -4.478855803608894348e-02 2.575514838099479675e-02 -6.439728289842605591e-02 -6.002648267894983292e-03 2.092367596924304962e-02 2.084182109683752060e-03 1.678804457187652588e-01 2.421080693602561951e-02 1.904300302267074585e-01 -5.843894183635711670e-02 1.144311353564262390e-01 -2.711190097033977509e-02 4.350350424647331238e-02 -4.308898374438285828e-02 9.182631224393844604e-02 2.645811811089515686e-02 5.957441404461860657e-03 -1.474976539611816406e-01 -8.734053373336791992e-02 3.288584202527999878e-02 6.978809833526611328e-02 -6.980556994676589966e-02 1.554231643676757812e-01 -5.030532926321029663e-02 -4.822960495948791504e-02 4.128858074545860291e-02 1.935785710811614990e-01 1.056446582078933716e-01 1.445855051279067993e-01 4.395146667957305908e-02 -2.763630822300910950e-03 -5.517530813813209534e-02 -6.583895534276962280e-02 -9.215789847075939178e-03 6.716090440750122070e-02 -1.283222623169422150e-02 -2.030837722122669220e-02 -6.177839264273643494e-02 -9.954612702131271362e-03 -1.969962567090988159e-02 -1.055703982710838318e-01 -6.480756402015686035e-02 -1.377859432250261307e-02 -2.333991043269634247e-02 -1.914202794432640076e-02 -6.738851964473724365e-02 3.875356167554855347e-02 1.157496050000190735e-01 -1.742684245109558105e-01 8.002146147191524506e-03 -6.243718788027763367e-02 -1.591879278421401978e-01 8.190936595201492310e-02 2.019358985126018524e-02 1.605122983455657959e-01 -9.341764450073242188e-02 4.618160426616668701e-02 -1.154150739312171936e-01 -7.605049014091491699e-02 1.038268804550170898e-01 -1.010223198682069778e-02 9.340383112430572510e-02 4.289683327078819275e-02 1.285458356142044067e-02 8.230304718017578125e-02 -5.817631632089614868e-02 6.027981638908386230e-02 -3.970854356884956360e-02 8.083264343440532684e-03 5.410274118185043335e-02 5.694662779569625854e-02 -5.582309886813163757e-02 6.207438185811042786e-02 -9.529338032007217407e-02 -1.397805809974670410e-01 2.134748101234436035e-01 8.002489805221557617e-03 -6.662978976964950562e-02 -4.851981252431869507e-02 -2.087008208036422729e-02 -8.239749819040298462e-03 -6.887339055538177490e-02 9.842307120561599731e-02 -1.542723830789327621e-02 8.030372112989425659e-02 -9.814862906932830811e-02 -5.988888442516326904e-02 7.344957906752824783e-03 -5.881029739975929260e-02 4.353043809533119202e-02 -5.886166915297508240e-02 -3.927778080105781555e-02 6.156161427497863770e-02 3.194308653473854065e-02 4.673392698168754578e-02 4.538558796048164368e-02 1.813115328550338745e-01 4.891426116228103638e-02 -6.586616486310958862e-02 -9.936081618070602417e-02 -3.971789404749870300e-02 -4.166957736015319824e-02 -4.856589809060096741e-02 -5.761785060167312622e-02 6.465588510036468506e-02 -1.255264878273010254e-01 1.364324539899826050e-01 1.180272363126277924e-02 -1.477434765547513962e-02 1.230104938149452209e-01 -3.885853663086891174e-02 4.045161604881286621e-02 7.382901757955551147e-02 4.883086308836936951e-03 1.906942762434482574e-02 -2.229842729866504669e-02 -7.043293863534927368e-02 1.153003349900245667e-01 -1.039414294064044952e-02 -9.929608553647994995e-02 5.237966775894165039e-02 -5.837485194206237793e-03 7.327609509229660034e-02 3.881102800369262695e-02 -3.336372599005699158e-02 -1.123023778200149536e-01 9.177859872579574585e-02 7.668113708496093750e-02 -2.626129053533077240e-02 2.583392430096864700e-03 -1.312134861946105957e-01 -4.420262761414051056e-03 1.715525053441524506e-02 2.384571358561515808e-02 2.322537750005722046e-01 -1.754374504089355469e-01 -1.309994794428348541e-02 1.225320771336555481e-01 3.456807136535644531e-02 5.732997879385948181e-02 3.429979830980300903e-02 1.009691879153251648e-01 -8.518347749486565590e-05 -6.505156308412551880e-02 -3.084284625947475433e-02 4.787986353039741516e-02 4.767562076449394226e-02 -2.725339308381080627e-02 5.485997721552848816e-02 7.809110451489686966e-03 3.663322702050209045e-02 1.043771803379058838e-01 6.445775181055068970e-02 1.191522255539894104e-01 -1.349039077758789062e-01 -5.504705756902694702e-02 2.070014327764511108e-01 1.149681657552719116e-01 2.698904834687709808e-02 -6.607593595981597900e-02 -8.326522260904312134e-02 4.424932226538658142e-02 -3.613477945327758789e-02 8.162920922040939331e-02 3.892320394515991211e-02 3.559403494000434875e-02 6.715092062950134277e-02 4.727232456207275391e-02 3.876949474215507507e-02 -2.511863969266414642e-02 -4.321929812431335449e-02 -8.290561288595199585e-02 -1.510094255208969116e-01 -3.099226392805576324e-02 1.085926517844200134e-01 -9.747786447405815125e-03 1.380342096090316772e-01 8.809093385934829712e-02 9.624605067074298859e-03 -5.872451514005661011e-02 5.840396881103515625e-02 7.857277989387512207e-02 6.664665881544351578e-03 -1.512597780674695969e-02 1.571561396121978760e-02 7.926935702562332153e-02 -6.587179005146026611e-02 3.058085590600967407e-02 -8.672582358121871948e-02 5.239381641149520874e-02 -1.937451958656311035e-02 1.397679150104522705e-01 2.505356259644031525e-02 -1.255835443735122681e-01 7.976581156253814697e-02 -5.764307826757431030e-02 8.684886246919631958e-02 -7.112102955579757690e-02 -8.489955216646194458e-02 -1.807405799627304077e-01 1.779965125024318695e-02 -1.921199262142181396e-02 -3.222636505961418152e-02 -7.781645748764276505e-03 3.010456450283527374e-02 4.739373689517378807e-04 -8.216042071580886841e-02 -1.206543594598770142e-01 4.385725036263465881e-02 -1.433997005224227905e-01 9.198786318302154541e-02 1.349844504147768021e-02 -5.641386285424232483e-02 5.517430230975151062e-02 5.130115523934364319e-02 -5.350176617503166199e-02 -2.040958963334560394e-02 4.882499575614929199e-02 -8.194577693939208984e-02 2.355366013944149017e-02 7.268486171960830688e-02 8.453134447336196899e-02 -2.529273927211761475e-02 7.169212400913238525e-02 -1.722854971885681152e-01 8.551658131182193756e-03 4.637432098388671875e-02 2.200389951467514038e-01 1.716658443911001086e-04 6.507190316915512085e-02 -1.835344359278678894e-02 -6.924445927143096924e-02 4.316695034503936768e-02 2.075820788741111755e-02 7.273537921719253063e-04 -3.563295677304267883e-02 4.325013980269432068e-02 -1.415156871080398560e-01 -5.812999233603477478e-02 1.682733185589313507e-02 -2.951709181070327759e-02 -1.046062111854553223e-01 1.936358772218227386e-02 -1.263401955366134644e-01 1.712180301547050476e-02 2.004805207252502441e-02 4.239203035831451416e-02 6.127702444791793823e-02 3.379232808947563171e-02 -7.090071588754653931e-02 1.231118142604827881e-01 -2.211778983473777771e-02 -5.662213638424873352e-02 1.831446588039398193e-01 3.213467821478843689e-02 -1.942845806479454041e-02 -1.365382876247167587e-02 3.495979355648159981e-03 2.457445114850997925e-02 6.746049970388412476e-02 -1.916764304041862488e-02 3.183401376008987427e-02 -8.750973269343376160e-03 -5.058777704834938049e-02 4.037347808480262756e-02 -5.960637703537940979e-02 -9.270274639129638672e-02 2.991336211562156677e-02 1.777907758951187134e-01 -1.606303453445434570e-02 1.097716838121414185e-01 1.405203640460968018e-01 -6.786665320396423340e-02 8.412235975265502930e-02 -9.595563262701034546e-02 -6.226965785026550293e-02 -2.496088482439517975e-02 4.879175871610641479e-02 -2.677360549569129944e-02 -2.984099835157394409e-02 2.664395235478878021e-02 1.098390594124794006e-01 1.346741919405758381e-03 -8.112661540508270264e-02 -9.393877536058425903e-02 -3.748644143342971802e-02 -2.269264683127403259e-02 -8.426398783922195435e-02 9.186384081840515137e-02 2.627125941216945648e-03 -3.544001281261444092e-02 1.093963533639907837e-01 -2.383441291749477386e-02 -5.169341713190078735e-02 3.950501233339309692e-02 1.053820922970771790e-01 -1.989649049937725067e-02 5.436350032687187195e-02 -2.173482067883014679e-02 8.705744892358779907e-02 1.095160990953445435e-01 4.223955795168876648e-02 -3.855611383914947510e-02 -5.141205620020627975e-03 5.029477551579475403e-02 3.397844731807708740e-02 -7.095850259065628052e-02 9.350150823593139648e-02 -1.093256324529647827e-01 7.425196468830108643e-02 1.604102402925491333e-01 1.218923181295394897e-01 -2.203151583671569824e-02 1.744554750621318817e-02 -3.220997378230094910e-02 2.660313993692398071e-02 -6.195269525051116943e-02 -6.454555690288543701e-02 1.414117068052291870e-01 -9.213837236166000366e-02 -1.207363903522491455e-01 5.267749726772308350e-02 4.052672162652015686e-02 1.319596078246831894e-02 6.835603713989257812e-02 -7.981135696172714233e-02 4.766851663589477539e-03 -8.304122835397720337e-02 -6.116594001650810242e-02 -1.248864978551864624e-01 -5.430689081549644470e-03 4.912411421537399292e-02 -6.168636679649353027e-02 1.546836551278829575e-02 -1.751704700291156769e-02 -1.517113000154495239e-01 -4.410463571548461914e-02 1.193769201636314392e-01 -3.249192610383033752e-02 9.933613240718841553e-02 -8.220125734806060791e-02 -5.084497109055519104e-02 -4.777776449918746948e-02 -2.783332578837871552e-02 2.935574948787689209e-01 9.153407067060470581e-02 2.408848702907562256e-02 -5.449461564421653748e-02 8.491937071084976196e-02 -1.855867728590965271e-02 1.814567297697067261e-01 2.099882438778877258e-02 -9.277866780757904053e-02 -4.678869992494583130e-02 9.385629743337631226e-02 1.817469112575054169e-02 -8.990627527236938477e-02 2.439561672508716583e-02 3.648008406162261963e-02 3.395125642418861389e-02 -6.439016759395599365e-02 7.758915424346923828e-02 4.571190103888511658e-02 2.320884540677070618e-02 3.814905136823654175e-02 -3.137012198567390442e-02 1.414702534675598145e-01 -5.205949768424034119e-02 -6.182185560464859009e-02 -7.127323001623153687e-02 -1.302301301620900631e-03 -5.641909316182136536e-02 -5.369029566645622253e-02 -3.085888735949993134e-02 6.802494823932647705e-02 -1.566796749830245972e-01 2.381585240364074707e-01 2.362257987260818481e-02 -4.609073046594858170e-03 -1.540363878011703491e-01 1.561559587717056274e-01 1.177776139229536057e-02 6.569096446037292480e-02 -1.733384467661380768e-02 -6.168524548411369324e-02 1.118174940347671509e-01 7.734034955501556396e-02 8.278483152389526367e-02 -4.072365816682577133e-03 2.715718559920787811e-02 8.469361811876296997e-02 4.658814892172813416e-02 3.777405992150306702e-02 -2.305409498512744904e-02 -8.395030349493026733e-02 -3.182515129446983337e-02 2.566797845065593719e-02 2.473144792020320892e-02 1.181074082851409912e-01 -4.071673750877380371e-02 -1.007663309574127197e-01 3.680796548724174500e-02 -4.124459624290466309e-02 8.871362358331680298e-02 2.020873725414276123e-01 -4.572108015418052673e-02 -9.428435564041137695e-02 8.615488559007644653e-02 1.216793507337570190e-01 -9.412531554698944092e-02 1.855366826057434082e-01 6.698278337717056274e-02 3.280826285481452942e-02 9.143162518739700317e-02 -6.483322381973266602e-02 1.534127742052078247e-01 -5.452677607536315918e-03 -7.786350790411233902e-03 -1.818552426993846893e-02 -7.425549626350402832e-02 2.432203851640224457e-02 -1.835794746875762939e-02 -3.241337090730667114e-02 9.989874809980392456e-02 4.402411729097366333e-02 -1.324985641986131668e-03 8.780773729085922241e-03 -4.097272083163261414e-02 1.505485475063323975e-01 7.217682152986526489e-02 -9.036643803119659424e-02 -8.904041349887847900e-02 3.190655261278152466e-02 3.204707801342010498e-02 5.441807210445404053e-02 -3.127703070640563965e-02 -4.422888159751892090e-02 3.169694170355796814e-02 3.601863607764244080e-02 6.231283023953437805e-02 1.610509902238845825e-01 2.792190387845039368e-02 -8.618348836898803711e-02 1.485423594713211060e-01 -5.478281900286674500e-02 9.382509440183639526e-02 7.520079612731933594e-02 -7.150739431381225586e-03 1.340156793594360352e-02 2.478229813277721405e-02 -5.801015347242355347e-02 7.144212257117033005e-03 -5.131120607256889343e-02 -6.003222987055778503e-02 -4.689523950219154358e-02 3.140928968787193298e-02 2.409519068896770477e-02 2.518079057335853577e-02 -5.008004978299140930e-02 -4.288354516029357910e-02 5.442773178219795227e-02 -1.178899873048067093e-02 -1.449645310640335083e-01 -2.835680544376373291e-02 8.584557101130485535e-03 -1.354959700256586075e-02 -1.277914643287658691e-01 -8.497173339128494263e-02
1.727152764797210693e-01 1.083839759230613708e-01 1.674407534301280975e-02 -3.132013604044914246e-02 -9.218645282089710236e-03 -9.212338179349899292e-02 -8.950828760862350464e-02 9.378071129322052002e-02 -6.347516179084777832e-02 5.311830714344978333e-02 2.571357041597366333e-02 -1.332837063819169998e-02 -6.985356565564870834e-03 5.629647523164749146e-02 -8.033736050128936768e-02 7.380722463130950928e-02 4.492767527699470520e-02 3.218628838658332825e-02 8.419591933488845825e-02 -2.719062613323330879e-03 4.372777044773101807e-02 1.045490279793739319e-01 1.423111259937286377e-01 -8.882188051939010620e-02 2.900917455554008484e-02 -8.593080192804336548e-02 -5.013416334986686707e-02 -9.103696793317794800e-02 7.087704539299011230e-02 -1.638613268733024597e-02 6.648746132850646973e-02 -4.635300720110535622e-04 -8.465362340211868286e-02 -1.373847126960754395e-01 1.444231271743774414e-01 -1.898276619613170624e-02 -2.470593713223934174e-02 6.682386249303817749e-02 3.066305257380008698e-02 5.208439379930496216e-02 -3.084289375692605972e-03 -2.644058130681514740e-02 1.029325369745492935e-02 -6.254655122756958008e-02 -1.643266715109348297e-02 6.613736599683761597e-02 -1.157663390040397644e-02 2.004569023847579956e-02 -1.018886268138885498e-01 5.141671746969223022e-02 4.101687669754028320e-02 1.034618541598320007e-01 -3.613975597545504570e-03 -1.125517487525939941e-01 8.958803489804267883e-03 2.033437974750995636e-02 7.452561706304550171e-02 -1.880300790071487427e-02 -7.015403360128402710e-03 -8.007337152957916260e-02 -1.532951891422271729e-01 5.231044068932533264e-02 -3.410504758358001709e-02 -5.763410404324531555e-02 7.703270018100738525e-02 -1.257331520318984985e-01 1.221188977360725403e-01 4.799083992838859558e-02 -1.372779458761215210e-01 -1.780117675662040710e-02 1.046398468315601349e-02 1.976384222507476807e-02 3.924205899238586426e-02 -7.921394705772399902e-02 8.188287168741226196e-02 -1.226833164691925049e-01 -2.399493707343935966e-03 6.047377735376358032e-02 -1.488635540008544922e-01 -8.056065440177917480e-02 -2.850700169801712036e-02 -1.288786903023719788e-02 8.110295981168746948e-03 -2.260859496891498566e-02 -4.101289808750152588e-02 9.596406668424606323e-02 5.954442918300628662e-02 -2.664215862751007080e-03 -3.592194244265556335e-02 3.453534096479415894e-02 5.564277246594429016e-02 3.519884869456291199e-02 4.471779975574463606e-04 -8.323260396718978882e-02 7.938814163208007812e-02 6.963172554969787598e-02 5.681831389665603638e-02 -4.535597283393144608e-03 6.545972079038619995e-02 -1.166268996894359589e-02 8.203552663326263428e-02 -3.556790947914123535e-02 6.929995119571685791e-02 1.158672291785478592e-02 -1.125969514250755310e-01 -1.970304176211357117e-03 1.997118815779685974e-02 -2.381015801802277565e-04 1.694449596107006073e-02 2.510519698262214661e-02 1.795661635696887970e-02 -1.327859014272689819e-01 4.671737551689147949e-02 1.150683835148811340e-01 1.074943505227565765e-02 9.313275665044784546e-02 -5.242921039462089539e-02 -6.217223405838012695e-02 -1.744544506072998047e-01 5.065685510635375977e-02 -2.170038223266601562e-02 -1.568632945418357849e-02 -2.275698073208332062e-02 -2.387177199125289917e-02 1.254312843084335327e-01 -7.645932585000991821e-02 5.630853027105331421e-02 6.034713704138994217e-03 3.685686737298965454e-02 -4.474070668220520020e-02 -6.117192655801773071e-02 -2.045660279691219330e-02 -1.932461559772491455e-01 8.738537132740020752e-02 -3.543408960103988647e-02 -2.831724658608436584e-02 -3.976462408900260925e-03 1.938459649682044983e-02 -1.175183244049549103e-02 -2.505039423704147339e-02 1.257246825844049454e-02 1.013284400105476379e-01 -2.010756880044937134e-01 -2.296893112361431122e-02 6.064719706773757935e-02 -1.231527999043464661e-01 -1.333876997232437134e-01 2.588356612250208855e-03 -9.303376078605651855e-02 -1.730488538742065430e-01 -2.093378826975822449e-02 -4.206246137619018555e-02 1.080945599824190140e-02 2.986343950033187866e-02 1.201552897691726685e-01 9.316077828407287598e-02 -3.946074284613132477e-03 -3.416546061635017395e-02 -3.245516866445541382e-02 5.608241632580757141e-02 9.329712390899658203e-02 5.828839167952537537e-02 1.081581488251686096e-01 6.825877726078033447e-02 9.642439335584640503e-02 4.907432943582534790e-02 6.283337622880935669e-02 4.482052754610776901e-03 2.871943823993206024e-02 4.762259498238563538e-02 -3.210156410932540894e-02 6.554491072893142700e-02 -2.344030141830444336e-02 -1.107543800026178360e-02 -3.796389326453208923e-02 -6.126765534281730652e-02 2.597603574395179749e-02 6.112695112824440002e-02 -1.201989967375993729e-02 -5.115219950675964355e-02 -1.717285625636577606e-02 -7.662500441074371338e-02 2.866429043933749199e-03 -3.968438506126403809e-02 1.456208154559135437e-02 -8.988823741674423218e-02 9.319792687892913818e-02 7.215062528848648071e-02 -4.779352620244026184e-02 2.019290253520011902e-02 -5.831345170736312866e-02 -5.974695459008216858e-02 -1.660656742751598358e-02 -2.471351064741611481e-02 2.242904342710971832e-02 9.851738065481185913e-02 -3.581247478723526001e-02 3.854734450578689575e-02 -7.474322617053985596e-02 5.403461679816246033e-02 1.234654709696769714e-01 1.868805848062038422e-02 2.854854613542556763e-02 -9.718926995992660522e-02 -1.012584865093231201e-01 8.880866318941116333e-02 -1.602954864501953125e-01 -7.639033347368240356e-02 -3.719156235456466675e-02 6.276006251573562622e-02 -2.520645856857299805e-01 7.559983432292938232e-02 7.336923480033874512e-02 3.414127230644226074e-02 3.705089166760444641e-02 -3.733540698885917664e-02 -5.647710058838129044e-03 -1.056955382227897644e-01 -4.727239720523357391e-03 5.982014536857604980e-02 -1.328183058649301529e-02 6.524010095745325089e-03 -4.301837459206581116e-02 2.917138300836086273e-02 1.759598590433597565e-02 1.803733035922050476e-02 -5.790603347122669220e-03 -4.575120285153388977e-02 -4.326881468296051025e-02 3.420944139361381531e-02 -5.666048452258110046e-02 5.348299071192741394e-02 -1.504591703414916992e-01 -4.245815053582191467e-02 2.124673500657081604e-02 -1.399667840451002121e-02 -8.221923490054905415e-04 4.111665766686201096e-03 -1.393360830843448639e-02 2.664601989090442657e-02 5.181829258799552917e-02 1.583254546858370304e-03 -2.159162797033786774e-02 -3.710287436842918396e-02 7.555885240435600281e-03 -8.284155279397964478e-03 -2.965582348406314850e-02 -5.687187239527702332e-02 2.973222360014915466e-02 4.882265999913215637e-02 -1.004092246294021606e-01 -7.021743059158325195e-02 -2.095416188240051270e-03 -1.688648015260696411e-01 2.263902500271797180e-02 1.289301831275224686e-02 -7.575975358486175537e-02 6.399296224117279053e-02 4.028950259089469910e-02 1.000808179378509521e-02 -6.039161235094070435e-02 -5.157602485269308090e-03 2.548545040190219879e-02 1.904927380383014679e-02 -7.640123367309570312e-02 3.301675617694854736e-02 4.589102789759635925e-02 3.208387270569801331e-02 -8.099006116390228271e-02 -1.216531842947006226e-01 6.618756055831909180e-02 1.339484937489032745e-02 -3.322245180606842041e-02 3.635117784142494202e-02 6.524496246129274368e-03 -6.906498689204454422e-03 6.876385957002639771e-02 5.162367224693298340e-02 8.416040986776351929e-02 -3.836973756551742554e-02 1.536504477262496948e-01 -1.767576485872268677e-01 8.152045309543609619e-03 7.474505901336669922e-02 -1.071102395653724670e-01 -5.330740660429000854e-02 -3.615914285182952881e-02 -2.056939601898193359e-01 -5.007438012398779392e-04 2.174113318324089050e-02 -5.024711787700653076e-02 -4.582080617547035217e-02 2.927565388381481171e-02 -1.128636002540588379e-01 2.061856351792812347e-02 -4.291568323969841003e-02 -5.990890786051750183e-02 9.222598746418952942e-03 6.157875992357730865e-03 7.826017215847969055e-03 2.172649838030338287e-02 5.744327791035175323e-03 6.008463725447654724e-02 -6.335098296403884888e-02 9.791647642850875854e-02 1.388583146035671234e-02 6.840603053569793701e-02 -2.307671681046485901e-02 -1.377594843506813049e-02 4.152015224099159241e-02 -7.728185504674911499e-03 9.656463749706745148e-03 -1.777251996099948883e-02 -5.066144466400146484e-02 1.027587503194808960e-01 3.511627018451690674e-02 -5.498183146119117737e-02 1.365654766559600830e-01 -6.580275297164916992e-02 6.399447470903396606e-02 -5.486312136054039001e-02 1.909972541034221649e-02 -6.656755506992340088e-02 -2.094964496791362762e-02 -5.528973881155252457e-03 -4.451158270239830017e-02 -1.506283506751060486e-02 -5.280946940183639526e-02 -4.187485948204994202e-02 -5.574962496757507324e-02 -8.102581650018692017e-02 -7.706299424171447754e-02 -3.551680967211723328e-02 4.801366478204727173e-02 -1.062403246760368347e-02 -1.618163473904132843e-02 1.099921092391014099e-01 -7.938912510871887207e-02 1.244539916515350342e-01 -5.224036797881126404e-02 -3.053578175604343414e-02 1.985102146863937378e-02 2.940208837389945984e-02 1.023042872548103333e-01 1.187644228339195251e-01 4.029470682144165039e-02 2.520452253520488739e-02 6.229552254080772400e-02 8.306518942117691040e-02 -6.456364691257476807e-02 1.603490114212036133e-02 1.324938833713531494e-01 -4.273555427789688110e-02 -6.110432371497154236e-02 1.487981677055358887e-01 6.832272559404373169e-02 5.612800270318984985e-02 -1.022040620446205139e-01 -1.627209782600402832e-02 -8.209813386201858521e-03 -5.344466865062713623e-02 -7.322566956281661987e-02 -1.056994646787643433e-01 7.355275005102157593e-02 -5.525534227490425110e-02 -4.264616221189498901e-02 7.463429868221282959e-02 -1.389752142131328583e-02 -9.649679809808731079e-02 -1.508964151144027710e-01 -3.269392624497413635e-02 -1.687748134136199951e-01 2.690677531063556671e-03 -1.149611249566078186e-01 -6.798186898231506348e-02 -2.233793586492538452e-02 4.717062041163444519e-02 -1.338141970336437225e-02 -9.499114006757736206e-03 -9.706715494394302368e-02 -3.655758127570152283e-02 1.054103970527648926e-01 -2.282490022480487823e-02 -1.330663915723562241e-02 -6.410779803991317749e-02 -1.258471906185150146e-01 -1.286401227116584778e-02 -2.699810452759265900e-02 1.275006532669067383e-01 -4.652429372072219849e-02 -3.236832097172737122e-02 5.046494305133819580e-02 -2.203226648271083832e-02 3.536240756511688232e-02 7.327147759497165680e-03 -2.496598474681377411e-02 -5.426175519824028015e-02 1.886642873287200928e-01 9.121546149253845215e-02 1.759745776653289795e-01 -1.026954576373100281e-01 8.811853826045989990e-03 -1.667598634958267212e-01 3.996003419160842896e-02 -6.112420186400413513e-02 -5.170007422566413879e-02 2.916785888373851776e-03 -1.598570309579372406e-02 1.572119891643524170e-01 -4.640480130910873413e-02 8.453232795000076294e-02 -5.861663073301315308e-02 -8.397457748651504517e-02 -3.625025227665901184e-02 -6.752821058034896851e-02 -8.906410634517669678e-02 -1.064349245280027390e-02 -1.662119477987289429e-02 -4.991307482123374939e-02 -1.821908056735992432e-01 1.403560042381286621e-01 1.206532120704650879e-02 3.067306708544492722e-03 -1.927878521382808685e-02 5.825885012745857239e-02 -5.256287008523941040e-02 3.779680281877517700e-02 3.543158993124961853e-02 -2.151508815586566925e-02 1.778271608054637909e-02 3.389393538236618042e-02 5.611651390790939331e-02 -2.473810501396656036e-02 -1.040851771831512451e-01 3.209409490227699280e-02 -2.342037111520767212e-02 1.302781887352466583e-02 -1.475121080875396729e-01 -3.563054278492927551e-02 -8.359215408563613892e-02 8.166766166687011719e-02 1.436994783580303192e-02 -5.983144976198673248e-03 -3.606174886226654053e-02 -7.547640055418014526e-02 4.481754451990127563e-02 1.609351933002471924e-01 -2.251259982585906982e-03 7.694226503372192383e-02 -9.129761159420013428e-02 6.475802045315504074e-03 -1.184275466948747635e-02 1.875548437237739563e-02 -1.263185739517211914e-01 9.405227005481719971e-02 -3.291096538305282593e-02 7.791525125503540039e-02 1.065352186560630798e-01 -4.127982258796691895e-02 4.444518685340881348e-02 3.639793395996093750e-02 -1.196307465434074402e-01 -1.270126644521951675e-02 -1.122006401419639587e-01 -3.381638601422309875e-02 -6.053545325994491577e-02 2.774315141141414642e-02 2.004298195242881775e-02 1.503987237811088562e-02 1.139893904328346252e-01 1.958325691521167755e-02 -3.246959671378135681e-02 9.353319555521011353e-02 -6.076246127486228943e-02 -1.023506149649620056e-01 -4.729388747364282608e-03 4.133094474673271179e-02 1.102667823433876038e-01 -1.094599589705467224e-01 1.390033215284347534e-02 -1.205976232886314392e-01 6.694717705249786377e-02 -3.860675496980547905e-04 1.935526356101036072e-02 9.754361212253570557e-02 4.567657038569450378e-02 -3.868887573480606079e-02 1.741530001163482666e-01 -5.934515222907066345e-02 9.414725005626678467e-02 1.086483709514141083e-02 -1.046762987971305847e-02 -5.394941568374633789e-02 -5.240110680460929871e-02 1.904751360416412354e-02 -4.649595171213150024e-02 -6.767053157091140747e-02 4.941808432340621948e-02 -5.123181641101837158e-02 -8.098734170198440552e-02 -5.150521639734506607e-03 -4.207051172852516174e-02 -6.564199179410934448e-02 -7.020154595375061035e-02 -9.846643544733524323e-03 2.251292951405048370e-02 5.105667188763618469e-02 -9.636541828513145447e-03 7.989752292633056641e-02 -1.029627956449985504e-02 -6.414182018488645554e-03 3.778485581278800964e-02
1.285377144813537598e-01 -2.454640530049800873e-02 4.204413667321205139e-02 -3.344570472836494446e-02 1.804970018565654755e-02 -1.454146057367324829e-01 1.762862317264080048e-02 1.130662858486175537e-01 4.998439550399780273e-02 1.243718788027763367e-01 8.253514766693115234e-03 -5.788967479020357132e-03 -8.859233558177947998e-02 6.980929523706436157e-02 -4.941597580909729004e-02 8.857478201389312744e-02 6.313433498144149780e-02 1.627274043858051300e-02 1.095296144485473633e-01 -1.967330463230609894e-02 4.095856845378875732e-02 7.080775499343872070e-02 4.129812121391296387e-02 1.298979520797729492e-01 7.781379669904708862e-02 3.695547580718994141e-02 -1.210506632924079895e-01 -7.800406962633132935e-02 1.038628630340099335e-02 -7.733987271785736084e-02 5.569982528686523438e-02 1.190117895603179932e-01 -9.618844091892242432e-02 -1.775597631931304932e-01 1.326883137226104736e-01 3.962581232190132141e-02 -6.309937685728073120e-02 -2.806445024907588959e-02 6.879669614136219025e-03 7.760622975183650851e-05 4.862879216670989990e-02 6.756760925054550171e-02 3.150498121976852417e-02 -1.585063524544239044e-02 -1.265624538064002991e-02 -5.301273614168167114e-02 -3.031844832003116608e-02 6.865611672401428223e-02 -2.057568728923797607e-02 -2.165480330586433411e-02 1.979462616145610809e-02 8.491033688187599182e-03 -9.594455361366271973e-02 6.579025648534297943e-03 1.410470809787511826e-02 7.325886189937591553e-02 2.569047175347805023e-02 -3.510980680584907532e-02 -1.661688648164272308e-02 9.809418022632598877e-02 6.160914897918701172e-02 7.732820510864257812e-02 -2.241547452285885811e-03 4.223156347870826721e-02 -6.092873867601156235e-03 1.651103049516677856e-01 -7.935190945863723755e-02 1.170535683631896973e-01 -6.736569851636886597e-02 -6.798006943427026272e-04 -1.008834093809127808e-01 6.940089911222457886e-02 -7.182684727013111115e-03 -1.312804035842418671e-02 -9.473854303359985352e-02 -2.663482353091239929e-02 2.331171743571758270e-02 -4.362787678837776184e-02 8.066419512033462524e-02 -1.155509650707244873e-01 -1.118063554167747498e-01 5.347884446382522583e-02 -8.995761722326278687e-02 2.838416956365108490e-02 1.153475642204284668e-01 -1.142738573253154755e-02 6.736227311193943024e-03 7.143421471118927002e-02 -8.761284500360488892e-02 -1.297348588705062866e-01 -4.636977985501289368e-02 -9.480497986078262329e-02 9.143718332052230835e-02 -1.139332726597785950e-01 1.714271306991577148e-02 2.069393731653690338e-02 3.965209424495697021e-02 5.479093641042709351e-02 9.815627709031105042e-03 1.374425143003463745e-01 -3.050014562904834747e-02 3.795212134718894958e-02 -1.566215790808200836e-02 2.596109546720981598e-02 -7.511931657791137695e-02 -5.637624487280845642e-02 1.058876961469650269e-01 6.816097884438931942e-04 1.036235690116882324e-01 -2.001568209379911423e-03 -3.024313831701874733e-03 1.381396651268005371e-01 -1.406761854887008667e-01 3.494222462177276611e-02 2.173227816820144653e-02 8.957429230213165283e-02 -5.862947553396224976e-02 6.522303074598312378e-02 5.022878199815750122e-02 -2.970142289996147156e-02 -9.463008493185043335e-02 -4.774117842316627502e-02 3.453771024942398071e-02 -1.122567728161811829e-01 5.839166045188903809e-02 -3.123137541115283966e-02 6.828045845031738281e-02 4.093194752931594849e-02 2.454573102295398712e-02 1.188402324914932251e-01 1.463422179222106934e-01 5.290745757520198822e-03 6.024319212883710861e-03 1.113561615347862244e-01 5.425823479890823364e-02 -1.940788514912128448e-02 1.274576336145401001e-01 -2.754416503012180328e-02 2.038731612265110016e-02 -2.260699868202209473e-02 -4.758112132549285889e-02 2.613724581897258759e-02 -2.656355127692222595e-02 -5.847337096929550171e-02 6.624609977006912231e-02 3.876443207263946533e-02 -7.072116434574127197e-02 -2.303860895335674286e-02 1.875061988830566406e-01 2.763001993298530579e-02 -5.083662271499633789e-02 -6.947991251945495605e-02 6.817060708999633789e-02 3.970818221569061279e-02 1.102482676506042480e-01 2.603039331734180450e-02 -3.568048030138015747e-02 1.339181959629058838e-01 1.608887128531932831e-02 6.215492263436317444e-02 8.863611519336700439e-02 7.879508286714553833e-02 1.329485028982162476e-01 1.076615825295448303e-01 6.835906300693750381e-03 4.546184465289115906e-02 3.645784780383110046e-02 1.119839493185281754e-03 3.291970118880271912e-02 3.053251840174198151e-02 -1.335123740136623383e-02 1.656281948089599609e-01 7.508178800344467163e-02 -6.368445232510566711e-03 -1.384015008807182312e-02 5.268559977412223816e-02 7.091101258993148804e-02 3.418347239494323730e-02 2.422236464917659760e-02 -1.342863440513610840e-01 2.688316255807876587e-02 -8.940336294472217560e-03 -4.533550702035427094e-03 -3.683936223387718201e-02 -6.532155722379684448e-02 -3.433655574917793274e-02 -3.808739781379699707e-02 1.014122813940048218e-01 1.111661866307258606e-01 6.295020878314971924e-02 -6.243712734431028366e-03 -7.141371816396713257e-02 2.671742811799049377e-02 -8.743511885404586792e-02 -3.072162531316280365e-02 -1.289360690861940384e-03 3.048667684197425842e-02 1.214175578206777573e-02 -3.208452463150024414e-02 -1.868520490825176239e-02 4.376007989048957825e-02 -2.103390842676162720e-01 -5.978934466838836670e-02 6.136110052466392517e-03 2.215089462697505951e-02 -2.421842189505696297e-03 3.687050938606262207e-02 5.356162041425704956e-02 1.509243249893188477e-01 -4.430937021970748901e-02 -9.703850001096725464e-02 -1.148910541087388992e-02 -2.059696801006793976e-02 4.600721970200538635e-02 1.481335163116455078e-01 -6.170902401208877563e-03 -9.772651828825473785e-03 3.214913234114646912e-02 -1.008159145712852478e-01 8.407952636480331421e-02 4.889133200049400330e-02 -1.926679722964763641e-02 3.410165011882781982e-02 2.969397418200969696e-02 6.221863254904747009e-02 7.699932157993316650e-02 3.981862962245941162e-02 1.000106558203697205e-01 -2.104396931827068329e-02 -9.618755429983139038e-02 6.024024263024330139e-02 3.424198925495147705e-02 -6.338950246572494507e-02 1.226646266877651215e-02 -9.151411056518554688e-02 -2.592654526233673096e-02 -1.324540972709655762e-01 -3.834662958979606628e-02 -5.765729001723229885e-04 1.775920391082763672e-02 -2.336645498871803284e-03 4.130278527736663818e-02 4.414286464452743530e-02 -4.176624119281768799e-02 9.858387708663940430e-02 3.103801980614662170e-02 5.985082685947418213e-02 -1.558165415190160275e-03 7.466476410627365112e-03 3.764619678258895874e-02 2.207225747406482697e-02 -4.349414259195327759e-02 6.326858699321746826e-02 -2.117594517767429352e-02 -3.573829308152198792e-02 -1.018507331609725952e-01 -7.113182544708251953e-02 2.068754984065890312e-03 -2.738900249823927879e-03 1.192913297563791275e-02 2.447815798223018646e-02 -8.646103553473949432e-03 3.069632686674594879e-02 3.793060779571533203e-02 4.198091104626655579e-02 6.382939964532852173e-02 -1.113735809922218323e-01 -6.334828585386276245e-02 8.243541419506072998e-02 -4.739582538604736328e-03 6.916668266057968140e-02 -9.604281187057495117e-02 -1.809018664062023163e-02 -1.359370909631252289e-02 -8.950436860322952271e-02 -6.780023872852325439e-02 6.369305402040481567e-02 1.778597757220268250e-02 3.996225446462631226e-02 7.862630300223827362e-03 -3.955784440040588379e-02 9.744670987129211426e-02 -2.157795429229736328e-02 -3.384783118963241577e-02 -4.686446394771337509e-03 1.482934504747390747e-02 5.430641397833824158e-02 -4.692254960536956787e-02 -3.951810300350189209e-03 1.377207413315773010e-02 6.043946486897766590e-04 -6.124935112893581390e-03 -3.431152924895286560e-02 -1.661166548728942871e-01 -1.721193827688694000e-02 -6.992339622229337692e-03 4.928722511976957321e-03 -5.899447016417980194e-03 -9.407320059835910797e-03 -9.376311302185058594e-02 -5.580515041947364807e-02 4.787217080593109131e-02 1.365824043750762939e-01 -7.483573257923126221e-02 4.695982206612825394e-03 -4.381021112203598022e-02 4.235307499766349792e-02 7.384552061557769775e-02 -7.571185380220413208e-02 -9.660007059574127197e-02 -3.310617804527282715e-02 1.107583269476890564e-01 -1.153202429413795471e-01 -2.577303349971771240e-02 1.018160358071327209e-01 -8.542197942733764648e-02 -1.185067072510719299e-01 5.074891448020935059e-02 1.718237251043319702e-01 8.197611570358276367e-02 -1.733946241438388824e-02 7.707343995571136475e-02 1.104322075843811035e-01 -1.830320060253143311e-01 -5.102877691388130188e-02 1.191176399588584900e-01 -1.217921264469623566e-02 9.132691472768783569e-02 -6.647860165685415268e-03 -2.293578535318374634e-02 -1.086400449275970459e-02 1.571620106697082520e-01 -8.814492821693420410e-02 5.707491189241409302e-02 -7.703451439738273621e-03 -4.708463326096534729e-03 2.237569540739059448e-03 -6.109334900975227356e-02 5.104537680745124817e-02 -4.661835357546806335e-02 -7.815224118530750275e-03 -3.181663528084754944e-02 -1.035294607281684875e-01 5.969316884875297546e-02 -1.385623961687088013e-01 3.714929893612861633e-02 -2.833124622702598572e-02 1.876667886972427368e-01 -3.924575075507164001e-02 6.632431410253047943e-03 -1.350727230310440063e-01 -1.098335385322570801e-01 -5.281580984592437744e-02 4.032191261649131775e-02 3.053439222276210785e-02 -1.212618127465248108e-02 1.251445710659027100e-01 4.177059233188629150e-02 6.508856266736984253e-02 -3.394055739045143127e-02 -1.161794811487197876e-01 1.024937164038419724e-02 -2.200622856616973877e-01 3.327998518943786621e-02 -7.176211476325988770e-02 -2.015916258096694946e-01 -2.098540216684341431e-02 5.378749221563339233e-02 6.453074514865875244e-02 1.156066637486219406e-02 1.678592897951602936e-02 -1.493705809116363525e-02 -9.386661462485790253e-03 7.373616844415664673e-02 -2.765507623553276062e-02 3.031880781054496765e-02 1.365612149238586426e-01 -4.034307226538658142e-02 -6.580397486686706543e-02 -7.118263840675354004e-02 -9.030904038809239864e-04 1.480303984135389328e-02 -7.085851579904556274e-02 9.826699271798133850e-03 -5.207683145999908447e-02 -1.107559651136398315e-01 -3.420145809650421143e-02 1.226213872432708740e-01 -2.217612788081169128e-02 1.002187095582485199e-02 -7.310708612203598022e-02 7.192663848400115967e-02 7.892061769962310791e-02 -4.267291352152824402e-02 -4.636570811271667480e-02 -3.057845309376716614e-02 -9.899157285690307617e-02 3.696301206946372986e-02 1.278517395257949829e-01 -8.593054860830307007e-02 6.006512790918350220e-02 7.080987561494112015e-03 5.925993248820304871e-02 -7.913473062217235565e-03 4.153455421328544617e-02 1.020977273583412170e-01 -6.160067860037088394e-04 -2.457923442125320435e-02 -2.364674396812915802e-02 -3.370181843638420105e-02 6.917504221200942993e-02 2.525879244785755873e-04 -7.465384900569915771e-02 8.529110997915267944e-02 -3.539424389600753784e-02 2.180768698453903198e-01 4.697580263018608093e-02 -7.605268806219100952e-02 5.940749868750572205e-02 1.361169964075088501e-01 -3.138168528676033020e-02 -1.343335509300231934e-01 -5.801531951874494553e-03 -9.036947041749954224e-03 -1.383764465572312474e-04 -4.714878275990486145e-02 -1.828185282647609711e-02 3.502802923321723938e-02 -9.468191303312778473e-03 5.010512471199035645e-02 -1.589801348745822906e-02 6.292478740215301514e-02 2.568263188004493713e-02 8.823589980602264404e-02 1.216117013245820999e-02 -1.824837774038314819e-01 1.638130284845829010e-02 -7.783740758895874023e-02 3.098514676094055176e-02 -1.457501947879791260e-01 3.894500434398651123e-02 1.958763301372528076e-01 -3.593396395444869995e-02 2.893566526472568512e-02 -3.583077341318130493e-02 6.599476188421249390e-02 4.563709348440170288e-02 4.891274869441986084e-02 -6.979081779718399048e-02 -9.845101088285446167e-02 1.769677922129631042e-02 -2.113145776093006134e-02 2.896852791309356689e-02 -3.992448747158050537e-02 -1.829574406147003174e-01 4.439197108149528503e-02 1.649555750191211700e-02 2.412001229822635651e-02 -4.420007020235061646e-02 -2.296638488769531250e-02 1.633102819323539734e-02 -9.204751811921596527e-03 1.297640707343816757e-02 -6.762341596186161041e-03 -1.146457064896821976e-02 6.758546829223632812e-02 5.142379086464643478e-03 -9.355029906146228313e-04 3.229884058237075806e-02 1.090740710496902466e-01 -2.762308530509471893e-02 5.125700030475854874e-03 -3.954746760427951813e-03 -3.362868353724479675e-02 -7.170566916465759277e-02 -3.825999051332473755e-02 -7.642507553100585938e-03 -1.108879148960113525e-01 -3.328685089945793152e-02 -4.386444762349128723e-02 6.185024511069059372e-03 6.265104562044143677e-02 1.170684397220611572e-02 1.248689647763967514e-02 1.324701961129903793e-02 -6.181842647492885590e-03 -4.138932749629020691e-02 1.343034505844116211e-01 2.360638976097106934e-02 5.760932341217994690e-02 -1.213796883821487427e-01 -1.048302836716175079e-02 -3.281380608677864075e-02 8.052148856222629547e-03 -3.443197906017303467e-02 6.054224446415901184e-02 1.086896168999373913e-03 -5.768949165940284729e-02 5.740795284509658813e-02 -9.508224576711654663e-02 -2.457731217145919800e-02 4.553321748971939087e-02 -8.966839313507080078e-02 -4.905387386679649353e-02 -3.441947326064109802e-02 5.008973646908998489e-03 -3.852635622024536133e-02 -5.642072856426239014e-02 1.678602993488311768e-01 -1.378188878297805786e-01 -2.027288824319839478e-02 -6.619062274694442749e-03
1.441850364208221436e-01 1.704942405922338367e-05 3.583106398582458496e-02 1.364870071411132812e-01 1.306875492446124554e-03 4.828925430774688721e-02 6.653302162885665894e-02 1.170933991670608521e-01 5.271790921688079834e-02 9.105285257101058960e-02 5.039010196924209595e-02 -4.047181084752082825e-02 1.860490441322326660e-01 2.396864295005798340e-01 -4.902915284037590027e-02 1.452673524618148804e-01 -3.501624986529350281e-02 -6.739358603954315186e-02 -1.092744469642639160e-01 5.583993345499038696e-02 1.868581324815750122e-01 -2.222283743321895599e-02 -1.769783720374107361e-02 1.732735522091388702e-02 -3.084361739456653595e-02 -3.902869671583175659e-02 -5.822742357850074768e-02 2.091793902218341827e-02 6.357880681753158569e-02 6.879835575819015503e-02 4.264608398079872131e-02 -2.499479241669178009e-02 -8.553566783666610718e-02 7.748411502689123154e-03 1.241689249873161316e-01 5.718709900975227356e-02 -8.914206176996231079e-02 -6.192107498645782471e-02 -1.582781039178371429e-02 -4.820139333605766296e-02 -1.380372494459152222e-01 2.656939253211021423e-02 1.163497492671012878e-01 2.988502942025661469e-02 -6.197319924831390381e-02 -3.289686888456344604e-02 -9.415411949157714844e-02 -7.805859297513961792e-02 3.669504076242446899e-02 4.793083667755126953e-02 9.578815847635269165e-02 -4.399074986577033997e-02 2.403350733220577240e-02 6.116541102528572083e-03 2.891334891319274902e-02 -7.563460618257522583e-02 1.719025969505310059e-01 -5.821239203214645386e-02 6.926032155752182007e-02 -1.628697104752063751e-02 -1.637194072827696800e-04 1.506780833005905151e-01 2.446866221725940704e-02 -1.122697964310646057e-01 -6.557904928922653198e-02 1.025318726897239685e-01 -5.329400300979614258e-02 2.505208551883697510e-01 -7.796070724725723267e-02 4.981038719415664673e-02 1.089834049344062805e-01 -1.127924397587776184e-02 9.702584706246852875e-03 7.022907584905624390e-02 -5.822599306702613831e-02 -4.159333184361457825e-02 -6.558988243341445923e-02 -1.993871759623289108e-03 -9.147893637418746948e-03 -2.862280607223510742e-02 8.963024616241455078e-02 -6.997676100581884384e-03 1.315475106239318848e-01 6.075981259346008301e-02 6.501439958810806274e-02 1.306386440992355347e-01 -1.607570201158523560e-01 2.927470952272415161e-02 1.704342961311340332e-01 -1.462274044752120972e-01 1.167291700839996338e-01 -8.153540641069412231e-02 -2.965038828551769257e-02 1.712788268923759460e-02 5.038087815046310425e-02 -8.955159038305282593e-02 4.402319341897964478e-02 6.217117235064506531e-02 -8.365340530872344971e-02 8.012884110212326050e-02 -1.069745495915412903e-01 -3.316689655184745789e-02 -1.168414130806922913e-01 -6.135577801614999771e-03 2.986641973257064819e-02 -3.822517022490501404e-02 -5.439844354987144470e-02 9.049565345048904419e-02 3.233401477336883545e-02 1.142527684569358826e-01 4.740360192954540253e-03 1.195520684123039246e-01 2.647879160940647125e-02 1.766471378505229950e-02 6.115602701902389526e-02 5.102344322949647903e-03 6.342507898807525635e-02 8.085078001022338867e-02 5.866240337491035461e-02 -4.343206062912940979e-02 7.706683874130249023e-02 1.106360778212547302e-01 -4.896011203527450562e-03 -1.341375261545181274e-01 3.077183477580547333e-02 4.691009223461151123e-02 1.313446909189224243e-01 3.430871665477752686e-02 -7.719830423593521118e-02 1.566863507032394409e-01 9.807492606341838837e-04 8.297796361148357391e-03 -7.985600829124450684e-02 -2.242403849959373474e-02 8.578387647867202759e-02 -1.459569763392210007e-02 -1.921751499176025391e-01 -3.635265678167343140e-02 1.177022531628608704e-01 -1.696479506790637970e-02 1.812991201877593994e-01 8.590721338987350464e-02 -4.531157389283180237e-02 -6.304761767387390137e-02 6.203924864530563354e-02 1.107328906655311584e-01 9.132402390241622925e-02 -4.067180678248405457e-02 -4.490475356578826904e-02 -3.577690199017524719e-02 -6.833191215991973877e-02 -7.502781599760055542e-02 2.467975318431854248e-01 6.093995273113250732e-02 -2.867735363543033600e-02 -3.880110010504722595e-02 1.604068093001842499e-02 1.928251683712005615e-01 -2.476509287953376770e-02 6.173280626535415649e-02 -2.105820365250110626e-02 3.445684164762496948e-02 1.346648950129747391e-02 2.589986473321914673e-02 1.675608009099960327e-01 1.556088179349899292e-01 3.833532333374023438e-02 9.834453463554382324e-02 2.901620790362358093e-02 1.871467381715774536e-01 -2.013454213738441467e-03 -7.949259132146835327e-02 7.857827097177505493e-02 -6.154076382517814636e-02 -5.143467336893081665e-02 -3.001881949603557587e-02 -5.354281514883041382e-02 5.411556363105773926e-02 -3.986144904047250748e-03 -6.906887888908386230e-02 2.207300253212451935e-02 -6.621430069208145142e-02 -1.013445947319269180e-02 -1.075796335935592651e-01 8.893331140279769897e-02 -2.914649248123168945e-02 -1.701832003891468048e-02 6.959023326635360718e-02 3.635944053530693054e-02 5.436172336339950562e-02 -4.485863074660301208e-02 -1.054695621132850647e-01 1.215888857841491699e-01 -5.218885838985443115e-02 8.112464845180511475e-02 3.883058205246925354e-02 -1.128046661615371704e-01 1.561502926051616669e-02 3.363474737852811813e-03 -8.866517245769500732e-02 -1.072781905531883240e-02 -2.871606312692165375e-02 1.005170568823814392e-01 2.499432070180773735e-03 -7.045632600784301758e-02 3.918254747986793518e-02 5.186772905290126801e-04 8.280437439680099487e-03 5.142959579825401306e-02 -6.727521866559982300e-02 4.669857770204544067e-02 3.991214092820882797e-03 4.617203027009963989e-02 -3.726715967059135437e-02 2.078712359070777893e-02 7.049853354692459106e-02 -4.782126471400260925e-02 3.097837604582309723e-02 1.137530207633972168e-01 -3.769592940807342529e-02 -2.710361778736114502e-02 -7.418682426214218140e-02 -4.783553536981344223e-03 -4.952438920736312866e-02 -8.352101780474185944e-03 3.268237039446830750e-02 4.414461925625801086e-02 4.756631329655647278e-02 1.284025236964225769e-02 -7.926330715417861938e-02 1.784989833831787109e-01 -1.215951964259147644e-01 -2.522991783916950226e-02 6.565526872873306274e-02 -2.235982008278369904e-02 8.081444352865219116e-02 5.647072941064834595e-02 -6.300936639308929443e-02 -9.214277565479278564e-02 1.521037053316831589e-02 8.882654458284378052e-02 -5.951639264822006226e-02 -3.608392551541328430e-02 -9.944357722997665405e-02 -9.932283312082290649e-02 -6.758144497871398926e-02 -3.272404661402106285e-03 7.542946934700012207e-02 1.829454153776168823e-01 1.760443598031997681e-01 1.189430244266986847e-02 -8.009017258882522583e-02 -9.801569581031799316e-02 -1.595580279827117920e-01 -1.704712584614753723e-02 -1.553052011877298355e-02 1.205572560429573059e-01 -3.159527480602264404e-02 1.242117583751678467e-01 -1.354269385337829590e-01 9.369979798793792725e-02 -7.195978611707687378e-02 -1.024262979626655579e-01 7.429812103509902954e-02 3.455611178651452065e-03 1.654306799173355103e-01 -3.514257445931434631e-02 -2.229547873139381409e-02 -9.070147573947906494e-02 6.908347457647323608e-02 -1.122710853815078735e-01 8.337834477424621582e-02 6.303796917200088501e-02 2.565055619925260544e-03 -8.458887040615081787e-02 -6.550790276378393173e-03 -1.165325753390789032e-02 -8.935769647359848022e-02 -4.898571874946355820e-03 -1.396852284669876099e-01 3.512769192457199097e-02 -1.316717360168695450e-02 -2.695056609809398651e-03 -1.082848012447357178e-01 1.192150935530662537e-01 2.600219286978244781e-02 5.353255197405815125e-02 4.003245383501052856e-02 -8.474625647068023682e-02 -4.888562485575675964e-02 5.430731177330017090e-02 -3.566977381706237793e-02 6.463115662336349487e-02 8.933077007532119751e-02 -1.511572301387786865e-01 1.698652654886245728e-02 1.910948753356933594e-01 1.225923448801040649e-01 1.465656459331512451e-01 -2.230183035135269165e-02 -1.097275689244270325e-01 -5.609751865267753601e-02 1.276642829179763794e-01 1.182625517249107361e-01 1.596084386110305786e-01 1.145425532013177872e-02 2.547557651996612549e-01 3.512229025363922119e-02 9.660749137401580811e-02 5.081240087747573853e-02 1.942411996424198151e-02 -6.547578424215316772e-02 9.784097969532012939e-02 1.574508547782897949e-01 1.880218684673309326e-01 -9.720245003700256348e-02 1.136048659682273865e-01 -9.560350328683853149e-02 -9.964733570814132690e-02 -6.277385354042053223e-02 -2.443059533834457397e-02 3.398416563868522644e-02 -8.084847033023834229e-02 -3.594015166163444519e-02 -7.137842476367950439e-03 -3.112673945724964142e-02 -7.627541571855545044e-02 1.257816255092620850e-01 1.844313181936740875e-02 -1.805826723575592041e-01 -2.834725566208362579e-02 3.015905804932117462e-02 3.176221251487731934e-02 5.956753715872764587e-02 1.044650911353528500e-03 -6.639056652784347534e-02 2.986212447285652161e-02 1.325483173131942749e-01 -3.659450635313987732e-02 1.954197511076927185e-02 -9.582635015249252319e-02 4.755657166242599487e-02 4.670885391533374786e-03 7.298652082681655884e-02 6.613050401210784912e-02 -1.846696436405181885e-02 -1.612032949924468994e-01 -1.406843215227127075e-01 1.267080008983612061e-01 5.159594491124153137e-02 3.858474642038345337e-02 -1.358238309621810913e-01 9.762234985828399658e-02 8.411572873592376709e-02 4.763504117727279663e-02 -1.395121812820434570e-01 -1.740638539195060730e-02 2.063394151628017426e-02 1.053121834993362427e-01 4.473111778497695923e-02 3.670043498277664185e-02 -5.232681334018707275e-02 3.063724189996719360e-02 -2.881465665996074677e-02 -8.283790200948715210e-02 2.081946469843387604e-02 -4.116654023528099060e-02 1.802987009286880493e-01 -8.256218396127223969e-03 1.512693613767623901e-01 -1.899921745061874390e-01 -6.099756434559822083e-02 1.973143666982650757e-01 4.300525411963462830e-02 1.583998650312423706e-01 8.694507926702499390e-02 -1.415499746799468994e-01 5.268331989645957947e-02 1.566413491964340210e-01 8.569137752056121826e-02 8.898235857486724854e-03 2.289814502000808716e-02 -1.091560274362564087e-01 -2.872847579419612885e-02 -4.703081399202346802e-02 -4.836708679795265198e-02 -3.968418389558792114e-02 1.393389999866485596e-01 1.194940358400344849e-01 -2.838150830939412117e-03 -1.214024871587753296e-01 1.634294539690017700e-01 9.806098043918609619e-02 6.853137910366058350e-02 -1.793202385306358337e-02 -3.919851500540971756e-03 -8.107134141027927399e-03 5.147377029061317444e-02 2.100222557783126831e-01 -9.630133211612701416e-02 5.207206681370735168e-02 -2.075272984802722931e-02 -1.025071516633033752e-01 9.289221838116645813e-03 -9.872931987047195435e-02 -6.162331998348236084e-02 -3.851724043488502502e-02 -4.854798316955566406e-02 9.393416694365441799e-04 -6.021650135517120361e-02 5.897832289338111877e-02 -9.560155123472213745e-02 5.037260428071022034e-02 -1.616534590721130371e-02 -1.564942300319671631e-01 5.033782497048377991e-02 -1.277730762958526611e-01 9.662706404924392700e-02 -2.036033421754837036e-01 1.139982119202613831e-01 2.043221443891525269e-01 -3.554622456431388855e-02 1.066957190632820129e-01 1.366600953042507172e-02 4.387774318456649780e-02 5.913740023970603943e-02 -1.057791709899902344e-01 2.772608399391174316e-02 1.278635114431381226e-01 -4.279631748795509338e-02 -1.039335504174232483e-01 -4.623921588063240051e-03 3.512362018227577209e-02 5.199237540364265442e-02 4.003772046416997910e-03 1.329723745584487915e-02 9.472735226154327393e-02 -8.010197430849075317e-02 2.949539013206958771e-02 -4.703196883201599121e-02 1.286311596632003784e-01 6.938590854406356812e-02 -5.066232383251190186e-02 4.118783771991729736e-02 4.016903787851333618e-02 2.325798757374286652e-02 -1.479354593902826309e-02 -5.763487145304679871e-02 8.760845661163330078e-02 -6.357365101575851440e-02 -4.598479345440864563e-02 -4.209228232502937317e-02 1.798528805375099182e-02 -1.188262645155191422e-02 3.770553693175315857e-02 -4.153362475335597992e-03 1.035834476351737976e-01 -2.900722436606884003e-02 1.883040219545364380e-01 -7.088887039572000504e-03 6.268712878227233887e-02 5.470800027251243591e-02 -9.082877635955810547e-02 -4.066754505038261414e-02 -1.718924343585968018e-01 -7.133560627698898315e-02 -1.007390990853309631e-01 9.989716112613677979e-02 -2.420143038034439087e-02 -5.383215611800551414e-04 -2.548626437783241272e-02 1.708216965198516846e-01 1.384521275758743286e-01 6.223852932453155518e-02 1.472687348723411560e-03 -4.243700765073299408e-03 -2.889559371396899223e-03 -4.782216250896453857e-02 -1.206973120570182800e-01 2.926348010078072548e-03 -1.083135530352592468e-01 -3.379804268479347229e-02 -1.968453079462051392e-01 1.052033156156539917e-01 9.294685721397399902e-02 1.198607459664344788e-01 -4.225159063935279846e-02 1.147233322262763977e-01 -4.957471787929534912e-02 -7.724578958004713058e-03 1.282896567136049271e-02 -5.426022410392761230e-02 -2.797429636120796204e-02 4.255910217761993408e-02 -1.532477587461471558e-01 -2.074099844321608543e-03 -7.802143692970275879e-02 5.553150922060012817e-02 -1.319854985922574997e-02 8.767058700323104858e-02 -1.088872700929641724e-01 1.063856482505798340e-02 -1.137027591466903687e-01 -3.587586060166358948e-02 9.233428165316581726e-03 -5.569477006793022156e-02 -5.965663492679595947e-02 -1.306515485048294067e-01 -7.322755455970764160e-02 -2.824960462749004364e-02 -3.534450009465217590e-02 8.439516276121139526e-02
4.354466870427131653e-02 1.815200001001358032e-01 -2.561580762267112732e-02 5.596844851970672607e-02 4.621997941285371780e-04 -2.093425393104553223e-01 -1.980698555707931519e-01 -7.038602232933044434e-02 3.360494598746299744e-02 -2.010496333241462708e-02 5.331469327211380005e-02 -1.206105798482894897e-01 -4.715254530310630798e-02 -6.335844844579696655e-02 2.566800080239772797e-02 -1.086252275854349136e-02 -1.464742701500654221e-03 4.793151840567588806e-02 7.660774141550064087e-02 4.199652001261711121e-02 7.260669022798538208e-02 -2.734778448939323425e-02 -3.104277886450290680e-02 3.368226066231727600e-02 -6.198184937238693237e-02 1.298142075538635254e-01 4.071101918816566467e-02 -5.611002445220947266e-02 7.122682780027389526e-02 -1.068103313446044922e-01 7.695641368627548218e-03 1.901671290397644043e-01 3.427422046661376953e-02 -2.990572899580001831e-02 2.538652345538139343e-02 6.695498712360858917e-03 1.688277870416641235e-01 3.945364430546760559e-02 -2.086760401725769043e-01 -1.379838585853576660e-02 5.836104601621627808e-02 -8.797044865787029266e-03 -9.112057089805603027e-02 -1.963968947529792786e-02 3.539322689175605774e-02 3.444263935089111328e-01 2.296068891882896423e-02 1.363704502582550049e-01 -1.233915090560913086e-01 -3.484652144834399223e-03 -3.381313383579254150e-02 -1.778094843029975891e-02 -2.934904769062995911e-02 -1.146498396992683411e-01 -8.689454197883605957e-02 2.814709581434726715e-02 -1.061813682317733765e-01 2.433202415704727173e-01 -5.662417784333229065e-02 -7.435547560453414917e-02 4.362672567367553711e-02 -6.794516742229461670e-02 2.455783449113368988e-02 -2.354601025581359863e-02 2.521934211254119873e-01 6.771383434534072876e-02 3.697128593921661377e-02 1.663633249700069427e-02 -1.220851205289363861e-02 -6.226553022861480713e-02 -4.466589598450809717e-04 3.308771178126335144e-03 1.161158606410026550e-01 -3.419133648276329041e-02 -9.239519387483596802e-02 1.340070515871047974e-01 3.798044100403785706e-02 -1.101014837622642517e-01 -7.077916711568832397e-02 -7.675918936729431152e-02 -2.139663882553577423e-02 -6.495289504528045654e-02 1.970569603145122528e-02 7.960444688796997070e-02 -3.437510877847671509e-02 3.353810310363769531e-02 -8.273006230592727661e-02 -6.036295369267463684e-02 5.557890515774488449e-03 8.430043607950210571e-02 -7.558742538094520569e-03 1.721375584602355957e-01 6.040782853960990906e-02 1.106265187263488770e-01 5.093990266323089600e-02 1.098751053214073181e-01 1.421695500612258911e-01 -3.607670217752456665e-02 9.933921694755554199e-02 5.802870541810989380e-02 3.266766294836997986e-02 -9.327653795480728149e-02 8.433567732572555542e-02 1.273657381534576416e-01 9.022134356200695038e-03 -4.200793430209159851e-02 1.123622134327888489e-01 -1.951510645449161530e-02 -7.223940640687942505e-02 7.555651664733886719e-02 -9.191892296075820923e-02 -1.014778763055801392e-01 -2.353153824806213379e-01 -9.115322493016719818e-03 4.843622073531150818e-02 1.601232886314392090e-01 -4.178927093744277954e-02 7.947064191102981567e-02 -1.834122091531753540e-02 1.893130242824554443e-01 -3.027665801346302032e-02 -4.379985854029655457e-02 -4.962541162967681885e-02 9.279774874448776245e-02 2.143746614456176758e-02 -3.014452569186687469e-02 -7.097639888525009155e-02 -1.333999484777450562e-01 -3.826685622334480286e-02 -3.452281234785914421e-04 -1.002782285213470459e-01 -9.281590580940246582e-02 -1.364838629961013794e-01 1.613921821117401123e-01 -1.444471925497055054e-01 -1.311818957328796387e-01 1.081337779760360718e-01 -4.134334623813629150e-02 5.076987296342849731e-02 -2.200577259063720703e-01 -4.476020112633705139e-02 -4.302422329783439636e-02 -1.505212932825088501e-01 6.076931953430175781e-03 7.030033506453037262e-03 5.708469543606042862e-03 -1.054926123470067978e-02 2.895907312631607056e-02 3.323806449770927429e-02 -2.748222090303897858e-02 -1.231893838848918676e-04 7.558277994394302368e-02 -3.640869632363319397e-02 -1.833532191812992096e-02 1.308443844318389893e-01 -1.503248233348131180e-02 -3.628727793693542480e-02 -5.128505453467369080e-02 -1.117023080587387085e-01 7.526294328272342682e-03 2.601427212357521057e-02 5.482674017548561096e-02 -8.263076841831207275e-02 6.865684688091278076e-02 -4.805275052785873413e-02 4.013296216726303101e-02 2.594060823321342468e-02 5.919816717505455017e-02 -7.737288624048233032e-02 1.977145485579967499e-02 -5.091382190585136414e-02 -4.661856219172477722e-02 1.095989197492599487e-01 -5.419653281569480896e-02 6.609466671943664551e-02 5.722043290734291077e-02 5.581469088792800903e-02 -3.134316578507423401e-02 8.620011061429977417e-02 1.299561560153961182e-02 9.300206601619720459e-02 -3.643587231636047363e-02 -2.706778794527053833e-02 -7.344484329223632812e-03 -5.457912757992744446e-02 -6.330288201570510864e-02 -8.745337277650833130e-02 1.450690329074859619e-01 -4.084928333759307861e-02 -7.240939140319824219e-02 1.572371870279312134e-01 9.133962541818618774e-02 1.950248144567012787e-02 -1.378036886453628540e-01 1.098656132817268372e-01 -9.098845720291137695e-02 -3.838607296347618103e-02 1.858181320130825043e-02 -6.830749660730361938e-02 3.310465440154075623e-02 4.835626855492591858e-02 -8.185068517923355103e-02 -1.099273636937141418e-01 6.887517869472503662e-02 6.516261398792266846e-02 -6.067810952663421631e-02 -1.339561790227890015e-01 1.509944722056388855e-02 -1.389291286468505859e-01 -2.227983810007572174e-02 -1.017691791057586670e-01 7.071392238140106201e-02 -4.607934504747390747e-03 1.993637904524803162e-02 -5.869607999920845032e-02 1.470297761261463165e-02 -4.689625650644302368e-02 -7.510843873023986816e-02 -8.070288226008415222e-03 9.192049503326416016e-03 3.830791264772415161e-02 6.705047935247421265e-02 -4.669836908578872681e-02 9.708812087774276733e-02 8.895856328308582306e-03 -1.028410792350769043e-01 5.863138008862733841e-03 -5.469734221696853638e-02 -1.137098670005798340e-01 9.706894308328628540e-02 -4.917746037244796753e-02 3.563987091183662415e-02 5.137246474623680115e-02 -6.769299507141113281e-02 3.805547580122947693e-02 7.193115539848804474e-03 -1.829113960266113281e-01 1.363919768482446671e-02 -1.763988658785820007e-02 -7.394804060459136963e-02 -4.103854298591613770e-02 -8.115530014038085938e-02 -8.666847832500934601e-03 3.584470599889755249e-02 5.348906293511390686e-02 -8.354869484901428223e-02 -1.392022613435983658e-02 -9.551021456718444824e-02 -2.863730676472187042e-02 -5.143599584698677063e-03 3.707982599735260010e-02 3.587586060166358948e-02 1.211319863796234131e-01 -4.939970746636390686e-02 2.334915250539779663e-01 -8.412199467420578003e-02 -7.403223961591720581e-02 4.226673021912574768e-02 1.301290839910507202e-02 2.732785791158676147e-02 1.156665850430727005e-02 -1.108271330595016479e-01 -8.666323870420455933e-02 -4.691279027611017227e-03 1.875979453325271606e-02 8.774425089359283447e-02 4.326662793755531311e-02 1.783254742622375488e-02 -6.430700886994600296e-03 -5.731946323066949844e-03 5.539066344499588013e-02 9.267243742942810059e-02 2.541705500334501266e-03 -4.491405561566352844e-03 -1.872774958610534668e-02 6.949447840452194214e-02 2.914574928581714630e-02 4.713917076587677002e-01 7.980985194444656372e-02 6.846422702074050903e-02 6.574574857950210571e-02 -1.027857884764671326e-02 -6.643389165401458740e-02 6.998684257268905640e-02 -1.528453640639781952e-02 4.353941231966018677e-02 1.141269728541374207e-01 8.796890825033187866e-02 1.831488497555255890e-02 2.955601923167705536e-02 4.424940422177314758e-02 -1.155829429626464844e-01 8.704554289579391479e-03 -1.312675774097442627e-01 3.134133666753768921e-02 2.202076651155948639e-02 6.130300089716911316e-02 -7.588259875774383545e-02 3.666425123810768127e-02 -1.239738892763853073e-02 4.844336584210395813e-02 2.714222110807895660e-02 -4.264951124787330627e-02 -4.482193663716316223e-02 1.587465219199657440e-02 3.622203692793846130e-02 -4.525777697563171387e-02 -5.520297959446907043e-02 -1.020275875926017761e-01 7.593211252242326736e-03 7.944165915250778198e-02 -1.199096906930208206e-02 2.302111871540546417e-02 -1.765583753585815430e-01 -8.111754059791564941e-02 -9.331388771533966064e-02 -1.159841567277908325e-01 -7.311196066439151764e-03 4.866098240017890930e-02 3.968791291117668152e-02 9.223309159278869629e-02 -1.769854575395584106e-01 -7.751717418432235718e-02 5.775900930166244507e-02 5.166157707571983337e-02 1.286035124212503433e-02 1.741534918546676636e-01 8.020424284040927887e-03 1.014687046408653259e-01 3.509111702442169189e-02 -5.815600161440670490e-06 -1.100471336394548416e-02 1.312108635902404785e-01 5.026717111468315125e-02 -7.140617072582244873e-02 -6.538309901952743530e-02 1.031459644436836243e-01 -8.684601634740829468e-03 -8.197966217994689941e-02 1.426853686571121216e-01 1.710739433765411377e-01 4.489347338676452637e-03 8.537587523460388184e-02 3.407915309071540833e-02 1.905694417655467987e-02 1.108547952026128769e-02 1.134414151310920715e-01 2.131003886461257935e-02 -4.799397662281990051e-02 -1.178813055157661438e-01 -3.605567291378974915e-02 9.162345528602600098e-02 -1.090366691350936890e-01 -8.076460659503936768e-02 6.628701090812683105e-02 7.748578488826751709e-02 4.987354576587677002e-02 -9.143669158220291138e-02 -1.287262141704559326e-02 4.344820976257324219e-02 -1.640957593917846680e-02 5.192055180668830872e-02 -1.276248693466186523e-01 -4.724182933568954468e-02 -4.400456696748733521e-02 -9.904845803976058960e-02 2.250327728688716888e-02 -6.615809351205825806e-02 -1.125043109059333801e-01 -1.137732416391372681e-01 -1.636080443859100342e-02 -7.323504239320755005e-02 -1.653795093297958374e-01 -5.928573012351989746e-02 -2.450290601700544357e-03 -6.564120948314666748e-02 4.016736149787902832e-02 8.499020338058471680e-02 -5.850545316934585571e-02 2.724084071815013885e-02 3.997981920838356018e-02 1.192504726350307465e-02 -6.174746155738830566e-02 1.755129196681082249e-03 -6.119849160313606262e-02 1.108966488391160965e-02 1.592465862631797791e-02 1.431101746857166290e-02 9.644385427236557007e-02 -5.611582845449447632e-02 7.591511309146881104e-02 -4.910802841186523438e-02 -2.036621421575546265e-02 1.023485660552978516e-01 8.793924748897552490e-02 1.494895666837692261e-01 -1.444586068391799927e-01 8.610796928405761719e-02 1.874581095762550831e-03 8.523274213075637817e-02 -5.592504516243934631e-02 -2.458691783249378204e-02 -1.535660922527313232e-01 1.403164863586425781e-01 8.219141513109207153e-02 9.844528138637542725e-02 1.025934293866157532e-01 7.664961594855412841e-05 8.396267890930175781e-03 2.954667210578918457e-01 -4.477266967296600342e-02 1.593675836920738220e-02 -1.214475557208061218e-01 -4.494154080748558044e-02 1.394911855459213257e-02 -1.264692563563585281e-02 7.258332520723342896e-02 -8.695131540298461914e-02 -7.006544619798660278e-02 -1.275586932897567749e-01 -3.820349276065826416e-02 1.310024708509445190e-01 -9.099456667900085449e-02 2.965980581939220428e-02 -2.615397796034812927e-02 -8.227469027042388916e-02 7.623925060033798218e-02 2.586302720010280609e-02 -4.554749466478824615e-03 -1.628106273710727692e-02 5.339752510190010071e-02 -1.171096935868263245e-01 -2.906488813459873199e-02 5.409267172217369080e-02 1.227298099547624588e-02 -4.866191744804382324e-02 4.944016039371490479e-02 5.102091934531927109e-03 2.622779086232185364e-02 4.064049944281578064e-02 -1.941209658980369568e-02 -2.476676739752292633e-02 1.365994755178689957e-02 -8.338340371847152710e-02 -2.420734241604804993e-02 1.199941802769899368e-02 -3.448682278394699097e-02 -8.065242320299148560e-03 9.110919199883937836e-03 3.268419951200485229e-02 1.171124503016471863e-01 3.311407566070556641e-02 -3.433515504002571106e-02 1.263490021228790283e-01 -1.887420378625392914e-02 -1.702463626861572266e-02 -4.908296093344688416e-02 6.503876764327287674e-03 -2.657250128686428070e-02 -2.227301709353923798e-02 -3.888152539730072021e-02 -1.459305435419082642e-01 2.238756418228149414e-02 -3.127601742744445801e-02 1.793418638408184052e-02 4.095656797289848328e-02 7.194650825113058090e-03 2.220930997282266617e-03 -3.584198653697967529e-02 2.555111944675445557e-01 -7.450184226036071777e-02 -5.441995710134506226e-02 -1.879944838583469391e-02 -1.218496635556221008e-01 2.058828808367252350e-02 -1.007827278226613998e-02 -7.044567912817001343e-02 -7.498163729906082153e-02 -1.768268272280693054e-02 1.290688663721084595e-01 4.329800605773925781e-02 1.672135889530181885e-01 3.020988404750823975e-02 -2.763045951724052429e-02 -2.516418322920799255e-02 -9.427194297313690186e-02 5.095933750271797180e-02 9.974981844425201416e-02 5.868751555681228638e-02 -1.897766627371311188e-02 7.251701503992080688e-02 8.618762344121932983e-02 9.609812498092651367e-02 1.842942647635936737e-02 9.376913309097290039e-02 3.472285717725753784e-02 2.474684268236160278e-03 -7.081369310617446899e-02 5.288419127464294434e-02 -3.068280778825283051e-02 1.271426379680633545e-01 -9.617897868156433105e-02 -4.163349419832229614e-02 4.515747353434562683e-02 5.316481925547122955e-03 3.519588708877563477e-01 1.944925487041473389e-01 1.425814349204301834e-02 -5.421686917543411255e-02 -1.169932656921446323e-03 4.680203646421432495e-02 -4.613118246197700500e-03
2.786102332174777985e-02 -7.932017743587493896e-02 -5.168239399790763855e-02 -1.072651371359825134e-01 -7.033190876245498657e-02 -2.611612901091575623e-02 6.493768654763698578e-03 -3.823222219944000244e-02 5.000486597418785095e-02 -1.003752946853637695e-01 2.734195441007614136e-02 8.340632170438766479e-02 3.028544597327709198e-02 -1.861099898815155029e-02 -7.122363150119781494e-02 -3.761614114046096802e-02 2.014578506350517273e-02 -2.202918566763401031e-02 -7.192408293485641479e-02 -1.445646584033966064e-01 8.145304024219512939e-02 -2.985712885856628418e-02 -2.423691749572753906e-02 -1.131624504923820496e-01 4.551519080996513367e-02 -2.207045704126358032e-01 -2.206178382039070129e-02 -4.011129029095172882e-03 3.855488030239939690e-03 6.136645376682281494e-02 -7.669195532798767090e-02 -1.650296002626419067e-01 -1.573343761265277863e-02 -1.498984098434448242e-01 -5.611735954880714417e-02 -9.719174355268478394e-02 -3.541735559701919556e-02 1.914879865944385529e-02 5.893375724554061890e-03 -4.928101226687431335e-02 -3.040838614106178284e-02 3.282638499513268471e-05 7.445047050714492798e-02 3.718592971563339233e-02 -2.070360118523240089e-03 -6.255930662155151367e-02 8.376927673816680908e-02 1.267504226416349411e-02 3.124648518860340118e-02 2.932590432465076447e-02 -1.374157667160034180e-01 2.889817953109741211e-02 1.040408108383417130e-02 -6.588780134916305542e-02 -2.261120453476905823e-02 3.932138532400131226e-02 -1.274116896092891693e-02 -2.788698859512805939e-02 6.101892888545989990e-02 -5.822447314858436584e-02 9.127520024776458740e-03 -2.499431744217872620e-02 2.537457831203937531e-02 5.503010004758834839e-02 -4.803137108683586121e-02 -3.069664910435676575e-02 1.820590719580650330e-02 6.976378709077835083e-02 7.338315248489379883e-02 4.911952652037143707e-03 -1.811067909002304077e-01 1.575620658695697784e-02 -6.990850437432527542e-03 2.907192707061767578e-02 -1.838991604745388031e-02 1.499048620462417603e-02 -5.939333140850067139e-02 3.379587829113006592e-02 7.500395178794860840e-02 -5.356979742646217346e-02 1.810222491621971130e-02 2.556236693635582924e-03 -5.962343886494636536e-02 -3.990736790001392365e-03 -1.373680531978607178e-01 -7.975552231073379517e-02 6.259835511445999146e-02 -7.273672521114349365e-02 -3.590067103505134583e-02 3.448067232966423035e-02 9.614234790205955505e-03 2.537644281983375549e-02 5.179373174905776978e-02 4.652881622314453125e-02 1.188759803771972656e-01 -8.941277116537094116e-02 6.700696051120758057e-02 -6.428976077586412430e-03 2.634742762893438339e-03 -1.169980969280004501e-02 2.710427716374397278e-02 8.298152685165405273e-02 4.943981394171714783e-02 9.579138457775115967e-02 -2.197529422119259834e-03 9.320510923862457275e-02 -2.006032504141330719e-02 -7.004010677337646484e-02 -3.509608330205082893e-03 4.727120697498321533e-02 -6.140207126736640930e-02 5.680658854544162750e-03 1.536013334989547729e-01 4.884522035717964172e-02 -6.695322692394256592e-03 -3.376489505171775818e-02 -2.628254145383834839e-02 -1.107701361179351807e-01 -4.902553558349609375e-02 -1.741486601531505585e-02 5.447790771722793579e-02 7.112280279397964478e-02 -5.835229530930519104e-03 -3.001484461128711700e-02 9.176636487245559692e-02 1.721990853548049927e-02 1.823246106505393982e-02 3.594319894909858704e-02 2.498980425298213959e-02 -9.630979597568511963e-02 5.111570656299591064e-02 -1.319102360866963863e-03 9.509542025625705719e-03 -5.716338008642196655e-02 -3.323470940813422203e-03 3.622969612479209900e-03 1.125245168805122375e-01 6.873828917741775513e-02 6.101018190383911133e-02 4.125785827636718750e-02 -1.131349205970764160e-01 -6.168569996953010559e-02 1.045783385634422302e-01 -3.265350311994552612e-02 1.258842367678880692e-02 -8.203562349081039429e-02 -2.206912077963352203e-02 3.171873092651367188e-02 -4.417743161320686340e-02 8.417253848165273666e-04 -4.079738259315490723e-02 3.234669566154479980e-02 -2.360674925148487091e-02 1.003911122679710388e-01 -4.802965559065341949e-04 3.050342947244644165e-02 4.183859005570411682e-02 -7.334916293621063232e-02 1.704961061477661133e-02 -4.092944040894508362e-02 6.026171147823333740e-02 1.995559968054294586e-02 -5.950890854001045227e-02 -2.624122053384780884e-02 7.139994204044342041e-02 -8.365805447101593018e-02 2.953447867184877396e-03 -3.210594132542610168e-02 9.064375609159469604e-02 -6.924645602703094482e-02 6.726876646280288696e-02 -5.670213326811790466e-02 -3.448681160807609558e-02 -3.733161836862564087e-02 -1.288255304098129272e-01 -5.718541145324707031e-02 -2.414315938949584961e-02 -1.348376180976629257e-02 2.711482718586921692e-02 2.822046354413032532e-02 3.979564458131790161e-02 -4.370122624095529318e-04 4.405046254396438599e-02 1.933156512677669525e-02 3.351473435759544373e-02 6.339262425899505615e-02 1.873288303613662720e-02 -5.087088793516159058e-02 3.221484646201133728e-02 -8.977488323580473661e-05 -4.904249310493469238e-02 1.913349516689777374e-02 -4.330362752079963684e-02 -5.972903966903686523e-02 -1.376022249460220337e-01 1.413890570402145386e-01 8.087842143140733242e-04 -7.346668839454650879e-02 -5.200388655066490173e-02 5.202417075634002686e-02 2.628307556733489037e-04 6.305745244026184082e-02 -6.222032010555267334e-02 1.427402719855308533e-02 5.913215130567550659e-02 4.280331358313560486e-02 3.501424100250005722e-03 1.318138092756271362e-02 1.253443583846092224e-02 -2.875676751136779785e-02 4.193593934178352356e-02 4.834532272070646286e-03 2.816014178097248077e-02 -1.168679594993591309e-01 3.672743961215019226e-02 -1.216791346669197083e-01 -1.282535959035158157e-02 1.493229158222675323e-02 -1.339310258626937866e-01 -7.058667484670877457e-03 5.203128233551979065e-02 1.260376125574111938e-01 6.348859518766403198e-02 -7.798642665147781372e-02 6.124842166900634766e-02 7.977969199419021606e-02 -1.208264753222465515e-01 1.375816464424133301e-01 -6.101044267416000366e-02 -3.823293745517730713e-02 4.700372740626335144e-02 7.622043043375015259e-02 1.117584761232137680e-03 -4.377955570816993713e-02 -3.692806512117385864e-02 -8.242294937372207642e-02 1.222126856446266174e-01 6.576960440725088120e-03 8.581864088773727417e-02 -2.589100226759910583e-02 -5.909829959273338318e-02 7.159794121980667114e-02 3.475027903914451599e-02 -1.038745604455471039e-02 1.423416659235954285e-02 8.881615847349166870e-02 -4.670725204050540924e-03 -5.045473203063011169e-02 -4.671726003289222717e-02 3.541992604732513428e-02 -3.880749270319938660e-02 2.923829294741153717e-02 -3.089684061706066132e-03 8.684876561164855957e-02 -2.699922770261764526e-02 -8.784624189138412476e-02 2.943563647568225861e-02 5.538498237729072571e-02 -1.504744216799736023e-02 2.376721240580081940e-02 -1.172351371496915817e-02 -6.626263260841369629e-03 1.065864861011505127e-01 -7.311219722032546997e-02 -7.106567174196243286e-02 -1.311021298170089722e-02 6.612268835306167603e-02 -3.776184841990470886e-02 6.998127698898315430e-02 4.310670867562294006e-02 4.062257707118988037e-02 -9.760300070047378540e-02 2.475514542311429977e-03 -1.045640334486961365e-01 8.678890764713287354e-03 5.289349704980850220e-02 9.284260869026184082e-02 -4.508932679891586304e-02 -6.642342358827590942e-02 3.971374034881591797e-02 5.526893958449363708e-02 -2.951794862747192383e-02 -6.766304839402437210e-03 8.353985846042633057e-02 1.122111082077026367e-02 -1.295790541917085648e-02 6.391075998544692993e-02 -8.209634572267532349e-02 1.110575422644615173e-01 5.855484306812286377e-02 -1.188291143625974655e-02 6.913344562053680420e-02 6.939142942428588867e-02 8.560011535882949829e-02 3.276272490620613098e-02 -2.308514527976512909e-02 -2.789631718769669533e-03 7.120662368834018707e-03 -3.887299820780754089e-02 5.568278487771749496e-03 -6.727341562509536743e-03 7.810979615896940231e-03 -1.922225207090377808e-02 -1.882297545671463013e-01 -1.837843284010887146e-02 -3.607360878959298134e-03 2.606457099318504333e-02 -1.545070856809616089e-02 8.730759844183921814e-03 -5.302461609244346619e-02 3.557962179183959961e-02 5.022322386503219604e-02 -5.660024657845497131e-02 -3.087370283901691437e-02 -3.571777790784835815e-02 -2.382568269968032837e-02 -7.362303882837295532e-02 5.083760619163513184e-02 -2.561447583138942719e-02 -7.455363869667053223e-02 -1.131939664483070374e-01 3.854725509881973267e-03 2.438082592561841011e-03 -3.430073382332921028e-03 -2.987637184560298920e-02 2.438930049538612366e-02 -4.318935424089431763e-02 5.545272305607795715e-02 -3.288390859961509705e-02 1.502492427825927734e-01 -6.550093740224838257e-02 6.694905459880828857e-02 -6.035351753234863281e-02 -4.346591979265213013e-02 -5.617194250226020813e-02 3.599982708692550659e-02 1.372217386960983276e-02 7.390452921390533447e-02 2.938491664826869965e-02 -7.540768478065729141e-03 -1.196688413619995117e-02 -4.641535691916942596e-03 -9.899546951055526733e-02 -2.912352606654167175e-02 2.976096235215663910e-02 1.056500971317291260e-01 -8.324496448040008545e-03 4.980159923434257507e-02 -2.992721833288669586e-02 1.785844750702381134e-02 -1.293697021901607513e-02 -2.646059542894363403e-02 6.850887089967727661e-02 2.528372779488563538e-02 -6.219638884067535400e-02 1.024240329861640930e-01 -1.452098973095417023e-02 6.324066966772079468e-02 1.539299823343753815e-02 -2.826057188212871552e-02 -9.112896025180816650e-02 8.434840291738510132e-02 4.191781207919120789e-02 1.115969493985176086e-01 6.814882159233093262e-02 -8.727380633354187012e-02 -1.027546599507331848e-01 6.021068990230560303e-02 -2.671734057366847992e-02 -9.954652935266494751e-02 -5.938548594713211060e-02 1.864689216017723083e-02 -8.641029894351959229e-02 3.259603679180145264e-02 3.452776372432708740e-02 -1.080769579857587814e-04 6.606447696685791016e-02 -2.892386354506015778e-02 -1.182928979396820068e-01 2.355242520570755005e-02 -4.884673655033111572e-02 -6.321296561509370804e-03 -1.696921698749065399e-02 -1.573895849287509918e-02 5.887036025524139404e-02 -5.422281101346015930e-02 -6.987969577312469482e-02 -1.052477583289146423e-02 -2.229844406247138977e-02 -1.001668199896812439e-01 1.139104962348937988e-01 -3.403086960315704346e-02 -2.937472052872180939e-02 -1.010493026115000248e-03 -7.421723753213882446e-02 -8.511307835578918457e-02 2.752321399748325348e-02 -3.527931123971939087e-02 -7.122504711151123047e-02 7.921992242336273193e-02 8.316571265459060669e-02 -2.505069412291049957e-02 5.860004946589469910e-02 -3.444553911685943604e-02 -7.760215084999799728e-04 -1.454673707485198975e-02 -9.411138296127319336e-02 1.954397745430469513e-02 -2.949621528387069702e-02 -1.250668764114379883e-01 -5.403620004653930664e-02 -1.305841747671365738e-02 8.294051885604858398e-02 5.318026244640350342e-02 1.072998624294996262e-03 -5.177778750658035278e-02 -3.497510915622115135e-03 5.200676247477531433e-02 9.775741957128047943e-03 -3.588666021823883057e-02 -3.940666094422340393e-02 4.901365563273429871e-02 3.002782352268695831e-02 -6.495603173971176147e-02 -1.509569399058818817e-02 -7.187962532043457031e-02 -9.253891557455062866e-02 1.336388941854238510e-02 -3.771666437387466431e-02 -1.255954033695161343e-03 8.126814849674701691e-03 1.002117758616805077e-03 8.432107977569103241e-03 -6.208508089184761047e-02 4.084616526961326599e-02 2.706987224519252777e-02 -1.445874199271202087e-02 9.539821743965148926e-02 -1.898875273764133453e-02 6.973683834075927734e-02 -2.381796762347221375e-02 -1.033434569835662842e-01 9.043430909514427185e-03 -5.739056970924139023e-03 9.642179310321807861e-02 1.240202784538269043e-02 -2.106192149221897125e-02 -1.757541787810623646e-03 -1.491554677486419678e-01 5.757111310958862305e-02 -1.730574294924736023e-02 -1.606064848601818085e-03 4.648359864950180054e-02 -5.732328072190284729e-02 1.782657951116561890e-02 -1.960432715713977814e-02 3.174673765897750854e-02 5.295201390981674194e-02 -1.241865679621696472e-01 -1.586288399994373322e-02 5.897187814116477966e-02 4.388889763504266739e-03 2.691951207816600800e-02 7.225286960601806641e-02 2.100524120032787323e-02 -6.846191734075546265e-02 2.208408154547214508e-02 2.555822394788265228e-02 1.999421947402879596e-04 -4.943386465311050415e-02 3.440210362896323204e-03 1.059763506054878235e-02 -1.693725027143955231e-02 1.907637715339660645e-02 -1.053766012191772461e-01 3.957615420222282410e-02 1.228227280080318451e-02 7.853112369775772095e-02 5.731026455760002136e-02 -6.680360436439514160e-02 4.772303253412246704e-02 -6.330408155918121338e-02 5.980259180068969727e-02 5.828759074211120605e-02 -7.889693230390548706e-02 -3.228300064802169800e-02 6.355882622301578522e-03 -9.820840507745742798e-02 -9.121716022491455078e-02 -5.683101247996091843e-03 1.854253923738724552e-06 -1.167029887437820435e-02 -3.458884730935096741e-02 -7.122025638818740845e-02 -4.343746975064277649e-02 2.011826820671558380e-02 -1.279853191226720810e-02 4.073173925280570984e-02 6.269539147615432739e-02 -5.311296880245208740e-02 -5.579696595668792725e-02 -1.053945198655128479e-01 9.223369881510734558e-03 2.816972136497497559e-02 -1.564688235521316528e-01 -1.582139986567199230e-03 8.607322722673416138e-02 3.434084355831146240e-02 -4.653519019484519958e-02 5.073340609669685364e-02 -7.181803882122039795e-02 1.499888859689235687e-02
