-5.404038354754447937e-02
-1.434204876422882080e-01
4.720364138484001160e-02
-1.535829063504934311e-02
-5.457382649183273315e-03
2.828120067715644836e-02
-8.587270230054855347e-02
-1.598517149686813354e-01
-1.522633284330368042e-01
2.807338535785675049e-02
1.753980666399002075e-02
-4.774200916290283203e-02
-3.712518885731697083e-02
-1.203200146555900574e-01
-9.592103958129882812e-02
5.202142149209976196e-02
-5.473013967275619507e-02
-1.674258559942245483e-01
4.234132822602987289e-03
-1.294724643230438232e-02
1.090397909283638000e-01
-3.367589786648750305e-02
-9.888190776109695435e-02
-1.129921376705169678e-01
-8.862422406673431396e-02
4.754696413874626160e-02
-3.343703597784042358e-02
-9.975643455982208252e-02
-3.651626780629158020e-02
-4.272799193859100342e-02
6.651727110147476196e-02
-1.184546574950218201e-01
5.018197000026702881e-02
1.389295514672994614e-02
-1.064685825258493423e-02
-3.829929232597351074e-02
-1.773886680603027344e-01
-1.277218312025070190e-01
-2.557823061943054199e-02
-1.621862500905990601e-02
-2.097357213497161865e-01
-1.256827414035797119e-01
-6.851241737604141235e-02
-1.104517579078674316e-01
-1.783431321382522583e-02
-4.261279851198196411e-02
-1.705326722003519535e-04
-1.689128205180168152e-02
-3.519148007035255432e-02
3.598783910274505615e-02
-9.072481095790863037e-02
-3.444986417889595032e-02
-8.137433975934982300e-02
5.975720658898353577e-02
-2.304424159228801727e-02
-2.798751182854175568e-02
-2.418051846325397491e-02
7.464174926280975342e-02
-7.150156050920486450e-02
-7.125417143106460571e-02
-1.573595404624938965e-01
-8.929944038391113281e-02
-5.526364967226982117e-02
-8.378720283508300781e-02
-4.014754667878150940e-02
2.879924885928630829e-02
-9.861689060926437378e-02
-2.313071303069591522e-02
-1.567969024181365967e-01
-5.061731487512588501e-02
3.905981779098510742e-02
-1.287722736597061157e-01
2.181657589972019196e-02
-1.147177070379257202e-02
-8.121186494827270508e-02
-7.935377955436706543e-02
4.338075593113899231e-02
4.320627450942993164e-02
-2.421806566417217255e-02
-7.390145212411880493e-03
-9.996909648180007935e-03
-1.247488260269165039e-01
-5.796000361442565918e-02
-8.714795112609863281e-02
-3.191287070512771606e-02
1.216522753238677979e-01
1.362990122288465500e-02
5.699104070663452148e-02
5.999290570616722107e-02
5.238656420260667801e-03
9.930510073900222778e-02
-5.589466542005538940e-02
-8.525159209966659546e-02
4.583234339952468872e-02
-2.583006955683231354e-02
-4.750773310661315918e-02
-1.358156353235244751e-01
-4.463873431086540222e-02
-4.703785479068756104e-02
1.187282241880893707e-02
-3.213276341557502747e-02
3.170943632721900940e-02
-2.892602421343326569e-02
1.088434085249900818e-01
-6.798991560935974121e-02
9.651080518960952759e-02
2.613020187709480524e-04
-1.109733805060386658e-01
-1.018687859177589417e-01
1.098523661494255066e-02
-1.440966278314590454e-01
-3.576210513710975647e-02
5.512990802526473999e-02
-5.039324238896369934e-02
-6.276855617761611938e-02
-3.558509284630417824e-03
-1.873990707099437714e-02
-9.554126299917697906e-03
-4.470306634902954102e-02
-1.115220561623573303e-01
4.517721012234687805e-02
1.477531343698501587e-02
2.806893177330493927e-02
-6.311685591936111450e-02
-7.121288031339645386e-02
-2.787894941866397858e-02
5.068517848849296570e-02
4.212508723139762878e-02
