0.032541506
0.021111662
-0.0060841427
-0.01419689
-0.06733006
0.05228827
0.0070067076
0.011499057
0.022664683
-0.004532044
0.059595294
-0.08355434
-0.18955834
-0.09024261
0.007038174
-0.07731341
-0.078866564
0.091180645
-0.06812979
-0.10346623
-0.026581133
0.052307025
-0.09987607
0.033964872
0.084332876
0.002224251
-0.10023699
-0.06599876
-0.0006300601
-0.031147767
-0.03544869
0.091319464
-0.027409166
-0.0076487376
-0.032811254
-0.063675575
0.014392691
-0.12696287
0.051651705
-0.07742857
-0.16037017
-0.051366076
-0.065628275
0.0565347
-0.017675554
-0.010863376
0.035596274
-0.021985238
0.08660925
0.059705034
-0.04797078
-0.02129695
-0.13411245
0.0013779323
0.058780182
0.03377733
0.018911183
-0.09675893
-0.05625402
-0.13308656
-0.00013103237
-0.0040323655
-0.028317789
-0.11841674
-0.007380994
0.074003786
-0.03537773
0.014022969
-0.023918003
-0.032915894
0.011397926
0.011198391
-0.050526194
-0.016824616
0.0058327545
0.026044777
0.019454041
0.022450427
-0.19302604
0.08094448
0.009428984
0.016783642
-0.009814829
-0.09493971
-0.052817147
-0.13051938
-0.079304345
0.020862672
-0.044479128
0.054105718
-0.020653252
0.03427898
-0.039967794
-0.02035615
0.07508091
0.015797837
0.032885093
-0.07474628
0.021384312
0.030754277
-0.060057145
0.028584959
-0.036368083
-0.036044557
-0.02372638
-0.03533805
0.02368019
-0.035870284
-0.0075309398
0.07471978
-0.03588599
0.0378194
0.012311846
0.06163015
-0.006256131
-0.05954273
0.039807007
-0.11193653
-0.047697093
-0.0137617495
-0.0024886886
-0.07622747
-0.04827353
-0.05380523
-0.07763854
0.041981358
0.016768912
-0.060119107
