0.021250285 0.086161375 -0.061809756 0.021637853 -0.025891779 -0.01969492 -0.0058700386 -0.055818327 0.009530853 -0.01829574 0.017463677 0.017739357 -0.0083006695 -0.014343785 -0.0046688667 0.018577721 -0.013669677 -0.00041055464 -0.0814475 0.011103139 -0.03617059 -0.0152656585 0.004219318 -0.033980675 0.026214434 0.054017145 -0.015328209 0.027280454 0.012731469 -0.013681903 -0.0006540958 0.055560146 0.033438593 -0.040136497 0.0005880747 0.051939934 -0.04929795 0.03692469 0.06890984 -0.005919255 0.015445826 -0.021621255 0.017321268 -0.07816333 0.018806284 0.009704752 -0.063264854 0.031486426 -0.0035780466 -0.027641563 -0.033206712 -0.03914366 0.020932928 -0.0011704215 -0.033369746 -0.019586122 -0.03742894 -0.004617732 -0.026625568 0.001725383 0.040744577 0.0060617584 -0.045098957 0.022904519 0.008146948 -0.050933495 -0.023508562 -0.012948004 0.011757317 -0.02306982 -0.03142328 0.04169806 0.04289247 0.038621034 0.06667726 -0.0059275273 0.001916005 -0.04395846 0.0023592485 0.013123892 -0.05211072 0.04711402 -0.010610405 0.008057439 0.049263556 -0.02249198 0.042681705 -0.049191684 0.019583017 -0.024286004 0.007887358 0.04093494 -0.03616451 0.06690686 -0.026561504 -0.04635601 -0.04796354 -0.022041596 -0.0010767248 -0.020450756 -0.043606274 -0.07728341 -0.03562381 -0.067345135 0.043986496 -0.029017886 0.024451187 -0.001879736 -0.008576609 0.06724468 -0.084227555 -0.044830296 -0.038902245 -0.028401293 -0.021216739 0.057791933 0.009538351 0.06549149 -0.051595155 -0.041957892 0.0018310803 -0.025680017 -0.061010644 -0.010417287 0.035549823 0.027893411 0.028556118 -0.030426554 -0.04392835 -0.06471184 0.0627416 0.022601401 0.011774079 -0.0071585085 0.05385411 -0.03224963 -0.02486818 0.05974087 0.062612295 0.023217367 0.038264923 0.072284095 0.039464243 -0.036284104 -0.09730222 0.014377286 0.01986528 0.005766985 -0.02740675 -0.04401908 -0.05659333 -0.005952853 0.029217402 0.036202874 -0.0060290243 0.027715534 0.009902217 0.052512914 -0.08509366 0.048291035 0.035085265 -0.0052884878 0.030582834 -0.040127408 0.04088714 -0.02259786 0.018336143 0.027579898 0.0020267004 -0.029951958 0.05573168 -0.015346441 0.055083975 0.053135403 0.016365614 0.009902664 -0.025510471 0.059699327 -0.01967886 -0.030354107 -0.04971753 0.030862702 -0.03412753 -0.01560339 0.047908388 -0.020393258 -0.026103294 0.02300443 0.025150526 0.015090989 -0.044259075 -0.017490463 0.027281035 -0.011654317 -0.00036545296 0.046167046 0.034158245 0.014600939 0.028004717 -0.04138874 0.019218793 -0.033137556 0.058843624 0.055666268 0.032394733 0.038009956 0.03059917 0.0065223607 0.057449557 0.026632233 0.0051004454 -0.03270015 -0.06681818 -0.027503433 -0.03283583 0.014177044 0.01516573 -0.01785063 -0.008895684 0.052562073 -0.07205125 0.009508104 -0.024925886 -0.011441418 -0.059795577 -0.024652807 0.032876067 0.0017126473 0.036000185 0.032193623 0.025533436 0.043811858 0.0036296414 -0.04379004 0.036419448 0.030486373 -0.017045284 0.04097962 0.005706951 -0.09504341 -0.05422475 0.03335445 -0.004301782 -0.02412744 0.008489559 -0.016678203 -0.046298258 0.0776584 -0.03206471 0.00867442 0.002260814 -0.018150931 0.023453694 -0.058605872 0.040641896 -0.0058649434
-0.051303823 -0.013414749 -0.00537809 0.014539382 0.14292136 -0.067754164 0.00025637788 -0.04150119 0.0364089 0.10154494 -0.022027602 -0.06289901 -0.04124824 0.0030649272 -0.04355029 0.06434778 -0.14920914 -0.004068201 -0.00091898104 0.12847328 -0.030916838 -0.0015699468 0.002070675 -0.09102393 -0.020584226 0.038832568 0.079496674 0.03707631 -0.053266447 -0.031387158 0.069742694 0.0012270366 0.030946529 0.006745073 0.021663066 -0.021711214 -0.0149813555 -0.04537797 0.040218897 -0.09244088 0.042594086 0.0055291248 -0.02952313 0.017953577 -0.00026673306 0.054722447 0.017581245 -0.10899331 0.022445314 -0.041924518 0.121764705 -0.0044423155 -0.0003829015 -0.010708357 -0.17180544 -0.016344288 -0.034479678 0.057920985 -0.045544054 0.024648516 -0.03322498 0.087240435 -0.06802557 0.12967359 0.08635991 -0.04812453 0.003767609 0.06294468 -0.032827195 -0.10339388 -0.01635215 -0.053354513 -0.20613486 0.037444267 -0.008324758 0.07232766 0.022070965 -0.022382492 0.069916755 -0.07168256 0.0021573587 -0.018539865 0.0426818 0.03901139 -0.029307833 0.029871631 -0.05746791 0.053591955 0.021709988 -0.004229013 0.011602877 0.007289109 -0.06446913 0.008291247 -0.002504616 -0.021124182 0.0034356301 0.07729071 0.0037213177 -0.023430951 -0.025869517 0.02084792 -0.0055512725 -0.03740542 0.037231945 0.057003137 0.0071683293 -0.08434032 -0.106637344 0.03789916 0.035092957 0.07113293 -0.06650485 0.021305801 0.022871232 0.06584936 0.033546906 -0.059985988 -0.023198962 0.0435443 0.030285295 0.07287352 -0.094061665 -0.03118726 0.021118382 0.046893764 0.016293928 0.033133928 0.04030243 -0.015140001 0.0077546644 0.0131168375 -0.03945701 -0.05996683 -0.051510718 0.08145568 0.06538227 0.11098153 -0.038205966 -0.09083364 -0.122969165 -0.010183047 -0.010959906 0.019630793 -0.038203716 0.014961262 0.034955986 -0.07232606 -0.015089907 -0.0093460055 0.11402299 -0.06883188 0.0018068125 -0.03968206 -0.013290434 0.018913532 -0.0742226 0.12161845 0.03987396 0.011282785 -0.03638452 0.018676791 -0.10013198 -0.013233089 0.097370796 -0.07953587 0.048231635 0.044505112 0.022297297 -0.07450311 0.0007894418 0.022930838 0.017309867 -0.063078 0.02096817 0.09897864 -0.050724644 -0.021824013 0.056316804 0.069908895 0.002117814 -0.02569974 0.002598138 -0.020869985 0.0041641183 0.027513647 -0.012361957 -0.0055824923 -0.10373468 -0.055574134 -0.0115188705 -0.10275687 0.021560116 -0.026646454 0.03029175 0.027512182 0.04894407 -0.029184215 -0.027446719 -0.07035586 0.03828478 0.007826629 -0.056084648 0.020466307 -0.074591555 -0.071354456 -0.06940318 0.056832522 0.06268068 0.04162237 -0.100434646 -0.032698948 -0.050949596 0.097184144 0.024875395 -0.04516592 -0.040298577 -0.19839536 0.04693665 0.01707488 -0.02506321 -0.030824374 -0.030347724 0.028239105 -0.017420266 -0.011903571 0.017358225 -0.032600462 0.037359558 -0.03052449 -0.0053881183 0.05524257 0.09400133 0.048439607 -0.024547016 -0.008434259 -0.009409224 0.043527737 -0.06643477 -0.0021028079 -0.0228011 -0.0029881692 -0.007463587 0.07600182 0.054148052 0.0694541 0.06042104 -0.08945326 0.052194055 -0.048340525 0.03781886 -0.027182942 0.035719115 0.056321252 0.021238843 0.0074406234
-0.009531863 0.047990017 -0.04418826 -0.008594664 -0.077523984 -0.075621486 -0.1651139 0.03916345 -0.07611437 0.016917929 0.024201825 0.06736909 0.03822974 -0.04993571 -0.060813785 -0.004780035 -0.0035754333 -0.018283248 -0.13614814 0.005606123 -0.018030047 0.055874076 -0.07352705 0.0034262603 0.008969896 -0.029183393 0.035574 -0.09884289 0.010679701 -0.021790387 -0.010646063 -0.015509915 0.13005744 0.05745792 -0.108389266 -0.18477131 0.048791308 -0.015505538 0.030184729 0.111752674 -0.020042127 0.044084072 0.009285722 -0.033776667 -0.010955327 -0.05966371 0.08702961 -0.00288502 -0.023669133 -0.012538473 0.024231037 0.00502843 -0.09373092 -0.0069390996 -0.024170214 0.12857394 -0.05149433 -0.052655753 0.023641972 -0.057583213 0.0038633903 -0.03295791 -0.012343785 0.05983019 -0.03103007 0.008957517 -0.099706315 -0.0016199895 -0.035168573 -0.04532554 -0.009058191 0.045901783 0.035492156 0.017503686 -0.030397478 -0.037649505 -0.029802566 -0.058834624 -0.006324969 0.028552778 -0.045114867 0.014844963 -0.016091235 -0.018663358 -0.09239104 -0.040003117 -0.04422846 0.029300103 0.051241323 -0.04687876 -0.013256758 -0.041130327 -0.1074664 -0.017923396 -0.1063956 0.03462053 -0.008208635 -0.021968985 -0.1740952 -0.001812411 -0.052532032 -0.028403835 0.092502795 -0.011353249 0.05742034 -0.07107115 0.027195279 0.1247546 -0.005938767 -0.060039006 0.03670211 -0.0051543238 0.0092118485 0.08467246 -0.13208182 0.041108202 -0.032599464 -0.029251201 -0.07623899 0.0018913643 0.01283413 -0.016528416 0.0011064953 0.031044468 -0.022632426 0.028082293 0.043209292 0.039288625 -0.042016204 -0.047844514 0.013511311 -0.013448341 0.015358762 -0.08461127 -0.02215089 -0.00268038 0.03095801 -0.019985491 -0.023821142 -0.056822665 -0.071438804 -0.0592153 0.010498177 -0.0924225 0.07049828 -0.08773848 0.029294204 0.014372396 -0.12360697 -0.0805067 -0.05848113 -0.020704629 0.08653632 -0.07968668 0.051599856 0.034490585 0.024275122 -0.014031382 0.028666036 0.0024616418 -0.060953774 -0.024011383 -0.006409098 -0.041327655 0.054117043 0.024370931 -0.015026367 0.013652813 0.06742589 -0.01886586 -0.035883583 -0.030799568 0.06381306 0.06542199 -0.066399395 0.050341118 0.008666329 -0.04001025 -0.12096345 -0.07624498 -0.0036431418 -0.050125968 -0.037329283 0.017841117 0.009288668 0.054948296 -0.1202139 0.003605932 -0.055927753 0.0040316046 0.015221728 0.033191822 0.016753474 -0.03591548 -0.122206286 -0.056905117 -0.023311306 -0.014221335 -0.049171858 -0.03688281 0.025786856 0.06972956 0.058817472 0.10766108 -0.036773622 -0.000883459 0.07751975 0.015941167 -0.09879511 -0.050716482 0.00057821965 -0.103807524 0.048721883 0.036133733 -0.035948295 0.0011184295 0.033473138 0.038954966 -0.011151751 0.10761313 -0.05554073 9.783036e-05 -0.06345478 -0.007838797 0.07753638 -0.04101965 -0.01482133 0.004719883 -0.06555958 0.056654513 0.0374615 -0.001031477 0.005964951 -0.07319066 -0.0015349434 -0.09648791 -0.05185345 0.040946692 0.028974792 -0.038211368 -0.013791964 -0.048486188 0.030685792 -0.06458155 -0.064981334 0.10621994 0.055525735 -0.072402984 -0.06870289 0.07313167 0.017260678 0.022842415 -0.102478184 -0.00886351 -0.119074516 0.016193092
0.06766156 0.0016468867 0.022204414 -0.015523109 -0.020250224 0.0009876125 -0.012193587 -0.08352402 -0.016877862 0.03119073 -0.014366477 -0.046745006 0.03788116 0.00254896 0.030971179 0.05533216 -0.034865726 0.031393323 -0.051775172 -0.00013342932 -0.0057686083 -0.029753683 0.0013052546 -0.06377334 -0.027985133 -0.028011667 -0.0066898973 -0.019276924 0.013976763 0.036595117 0.005079869 -0.01982267 -0.0106567005 0.023316257 -0.061442576 0.0046160114 0.005613949 -0.03901416 -0.035278734 0.01461365 0.04582904 -0.07758704 -0.02486949 -0.002362958 0.0051862146 0.037413638 0.0014994032 -0.028164178 0.03588703 0.09679261 0.014711255 0.088721626 0.03885037 0.052378405 0.0053908527 0.015324069 -0.025117643 0.0044305325 -0.008951939 5.7233887e-05 0.05449681 -0.052483607 -0.03767363 0.02118156 -0.026227072 0.023825618 -0.022451978 -0.049993966 -0.050877955 0.019484786 -0.042530995 -0.0022168588 0.015903216 -0.018436117 0.012344481 -0.018710941 0.015146306 -0.006627494 0.0603447 -0.029735979 0.061253853 -0.033908684 -0.033941004 0.00623715 -0.0048998105 0.0029677434 -0.022592094 0.05602348 -0.02394225 0.008966134 0.07663947 0.028801354 -0.02284099 -0.054446552 0.0047223237 -0.018415758 0.028288366 0.014286102 -0.030551424 0.003563359 -0.02079285 0.0031773623 -0.063263096 0.015515274 -0.039676167 0.0752033 -0.051318713 0.014038574 -0.072281234 0.011595803 -0.040188063 -0.01407131 -0.03037047 -0.017163461 -0.0231984 -0.0010079433 -0.051830962 0.021218307 -0.016576657 -0.028703779 -0.061578237 -0.024576334 -0.06606477 -0.03437669 0.019260062 0.015574209 5.5445656e-05 -0.015415331 -0.033163894 -0.040045515 -0.05312442 0.032072883 0.008840358 0.017697597 -0.019409958 0.041371133 -0.036645006 0.011178812 0.01499594 -0.016232274 0.057769604 0.02948204 -0.028881226 -0.028696952 0.04734428 0.03683935 0.063023716 -0.017932389 0.025780592 0.055868078 -0.027562581 -0.046802167 -0.009107142 -0.024709871 0.12581852 0.0067246454 -0.02706983 -0.06401093 0.0435165 0.0051427004 -0.05493013 0.052490074 0.0014927303 -0.04575055 0.019193163 0.00077368267 -0.08709324 -0.03771957 -0.0068024276 -0.015395272 -0.008784735 -0.057306968 0.036265515 0.0015262356 0.0069592 -0.0085964 -0.011717825 -0.0070619914 0.042117342 0.038766656 -0.0662544 -0.024346834 0.06735134 0.03894285 -0.054690417 0.036732424 -0.10181823 0.030927632 0.010586619 0.0675626 -0.011630951 0.050044693 0.008455698 0.03476976 0.019970668 -0.013585383 0.011071268 -0.014994493 -0.06345912 0.02726001 0.015300265 -0.028019419 0.038449075 -0.025980337 0.014784641 -0.045565836 0.051428463 -0.02778968 -0.0007061965 0.0016540762 0.0031753292 0.040306427 -0.060255826 -0.056892954 -0.10429034 0.004090136 0.015309995 -0.08774267 -0.016412431 0.031099794 0.002449203 0.018164342 -0.026192764 -0.0360053 -0.058524065 0.0778969 0.05508412 0.009899844 -0.018255172 -0.0077230977 -0.026890222 0.03827035 0.019493114 0.093051404 -0.006385814 -0.0023926434 -0.02871493 0.03732111 -0.059825562 0.025357088 0.017970677 0.08719081 0.040503733 0.06829325 0.047683507 -0.029844252 -0.003875047 -0.06104351 0.047582354 -0.014727609 0.016905129 -0.009070735 0.07100302 -0.0016330187 0.011690097 -0.044453666
0.03575094 0.05460625 -0.018964773 -0.0046305144 -0.03793818 0.08111718 -0.03286035 0.039603863 -0.0060566063 -0.026255976 -0.058373112 0.031563547 -0.05050394 0.05829468 0.024182335 0.036779378 0.065572225 -0.02321124 0.05638931 -0.06792729 -0.08088631 -0.14007701 0.15784189 0.0212397 0.029688695 0.013838655 0.0053178472 -0.02671011 0.1084354 0.065395415 -0.049195316 -0.026657682 -0.07662259 0.06476628 -0.012777645 0.11192398 -0.019430755 0.009908687 -0.063774385 0.004486628 0.034962974 -0.034920566 -0.04513671 0.007915387 0.0061526233 -0.07936143 -0.08308872 0.010086386 0.015622963 -0.021833394 -0.08421389 -0.15430006 0.04827851 0.027128555 0.00677717 -0.060528472 -0.084348746 -0.076128714 -0.11545559 -0.048935123 0.039997593 0.03179652 0.081597805 -0.08175926 -0.046364047 0.058780093 0.04658094 0.052842982 -0.09811195 -0.24664809 0.06607083 0.084909864 -0.09259546 -0.016356608 0.019005397 0.09650081 0.07703829 0.02526049 0.040392876 -0.0037572153 -0.11838131 0.12129691 -0.01065403 -0.03618782 -0.062515564 0.006175388 0.00010436001 -0.04411635 -0.08910948 -0.19055457 0.01702772 0.0020952863 0.01587828 -0.045876585 0.022810137 3.663982e-05 -0.041172843 0.022220304 0.01183102 0.07079364 -0.024686238 0.03327483 0.015853742 -0.062144805 -0.06275465 -0.0195363 -0.017904526 0.089760095 0.01742425 -0.08445005 -0.060874596 0.045452975 0.08869404 -0.021151049 0.07240892 0.0035607906 -0.060400426 0.040026322 0.044497542 0.028768139 0.027374284 -0.052900176 0.050492577 -0.06754455 -0.0039419387 -0.063984 -0.060058862 -0.014469422 -0.01857837 -0.119288035 -0.048400085 0.022274073 0.082131654 -0.16284347 -0.047194254 -0.04927716 0.047924742 -0.052081905 0.054565173 0.0022172676 0.042898394 0.062352628 0.015793944 0.04245866 0.03520881 0.0018025199 0.01958669 -0.012872495 0.019034503 -0.056893084 0.023534825 0.11453332 -0.062248033 0.0097222105 -0.059795685 -0.090278335 0.024165412 0.008689856 -0.001391094 -0.04308405 0.0104199285 0.019527994 0.060022727 -0.031598017 -0.11000044 -0.070024 0.0390536 -0.15833892 -0.023795836 0.0040078885 -0.019437416 -0.041368213 0.024734132 -0.03199961 -0.076652 0.021241745 -0.09560069 0.041126113 0.022482812 0.029606983 0.0072642253 0.058446046 0.035861637 0.0206427 -0.05404737 -0.37782922 -0.010993394 -0.009032368 -0.31169468 0.07239283 -0.0531159 0.087762795 0.008309965 0.020005448 -0.05273711 0.0118335225 0.008630544 -0.05045447 -0.09368516 -0.08540644 0.047963787 0.046104804 -0.009316057 0.035610177 0.037119463 -0.017189447 -0.055880375 -0.047015175 0.015806857 -0.09869534 0.087185524 0.04692723 0.06609272 -0.06344938 -0.016227193 0.0031604741 -0.08128321 -0.03285476 0.09581291 -0.09742726 0.036277268 -0.1502901 0.07802405 0.012296954 -0.2575976 -0.031455245 -0.030915005 0.014367985 0.015828662 0.015748376 0.0059406157 0.08009016 0.009623876 0.061222255 -0.0027674518 -0.06513752 0.066697344 -0.09009264 -0.2107152 0.007969564 0.09327683 -0.06739811 -0.06440683 0.04773301 -0.14517897 0.013292677 -0.021464597 -0.027036417 0.054812927 -0.005147746 -0.05861862 0.019532217 0.005135888 0.03432691 -0.10389692 -0.040849403
0.03125853 -0.07071936 -0.04257566 0.059621368 0.021197228 -0.0056729554 -0.030271964 -0.021085974 -0.015352328 0.018850401 -0.012108408 -0.0071309693 -0.100586906 0.02080508 -0.036461152 -0.163771 0.019918509 0.006713817 0.10623169 -0.056576658 -0.015808746 0.07476156 -0.10896554 0.056481674 -0.020536393 0.02816913 0.09318822 -0.039019972 0.0027410078 -0.12545455 -0.0021267682 0.031379383 -0.016462551 -0.004304661 -0.009401114 -0.03379095 0.049566045 0.026632283 -0.059890736 0.0022939143 0.049988747 -0.05043434 0.04908491 0.08592648 -0.021688113 0.023382524 -0.01627186 -0.08659085 -0.051867824 -0.063171476 -0.004763821 -0.071012266 -0.016574126 -0.046341233 0.033827744 -0.053684965 0.047913123 -0.066886716 0.03591742 0.0032571077 -0.11753062 0.04911948 -0.0739855 0.06394312 0.012422377 -0.02631785 0.021907775 0.0033117963 0.08241475 0.028614312 0.006366125 0.021482727 0.03447223 -0.06341345 -0.0018275047 -0.08218454 -0.21316575 -0.117228165 -0.11653686 0.01496845 -0.028186372 0.03456339 -0.11052061 -0.04137818 -0.030180505 -0.020032799 -0.0828709 0.025092468 -0.007698294 0.0063089016 -0.014264739 -0.016870731 0.07950522 -0.14900061 -0.028487012 -0.031008167 -0.057873987 0.018118788 -0.061456803 -0.024160707 -0.062012363 0.039241858 -0.14953159 0.07934503 -0.012520018 -0.001912379 0.053555004 0.07461 -0.05587602 0.086259454 0.010874614 -0.06841576 -0.017484741 0.020876832 -0.052025948 -0.023631688 0.0960892 -0.05089876 -0.15965952 -0.08713978 -0.07640821 0.036570016 0.030612703 -0.0076403245 0.020842096 -0.021178883 0.0010733692 0.07975978 -0.04314008 0.023768479 0.030311566 -0.045526292 0.026222378 0.02535401 -0.013824405 0.02362838 -0.054817885 0.011290748 -0.008791544 -0.038398016 0.040399928 -0.040916618 -0.071264535 -0.056140345 -0.06653314 -0.001770496 -0.06573998 0.08140953 -0.04297107 -0.10261259 0.017567141 -0.059180114 0.007546149 -0.07859621 -0.06983811 -0.04262731 -0.053519335 0.042197555 0.03007566 0.02800635 -0.006743391 -0.057475884 0.0067109275 0.07876672 0.0042035785 0.033320036 0.037590135 -0.16340737 0.054366734 -0.08306977 0.060019284 0.059486933 -0.051488563 -0.026154593 0.06788779 -0.11892234 0.011682226 -0.008720068 -0.041778546 0.033876516 -0.016286759 0.045609485 -0.03491601 0.044546224 -0.08782005 -0.0777112 0.05653861 0.004132088 -0.009337939 -0.04691092 -0.089309074 -0.044506732 -0.025818162 -0.025973435 0.007867596 0.026160838 -0.023603965 -0.0006387785 -0.050950255 0.07316613 0.036790814 0.1414973 0.01022556 0.10677422 -0.03171416 -0.024445679 -0.019681918 -0.07586449 0.015408833 -0.059462987 -0.13345021 -0.037013784 -0.11264247 -0.04372185 0.03755618 0.09415607 0.06566707 0.022993661 0.029888622 -0.046282988 -0.04847647 -0.08153394 -0.007083323 0.03534639 -0.063344255 -0.022603147 0.034957644 -0.004545927 -0.046346694 0.07745117 0.0030441382 -0.026771521 0.012418077 -0.0036199568 0.043396764 -0.016969295 -0.05689728 -0.049214125 -0.05527584 -0.02502218 -0.11658205 0.06507669 -0.075146936 -0.04332644 -0.038407028 0.013506846 0.010679011 -0.006589054 -0.09606093 -0.037547667 -0.014241137 -0.012705328 0.052835047 -0.07247844 -0.06493275 -0.012801388
0.07667158 0.006487848 0.07084342 -0.053173017 -9.73758e-05 0.032149695 -0.09928864 0.02890656 0.012051958 0.07344755 0.0922329 -0.037151113 0.017846063 -0.017690666 -0.019518673 0.06968955 0.039909583 -0.024074927 0.12389547 -0.004851195 -0.07543035 0.012232949 0.04609213 -0.038747434 0.017211659 -0.054831907 0.009328282 0.09656249 0.1380066 -0.023602227 -0.07774121 0.009354046 -0.08185795 0.0016737622 0.11022866 -0.08842229 0.00056761416 0.10604208 -0.084023766 0.00028587168 -0.002457021 0.07506184 -0.04431635 -0.012143759 0.006359932 -0.05662607 0.001379208 -0.028248975 0.029836392 0.06409008 0.07986834 0.00027129424 0.01760476 0.0196027 0.018923154 0.0715177 -0.062235896 0.051860813 -0.13171133 -0.018695405 -0.11001163 -0.042829342 0.057669815 0.029042553 0.073302455 0.023670059 0.0069418075 0.047496874 -0.09449527 -0.013003314 -0.0006971416 0.008638593 -0.04134469 -0.02721851 0.0086630285 -0.0655356 -0.03272343 0.061495975 0.044103894 0.01797679 0.017248468 0.068886705 -0.024290739 0.04976048 0.03906247 -0.07063092 0.068802655 -0.05690777 0.040147107 0.020771785 -0.056507956 0.051498152 0.07570473 0.026308464 -0.043662023 0.09542979 0.09726743 0.01098408 -0.027789772 -0.014523072 0.052536543 -0.034047544 -0.038267087 -0.0070813233 0.018515147 -0.08984461 0.037546493 -0.07007362 0.07480989 0.00506753 0.08560942 0.07684523 -0.00056237465 -0.11943692 -0.008880556 0.025528824 -0.031479754 0.042932797 0.061648935 -0.0041201524 -0.0836119 -0.03678985 -0.031136619 -0.048048317 -0.06768998 0.025855217 -0.074063495 -0.0643947 0.0029848812 -0.072043024 -0.04439336 -0.019769123 -0.05519209 -0.09766376 0.036295015 -0.028653642 -0.027012158 -0.04896449 0.020042056 0.044910785 -0.007900909 -0.07779704 -0.12045661 0.018745204 -0.058409628 -0.06140119 -0.01614489 -0.08298147 -0.018030742 0.013104654 0.025633357 -0.022203296 -0.00709378 0.048936237 0.041124243 -0.050205868 -0.11143486 0.008138434 0.01977542 0.0002939156 0.035939194 0.06575948 -0.02319248 -0.09324877 0.008387545 -0.060293507 0.022503676 0.02531562 -0.098007165 0.06420178 0.004029708 -0.09070355 0.06673788 0.060057987 0.04314592 -0.0019668494 0.042342972 0.053761248 0.020722719 -0.01177499 -0.043926176 0.028480465 0.051834956 0.06750309 -0.06446551 -0.01664978 0.04996142 -0.023327474 -0.10672348 0.037234202 -0.053042255 0.0906456 -0.029257862 0.020348428 0.02588149 0.042701423 -0.06909697 -0.058767445 -0.00801392 0.0827138 -0.033385642 0.023218075 -0.013676496 -0.09062828 -0.057014387 -0.057828642 -0.013895106 -0.01257159 -0.06564567 -0.0012811259 -0.040206473 0.055747617 -0.045373004 -0.028195715 -0.09024059 -0.007858904 0.051112216 -0.039493755 -0.05513873 -0.05985946 -0.062391054 -0.0650841 0.11158463 -0.05035641 -0.00966915 -0.054632112 0.04556672 -0.040902905 -0.0010087048 0.013485389 0.022350123 -0.04038639 -0.0425641 0.05305717 0.11191745 -0.030113129 -0.017594352 -0.0664984 -0.010950651 0.016707202 0.05277925 0.0005459019 -0.04122261 0.08378316 -0.046346057 -0.092119284 -0.13244624 -0.05107379 0.12118988 -0.00078053464 0.062145356 0.08031853 0.062585965 -0.095430166 -0.039900646 -0.0975564
-0.00092458446 0.047656335 -0.012873013 0.016439343 -0.014109443 -0.058872435 -0.030666865 -0.03324318 -0.014327815 0.10137088 0.006803314 -0.07151901 0.04084188 0.029038353 -0.05612247 0.014786478 -0.033276282 -0.041955527 -0.027967984 0.049902257 -0.03250818 -0.02757627 0.029642181 0.029131675 -0.018412426 -0.05291146 -0.03083811 0.011567551 0.048766878 0.011043272 -0.018011209 0.035460036 -0.0261669 -0.007025859 0.06266852 -0.04964106 0.013082354 0.019619761 -0.011237364 -0.0077206725 0.050190642 -0.004294379 0.009158175 0.022110332 -0.033522893 0.011911894 0.0074620694 -0.04577326 -0.018920654 0.041265246 0.07174602 -0.035311405 -0.029643452 6.77813e-05 -0.033637296 0.04765344 -0.028215844 -0.005973386 -0.020870745 -0.10200688 -0.038601164 -0.07115063 0.019134281 0.0013814194 0.08295696 0.0032602425 0.035390675 0.04590375 0.05044119 -0.08411897 0.01946906 0.08354878 0.0029311338 -0.04668235 0.084625416 -2.787094e-05 0.008453471 0.04379786 0.014374706 -0.06791048 0.027309952 -0.023258898 -0.015153692 -0.024241786 0.015558492 -0.02539026 -0.07005484 -0.018142978 0.009519457 -0.015793292 0.05157595 -0.010416361 0.07708331 -0.028308192 -0.023810185 0.009291115 -0.043968633 0.06381766 -0.022086045 -0.05754235 0.02086636 -0.050526455 -0.013426868 0.015457181 0.015342688 0.03564374 0.0691602 0.01336613 0.06571122 -0.054902647 -0.057655297 -0.049927212 0.055429794 -0.015046576 -0.034226835 -0.0021147456 -0.022862826 0.017406538 -0.0020495844 0.0395401 0.032107368 -0.01669424 -0.017674664 -0.039602738 -0.06575512 0.03324452 0.025979796 0.025660725 0.07724268 0.04004045 0.053922813 -0.04311175 -0.07937077 -0.08362429 -0.015769701 0.0016571181 0.045492046 0.08233827 0.046497248 -0.0085166665 -0.058547188 -0.04797142 0.0025098321 0.025872597 -0.06981564 -0.016806634 -0.07922424 -0.012905593 -0.028196547 0.018865572 -0.031944312 0.015634425 -0.04935344 -0.022633225 -0.0052475794 -0.037939854 0.031221587 -0.068459034 0.0012129729 0.020820621 -0.034888815 0.013324892 -0.025074175 0.055353947 -0.0106949555 0.031561412 0.0036988102 0.03664031 -0.01019756 -0.05024479 -0.00095075765 -0.040530443 0.0057908697 0.061510213 0.027220199 -0.027074069 0.013591277 -0.0155326715 -0.04109994 -0.0035144354 0.000297405 0.041174177 0.08031869 -0.031396165 0.016504038 0.023549344 -0.05458223 -0.025706097 -0.031057935 -0.024730457 -0.031088348 0.080498986 -0.045707688 -0.023128781 0.023902103 0.05211735 -0.019334165 0.025096374 -0.029759925 0.0016041268 -0.0016785752 -0.042025138 0.010617619 0.06752458 0.036101777 0.043345198 -0.05148526 -0.012575934 0.041624468 -0.024161078 0.027987376 0.037674483 -0.034121256 -0.044019517 0.00069861475 -0.038742498 -0.006159217 0.07147276 0.029608913 -0.013105617 -0.07433038 -0.034624815 -0.00321844 0.020590886 0.04102729 0.09977958 0.00068239303 0.027368793 -0.056319375 0.061908856 -0.028118495 -0.039769147 -0.007425251 0.07395378 -0.038516026 0.013998498 0.03395579 0.008633847 -0.04618918 0.006982503 0.0043828855 -0.002866873 -0.032423325 -0.04552145 -0.08466962 0.022545801 -0.041495577 -0.09594721 0.05405742 0.04450896 0.03546626 -0.031525232 -0.014549564 -0.018276671 -0.0593619 0.056696884
0.021569166 0.016743943 0.009026675 -0.0020851765 -0.0065250285 -0.03543317 0.017163675 -0.006283844 0.054743685 0.020809706 -0.04608361 0.08394358 -0.003163678 -0.0011155473 0.014027435 0.045675002 0.008189762 0.05258827 -0.033132307 0.008338648 -0.0059750467 -0.015489 0.03393676 0.03609173 0.010410946 0.0062400103 0.061219536 -0.014218475 0.025466727 -0.016194405 -0.001951432 -0.0021313813 0.025116617 0.06376907 0.05374346 0.0064334315 -0.07414262 -0.039134584 0.024069281 0.021815663 -0.018538035 0.025302924 0.04642398 0.022043824 0.0014724266 0.03168615 0.05635496 0.043232933 0.0094830645 -0.039504286 -0.002964242 -0.00010130117 -0.02329632 0.013605905 0.011193367 -0.051153656 -0.050116315 0.049065255 0.02313479 -0.055901255 -0.034985337 0.0407019 0.0010422546 -0.06336814 0.00509818 -0.047513384 -0.012681681 0.042328566 -0.002384884 -0.011259576 0.091098905 0.033397656 -0.032274764 0.017553357 -0.024449391 -0.06241648 0.028865205 -0.062316444 0.0014893729 -0.00088571676 -0.03216627 0.051710296 0.029758522 -0.022884129 -0.024098614 -0.055979706 0.044834368 -0.06337328 0.027229402 0.042009447 0.040453494 -0.07434536 -0.023047665 -0.0031827558 -0.023427121 0.027980955 -0.011128986 -0.0327222 -0.023251893 0.013777904 -0.018270671 -0.057066552 -0.021821667 0.025918795 0.021529509 -0.03326034 0.035974935 0.011315318 0.009459088 0.082056515 -0.030120129 0.015838014 0.040169302 -0.0052169543 0.010372734 -0.0057766563 0.036777735 -0.027472002 -0.045805663 -0.046754133 0.022327527 0.012688032 -0.024406921 -0.016477663 0.05406709 -0.021767022 -0.067329824 -0.033635702 -0.056765057 0.008524275 -0.016065784 -0.054749023 0.048078135 -0.060058117 -0.0063491953 -0.077194765 -0.03611635 0.012101898 0.03534351 0.0021648104 0.04204821 0.04669221 0.01805622 -0.020337986 0.036122587 0.0026610848 -0.012264137 -0.002066034 0.058145683 -0.017437829 -0.040314052 0.0017602692 -0.017509455 0.061536413 -0.00016801324 -0.027590198 -0.05072213 -0.040263053 -0.018958874 -0.0084213875 -0.0003593394 0.00036975194 -0.04562263 0.04838098 -0.03640559 -0.009240673 0.062055442 0.024430634 0.014915224 0.016441707 -0.0030584843 0.019896433 -0.038792036 0.035801265 0.004596913 -0.041134655 0.04894103 0.02669652 -0.002061172 -0.051211454 0.034954354 -0.03550478 -0.020043615 0.0063854526 -0.015522113 -0.014191195 0.06780822 -0.029608427 0.038452603 -0.047250085 0.043452673 0.0039455458 0.02176164 0.016583305 0.01115579 -0.035674613 -0.022985967 -0.03358192 -0.005851511 -0.03746184 -0.020221772 -0.032443788 0.006669128 -0.005990086 0.031485967 0.033782892 -0.09763002 0.007801624 -0.026820505 -0.0063742762 0.033894807 -0.09430455 0.005339639 -0.06290708 0.058268566 -0.035504203 -0.0040834034 -0.036200736 -0.054673407 -0.06582321 -0.02564792 -0.01892733 -0.00658093 0.016464403 0.009230761 0.0396751 -0.03556519 0.04867116 -0.011839879 0.024012025 -0.022651633 -0.06575674 0.017185671 0.012885337 -0.040421277 0.03677147 -0.030522527 -0.024788612 0.015002231 -0.032809194 0.031125275 -0.0318103 0.042201795 0.060426086 -0.037259415 -0.041601826 0.0098565295 0.0032697946 0.011296872 -0.012717156 -0.026212811 0.0074267415 0.04354151 0.05171468 0.02761981 -0.037899077
-0.00033190777 -0.027861666 0.008279265 0.004980439 0.056717135 -0.02243167 -0.107609235 -0.043633174 0.06362013 0.015199354 -0.0005408298 0.051491797 -0.084960856 0.04571565 -0.038067713 -0.04040398 0.004924096 0.016694698 -0.04587565 0.05403371 0.115867324 0.017268872 -0.062007044 0.06178499 -0.0025409479 -0.0005922221 -0.0015518321 0.021973 0.0142353615 -0.116497114 0.067914106 -0.116691455 -0.014912598 0.039903704 -0.08964164 -0.06486589 -0.0030693077 -0.03080973 0.07476382 0.03924588 -0.017706094 -0.07373958 -0.046842065 0.09547142 0.029431414 -0.014916833 -0.088882476 0.033926815 -0.01206304 -0.07233718 -0.013914547 -0.056868024 0.021593044 0.004043126 0.024761079 -0.03645519 -0.014000492 0.027694814 -0.05269287 0.021209992 0.009239618 -0.041412618 0.03818744 0.049426906 0.004374189 -0.010230713 -0.032787364 0.052170526 0.01244853 -0.11920836 0.049695693 -0.026914304 0.0051198937 -0.016187722 0.124722116 -0.030009607 0.011172646 -0.013468998 -0.008791302 0.013375873 0.023091596 -0.069405995 -0.17021061 0.011978629 -0.014620404 -0.009902951 -0.049623426 -0.02534573 -0.04513795 -0.093874946 -0.019094288 -0.018290056 -0.060890365 -0.12506773 -0.026718475 -0.056745704 -0.10336495 -0.07184469 -0.045458686 0.0074883644 -0.08009377 0.12609722 -0.11924063 0.035121948 0.021300342 0.073977366 -0.08379092 0.011577828 0.06481639 -0.041881777 -0.08123827 0.03997991 -0.0062375856 -0.07670766 -0.008144813 0.044604275 -0.071377754 -0.038725417 -0.040007774 -0.00624198 -0.06860126 -0.07678314 0.07412143 0.107449375 -0.009400613 0.034607094 0.061286706 0.1628513 0.0043971865 0.12235304 -0.074750215 0.042075988 0.00092068186 -0.13775656 -0.054499857 -0.0371276 0.16439529 -0.09952369 -0.06417289 -0.00091116864 -0.05243031 -0.002240485 -0.015487865 0.051628217 0.11592165 0.02899402 -0.056892376 0.052986618 0.044953275 0.013409582 -0.059453942 0.0075109154 -0.047357116 -0.07182667 -0.070498034 0.10185904 0.029979452 0.027935887 -0.07632386 -0.03292965 0.045872796 -0.055631265 0.050128378 0.07557443 0.009659358 -0.14467044 0.10527038 -0.1047058 0.10631247 -0.017763805 0.07604289 -0.012565335 -0.007986005 0.054818854 0.04938883 0.050562292 0.048265934 -0.033515316 -0.0031955463 0.12371392 -0.016219156 -0.038702305 0.046638012 -0.033810742 -0.10538362 -0.049131367 0.015011902 0.10848145 -0.15502536 0.014822642 -0.04972999 0.01593899 0.045605022 0.019600103 -0.1166528 -0.059125137 0.027108042 0.08130305 -0.13581209 0.043960884 -0.00022176022 -0.008093556 -0.004976996 -0.026668582 -0.053011484 0.08897371 -0.0562082 0.014032901 -0.023260923 -0.047901098 -0.088884085 0.009529274 -0.06969031 -0.11823132 0.016759235 -0.055066753 -0.09767157 -0.028911319 0.10153313 -0.0031058148 0.06309224 -0.15190968 0.04252726 0.017825926 -0.15602595 0.058815625 -0.021205472 -0.08859056 0.017330976 -0.01773826 0.048851576 0.07895281 -0.009067465 -0.009057844 -0.025571821 0.051904086 -0.024159614 0.033748776 -0.019421037 -0.0389686 -0.054553222 -0.03905046 0.09757739 0.07284339 -0.04527893 0.039841093 -0.0017961885 -0.051458966 -0.054031435 -0.03792771 -0.15710713 -0.06852053 0.10262177 0.040051352 -0.062331837 0.06696892
-0.028215772 0.063573085 -0.04753658 -0.026172137 0.07823778 -0.04562373 -0.014068786 0.035531804 -0.014177873 -0.043891106 -0.0034763245 -0.004868907 -0.044690143 -0.016968926 -0.061070547 -0.0055854726 -0.033953782 0.008369676 0.04267262 0.060711265 -0.0036261955 0.03620065 0.04832215 0.04117345 -0.090269476 -0.033249777 -0.02821866 -0.013378035 0.018850561 0.040618606 -0.033549592 0.01988065 0.031605802 0.0466078 -0.03905179 -0.0053791194 -0.011365356 -0.032339517 0.009872918 -0.020409556 -0.06820226 -0.005066884 -0.0447753 0.00047819017 -0.04658137 0.036793258 -0.022793788 -0.027868846 -0.013188861 -0.03831209 -0.038445573 -0.0028684782 -0.038997546 -0.048117846 -0.013179554 -0.027754448 -0.07084892 -0.0077193663 -0.047794625 -0.055492196 -0.04431798 0.03647388 -0.09226775 0.014685461 -0.12809354 -0.01595022 -0.044312757 0.013870405 -0.054596253 -0.017732862 -0.0026468148 -0.025902772 -0.005422899 0.008061441 -0.056915987 0.10041369 0.02959063 -0.012766586 0.05687868 0.023357974 -0.03348394 0.048526686 -0.036169626 0.011979051 0.04364173 -0.0014972126 0.02148375 0.05977433 -0.012354882 -0.00033831125 0.1271602 -0.0289612 0.023037948 -0.018597001 -0.008236628 -0.03513243 0.026946355 -0.0013964622 0.005002601 0.0018148646 0.016165575 -0.039636884 -0.0173192 -0.01621902 0.016439173 0.037198864 -0.08117692 0.034055285 0.03712166 0.0017127086 0.031523727 -0.04708992 -0.006309035 0.02465098 -0.012899224 0.044667248 -0.04504114 -0.0047985557 -0.023015164 0.108904436 -0.03147616 -0.032835104 -0.015353327 0.07468315 -0.021500332 0.030802859 -0.0012057489 -0.02287779 0.015131612 -0.019726528 -0.036559254 0.00754007 0.02342428 0.00012619224 0.031764045 -0.036977995 -0.0059117046 0.016621793 -0.019021057 0.03390265 0.07840519 -0.03353206 0.0016290045 -0.058515713 -0.08189496 -0.09237992 0.03653264 0.017662173 -0.06967505 0.02721858 0.047469113 -0.025360081 0.036406778 -0.0952627 0.049052384 0.021220166 0.09771317 0.0476778 0.018897876 0.025756296 -0.06341918 0.053397194 0.051284954 -0.018957408 0.039496146 0.034214374 -0.05102522 -0.038872484 0.0628189 -0.01773597 -0.064288676 -0.018644314 0.0026902703 -0.040688436 -0.06525307 0.041163664 -0.018735506 0.06153051 0.020093895 -0.048474204 0.024546642 -0.05942754 0.005311096 -0.023287175 0.048326753 0.02443917 -0.07585973 0.034506947 0.03542868 -0.019599535 0.014648731 -0.0026231972 -0.043736655 -0.017731458 -0.017614424 0.0038425638 -0.011393128 -0.040108036 -0.023830626 -0.047267973 -0.02087712 -0.023649264 -0.07594714 0.0070191384 -0.0049795075 -0.03162668 0.061777808 -0.026540287 0.030929701 0.0006246181 0.04579254 0.0077920067 0.047473453 0.012825334 0.0252174 0.0007967216 -0.059859596 -0.054345287 -0.03758865 -0.009151038 -0.06390413 -0.030751191 -0.00024590114 -0.004848776 0.07891827 -0.031058447 0.04331785 -0.044555612 0.01805576 0.05599594 -0.024245098 0.020532845 0.032236755 1.48787085e-05 0.015447655 -0.009658244 -0.011888193 0.011145678 -0.07858955 -0.06178298 -0.01296276 0.04036377 0.029182492 -0.040067676 -0.009257063 0.04502842 -0.014837101 -0.04512599 0.017794318 0.0049216757 0.04705075 0.0012091694 0.01683028 0.011378551 0.037682086 0.09363321
-0.05545049 0.04268531 0.06336738 0.082181826 0.05148068 0.007005527 -0.010892032 0.018557692 0.017629292 -0.0036793125 -0.063445844 0.017276699 -0.05326647 -0.10693043 0.04836918 0.038237397 0.073873006 -0.0070587997 0.08050552 -0.02484641 -0.07765922 0.007677962 -0.0070630973 0.012187316 0.009006641 -0.0301874 0.10069751 0.03895974 6.080933e-05 -0.038798906 -0.0089621395 0.039233785 -0.012310375 -0.04325306 0.05471133 0.042835116 0.060024314 0.021533385 0.08830877 -0.05834007 0.064613305 0.03481431 0.03376518 0.043107465 -0.054146826 -0.025166215 0.11095009 0.058606897 -0.0033309674 -0.14567347 -0.07262575 -0.06556277 -0.055557687 -0.025189623 0.0125930635 0.003459244 0.06806358 0.05423982 0.012854963 0.0010238043 -0.009382303 0.05727259 0.0022711256 0.005624825 0.0010118901 -0.037600636 0.030760027 -0.046250742 -0.05006311 -0.024550654 0.0155215515 0.0040006004 -0.030394748 -0.07145465 0.010610389 -0.008504794 -0.055578634 0.003486549 0.017097382 -0.0068097007 -0.052123476 0.034923535 0.11253751 0.051673483 -0.0171928 0.03491297 0.07083257 -0.0007874706 0.075279646 0.03879543 -0.099546105 -0.06311033 -0.04749792 -0.07945556 -0.061684333 -0.027637633 -0.07859557 -0.027588364 0.048547905 0.09535058 0.039534874 -0.0032795225 0.02320461 -0.0015481877 -0.037487425 0.10470779 -0.048932098 -0.008394307 0.012671963 0.044042673 -0.014254278 0.033983838 -0.062430706 0.018780587 0.031851962 -0.015934544 -0.004038168 -0.06851124 -0.021173349 -0.1244361 -0.07355649 -0.013855201 -0.01069579 -0.025863567 0.004783708 0.06329484 0.038989253 0.071799204 0.11692518 0.020880865 -0.019891588 0.06279914 0.0111544235 0.063693106 -0.03966171 0.019307857 -0.033911347 -0.047655117 0.057919245 -0.020982925 -0.01747723 0.05507243 -0.029446097 -0.057838213 -0.08625623 0.027399065 -0.041260976 0.014359395 -0.016690925 -0.057587765 -0.017035168 0.012209298 -0.064006165 0.08470157 -0.026711961 -0.027116831 -0.040946797 -0.030304624 0.088053 -0.054913837 -0.051642194 0.019128744 0.017577391 0.032681763 -0.037641235 -0.013522338 -0.03228013 0.003840368 -0.07508048 -0.030233838 0.025044909 -0.023126138 -0.03586172 0.12398249 0.044663113 0.017652705 0.04828401 -0.03196033 0.0003007148 -0.06574408 -0.0023849732 0.042198032 -0.03662592 -0.03818708 0.03592713 -0.069497116 0.047823146 0.048124544 0.043613642 0.018442946 0.003838921 -0.086626 0.07778575 0.11327273 -0.023359293 0.06266362 -0.02390641 -0.013694592 0.04753145 0.002953307 -0.118884206 -0.0033397495 -0.025519384 0.012939734 -0.06785254 -0.05606651 0.044811975 -0.026583338 0.0019881274 -0.013226812 0.04084767 -0.08993239 -0.04246914 0.056445956 -0.03229552 -0.031225292 -0.02064872 0.006523369 -0.06461962 0.01652512 0.005299039 -0.035923995 0.05528869 0.010716564 -0.042057954 -0.0045550037 0.035209935 -0.05029975 0.0074364794 -0.022604134 -0.008930221 -0.050307278 -0.03547138 -0.041046754 0.05344176 -0.076102294 0.039807074 0.039497007 -0.087371804 -0.092131235 -0.06539476 -0.06859027 0.008038775 0.014608952 0.03889211 -0.04438708 -0.04468659 0.05256362 0.017282574 0.032511238 0.049436048 -0.054228447 0.03749189 -0.090876 0.023373378 -0.027341912
0.029171113 0.039735433 -0.09170395 0.14715637 -0.09943447 -0.0954702 0.040781654 -0.0834353 0.036872704 -0.013404584 -0.035589483 -0.03639029 0.033491515 -0.08079477 0.023111776 -0.08583913 0.12720442 0.035684153 0.03275214 -0.06470722 -0.06114247 0.05762653 -0.011873533 -0.09423404 0.0577942 -0.15984969 -0.015878772 0.04626417 0.057897106 -0.079793505 0.0057129776 0.08184777 -0.042074982 -0.00057850213 0.08013864 0.026231254 0.012196206 0.0044888617 -0.018994903 -0.021707017 -0.02817645 -0.0578516 -0.03705013 0.009345104 -0.070349716 -0.085304834 -0.12963012 0.08273601 -0.15574214 -0.11162231 -0.011743074 -0.023044406 -0.07626906 0.048702322 0.036164336 -0.00016532953 -0.054801688 -0.053886063 -0.049814574 -0.10130889 -0.10588525 0.027884377 -0.082839765 -0.010781586 -0.061079208 0.04372238 0.010187741 0.09013714 0.02307478 0.11363822 -0.06999836 -0.0872234 -0.05170855 0.0067164665 -0.13605392 -0.115124166 -0.20602213 -0.046961494 -0.091416866 -0.16745973 0.038008645 0.014002738 -0.13056351 -0.02428839 0.0433148 -0.122355364 0.006229091 0.046339404 -0.09693854 0.054456122 0.11869248 0.078277655 0.0769052 0.03587641 0.015529981 -0.006767661 0.05122069 -0.009383775 -0.047697637 -0.07048767 -0.00442625 -0.07904793 -0.016649269 -0.013177909 -0.0103097875 -0.029812463 -0.07805145 -0.02905974 -0.03415201 -0.0680131 0.13638532 -0.08849642 -0.055835944 -0.050740026 -0.0617179 0.03225536 0.044942126 0.011434945 0.010132165 -0.03943448 0.04894694 0.009966914 -0.06434418 -0.030513223 0.014641617 0.08482134 -0.052060183 -0.031803712 0.07549603 -0.029546147 0.029555928 0.08008466 0.11450504 0.047145862 -0.0415652 -0.023762494 0.034749825 0.049958292 -0.04619954 -0.07007286 0.10561027 -0.08608039 0.10636773 -0.03572557 -0.10270221 -0.03306742 -0.065507285 0.10871455 -0.10158388 -0.0326489 -0.07690654 -0.023547022 -0.051788576 -0.06266916 0.0005856461 -0.012333107 -0.13389713 0.041015226 -0.0678151 0.11086393 0.081105046 0.00033410598 -0.019797847 -0.01633177 -0.012894714 0.039464075 -0.06297121 0.041606292 -0.013721642 -0.15467478 -0.09438656 0.0774671 -0.05165901 -0.080656484 -0.014544544 -0.08837886 0.036414295 -0.13207853 -0.078613214 -0.08531722 -0.12569945 -0.10319025 -0.06450556 0.05401869 0.031379845 -0.0961743 -0.079758205 -0.054989997 -0.03822689 -0.043141965 -0.042010207 0.054481007 -0.045447726 -0.024098115 0.026527425 0.04298713 -0.014996163 -0.0357961 -0.02235856 0.05554752 -0.123332344 -0.045487426 0.034395363 -0.002854213 -0.040068023 -0.03684338 0.0449419 -0.03717897 -0.059208628 0.042793117 -0.17540263 0.0615065 -0.046474338 -0.06679957 0.02843173 -0.031019507 0.00708801 -0.09311101 -0.07605006 0.027572012 0.09646452 -0.06496411 -0.11310267 0.038299527 0.017874405 -0.10411246 0.070767745 -0.005418684 0.0015617714 -0.0910577 0.03681751 -0.104934834 -0.059961192 -0.029491728 -0.024216631 0.02511089 -0.16200879 -0.11059488 0.030974677 0.018344808 -0.16963013 -0.0300639 0.048673514 0.07696031 -0.10682671 0.01320199 -0.065185905 -0.034466762 0.048204757 -0.04227389 0.062824994 0.06077644 0.030232377 -0.035782397 -0.09919935 -0.028538315
0.0033194337 0.049925324 0.01981152 -0.032697193 0.08012111 0.095029496 0.0027340252 0.02333901 0.0064950706 0.025794355 -0.04415088 -0.0120659545 -0.06079133 0.059997868 -0.010686483 -0.022160357 -0.0684332 -0.09050029 0.020446427 0.10224854 0.010916209 -0.004744634 0.06398717 0.017453 0.03153705 0.012283955 0.07007837 -0.002585764 -0.036793977 0.002815623 -0.077831276 0.04877337 -0.040040962 -0.017050475 -0.04407361 -0.019498883 0.05421121 -0.058225222 0.0681691 0.002404944 0.038814727 -0.018987507 0.03056776 -0.0029070878 0.052654363 0.05935935 0.046594173 -0.024540015 -0.05127701 -0.097906165 -0.10714738 -0.052766282 0.0063062697 -0.044670865 -0.008805945 -0.0026874503 -0.063325986 0.0015801734 0.06699678 -0.09946286 -0.07075341 -0.01713959 0.017083324 -0.020985052 0.008295322 -0.082670696 0.08663572 0.011847908 0.08874254 0.0025809275 0.07134631 -0.041841958 0.01242778 -0.06740791 -0.016367868 0.06729415 -0.017429074 -0.0042263744 -0.05848478 0.01076048 -0.066162 -0.005620515 -0.12547855 0.03235314 -0.0040957 -0.013915596 -0.013929347 -0.09200936 0.034997456 0.02063497 0.035404455 -0.03597782 -0.08195341 -0.09907267 0.056846958 -0.026497323 0.028691133 -0.040796507 0.021466931 0.019505529 0.085733265 0.028123094 -0.09665268 0.029932963 0.037985772 0.05135059 -0.043813154 -0.13287623 -0.06534973 0.11900349 -0.029713895 0.027737709 0.080058 -0.052333485 -0.010179403 0.049036533 -0.02531967 -0.04522693 0.08645326 -0.054047473 0.004848336 0.020220138 0.06820676 -0.105047114 -0.05027235 0.041604754 0.021927875 0.040381346 0.06934358 0.08901122 0.035781372 0.021930087 -0.057129856 0.054342955 -0.0014291673 -0.038480416 0.068209894 -0.014684019 0.06431698 0.01504875 -0.016336456 0.01595523 -0.14316665 0.03491706 -0.017728843 0.03103128 0.018179962 0.10818817 0.046507683 0.017106272 -0.009676337 0.01684624 0.008935115 0.081141315 -0.067189276 0.053226687 -0.013403484 -0.049611464 -0.007786557 -0.040296905 0.03148151 -0.06530569 0.0078123035 -0.09457767 -0.048562802 -0.03671279 0.043557554 -0.1012313 0.020855179 0.07617921 -0.0026286214 0.004240481 -0.042829737 0.05574174 0.015873048 -0.041833542 0.06712248 0.075887576 -0.04729594 0.09022114 -0.0024938006 0.06553956 0.083482854 -0.054841224 -0.041995507 -0.040396057 0.053603977 0.080101736 -0.003164552 -0.023946783 0.013695818 -0.028173257 -0.013994641 0.09492045 -0.034803905 -0.05174826 -0.031770453 0.015074747 0.06390081 -0.047634326 0.008790151 -0.024416814 0.030688707 -0.016200803 0.021990802 0.06519299 0.07664959 0.026776638 0.0260119 0.0016599138 0.031925533 0.0071905227 -0.08598018 0.020196803 -0.0014961618 0.11505178 0.079462424 0.12584108 0.06253083 -0.0048458013 0.011306805 0.0006102523 0.03157155 -0.008187439 -0.064147815 0.016303338 0.0037002775 0.036150888 0.0010925776 -0.051148538 -0.092596956 -0.020113997 0.0374551 -0.004618838 0.008612382 -0.051256787 0.045185104 0.033902884 0.009444896 -0.031408176 -0.011907121 0.011073965 -0.036370322 0.023617 0.0134417815 0.06875225 -0.021993706 0.101397656 -0.0058744317 -0.00034685942 0.0017817061 -0.11584655 0.02141212 0.015942208 0.048498373 0.03865379
-0.024467437 -0.0065663173 -0.0019475486 -0.02006916 -0.066128165 -0.011851806 -0.03730861 0.0074227364 -0.0076274904 -0.026687719 -0.033204567 0.025416236 0.05287877 -0.006445944 -0.03166764 0.043524235 -0.042568807 0.04168171 -0.040430237 -0.0035159464 0.055881668 -0.06406161 -0.035253532 0.053104144 -0.018038282 0.008476974 0.045648664 0.033546474 -0.038133524 -0.04260029 -0.03364537 -0.04069197 0.09027461 0.04489919 0.022192003 -0.026258575 -0.05607309 -0.08018357 0.061735284 -0.004288148 -0.011735019 -0.016851883 -0.023239926 -0.049838983 -0.045698233 0.00777233 0.0057743597 -0.00083715183 0.004502353 -0.011371534 0.023884822 0.016000858 -0.002142789 -0.032316282 0.093844205 -0.08059538 -0.01519811 0.00844529 0.031711914 -0.05856779 0.039413057 0.02773257 0.038110625 0.004754101 -0.057463605 -0.018225424 -0.018059894 0.016599119 -0.012782287 0.025235575 0.030144788 -0.04499519 -0.009900289 0.061248504 0.009679871 -0.0059113554 -0.014556463 -0.02085055 0.00817464 -0.0100049935 -0.006697754 0.020169789 -0.008671293 0.052155178 -0.03131293 -0.00092205877 0.030469898 -0.024549877 0.019208334 -0.020854732 0.02365056 0.010890315 -0.010436436 0.031496268 -0.018917423 -0.0055361143 0.031882323 -0.005317652 0.038968932 -0.058651388 0.049917772 -0.015403061 -0.014724026 0.06836696 -0.018837098 0.019728625 0.009021213 0.03008373 -0.00015068769 -0.03608865 0.0047710044 0.057560027 -0.056970347 0.06558195 0.08532741 0.0045251404 0.01760031 0.051789667 -0.014747009 0.0027724346 0.020158052 -0.04540783 -0.055889715 0.045525737 0.031973813 0.024735171 -0.07508294 -0.058678556 -0.07222825 0.030958954 -0.041632887 0.018457992 0.032974508 0.058346886 0.041244734 0.020596461 0.064893246 -0.019754756 0.015207868 -0.057753947 -0.07377737 0.011791855 0.006301168 0.052081086 -0.08448708 -0.02215066 0.0022516183 0.026122967 -0.029659787 0.02418411 0.033803176 0.02457081 -0.041211654 -0.038276512 0.036018375 -0.013234788 -0.008941213 -0.04779023 -0.018141294 -0.05782087 0.0068804543 0.032337397 -0.03148437 0.012928564 -0.09967329 0.07330971 0.05671106 -0.009252028 -0.018858425 0.04522044 -0.010868469 -0.004930931 -0.05693196 0.044271003 -0.0056463853 0.037849694 0.034052365 0.08008487 0.03329919 -0.029711798 -0.033262968 0.014548323 0.017594397 -0.0606349 -0.04771946 0.0005178838 0.004250202 -0.028629558 0.038129047 -0.036935277 0.002410492 -0.047447298 -0.0006185139 -0.023807222 -0.01666347 -0.037443954 -0.032252666 -0.01847731 0.008995305 -0.013334005 -0.07022602 -0.015723448 -0.01361399 0.03954984 -0.04694367 0.0792235 0.04695614 0.02211781 0.029890474 0.00094685133 0.0074464073 -0.08214123 0.072791584 -0.03892778 0.05369737 -0.0055255103 0.0032705877 -0.010440466 0.041417245 -0.0550426 -0.03162362 -0.067292005 0.004797059 0.018576797 0.0071009076 0.016984908 -0.012656953 0.06320297 0.028943487 0.020099415 0.030931648 -0.002551675 0.029411769 -0.030257542 0.04494489 -6.69294e-05 -0.05682999 -0.033851508 -0.016779784 0.03799047 -0.012956905 0.011495464 -0.028072162 0.0033573618 0.014395987 0.03738961 0.046417363 -0.032481033 -0.027830148 0.0029669793 0.021654217 0.042231925 -0.00075889524 0.013564618 0.005060232 0.018271152
-0.08671109 -0.07588768 0.08849364 -0.09936582 -0.024871554 -0.0028278185 -0.037937935 -0.006970677 -0.10634459 -0.038294025 -0.030360794 -0.09096076 -0.07565154 -0.05432019 0.09708672 0.043602433 -0.09197645 0.052344613 -0.008694271 0.035972692 -0.0375224 -0.034437288 0.086008266 0.06480169 -0.015336632 0.013034119 0.050986562 -0.0030115466 -0.03329508 -0.065430194 -0.046203777 -0.032061234 -0.051800814 0.036738243 -0.013957234 0.033173095 -0.03338444 -0.099576674 0.07627588 -0.028443368 -0.22545004 -0.15178171 -0.060047574 0.06949777 -0.06840098 0.009224747 0.029714521 -0.024234122 -0.08129656 -0.021242784 -0.020753218 0.0094583975 0.03486393 -0.06341321 -0.022351608 0.049671076 0.0028763919 0.013790236 -0.0013092987 -0.060729627 -0.011427975 -0.14414263 0.10161826 0.007463422 0.0046270704 -0.2379283 0.0011632552 -0.05001874 0.06746602 0.0040031252 0.170231 0.08229652 0.08542244 -0.030651553 0.1213651 0.14114173 0.029915068 -0.007845013 -0.038833857 0.023593906 -0.13600805 0.07961919 -0.0463619 -0.008224547 -0.013037549 0.049501117 0.03897637 -0.0046436777 0.014016757 0.012026082 0.06493075 -0.0005703018 0.010381348 0.022249125 -0.08259992 -0.0067189443 0.024530329 0.008289582 0.01570598 0.064797886 0.033255294 0.032941498 0.00064392237 0.034252703 0.0062201964 0.16715719 -0.0379189 -0.096622385 -0.11385824 -0.020196544 -0.09510245 0.005648258 -0.052505124 0.013438997 0.044594754 -0.13511197 0.06182675 0.024427176 0.008755276 0.0057686125 -0.0071389847 0.046549287 0.12337322 -0.000813594 -0.051182467 -0.04127337 0.04459548 -0.031805266 0.020767922 0.09608557 0.014605849 -0.011298839 0.0020451455 -0.065992855 -0.020754222 -0.055039898 -0.03198841 0.041277356 0.04760651 0.10366824 -0.0040201494 -0.037219267 -0.1480469 -0.08785488 0.09699446 0.049426362 0.025230916 0.018934924 0.0025310717 0.0044347025 -0.22427915 0.026166046 0.0057633836 0.0101971915 -0.08346538 0.063050695 -0.051916275 -0.026430156 0.012708537 -0.037029736 -0.077378355 -0.019976683 0.022787008 0.104439214 -0.050516617 -0.0042391894 -0.08284805 0.0025582763 -0.077348895 0.08113957 0.14801303 -0.13152483 -0.008142243 0.01707571 0.1255379 -0.076080754 0.032942932 0.10037208 -0.09756118 0.047350895 -0.0020050153 0.08119181 0.124775566 -0.051921133 0.11567571 -0.04009043 -0.012781945 -0.1044868 -0.056153227 0.00945703 0.0702701 -0.06171735 0.1349591 0.0023770698 0.025782147 -0.04669356 0.026884496 -0.04692829 0.12316831 -0.16036667 0.017419131 -0.13251725 -0.129476 -0.0147266425 -0.034900628 -0.01326856 0.03850329 0.07968464 0.0547884 -0.040114608 0.05023635 0.09178947 0.052369196 -0.01731008 -0.076646 -0.046093423 0.05979191 0.04929083 0.030037928 0.03238974 0.06705616 0.056643233 0.02660522 -0.08585719 0.01797077 9.1754446e-05 -0.0022197824 -0.050813984 -0.030227205 0.00093184964 -0.17538406 0.07423441 0.0428667 -0.019918839 -0.0007781613 -0.013155571 -0.03438122 0.04467856 -0.018713638 -0.005038098 0.04517171 0.03546029 -0.0062008095 0.023543796 0.011779872 0.10345756 -0.026884666 -0.014797101 0.12588623 -0.03460367 0.017868422 -0.16160713 -0.04370225 -0.013068209 -0.07086497 -0.0078428285
-0.06493619 -0.010467431 0.05083618 -0.04107739 -0.023544794 0.1348895 -0.056978796 -0.082615815 -0.05094488 0.012120856 0.0051905233 -0.003916518 -0.045671035 -0.02286536 0.02000896 -0.054045483 -0.019075057 -0.07985856 0.014755571 -0.042464614 -0.04991573 -0.007676603 -0.013831357 0.019564891 0.12425939 0.07477953 -0.042706255 -0.057795033 -0.027812865 -0.03226225 0.02152578 0.009527131 -0.05894694 0.13964978 0.026771892 -0.022514913 -0.008589689 0.029582052 0.09323112 -0.05094676 -0.096403204 -0.09461358 -0.010364952 -0.02812621 -0.13319583 -0.009077732 0.09892472 -0.051829506 0.03107231 0.027168948 -0.049269743 -0.032245614 -0.061498314 -0.09837072 -0.0487194 0.019227888 0.035913676 0.016621986 0.07203254 0.0833646 -0.07127437 0.03818946 -0.015150227 -0.030427862 -0.018901942 -0.010365547 0.041486196 -0.051739622 -0.021441128 -0.049291506 0.053436205 -0.061548017 0.030341892 -0.0052963537 -0.024756754 -0.0050341077 -0.029826997 -0.008799607 0.09979278 0.009121161 -0.01625046 0.022310343 0.051694743 0.0670449 -0.06679872 0.03850416 0.10214952 -0.04214957 0.02562028 0.0340931 -0.034174502 -0.04423921 0.032330774 -0.055905577 0.050067604 -0.036167778 0.011502456 -0.03947872 0.015128361 0.053616296 0.070226215 -0.04415226 0.008609945 -0.00889488 -0.12255553 -0.02310805 -0.023062972 -0.01814368 -0.020449469 0.13129495 -0.0420923 -0.02289613 0.10142523 -0.045506094 0.053106006 -0.040978692 0.019526972 -0.07735211 -0.015638245 -0.06802614 -0.0025153938 -0.0041562137 0.036018133 -0.008885468 -0.08557395 -0.08174482 -0.0019168857 0.004566383 0.07876249 -0.019117301 0.06411062 -0.010740202 -0.025473507 0.043615624 -0.094385296 -0.10225229 0.0031129783 -0.11010353 -0.032521315 0.045682956 0.052192077 0.041078698 -0.08231945 -0.08933782 0.0016153168 -0.0042765257 0.06923218 0.0058361706 -0.03441687 0.0473843 -0.05866969 -0.02221775 -0.013214336 0.041054267 0.090847604 -0.022987137 -0.020243092 -0.039910372 0.08914049 0.087848224 -0.05514823 -0.043933347 -0.08561975 -0.0033558202 0.053219445 -0.111050084 0.05105003 0.035208873 -0.008980008 0.041284017 0.026958529 -0.03293653 0.1375917 0.084852464 -0.08162629 -0.034705773 0.14549717 -0.001373805 0.069813885 0.043209735 0.038117357 0.08458416 0.12712467 -0.061657973 -0.0005290785 0.023195392 0.063624315 -0.042422973 -0.089341454 0.06939917 -0.04927707 -0.01366489 -0.00853646 0.0064840163 0.011609313 -0.052809708 0.019053334 -0.063153535 -0.030734139 0.08097527 0.010803356 -0.019835113 -0.03505489 -0.038596306 -0.007889343 -0.061040193 -0.08872354 -5.4940214e-05 -0.044758834 0.014947039 0.025613628 -0.05697783 -0.03177906 0.07198383 -0.009654148 0.08164639 -0.022506095 0.014887953 -0.04315114 0.043360144 -0.06561265 -0.036501378 0.010854989 -0.023829065 -0.021518918 0.065138176 0.033555683 0.015281112 0.04740498 0.03222364 0.008592308 0.023172474 -0.005688547 0.04704885 0.033739787 0.019253494 0.021667479 0.054854073 0.015426452 0.04203049 0.099856675 0.017061133 -0.07171723 -0.035922725 0.10918615 -0.06264148 0.022057226 -0.05881464 0.10334771 -0.0921498 -0.07521819 0.05257413 -0.039265703 -0.038892675 -0.043671582 0.023329437
0.0790178 -0.0107892705 -0.085528895 -0.00065661944 0.029491583 0.01458277 -0.0230813 0.018019447 0.15309058 -0.0152398115 0.06850777 0.021356905 -0.054627977 0.0042441115 0.0365859 0.0020090274 0.026408141 0.034246944 -0.054919265 -0.04998122 0.046562355 0.07559711 0.042292476 0.040087067 0.14683987 -0.101411745 -0.010483499 0.0432263 0.11467733 0.018766917 -0.017872656 0.0059782914 -0.018198948 -0.07184829 -0.045665603 -0.11174349 0.070089154 0.0826387 -0.12399757 -0.012769237 0.06616804 -0.046292987 -0.0113705825 -0.005082172 0.016404545 -0.051074598 -0.028347664 -0.042538647 -0.0002884839 0.07608433 0.017072128 0.014233997 0.088598266 -0.012866005 -0.085080564 0.07401017 0.013388957 0.0015588274 -0.04282076 -0.080198064 -0.019247958 0.035980698 0.03784724 0.07317281 -0.06545131 0.028513702 -0.07865523 0.104135945 0.054173585 0.056462806 -0.07420657 -0.06460514 -0.046330485 -0.031422965 0.057433505 0.005341297 0.040041156 0.076788895 -0.047869537 0.02870545 -0.12485693 -0.119259566 0.037541103 -0.06903868 0.033287663 -0.02705636 -0.013455403 0.080364004 -0.012373003 -0.032362998 -0.0438948 0.07786465 0.03264128 0.05783877 -0.042434502 0.0024453513 0.08383816 0.10675745 0.03691149 -0.032863747 -0.033945814 -0.06510327 0.06722667 0.035595067 0.07426375 -0.058293056 0.021433398 0.06765237 0.06682275 -0.1284502 -0.016597264 -0.05696221 0.05336016 0.013091432 -0.07968317 0.10868953 -0.08037617 0.0134505555 -0.059826177 0.043857493 0.03739607 0.04769969 0.010488633 -0.040153634 0.07092804 0.06049834 0.047392774 0.023342704 -0.034385484 0.04813023 -0.019505193 -0.034909897 0.0055600633 -0.040481355 -0.033480603 -0.060639787 -0.060839977 0.05501488 0.01764835 -0.07981949 0.011711259 0.02317721 0.03360532 0.017545125 -0.1597239 0.046242803 0.022611402 -0.04335035 -0.09514436 0.028379811 -0.078815706 -0.08828518 0.04409359 0.0039864313 -0.025464095 0.09846732 -0.11938188 0.034602333 0.033343334 0.06884437 -0.033352446 0.05962574 -0.03750717 -0.014199839 -0.055646427 -0.124808386 0.050394073 0.09205613 0.00129566 -0.03993965 -0.026935888 -0.02702864 -0.026899438 -0.03629857 0.006834628 -0.012146287 -0.05439255 -0.049580738 -0.004328031 -0.10786508 -0.0061524604 -0.073180705 -0.07423514 0.0038491231 -0.020445766 -0.04091241 -0.20123091 -0.021408774 -0.060196802 0.0111105675 0.050534174 0.042136032 -0.011515422 0.09727833 -0.01749829 0.034254126 0.0046055564 0.032753844 -0.021527367 0.08574331 -0.044924412 0.07901391 0.037089057 0.04926406 0.008235128 0.09544996 0.024222925 -0.023516892 -0.050211847 -0.057148095 -0.035540845 -0.12005951 -0.0039384295 -0.017235992 0.015420949 -0.05776926 -0.054425597 -0.109171025 0.04592837 -0.001482741 0.06159801 0.05178399 -0.026032707 -0.11758443 0.10859379 0.0074499696 -0.022032531 -0.06039454 0.07938571 0.037369095 0.009238556 0.028174149 0.088828854 -0.0030047095 0.05650901 -0.00043215408 -0.024813924 -0.023596019 0.030187061 0.012962633 -0.05926124 -0.035170604 0.037402414 0.019648433 -0.0037511995 0.03395069 0.03555494 -0.091346286 -0.02004017 0.019536475 -0.028575964 0.08027773 0.075825945 0.0707124 -0.07982251 -0.11864244
-0.076971844 -0.03311059 0.014510046 0.046776682 -0.106990494 0.11583941 0.051014822 0.017066663 -0.0011789311 0.007790352 0.026058543 0.12682721 -0.004215209 -0.02455076 0.051958404 -0.073016785 0.049377356 -0.020004475 0.036054432 -0.026894744 -0.0068539474 -0.07080819 -0.049136322 -0.092775054 0.14232984 0.015564752 -0.046670485 -0.03855078 0.041573916 0.005421651 -0.0603153 -0.07263412 0.030926125 -0.014772418 0.05299615 0.04587233 0.032930065 0.05220169 0.017549839 -0.0114871 -0.0077943397 0.011574382 -0.0210934 0.0042095906 -0.08231083 0.02346141 0.012461446 0.013623871 0.019695956 -0.056550097 0.010230173 -0.05700513 -0.0077281618 -0.005396017 0.06038459 -0.123021424 0.057426486 -0.01848481 0.040836472 0.024182541 -0.0552955 0.03570949 -0.093565434 0.04336876 0.07096774 -0.003939832 0.043285318 0.04228514 -0.044365305 -0.028691463 -0.028033292 0.06292021 0.01690318 -0.1276806 0.018880965 -0.03916102 -0.018098881 -0.015286287 -0.07066525 0.046432618 -0.020809146 -0.03911173 0.020958789 -0.046990428 -0.009921166 0.1068579 -0.0017236546 -0.017065376 -0.06947703 -0.046561975 0.07213988 -0.029640956 0.023800582 0.04580536 -0.05894362 0.10865295 0.064717986 -0.007159184 0.11624115 0.04793812 0.085567236 0.0109286355 0.060973104 -0.025523126 -0.0063659167 -0.06929076 -0.008709778 0.0016590571 0.09492855 0.029771829 0.044705935 0.01812348 0.031656507 -0.004446385 -0.0333074 0.042364474 -0.011931845 0.03123696 -0.011844005 -0.085931614 0.017260315 0.002064454 -0.031229062 0.005217765 0.012673999 -0.033175867 -0.017027497 -0.088869244 0.011042095 -0.023727322 -0.03693705 0.054661747 0.010666152 -0.05285067 -0.022311877 -0.04974447 0.048049673 -0.08447309 -0.1576278 0.0051278025 0.0053031477 0.042405274 -0.017658327 -0.09287349 -0.010831159 0.10514725 -0.008399687 0.054721367 -0.050744373 -0.024972832 0.012164248 0.010354694 -0.03496902 0.050968856 0.055946477 -0.011425081 -0.06082241 -0.0052457023 0.05056143 0.031818233 0.075542346 -0.022293398 -0.027318444 -0.04728292 -0.099799804 -0.034252677 0.0010897003 0.03971229 -0.00032136802 -0.0049489997 -0.0020294758 -0.005834392 -0.01484972 -0.037027977 -0.03570562 -0.07582539 0.061609022 0.037398454 0.045293353 0.0736142 0.057935804 0.0049486067 0.117293976 0.005200194 -0.020282762 0.0003248699 -0.016974615 -0.022293275 0.01805167 0.010203729 0.001056849 -0.053196862 -0.041264135 0.028311888 -0.040563077 0.023438541 0.0030184386 0.008211915 -0.04123404 -0.021927709 0.060178865 -0.026141927 -0.06797243 0.0417934 0.06045315 0.03488863 -0.01696756 0.021694398 -0.011898621 0.024064373 -0.12223919 -0.073416434 0.023826241 -0.052490838 0.05830768 -0.030023824 -0.013961378 0.003637517 -0.035013556 -0.122752056 -0.008254162 -0.120728694 0.00027495256 -0.057011604 -0.07141513 0.049588542 0.009258036 -0.005869967 -0.05132836 0.049532566 0.012263942 -0.11053817 -0.07198829 -0.025390392 -0.03399727 -0.02458044 -0.050761685 -0.0986934 -0.06271025 0.0067714304 -0.020350758 0.049814314 -0.015051795 -0.03965911 0.0946263 -0.1079526 -0.07594898 0.022560516 0.03763645 0.04244049 0.026441973 0.065962836 -0.0397575 -0.014271839 -0.019668736 -0.066048004
0.08267967 0.057260443 -0.05952914 -0.09841592 0.04408159 0.15104012 -0.04789485 0.06544913 0.009274927 -0.03924154 0.019534366 -0.08974619 -0.026874958 0.02001125 -0.032645144 -0.036460508 -0.0108558675 -0.013255588 0.07280438 -0.051631767 -0.020903375 -0.03758192 0.07923221 0.0336568 0.085929886 0.015110168 -0.053423 0.052240018 0.0007687148 -0.0118913 0.058175057 0.015954185 -0.041264415 -0.0923529 -0.06554345 -0.014279467 0.006225533 -0.01272179 -0.009584243 -0.05072892 0.030774897 0.035255533 0.041683275 -0.09782397 0.03471035 0.06599822 -0.041310396 -0.029362539 0.075223364 0.07755675 -0.00054684526 0.053154543 0.032257393 0.03602092 -0.081158586 0.00970818 0.020358017 0.016084947 -0.010288291 -0.024685828 0.01700292 0.006353083 0.09392003 0.032915484 -0.12255389 -0.030231722 0.06600848 0.08333208 0.016158544 -0.034277182 -0.011731126 -0.04751801 0.009927119 -0.00866866 0.020936709 0.07396902 -0.074876264 0.069972776 -0.04259996 -0.019748595 -0.028302094 0.06954716 0.024021048 0.015000001 -0.048595738 0.009806246 -0.03139695 0.028161883 0.019716704 0.03855349 -0.08671606 0.11489168 0.067722596 -0.05136883 -0.03146796 0.10070255 -0.066701494 0.0038810878 -0.014983839 -0.021020602 0.0065806066 -0.0286263 0.025224507 -0.046424005 -0.00898837 0.049444877 0.030286986 -0.09587472 0.012554763 0.0063489685 -0.0012684187 0.064265735 0.16384774 0.06655143 -0.030446718 0.039057653 0.01060138 0.0016443845 0.015886728 0.059836775 0.0030467953 -0.006603799 0.09182492 -0.03610497 0.0019036838 0.04028424 -0.006967687 -0.0061772494 -0.0030813266 -0.022958657 -0.015045448 -0.08210474 -0.02094683 -0.0103022475 -0.013565103 -0.07762549 -0.098931536 0.007625683 -0.0012644972 -0.023350693 -0.010232125 0.01577179 -0.042339206 -0.02653566 -0.040808532 -0.037119634 -0.14959635 -0.004144889 -0.045178436 0.04616883 0.006654132 -0.037155505 0.090875775 -0.08330495 0.07600751 0.046641752 -0.028995179 0.052593846 -0.0587268 0.06135402 -0.0037222994 0.026844244 0.009047461 -0.049279038 -0.06697472 -0.036911342 0.020932715 -0.031047683 -0.12347131 -0.084548205 0.038872063 0.04408819 -0.004898936 0.046822574 -0.042056836 -0.068020225 0.019283101 0.14219324 0.07539651 0.0152250985 -0.14028306 0.043207835 -0.06348283 0.1286773 0.05434052 -0.10065661 -0.024317577 0.0758889 -0.04677845 -0.02758129 0.06108971 0.051297776 0.06734062 0.0010568175 -0.025672771 -0.01659605 -0.05455747 0.0823926 0.07840444 0.085246645 0.05519045 -0.015639767 -0.09663358 -0.0056685153 0.043541722 0.083398685 0.037815057 -0.047912907 -0.017218906 -0.018966956 0.027194599 0.07355837 0.07112829 -0.02938385 -0.031186821 0.09681913 0.067587525 0.060597427 0.0051645963 0.05150003 0.061948076 0.0057625067 0.058856625 0.03224529 0.022995075 0.03126881 0.018324954 0.020122549 0.016829263 -0.09587223 -0.08251806 -0.09543219 0.072017565 -0.03816998 0.0010861377 -0.064327635 -0.08760578 -0.07087375 0.0007381988 -0.09473725 0.097108714 0.022439616 0.044761416 0.0645869 -0.065379426 0.0010890462 -0.05392969 -0.03664908 -0.06468884 0.056456096 -0.038787827 -0.056920618 -0.030645877 0.047740795 -0.044383205 -0.05008861
0.012777116 0.043166865 0.089839056 -0.047222007 0.019947236 0.0010624469 -0.05441347 -0.03843434 -0.0018190289 -0.0076363077 0.033967875 -0.003379073 0.026426326 -0.027169092 0.027377486 0.042074576 -0.09760294 -0.009996452 -0.004376113 0.026925145 -0.004617739 -0.0034211453 0.01509987 -0.013001341 0.011271172 0.02063063 0.09355748 -0.07310751 0.032736097 0.0055480213 -0.03611606 0.048260603 -0.0957919 -0.04883951 -0.031140288 -0.044012878 -0.097599484 0.022431087 0.020027509 0.021004902 0.038221583 -0.039438978 -0.0098985 0.032615118 -0.006221388 0.03330656 -0.07655384 -0.078969754 0.0945784 -0.1101249 -0.0044551673 0.07055603 0.02349667 0.027531609 0.046521917 0.10791513 -0.0041523855 -0.035458807 -0.05662179 0.030283354 -0.010990079 -0.082132325 -0.09606982 0.09356867 -0.009689351 0.039626494 -0.050465792 -0.048885785 0.003945266 0.00036677707 -0.01341555 -0.03991242 -0.05829372 0.049117256 -0.05689455 -0.033357695 -0.01583676 0.02959953 0.056040097 -0.032984603 0.022250714 -0.012056673 0.10770694 0.015300629 0.07408763 -0.051583473 0.039859887 0.0032270954 0.04703266 0.009286721 -0.023447657 0.04187385 -0.07917982 -0.036858432 -0.037336536 -0.008016224 -0.047028534 -0.06742271 -0.016767722 -0.019981913 0.02092848 0.054831482 0.014920877 -0.009152219 -0.044807874 0.0089878915 0.00991678 -0.038689207 -0.00529663 -0.023690488 0.078976646 -0.00391175 -0.041370723 -0.12559636 0.048874017 0.047051873 0.041226372 -0.015004852 0.05983574 0.074972376 -0.044539783 0.050532382 -0.0696734 -0.12656398 -0.017810747 0.046736754 -0.031101003 -0.0031780456 -0.029083047 0.06750271 -0.018306257 -0.081273876 -0.04637083 0.03830229 -0.049790557 0.0434397 -0.05969885 0.0041235047 -0.006215636 0.058016934 0.014802361 0.048334036 -0.01885543 0.1194623 0.0140016945 -0.012690265 0.07464065 -0.02087175 0.0129434215 0.06255674 -0.050833713 -0.059268843 0.07742468 -0.09877129 0.041013304 -0.04121265 -0.06617141 0.020106023 -0.015015659 0.043896385 0.06629757 0.0012172505 -0.05997724 0.037606955 -0.007856633 0.017749252 -0.029421505 -0.031383034 -0.031182082 0.031143095 -0.06905286 -0.025963714 -0.0040444043 -0.07860146 0.09289708 0.056628022 -0.031797133 -0.08380912 0.053690605 0.042745087 -0.03644178 0.0083309915 -0.02582554 -0.033614602 0.013068159 -0.08601068 0.0033753735 0.05693899 -0.008189567 -0.01761774 0.008382346 -0.039555017 0.025000805 0.0031309528 -0.026950525 -0.004614734 0.044839088 0.04603617 0.10259871 -0.059126303 0.04403848 -0.085717425 -0.028823603 -0.018459976 0.09520425 -0.038951766 -0.04407687 0.018619701 -0.01345503 0.06338953 -0.034266345 0.047830027 -0.00860007 0.05605514 0.0015931219 0.0335028 0.09690917 -0.076462775 0.027116809 0.024262838 0.0008577375 -0.05097746 -0.009171664 0.051747937 -0.092379704 -0.01339025 0.027536102 -0.022735586 0.033073474 0.0037037297 -0.035275415 0.09924995 0.043372206 0.17166759 0.018249115 -0.023334885 0.059406456 0.0137120215 -0.019420486 0.05060153 0.011570469 0.016090011 -0.073455766 0.059701394 -0.04365157 0.053666525 0.057133466 0.020119067 0.12989305 -0.071941584 -0.040590726 -0.04405559 0.07070512 -0.025697848 -0.016245604 0.018448355
-0.0038012718 -0.00020767719 0.052029178 0.012555364 0.067273185 0.012070188 -0.045963272 -0.031052515 0.0255204 0.018391011 -0.007645308 -0.009443852 -0.035863023 -0.049786147 0.00815425 -0.082866415 0.024329761 0.01980601 -0.054654494 -0.031653535 -0.045701493 0.0051419805 -0.024893433 0.012393324 -0.003949517 -0.065103605 -0.0020696921 -0.05649742 -0.019808616 0.001669875 0.03540311 -0.0055682817 0.0492791 -0.009125153 0.0379897 0.021705853 0.041808356 -0.06513141 -0.040315885 -0.03511781 -0.058968835 0.0089433 -0.01852147 0.0064900448 0.018155286 0.039038014 0.02414925 0.068231024 -0.04157965 -0.0019416903 0.024206616 -0.042877898 -0.04389713 -0.0049249395 -0.08154738 -0.024326924 0.0019806277 0.0027686283 -0.1456967 0.036861196 0.05317753 -0.08067945 -0.02280093 0.04755969 -0.04019295 0.007551459 -0.025903998 0.033573322 -0.06693242 0.03406769 -0.061720237 -0.020183256 -0.031161029 -0.050411478 0.0027290108 0.014541903 -0.009314955 0.00047930007 0.060629666 0.03167948 0.048289157 -0.0602505 -0.033653382 0.088795885 -0.043482404 0.043954756 0.031086076 -0.0438996 0.010478247 -0.037521962 0.14346899 0.05103734 -0.06894015 -0.043047875 -0.013482224 0.06361472 -0.004101124 0.008062241 0.07878974 -0.012523583 -0.07920502 0.03712664 -0.014431624 0.051475104 0.028395994 -0.03937555 -0.09787746 0.04567538 -0.006745859 -0.048420362 0.028562918 0.033624664 -0.019114882 -0.010826625 -0.020384017 -0.025393581 0.017123515 0.07964556 0.06982211 0.09557543 0.038059495 -0.12298495 0.014999642 -0.013470528 -0.005431712 0.0048833042 0.01728099 -0.0035278182 0.05821379 0.036764868 -0.024751002 0.08741816 -0.018925661 -0.062862545 -0.0044817682 0.067964226 0.05189347 0.056503482 -0.095439084 0.057966985 -0.03158649 -0.042762816 -0.02206109 0.0162791 -0.083140336 -0.010285238 -0.036482904 -0.081111476 0.029769551 0.0018942775 -0.024691138 0.044974696 0.048029903 -0.019761717 -0.057492234 -0.04774454 0.07964424 0.016678454 -0.02978886 0.01230366 0.041046508 0.005432261 0.01961626 0.0055346447 0.008604096 -0.036100708 0.013616963 0.019311083 -0.07163916 0.008837268 -0.06244434 -0.027820809 -0.037098724 0.032888565 0.03932901 0.035553765 0.024512302 0.014389415 -0.019352786 0.052261572 0.009281631 0.03223932 0.0054115537 0.051927872 -0.015255653 0.034881305 -0.056545246 0.04377665 -0.027930323 -0.024644647 0.03749469 0.022835951 0.0016206275 -0.08877736 -0.09743758 0.05284965 0.08918051 -0.018815253 -0.06218074 0.005737515 0.00096732035 -0.12987648 0.021890284 -0.0069238883 0.019959616 -0.031444695 0.027623784 -0.00032670345 -0.0048018172 -0.02041028 -0.017843382 0.041412864 0.054353893 -0.020795373 -0.053663872 -0.0017224023 0.017252058 -0.0346979 0.03826211 -0.040179398 0.04854895 0.0057900613 -0.04817029 -0.03870985 0.010725651 -0.047317043 -0.01837026 0.05290888 -0.054655574 0.035745054 0.012589773 0.12369877 -0.08532501 0.021961585 -0.034944147 0.012466465 -0.01866406 -0.10491958 0.010684872 0.02002365 -0.027546499 0.044973385 -0.0542652 -0.032418147 -0.0020598464 0.014616741 0.030691326 0.004137831 -0.07905625 -0.036603894 0.027493382 0.005488024 -0.0063217934 0.012550396 0.05008987 0.045565072
0.010833414 -0.010590418 -0.03060257 -0.10715604 -0.0073609105 0.20050655 0.017905703 0.036680046 -0.026168127 0.0076206382 0.090550885 0.017888436 -0.03567712 0.00041649083 0.040078696 0.01818077 -0.039009705 -0.0034599646 0.018481951 -0.033045884 -0.01819763 -0.06024895 0.015565671 0.048472 -0.005886743 0.0732747 -0.0011390764 -0.006899719 -0.015368149 0.060573928 0.04365743 -0.024873303 -0.017924374 -0.058593623 0.06296519 -0.03278144 -0.035814364 -0.024912234 0.017958356 0.0034713896 0.015563096 -0.0075923833 -0.13556717 0.046011154 -0.047280088 0.050410572 -0.09322326 -0.00017711936 -0.002297039 0.061962653 -0.03388549 0.05292829 -0.05876492 0.008338843 0.06832265 -0.09129604 -0.006022528 -0.066880204 -0.0047994247 -0.049312532 -0.058189325 0.012895875 0.025538124 0.07708252 -0.0028824145 -0.05228685 0.028465211 0.0029488124 -0.021915093 0.056513622 -0.079794385 -0.062792525 -0.028471187 0.044753876 0.03269629 -0.048694205 -0.031825524 0.013171645 -0.0031566713 0.014069827 -0.021301316 0.024189891 0.06199202 -0.016549533 -0.030749485 0.028018283 -0.062726036 0.0074598435 -0.09997799 -0.009500939 0.035314165 -0.03924871 0.12706125 0.10490561 0.037022185 0.07796553 0.00057556696 -0.010218241 0.01099468 0.016718363 -0.049428843 0.0031092188 0.062120013 0.013845631 0.023535097 0.011441554 0.003399016 -0.07240009 -0.045538895 0.07344723 0.030684026 -0.044897277 -0.060278572 0.0023802095 -0.019837616 0.01866887 -0.019450383 0.018568525 -0.0146488855 -0.023467999 -0.058098465 0.05904751 -0.07420689 -0.06907095 -0.04135095 0.03644033 -0.029740019 -0.025689334 -0.0641248 -0.06753459 -0.008713635 -0.06451375 -0.13727778 -0.062534705 -0.08424394 -0.00020641313 -0.08631953 0.05677474 -0.045690037 0.07545252 -0.05144193 0.027813144 -0.003827917 -0.0061865547 -0.008186595 -0.026431292 0.080937095 -0.061642166 0.017811632 0.015332536 -0.02505833 -0.029538617 0.03658559 -0.08956743 0.04084747 -0.06780635 0.007457513 0.0006531174 -0.028207917 -0.042495735 0.0703327 0.046410438 0.012545004 -0.0005043675 -0.092056096 -0.034151662 0.077467255 -0.078210704 0.00084181654 -0.006596704 -0.0025189237 -0.0033346096 -0.041337032 0.0011334859 -0.020609934 -0.0025723674 0.007692146 0.04913408 -0.052133296 0.067625284 0.011867513 -0.044844635 -0.014206103 0.02747789 -0.0007517033 -0.00037206066 -0.09238309 -0.011607821 -0.042455006 0.05024797 -0.05693859 -0.014579109 0.049435418 0.027177911 0.08985051 0.024953866 0.014273645 -0.0064061563 -0.03432881 0.071073785 0.02074161 0.07257145 -0.05713876 0.005917063 0.05364619 -0.015567034 -0.043560736 -0.080918565 -0.05883933 0.03690155 0.0073793503 -1.8140567e-05 0.004402565 0.046998154 0.00566452 0.13675821 -0.018035738 -0.059003834 0.051951744 0.020774947 0.039733287 -0.0041414807 0.004201577 -0.048386324 -0.061791338 0.0244846 -0.006504001 0.053573124 -0.04749268 0.03914771 0.014883481 0.09307355 -0.040830273 -0.038303163 -0.037203744 -0.039914373 -0.017118571 -0.06995343 -0.040804125 0.050071567 0.053404067 0.09485416 0.00967992 0.043069553 -0.048465967 -0.0682195 -0.01769284 0.011148909 -0.017778413 -0.021370888 -0.033998143 0.08685886 0.044914324 0.02275661 0.013642251 -0.027105315
0.008833105 -0.010690285 -0.05752106 0.056593277 0.020501643 -0.07214666 -0.022839185 -0.025131106 -0.045428272 0.062948294 0.073026486 -0.041308865 -0.060540255 -0.039426845 -0.05046833 0.026366903 0.039003186 -0.021818638 -0.046450935 -0.03250183 0.015738023 0.03879099 0.06771968 0.041884568 -0.017030563 -0.14797103 0.04176968 0.0061930423 0.04261782 -0.052389912 0.07433251 0.044038728 -0.032600906 0.022221848 0.0070363996 0.0558633 0.0073477603 0.115641415 -0.06568969 -0.020831332 -0.08977679 -0.12346005 -2.1636379e-05 0.047509402 0.020986058 -0.066899166 0.049692545 -0.044684965 -0.08421661 -0.0742742 0.037730347 -0.009344578 -0.006754572 -0.012179847 0.041811172 -0.012849096 0.029373255 -0.012541214 0.049699467 0.025563445 0.09567132 0.044714384 0.018429743 0.013445017 -0.039976586 0.049673714 -0.06765576 0.0312525 0.0019568542 0.05554133 0.032455407 -0.015566714 -0.010247675 0.025450537 0.0327593 0.09640118 0.036032986 0.016682753 -0.09047993 0.102181956 -0.034187 0.010717827 0.07650384 0.028769232 0.057373572 0.07155095 0.06276157 -0.091746 0.012938099 0.05044194 -0.040107373 0.043906763 -0.044783078 -0.053716935 -0.22597942 -0.11136474 -0.0768314 0.05337572 0.067099385 -0.030626247 -0.022358172 0.010565785 0.060683176 0.0011606168 0.016915826 0.029966101 -0.07340568 0.0053032753 0.057934493 -0.114041135 -0.10526013 0.07513048 -0.02195397 0.14166346 -0.034202095 0.07399672 -0.032707065 -0.07281756 0.08625863 -0.035564095 0.04441722 0.021254335 -0.10550106 0.066948816 0.0058465344 -0.060905334 -0.040156487 -0.07518851 -0.035415906 -0.002973232 0.017786449 0.09304246 -0.029700283 0.031586494 0.08594222 0.012023455 0.019097231 0.0518266 -0.0016017443 -0.07491859 -0.0151532125 0.10986977 0.052552886 0.0488222 0.08250633 0.041271906 -0.07164368 -0.01606922 -0.044750508 -0.035530515 -0.03410881 0.09514152 -0.08660703 0.024768617 -0.00043279192 -0.03038144 -0.08592554 -0.05906994 -0.07450651 0.031221788 -0.03352014 -0.11009534 0.016944544 0.0073481076 0.13026755 -0.05180528 0.05816641 0.06133336 0.032402597 -0.060160942 -0.058853682 -0.22986104 0.019522252 0.021722378 -0.056257434 -0.008770541 -0.03372077 -0.034182556 -0.024234422 0.032152575 -0.000568812 -0.011633751 0.05226677 -0.040133547 -0.07661497 0.11301961 -0.10571669 -0.055188183 0.018117668 -0.046774067 -0.06519607 0.04429119 -0.094004534 0.08144544 0.0024625042 0.093524694 0.070822194 -0.0051948545 -0.008123567 0.05071813 -0.09146985 -0.02002602 0.07168377 -0.031879753 -0.069496304 0.009412899 0.018060265 -0.002074614 0.034125496 -0.012150384 0.04290334 -0.020770991 -0.07841909 0.07499943 -0.02009195 -0.062006284 -0.08231766 0.024234759 -0.026507612 -0.00948658 -0.053974126 0.10374546 0.010735922 0.03837213 0.0010531525 -0.025285028 0.018000212 -0.078152314 0.053209744 0.06126002 0.06917469 -0.007394417 0.04101072 -0.0015172152 0.01625115 0.023715125 -0.03264774 0.051491268 0.006875426 -0.022786774 -0.06884963 -0.055810645 -0.03541216 -0.16875081 0.0883093 -0.02103847 -0.031950053 -0.1207606 0.020288624 -0.018340303 -0.02652231 -0.024962787 -0.16058709 -0.0154607855 -0.035001505 -0.033642434
-0.122742444 0.07099215 0.0029882917 -0.012689704 -0.03011906 -0.0704808 0.066705294 -0.097117744 0.06893655 0.012834827 -0.008600795 0.05303065 -0.077562526 -0.004133187 0.069310784 0.029224155 0.029314583 0.08515358 0.1010862 0.006022728 0.0040656496 -0.02152871 -0.035695996 -0.03828265 -0.013976147 -0.03434804 0.06866036 -0.012963143 0.048656575 0.010643199 -0.049522918 0.015692234 -0.005400392 -0.021315027 -0.0047792043 -0.025352176 0.08458241 -0.09702213 -0.035036076 0.008050065 0.02533567 -0.019891078 -0.008752181 -0.11127097 0.06297655 -0.006317983 -0.06910236 0.025828058 0.010922041 -0.05822145 0.0024016195 0.06990021 0.05165148 0.0080422005 -0.13265848 0.016695362 0.01960902 0.006593435 0.038146142 -0.028457182 -0.05625848 0.020424312 -0.05741961 -0.035111118 -0.015248908 0.019332217 -0.057657413 0.0009232253 0.049147893 -0.020058125 0.024497032 0.009030643 -0.0505594 0.039773554 0.03767253 0.004270004 0.039089434 0.015156682 -0.007460632 0.007566109 -0.004530746 -0.026489457 0.028504394 -0.01687696 -0.020380933 0.057712123 -0.036866102 0.115817524 0.011219603 0.0017424144 -0.086543426 -0.011632854 0.081935585 0.10094433 0.018112434 0.0035965603 0.033284184 0.010532144 0.046562854 -0.06824521 -0.04427346 0.0708526 0.0017979082 -0.016867226 0.025175586 0.04334586 0.01069212 0.04619874 -0.059901018 -0.005726746 -0.015127896 -0.10665443 -0.09135598 -0.010513126 0.011393358 -0.046279483 0.07115063 0.10780227 -0.0039386456 -0.02795978 -0.054201435 0.08152463 0.05753675 0.006798123 -0.00492433 0.05598617 0.019865846 -0.0014365121 0.043300077 -0.074867584 -0.072708696 -0.02180814 0.102892086 -0.05741766 0.014828327 0.014212811 -0.0012525663 0.0024521851 0.011029623 -0.045298714 -0.016789425 -0.026503982 0.018561065 -0.07088483 0.005705622 0.049695265 -0.06679106 0.121558234 -0.04190897 -0.07710071 0.024352575 0.07467107 -0.020506492 -0.021533698 0.029152537 0.013920994 0.015551343 -0.032445487 -0.0849592 -0.023544418 -0.03728844 0.028043512 -0.003545641 0.009070469 0.052878547 -0.10860811 0.09071032 0.09631074 -0.05654412 -0.062103596 0.022591049 -0.013521606 0.079394564 -0.07097559 -0.024055585 0.044689044 -0.097715065 0.0030129189 0.05026041 -0.040955514 -0.030851176 -0.046529956 -0.0075436956 -0.09238806 -0.007025117 -0.018823866 -0.04828299 -0.014924874 0.025735285 -0.020914255 0.030738017 -0.11179944 -0.024050573 0.0027259265 0.07143653 0.085321225 -0.07902344 0.028610008 0.0131785525 -0.060613316 0.0021718498 0.07178528 0.030626697 0.026122456 -0.0218306 0.043581214 0.06403089 0.06787752 -0.021444933 0.075573854 -0.0866994 0.013644246 -0.02168461 0.061904293 0.10259827 -0.14007 0.015368539 -0.050954077 -0.052226383 0.03867177 -0.110315084 0.05773224 0.06163539 -0.04729069 0.018221565 0.009713474 0.025619987 -0.016988462 0.011822817 -0.04137639 -0.03736161 -0.072488636 0.07034262 -0.04848864 0.09746891 0.014419 -0.028393036 -0.028894296 0.0055310326 0.09189125 -0.05811626 -0.007098404 0.0029171628 -0.011755225 0.07831678 0.084636 0.086857766 -0.025246738 0.024590831 0.1070601 0.1599376 0.07800225 -0.026097411 -0.0032484008 0.008472466 -0.13125136
-0.016445363 0.010855343 0.04252497 0.11204643 -0.009370226 -0.09971884 0.08903789 -0.01055846 0.051099196 -0.010830429 -0.015905956 0.031792413 0.0281647 0.03687334 0.04046224 0.033357933 -0.052865744 -0.06425059 0.01461354 -0.099537194 0.03981496 0.013900961 -0.20396364 0.08279898 0.03734478 0.014543951 -0.08186362 0.07985599 -0.02198581 -0.04828925 0.022801656 -0.10101787 0.024665236 0.039260402 0.069141395 0.006190599 0.14725597 -0.04709077 0.02029567 -0.122234985 0.014087096 -0.056769133 -0.011031096 -0.012967674 -0.011387239 0.043351352 0.01604445 0.075347155 0.01456547 -5.9837345e-07 -0.033107597 -0.005425033 0.028548794 0.03768653 -0.067279935 0.0004862183 0.0565688 0.07159022 -0.041569818 -0.024757115 -0.10116684 -0.020570964 -0.1113361 -0.07458629 0.0638157 0.036641624 -0.02123329 -0.01751613 -0.008103068 -0.040552024 0.080079466 0.08295554 -0.006186098 -0.08655288 -0.0113694435 -0.018473933 0.008801823 -0.024796546 -0.06455581 -0.061290562 -0.04831641 -0.08247375 -0.081847906 0.028641585 -0.07576554 -0.07877474 0.01341239 0.009633663 -0.093793325 -0.009834706 -0.047501244 -0.094460286 -0.07910718 0.05685659 0.048112508 0.043081675 0.04322349 -0.071163125 0.02150001 -0.004765368 -0.0098124435 0.009686576 -0.033919178 0.02009038 0.038778592 -0.07202208 -0.0134463245 0.0143870935 0.06290374 0.059219845 -0.0002848067 -0.03209339 0.0074423957 -0.12060379 0.0037132904 -0.015547403 -0.032275446 -0.013008746 -0.058675032 -0.13880019 0.03704759 -0.0407349 0.03155084 0.10957784 0.048909813 0.025658444 -0.020019893 -0.0020801132 -0.020317368 -0.047053415 0.059696745 -0.052565385 0.15936948 -0.073807426 -0.002587545 -0.011797961 0.034232873 -0.052904256 -0.11944154 0.109090924 -0.117599115 0.0018568109 0.071994014 -0.095422946 0.05943405 -0.039767534 0.006877969 0.05833997 0.082167335 0.027974922 0.01743179 0.04999916 -0.13800976 0.038395233 0.04089829 -0.045139294 0.09017795 -0.0075488826 0.078229435 0.027056396 -0.046397313 0.0439742 0.007230848 0.06853674 0.043303937 -0.016153794 0.05068474 0.0862716 -0.12393254 -0.010817896 0.014523848 0.062276173 0.04087821 -0.040916037 0.0105540445 -0.038440153 -0.006228697 -0.08223815 0.0036034219 -0.08679521 0.11118192 0.0073127258 0.06648765 -0.049224067 -0.10460097 -0.04718837 0.093657725 -0.06931097 -0.014232208 -0.043234974 -0.023514723 -0.02418748 -0.037972465 -0.13023558 0.045690626 0.090020426 -0.09610616 0.06017987 -0.046924986 0.025930533 -0.042818494 -0.0034574417 0.009530004 -0.0028796375 -0.020254001 -0.07422947 0.09890124 0.025211798 -0.015668325 0.12204733 -0.051869676 0.04483733 -0.028842684 -0.056680992 0.010893833 -0.13520584 -0.0007484059 -0.09640219 -0.04687949 -0.023597889 0.0031882876 0.021346195 -0.020118324 -0.0054403497 0.09667975 0.055816084 0.031483214 0.031514253 0.044783823 -0.05003477 -0.0023935107 -0.024172388 0.04068293 0.000107810694 -0.10841368 0.102354504 -0.077506214 -0.059806105 -0.021116095 0.010146013 -0.048666213 -0.1162406 0.04685016 -0.020990465 0.067818694 0.0110697 -0.05679688 0.039637923 -0.030301146 -0.047008213 0.10613407 0.03255192 -0.03261159 -0.06611995 -0.0034231634 -0.115058675
-0.05711881 -0.12757732 0.05063692 -0.0012435341 -0.048602413 -0.002454852 -0.08538057 0.091370106 0.067344114 -0.08503216 0.07815708 -0.060798876 -0.105728604 -0.0038301088 0.043621693 0.07818172 -0.06346856 0.02168156 -0.009670971 0.015676718 0.0051285783 0.013984807 0.032172874 0.008351967 0.025010101 0.038885146 -0.051862944 0.03709871 -0.08055488 0.10261374 -0.007905637 -0.10528243 0.048046526 -0.028840581 0.07116955 0.011822578 -0.0073185633 -0.025350114 -0.008185642 -0.02566116 -0.38694578 -0.086966544 -0.026478266 0.101066776 -0.18548112 0.0072029154 -0.032126244 -0.12650113 0.080723606 0.081307195 0.06996028 -0.018590465 0.079748556 -0.018532218 -0.062166028 -0.05520204 0.13810386 0.044377968 0.024840847 0.0595204 -0.0020181087 -0.096876204 0.078412786 -0.04928202 0.011529816 -0.33049843 0.054353956 -0.018937442 0.0056552184 -0.020074124 0.041423876 0.111038364 0.016341856 0.01981939 0.06924223 0.006431311 -0.02895086 -0.027187895 -0.020784516 -0.0028543153 -0.23889987 -0.09737031 0.05455052 -0.072435334 -0.022170989 0.18526517 -0.037820123 0.03089208 -0.072019726 0.042897422 -0.038482558 -0.057919063 -0.028851537 -0.049689822 -0.09178205 -0.027619565 0.08959148 -0.041150205 0.12592173 0.015434644 0.03816923 -0.0015175949 0.09672009 0.022500832 -0.053609826 0.0046519693 0.02384165 -0.0137567725 0.0056671747 -0.028565861 0.040999815 -0.039875578 -0.04330032 -0.06883698 -0.023853503 -0.08703274 -0.054956716 0.01679944 -0.059434533 -0.036547095 -0.03859819 -0.033936966 0.031674016 0.118629634 0.029649135 -0.075080946 -0.034456544 -0.07919979 -0.09318433 0.031179992 0.027330555 -0.025641166 -0.010183891 0.052294824 -0.06588249 -0.033098 -0.10147596 0.06616169 -0.01597342 -0.09277034 0.0045787883 -0.019058079 0.014760306 -0.06057983 0.109358154 -0.0029101577 0.010707506 -0.07113845 -0.09157438 -0.09515602 -0.25169027 -0.006554579 -0.00850533 -0.028703114 0.061467838 -0.004298482 -0.045033682 -0.05194356 0.051361643 0.04095136 0.07213843 0.06456571 0.0393782 0.063931 0.03034512 -0.14533019 0.023693012 0.059312176 -0.04787055 0.025306238 -0.022615107 -0.11234363 -0.007539386 -0.0012351015 -0.007443155 -0.039242577 -0.012461303 0.017021235 -0.0030279418 -0.08325979 0.101311475 0.008397952 0.036367923 -0.074612476 0.080418974 0.03209132 -0.014613938 -0.008801347 0.03172609 -0.040106192 0.04140275 -0.04798125 0.053938445 0.022285674 0.12789181 -0.057845578 0.024897754 0.010935444 -0.069534816 -0.09634481 0.078709595 0.080555424 -0.101289436 -0.07158123 0.037117768 -0.046823304 -0.04845568 0.0035032376 0.058246307 0.029519895 0.059758462 -0.12632833 -0.12958181 -0.0017374278 -0.02547302 -0.028906714 -0.055286493 0.10529091 -0.07598525 -0.017099189 -0.0018981351 -0.024020322 -0.021922152 -0.01993601 0.042202257 0.058179468 -0.09188861 -0.056565937 -0.08859975 0.049212817 -0.15972848 -0.010901727 -0.0034416215 -0.108091354 0.03441186 -0.12320525 0.010039151 0.021161232 0.051079813 -0.11567304 0.057536483 0.03835128 -0.09979839 -0.15480869 0.060188472 0.014802692 0.07003046 -0.08950282 -0.08882025 0.04415611 -0.05873173 -0.016576592 -0.005434879 -0.043217704 -0.006039439 -0.024274493
-0.028408118 -0.04293612 0.1264507 0.056702774 0.013512348 0.049571045 -0.008457937 0.050853413 0.028930519 -0.011835274 0.04538345 -0.014906395 0.0324875 -0.08443802 0.055771053 -0.022980569 -0.07349226 0.005793581 -0.013780612 -0.09505985 -0.05064019 0.059624843 -0.06337704 0.028852249 -0.06590526 -0.010681612 -0.024578823 -0.0031019365 -0.009518072 -0.059044603 -0.0555693 0.0027709415 0.05678565 0.03773408 0.054070394 -0.023505896 -0.02707827 0.007851565 0.016567998 0.06817308 -0.043492723 0.048486564 0.017794956 -0.014937963 -0.06248009 0.015050204 -0.028590865 0.015276627 -0.005525736 0.050095443 -0.013110393 0.050393716 -0.038457498 0.03904701 -0.019319406 -0.08989291 -0.048374422 -0.061188705 0.0034567772 -0.025582686 -0.01155915 -0.03152441 -0.045667723 -0.0055390033 -0.020034835 -0.064827405 0.028774844 -0.035380654 -0.04060398 0.07931496 -0.036934 -0.015040856 0.04655747 -0.05193243 0.06627522 -0.11641925 -0.0280487 0.04644057 0.06900276 -0.06652213 0.0057629603 -0.027667362 -0.06483092 0.027789114 -0.050832544 0.0038746512 0.08551586 0.054520007 -0.023082046 -0.01865952 0.038121756 -0.07476863 0.062438074 0.024774639 0.010326731 0.008435461 0.07841928 -0.059698768 -0.044186976 -0.002651382 0.062061854 -0.052477654 -0.050225995 0.061165072 0.036707506 -0.06133323 0.0007974467 0.05117239 -0.07791438 -0.008192971 0.05373595 -0.0070114876 -0.01154799 0.0414233 -0.050269015 -0.06048454 -0.042761303 -0.05325591 0.06682539 0.05464849 0.004234889 0.010985942 -0.03461363 0.078614384 0.023502482 -0.053514894 -0.05053871 -0.058331233 0.009842987 -0.04824804 0.07228399 -0.024327273 -0.10868026 -0.0022266747 0.044003043 -0.039223038 -0.09006151 -0.007828264 0.024302108 -0.03501214 -0.06929866 -0.003278033 -0.00463724 0.03760557 -0.014699905 0.0006754256 0.0719266 -0.04521028 -0.010606203 0.07532364 -0.031860672 -0.0020867926 0.03733507 -0.04365875 0.004743618 0.019100938 -0.029283762 -0.031584177 -0.0010220422 0.040782034 -0.04526459 -0.0020222596 0.021209583 -0.006940473 -0.028054057 -0.049598392 -0.03949895 -0.013892189 0.013262429 0.06152082 0.018181855 0.042449627 0.03838107 0.048651196 0.03704793 -0.006749883 0.037734397 0.033661302 -0.037126005 -0.052849703 -0.058107205 0.033007886 0.058868404 -0.018411122 -0.02937531 0.034559973 0.0011468045 0.028935516 0.011828489 0.025749937 -0.068839714 0.06940876 -0.053887606 -0.0683132 0.0100135105 -0.06553183 0.04611379 -0.080054834 -0.02499778 0.05366032 0.0026345747 0.038909297 0.053053834 -0.037769224 -0.0450783 -0.06820624 0.001220563 -0.012481206 0.01772349 0.026880236 0.022764867 -0.0065074046 0.037412014 -0.019029189 -0.017230654 -0.080375865 -0.00055192003 -0.05813755 0.0412103 0.0057391394 -0.022919262 0.015377364 -0.059106138 0.0049859486 -0.05072834 -0.07303697 -0.07987287 -0.0059705335 -0.09870453 0.082548566 0.010322518 -0.0068192654 -0.03257411 0.0137080895 0.0029917567 0.05702476 -0.045027558 0.065189056 -0.008698567 0.0004392856 0.09894786 -0.04609404 -0.046982925 -0.04109217 -0.03676158 0.023252225 0.07208133 0.0028911624 0.021074478 -0.026180226 -0.05966744 -0.076703876 0.012136055 0.06908434 0.051421564 0.010974721
-0.025368774 0.036982737 0.04307837 -0.053311758 0.023828365 -0.02791035 0.023760041 0.016837843 -0.0003393377 0.036976807 -0.062928006 -0.049907137 0.0012923178 -0.023720264 0.04677259 0.019043418 -0.059205614 -0.07292662 0.034046967 0.014888616 0.00067448063 -0.05680081 0.02056036 -0.029088715 0.02473843 0.048577104 0.07634877 0.024379967 0.0011171551 -0.04357348 -0.041016024 0.056339964 -0.018029805 -0.036855504 -0.06870519 -0.003053026 0.0057706945 0.005737558 -0.042813767 -0.013648935 -0.025542483 0.032268062 0.042884637 -0.03490778 -0.028375905 -0.044669088 -0.019794257 -0.0008259449 -0.055532176 0.010034405 0.007651398 -0.018002091 -0.026310535 -0.008100603 0.082693815 -0.00045344894 0.043116096 -0.041278344 0.008244176 -0.037940394 0.006946132 -0.009799998 -0.022742761 -0.029030466 0.0058432706 0.068390004 0.042521503 0.011953918 0.018665474 -0.0009697718 0.050299242 -0.061499983 -0.03800979 0.023825148 -0.036827646 0.03641625 0.037549175 -0.0044198274 0.094879344 0.0039798496 0.035312217 -0.0018757065 0.01521033 0.03554266 0.008438049 0.031318337 -0.03952422 0.085901074 -0.011690304 0.024367416 -0.042144 0.05503053 -0.032962143 -0.02592484 -0.017116355 -0.01763971 0.03770571 -0.065773815 0.0018841159 -0.012291099 0.01637922 -0.0054314635 -0.03297045 -0.06048043 -0.015004116 0.023562578 -0.03458722 0.0014449428 -0.04929272 0.04104046 0.026489003 -0.00050581485 -0.052208163 -0.04699664 0.027534014 0.03404577 -0.051697925 -0.013369661 -0.048331216 0.0007227064 -0.06969631 -0.030853942 0.053446446 -0.055214036 0.0044041285 -0.01970154 0.052518133 -0.03670417 0.0041718925 0.02287254 -0.016035276 0.081272356 0.0011927057 -0.018443258 -0.05254405 0.021729577 0.02303847 0.025196189 -0.03176641 0.037708938 0.053966817 0.032845274 0.0026667796 0.058108408 0.06489705 -0.04328577 0.02669616 -8.8577595e-05 0.033613153 -0.038330518 -0.016596895 0.038795654 -0.049532678 0.0396127 0.02901226 -0.035745867 0.016159786 -0.025564238 -0.017335692 -0.034308 0.044908702 0.04104796 0.03359326 -0.03726702 0.047328904 0.012287902 0.053957544 -0.048274558 0.017193878 -0.005464499 0.08057045 0.0054571237 -0.014996552 0.078765064 -0.022994488 -0.04681706 -0.023017466 0.026507813 -0.006303344 -0.033216454 -0.0101180365 -0.008067189 0.008198638 0.012536472 -0.03953038 0.029788965 0.050476026 0.07613671 -0.025115196 -0.0072450344 0.03349814 0.0073094065 0.024118306 -0.013764661 0.015422356 0.058044646 0.018536787 -0.08095099 0.025434662 -0.0013728437 -0.004458864 -0.060514327 -0.05720379 -0.007456544 0.08089631 0.029224044 -0.051376488 0.02753626 -0.07993697 0.046601508 -0.014925177 0.035669193 -0.06476028 -0.02858933 0.03594853 0.014667249 -0.04080753 -0.040412027 0.05285078 0.042749178 0.018717933 0.011680525 -0.021787796 0.06335913 -0.02050107 0.039648965 -0.03375621 -0.061257474 0.0012252639 -0.063506424 -0.060634937 -0.022462826 0.026679775 0.05461119 -0.021389682 0.05568265 -0.03367214 -0.014481326 -0.050418116 -0.031238012 -0.0697462 0.059886392 -0.009910099 0.037038114 -0.020547336 0.032144394 -0.003658832 -0.07739668 -0.024224589 -0.001705778 0.015458684 0.01324287 -0.043001313 0.03238134 -0.021501094 0.03183113
0.010679934 -0.04356773 0.057381902 -0.0024065208 0.06492338 0.008620535 0.018329568 0.01983654 0.006397007 0.031934105 -0.06275432 -0.0381384 -0.004264453 -0.009026531 -0.07421371 0.02302263 -0.06052163 -0.020748027 0.00850616 -0.03277677 -0.042372666 -0.0020732144 -0.0047765216 -0.03469498 -0.012622941 0.020587848 0.008036941 -0.02825243 -0.05206852 -0.04326014 -0.006258182 -0.012551958 -0.014992662 0.053798582 0.010058178 -0.011858774 -0.0426148 0.030387515 -0.092862986 0.028356547 0.03492156 0.0023989733 -0.012996264 0.024622103 0.003910729 -0.004122615 -0.053254496 -0.031725008 -0.051998988 0.0017156367 -0.013771278 -0.0042023687 0.005294442 -0.051267054 -0.05446343 0.062999405 0.0349306 -0.019294651 0.04497736 -0.020186061 0.01980342 -0.0090777585 -0.01407087 0.04938224 0.023654828 -0.047528327 -0.04363323 -0.0394297 0.038441256 -0.017134942 -0.0051319706 -0.050565705 -0.0114466725 0.011780491 -0.020623473 0.020984313 0.051875003 0.03511962 0.017854245 -0.033937603 -0.029521983 0.04603201 0.05860494 -0.020899208 -0.022340683 -0.04233182 -0.04723774 -0.047855563 0.046909507 9.541848e-05 -0.04659043 -0.035388403 0.021096779 -0.010703989 -0.0391662 -0.041358475 -0.0029351034 -0.07340224 -0.08435525 -0.0059765237 -0.023591133 -0.025800947 0.020277707 -0.06382848 -0.00095430686 0.0065784594 -0.038011286 -0.039891936 0.018821007 0.018295627 0.028571779 0.030218696 0.016536 -0.010800813 0.028440585 0.038880352 0.042163763 -0.033889785 0.008362855 -0.014509351 -0.073804796 0.04226634 0.0067900512 -0.04026592 -0.03197484 0.04483002 -0.021334704 0.0040216628 -0.030519167 0.011992664 0.032023113 0.018704433 -0.03797944 -0.05125721 -0.0625169 -0.048923023 -0.102370955 -0.0046742423 -0.0018652239 -0.02261385 -0.0023535457 -0.051280662 -0.007566862 0.012949563 0.054393593 0.034433547 0.000340172 -0.033799782 0.00049888255 0.0044800895 -0.02440152 0.019352298 0.04295684 -0.026719129 -0.031070836 -0.021030713 0.012679618 0.049366366 0.059105013 -0.0015531025 0.033299483 0.020323068 -0.043573033 -0.11178864 -0.041647375 0.02513833 0.038687874 -0.052080087 0.021301193 -0.005498374 0.01954992 0.02545661 -0.008130393 -0.048836492 0.07098244 0.015921203 0.051039767 -0.05939692 -0.016137796 0.08101068 -0.06568445 0.016399747 -0.00572817 0.046256907 -0.06042792 -0.038308304 -0.047556967 0.0016423645 -0.015342779 0.08039897 0.036103744 0.035105504 -0.013733998 -0.087584585 -0.013771816 -0.0071832035 0.034097012 0.021475011 -0.008347341 0.04987001 0.06821643 -0.009271078 -0.002435387 -0.022926258 -0.05961798 -0.065842174 -0.022380332 0.014253751 -0.050723687 0.01074155 0.036975242 0.122359864 -0.0040195826 0.052945383 -0.1025038 0.02955432 -0.009918577 -0.05518931 -0.017087646 0.020514326 0.051161468 0.018524613 -0.0007297073 -0.000375282 -0.023318065 -0.04141538 -0.031212976 -0.008347853 -0.05808747 -0.059509143 -0.016356045 -0.0076633953 0.035556223 -0.011728725 0.011005344 -0.019134676 -0.028524447 0.04290152 0.024220595 0.048467662 0.0012556412 -0.03131516 0.02904185 0.05730123 -0.05614812 0.05699068 -0.009233761 0.06791723 0.032287087 0.0338077 -0.0073229745 -0.028070262 0.06292165 0.064284414 -0.036392614 -0.003989516
0.029439535 0.022370886 0.0838165 -0.09981584 0.06585989 0.020419748 -0.024455488 -0.017647112 -0.02210607 0.038547855 -0.003465438 0.030321892 -0.03533501 -0.060747385 0.0397737 -0.009530898 0.035191823 0.00036897275 -0.052664146 -0.02681967 -0.038502857 -0.0224718 -0.0709733 0.10508842 -0.020429598 -0.050577205 -0.00953542 0.07238836 0.050181568 -0.012559429 -0.0038827367 0.032380886 -0.04858857 0.044823453 0.025660679 -0.019429283 -0.027750853 0.036687676 0.053988993 0.005279589 -0.023203138 0.040373717 0.008137215 -0.026123637 -0.048995916 -0.06637849 -0.035989217 0.041994575 -0.026268268 -0.12060379 -0.08559564 -0.102390975 0.097591214 -0.008722423 0.0016592328 -0.010447927 0.0330056 0.08646561 0.0046845446 -0.04841535 -0.011918975 -0.07009582 0.032311104 -0.023760296 0.08101368 0.013212757 0.037744354 -0.050862588 -0.03950411 0.010402276 -0.03414156 -0.011244854 -0.05493067 -0.09319255 0.0386047 0.030096548 -0.06855165 -0.073965006 -0.012510924 0.00051739474 0.06250206 -0.017055502 -0.08922513 0.021732572 0.06273433 -0.019708488 0.05992036 0.005194893 -0.044517204 -0.024796775 -0.0842567 0.0004558451 0.022843655 0.032062836 -0.030401677 0.039761823 -0.010936813 -0.054222435 0.055867486 0.015660677 0.049629796 0.052728344 0.021655032 0.016912635 0.038065065 -0.059368797 -0.030897794 -0.025786515 0.029327426 -0.103847034 -0.024617683 0.10555054 0.03822536 0.008096738 0.040498044 -0.029381292 -0.0015944949 0.09621955 0.043236844 -0.09760505 -0.06785688 0.00010387997 0.096798055 0.025318153 -0.053371634 -0.007925238 -0.032104425 0.026814915 -0.024293315 0.030577505 0.016309427 -0.02312438 -0.004589213 -0.027389012 0.05755961 0.04688421 0.0657517 -0.015298105 0.012473559 -0.0010531901 -0.08657847 0.0076046023 -0.040526323 -0.02952201 -0.09631148 -0.009579304 -0.0720102 0.017205419 -0.009625132 0.055248786 0.018478494 -0.024467591 -0.061597932 0.06371994 -0.038535073 -0.018263794 0.043999754 0.041693702 0.05785772 -0.06985753 0.029615551 0.05984433 0.09363623 0.032252923 0.008027741 -0.035619985 0.02110325 0.028459618 -0.05326556 -0.013823486 0.0035118258 0.053851992 0.00027487992 0.14412378 -0.023248779 -0.006374447 -0.05145659 -0.035438888 -0.0017660991 0.035623662 -0.047495645 0.0140508935 -0.015303373 -0.009487695 -0.07850392 -0.012197071 0.030462021 -0.014227986 0.033677623 -0.031035498 0.0051932563 -0.029465968 -0.06537669 0.038299937 -0.027594086 0.087753505 0.021426985 -0.037153814 0.0029282162 0.0035723469 -0.06363633 -0.02150178 0.015850427 0.010792127 -0.11444195 -0.015726382 -0.079091236 -0.0009337383 -0.04836933 0.0066363695 0.02123243 0.014333505 0.031016579 0.04449298 0.025345616 -0.07003645 -0.060764115 -0.02954675 -0.01377292 -0.10611885 0.029161124 -0.013909841 0.037213992 0.039304852 0.04285748 0.024789108 -0.00772033 0.0071868547 -0.0021861529 0.05742407 0.023701109 -0.011980376 -0.030401912 -0.017694926 0.059427984 -0.010468253 0.045046832 0.03073523 -0.020847183 -0.041641414 0.026652064 0.0022432525 -0.02414146 0.009006142 0.017944265 -0.09355288 -0.07789838 -0.14326419 0.051273014 0.07025635 0.059702553 0.05006391 0.004232429 -0.046000402 -0.054482363 -0.08354422
