-1.407736390829086304e-01 -2.431571111083030701e-02 1.122232303023338318e-01 -2.260597981512546539e-02 8.452468551695346832e-03 -5.794087424874305725e-02 6.060217320919036865e-02 -9.434720873832702637e-02 2.217474393546581268e-02 2.100728265941143036e-02 4.593387991189956665e-02 6.083558127284049988e-02 1.977065257960930467e-04 8.297587744891643524e-03 7.942923903465270996e-02 -7.115054130554199219e-02 -8.722545951604843140e-02 -1.006448194384574890e-01 8.400689065456390381e-02 5.293587595224380493e-02 -1.351668089628219604e-01 -6.288871169090270996e-02 1.418026685714721680e-01 6.342847365885972977e-03 -1.989766582846641541e-02 4.369026049971580505e-02 -8.027157932519912720e-02 2.692613936960697174e-02 1.867361553013324738e-02 -5.333913862705230713e-02 8.067124336957931519e-02 -3.021818399429321289e-02 -5.380505230277776718e-03 3.121434710919857025e-02 -1.708018034696578979e-02 -3.426589816808700562e-02 4.013228043913841248e-02 6.616447120904922485e-03 -4.133378341794013977e-02 7.124186307191848755e-02 -1.412139274179935455e-03 4.431658610701560974e-02 2.008513361215591431e-01 1.263803243637084961e-01 1.288765668869018555e-01 6.934054195880889893e-02 1.666275225579738617e-02 -3.864322556182742119e-03 -1.329532079398632050e-02 -7.726039737462997437e-02 -4.605896025896072388e-02 -7.537487894296646118e-03 4.635397344827651978e-03 -1.378662586212158203e-01 -9.923477470874786377e-02 -1.614909432828426361e-02 -3.247743099927902222e-02 -6.768644787371158600e-03 1.193797215819358826e-01 -1.305990293622016907e-02 1.483628246933221817e-02 5.287296324968338013e-02 -7.981899380683898926e-02 -7.482114434242248535e-02 4.020949825644493103e-02 3.728953376412391663e-02 -9.125617146492004395e-02 2.756830304861068726e-02 -3.251737356185913086e-02 3.350781276822090149e-02 1.184775959700345993e-02 -4.400875791907310486e-02 -8.938973397016525269e-02 -1.429730057716369629e-01 -2.600967185571789742e-03 8.097594231367111206e-02 2.320431545376777649e-02 5.501609295606613159e-02 2.100892923772335052e-02 -8.646382018923759460e-03 -4.631455987691879272e-02 -3.042793646454811096e-02 1.406125575304031372e-01 5.744033027440309525e-03 4.285760596394538879e-02 4.574849084019660950e-02 -9.018494747579097748e-03 -1.618209928274154663e-01 -7.923661172389984131e-02 -5.122651532292366028e-02 1.050220131874084473e-01 1.230876799672842026e-02 4.748426377773284912e-02 -4.266357421875000000e-02 -4.654452204704284668e-02 -1.232434250414371490e-02 -2.870013937354087830e-02 -1.864005066454410553e-02 -3.788353130221366882e-02 -9.928124397993087769e-02 6.588725000619888306e-02 1.749253645539283752e-02 -7.117874175310134888e-02 1.481695007532835007e-02 -7.794413715600967407e-02 -3.492414951324462891e-02 -2.364747971296310425e-02 -1.264445483684539795e-01 3.539035469293594360e-02 5.204370245337486267e-02 4.017607495188713074e-02 -3.738052025437355042e-02 -1.359568834304809570e-01 2.308780699968338013e-02 1.095771864056587219e-01 5.048570036888122559e-02 5.262375995516777039e-02 -2.054535038769245148e-02 -5.624713376164436340e-02 -5.515595525503158569e-02 3.175159171223640442e-02 7.539931684732437134e-02 -3.210528939962387085e-02 7.384747266769409180e-03 -7.345701754093170166e-02 6.094117835164070129e-02 3.278706222772598267e-02 -7.887207320891320705e-04 1.258747875690460205e-01 3.525656461715698242e-02 2.890371344983577728e-02 -3.130334988236427307e-02 6.911206990480422974e-02 -4.057734087109565735e-02 1.113124098628759384e-02 3.494454547762870789e-02 5.158025305718183517e-03 -9.614194184541702271e-02 6.256741471588611603e-03 -1.228308305144309998e-02 8.708778768777847290e-02 -4.505512118339538574e-02 -1.669542193412780762e-01 -4.953235387802124023e-02 -3.197689726948738098e-02 -3.855670569464564323e-03 2.392836287617683411e-02 -1.046007424592971802e-01 -7.267576456069946289e-02 5.404396727681159973e-02 7.122460007667541504e-02 7.943981140851974487e-02 -1.149724721908569336e-01 -5.490897595882415771e-02 -9.113027900457382202e-02 8.599490672349929810e-02 -2.039712853729724884e-02 -5.614127218723297119e-02 -2.768975682556629181e-02 -5.386840086430311203e-03 8.016502857208251953e-02 5.927236005663871765e-02 -3.407964482903480530e-02 2.874643169343471527e-02 1.504379045218229294e-02 7.035303115844726562e-02 -3.038731031119823456e-02 7.696007192134857178e-02 -2.078858576714992523e-02 -4.112837836146354675e-03 2.153396047651767731e-02 -1.671173609793186188e-02 3.858957439661026001e-02 2.345570735633373260e-02 3.860525041818618774e-02 4.349178075790405273e-02 3.397614508867263794e-02 -9.250774979591369629e-02 -5.464346706867218018e-02 2.610714361071586609e-02 -5.832921247929334641e-03 -7.140184193849563599e-02 5.549982562661170959e-02 4.451069980859756470e-02 7.342857867479324341e-02 -1.139797717332839966e-01 -9.374099224805831909e-02 7.596118003129959106e-02 -1.214382238686084747e-02 -3.889708220958709717e-02 -8.492718636989593506e-02 -3.781359642744064331e-02 -5.430167168378829956e-02 -1.119038462638854980e-01 -1.152893081307411194e-01 -7.865651510655879974e-03 4.445174243301153183e-03 3.937825560569763184e-03 -1.120572676882147789e-03 2.306003496050834656e-02 2.044509910047054291e-02 3.599589318037033081e-02 4.739062115550041199e-02 -5.718740820884704590e-02 -2.278186678886413574e-01 1.124685332179069519e-01 -7.057151198387145996e-02 -5.230483040213584900e-02 -5.421952158212661743e-02 3.040900267660617828e-02 -1.159588992595672607e-01 -9.123247861862182617e-02 2.748048678040504456e-02 2.037580311298370361e-02 3.441254794597625732e-02 -2.199828252196311951e-02 1.373170465230941772e-01 -6.357406824827194214e-02 7.598894834518432617e-02 9.004376828670501709e-02 -3.583649918437004089e-02 4.780349880456924438e-02 -1.088533084839582443e-02 4.551835358142852783e-02 -8.746039122343063354e-02 -1.372701227664947510e-01 -8.947869390249252319e-02 -1.271772570908069611e-02 1.624166965484619141e-02 -3.039355017244815826e-02 -2.062618546187877655e-02 4.871527850627899170e-02 -4.648769274353981018e-02 -8.969731628894805908e-02 -9.001027047634124756e-02 4.007910192012786865e-02 1.045760419219732285e-02 -3.402215370442718267e-04 -3.646935895085334778e-02 -6.915669143199920654e-02 -3.910477831959724426e-02 -9.961155243217945099e-03 -4.619001969695091248e-02 -7.113639730960130692e-03 -5.590408667922019958e-02 -8.431252092123031616e-02 1.892217434942722321e-02 3.354948386549949646e-02 -1.555928215384483337e-02 -3.909622877836227417e-02 2.786228805780410767e-02 -5.551843717694282532e-02 1.386976917274296284e-03 -7.574697583913803101e-02 -3.041426651179790497e-02 -4.629296436905860901e-02
-5.034111440181732178e-02 1.140772923827171326e-01 7.030460238456726074e-02 1.172054782509803772e-01 -6.854374706745147705e-02 9.012120962142944336e-02 -1.324697583913803101e-01 -9.923117607831954956e-02 -4.939984995871782303e-03 -8.766251057386398315e-02 -1.589504815638065338e-02 2.451312988996505737e-01 3.225460881367325783e-03 4.180864989757537842e-02 8.576212823390960693e-02 -8.056049793958663940e-02 2.899599075317382812e-02 -7.591136544942855835e-02 5.102908611297607422e-02 6.290365755558013916e-02 1.838421821594238281e-02 2.184424363076686859e-02 4.776836931705474854e-02 7.590293884277343750e-02 -8.359027653932571411e-02 -9.077553451061248779e-02 -1.325916405767202377e-02 1.377600897103548050e-02 -4.160233587026596069e-02 1.031805574893951416e-02 2.462661126628518105e-03 1.126534864306449890e-02 1.237354576587677002e-01 5.853636562824249268e-02 -4.791573807597160339e-02 -4.514727368950843811e-02 1.322526019066572189e-02 4.360844567418098450e-02 7.882158458232879639e-02 9.294978342950344086e-03 2.315695211291313171e-02 -2.380439639091491699e-02 4.797582048922777176e-03 -2.325054630637168884e-02 -5.631818249821662903e-02 -3.685934469103813171e-02 -3.619230687618255615e-01 -1.553792208433151245e-01 7.934594899415969849e-02 3.311552852392196655e-02 1.317613665014505386e-02 3.519086167216300964e-02 -8.231841027736663818e-02 -1.695656217634677887e-02 -7.789089530706405640e-02 -4.464654996991157532e-02 -5.313187465071678162e-02 5.278301611542701721e-02 4.113368317484855652e-02 -3.297071158885955811e-02 6.856016814708709717e-02 3.588838502764701843e-02 -5.769832059741020203e-03 5.259459838271141052e-02 2.087898319587111473e-03 -1.341206207871437073e-02 1.211144030094146729e-02 6.981484591960906982e-02 1.797656342387199402e-02 2.861147187650203705e-02 6.411747634410858154e-02 -3.513118019327521324e-03 -1.118478085845708847e-02 -1.365496776998043060e-02 -2.249693125486373901e-02 4.573223739862442017e-02 2.819735556840896606e-02 -7.049256563186645508e-02 -1.283613294363021851e-01 -9.130296856164932251e-02 1.848493702709674835e-02 8.645342290401458740e-02 -4.341911152005195618e-02 -4.244039207696914673e-02 2.488175034523010254e-02 6.205365993082523346e-03 1.784391142427921295e-02 -8.871296793222427368e-02 5.928259342908859253e-02 2.777267363853752613e-04 -2.685783058404922485e-02 7.189404964447021484e-02 2.095900475978851318e-02 5.295343697071075439e-02 5.074239894747734070e-02 -5.418153852224349976e-02 2.399254031479358673e-02 -1.578865200281143188e-02 -2.580433525145053864e-02 -3.840400874614715576e-01 -3.028523325920104980e-01 -1.339012682437896729e-01 5.090899020433425903e-02 6.934884935617446899e-02 4.286472871899604797e-02 -6.200006604194641113e-02 -6.338912993669509888e-02 -1.429448090493679047e-02 -2.194066792726516724e-01 2.334280312061309814e-02 -8.209535479545593262e-02 3.584751486778259277e-02 -6.787607818841934204e-02 -2.496961876749992371e-02 -2.855516970157623291e-02 -3.352704457938671112e-03 1.072823181748390198e-01 1.167193986475467682e-02 3.041189350187778473e-02 -6.460996717214584351e-02 3.436564281582832336e-02 8.698419481515884399e-02 7.232603430747985840e-02 8.276336640119552612e-02 4.658594261854887009e-03 -6.093205511569976807e-02 8.964923769235610962e-02 6.100318580865859985e-02 -1.761627965606749058e-03 9.976569563150405884e-03 -1.626797169446945190e-01 -2.528173848986625671e-02 -7.093214895576238632e-03 5.752399191260337830e-02 1.104307267814874649e-02 4.523592814803123474e-02 -2.872766228392720222e-03 -2.038894407451152802e-02 3.628154471516609192e-02 5.815447121858596802e-02 9.593427181243896484e-03 2.294051088392734528e-02 2.895082160830497742e-02 4.354139789938926697e-02 3.783478960394859314e-02 2.848457545042037964e-03 9.952360764145851135e-03 -2.071622759103775024e-03 1.444473117589950562e-01 -1.154084969311952591e-02 9.185250103473663330e-02 2.666817978024482727e-02 -6.450790911912918091e-02 5.519567430019378662e-02 9.553373605012893677e-02 8.040921762585639954e-03 -3.978644683957099915e-02 1.810318417847156525e-02 -3.530877456068992615e-02 -6.344185024499893188e-02 1.049952581524848938e-01 7.591730356216430664e-02 -1.858887635171413422e-02 -6.877753138542175293e-02 5.434144288301467896e-03 3.788724541664123535e-02 -2.684159763157367706e-02 4.483697190880775452e-02 2.512806281447410583e-02 -4.789339005947113037e-02 4.829063639044761658e-02 -6.636749487370252609e-03 3.257432254031300545e-03 1.188044625450856984e-04 6.951565295457839966e-02 -2.272737212479114532e-02 -3.687969641759991646e-03 2.117301337420940399e-03 1.034300178289413452e-01 9.616918861865997314e-02 8.817729353904724121e-02 -2.437324076890945435e-02 2.288038842380046844e-02 -1.615975424647331238e-02 -7.794658094644546509e-02 -1.116898953914642334e-01 2.090794779360294342e-02 8.765777200460433960e-02 2.819200232625007629e-02 1.138403713703155518e-01 5.610178341157734394e-04 -1.311244256794452667e-02 -5.502751842141151428e-02 8.040104992687702179e-03 9.715478122234344482e-02 5.097918584942817688e-02 -5.679872818291187286e-03 1.289932578802108765e-01 -4.161053523421287537e-02 -2.479406818747520447e-02 -6.252092868089675903e-02 4.400269687175750732e-02 -2.856074646115303040e-02 6.274917721748352051e-02 -4.044664278626441956e-02 -5.165484920144081116e-02 1.220281003043055534e-03 -2.388506568968296051e-02 5.955985561013221741e-02 -2.386530116200447083e-02 8.232726901769638062e-02 8.412396162748336792e-02 -4.640160128474235535e-02 2.504741027951240540e-02 7.990621775388717651e-02 -1.333915442228317261e-01 6.968169659376144409e-02 4.554603621363639832e-02 2.494506165385246277e-02 -4.279546067118644714e-02 -1.248034536838531494e-01 2.541247941553592682e-02 6.048043817281723022e-02 1.076573040336370468e-02 -1.722156815230846405e-02 -6.173043698072433472e-02 6.642653606832027435e-03 3.654621541500091553e-02 -1.161700487136840820e-02 3.389105200767517090e-02 5.730772390961647034e-03 -2.669819630682468414e-02 4.580299183726310730e-02 4.070048406720161438e-02 -2.011708170175552368e-02 7.479938864707946777e-02 -1.492603272199630737e-01 2.316170372068881989e-02 5.468941107392311096e-02 -9.304510429501533508e-03 6.849699188023805618e-03 -2.908769845962524414e-01 8.619837462902069092e-02 -1.356175392866134644e-01 -6.748623400926589966e-02 1.019374933093786240e-03 1.828451156616210938e-01 -7.208259403705596924e-02 1.327185779809951782e-01 -6.845270399935543537e-04 -2.478151582181453705e-02 6.628810614347457886e-02 4.272871091961860657e-02 9.965699166059494019e-03 -7.656123023480176926e-03 1.480909287929534912e-01
-3.990370035171508789e-02 -2.910666167736053467e-02 -3.181751072406768799e-02 -2.146172570064663887e-03 -7.370994240045547485e-02 -1.279402058571577072e-02 -6.622955948114395142e-02 -2.390629611909389496e-02 5.442378669977188110e-02 -5.291949585080146790e-02 8.650279045104980469e-02 -2.109788544476032257e-02 1.231452673673629761e-01 6.629492342472076416e-02 -4.167087748646736145e-02 2.846720255911350250e-02 1.949973870068788528e-03 2.002159133553504944e-02 2.304216101765632629e-02 1.696186512708663940e-02 -1.776536181569099426e-02 -1.291949953883886337e-02 5.695272237062454224e-02 4.534526728093624115e-03 -2.401202358305454254e-02 -5.397284403443336487e-02 5.835115909576416016e-02 1.130928844213485718e-02 -1.150503195822238922e-02 -1.915494562126696110e-03 -5.945361033082008362e-02 4.767018184065818787e-02 5.899747461080551147e-02 2.703348547220230103e-02 9.469515644013881683e-03 -7.543122023344039917e-02 8.480692654848098755e-02 9.796673059463500977e-02 4.513177089393138885e-03 -6.963206082582473755e-02 -8.910820819437503815e-03 -1.940071396529674530e-02 1.979928696528077126e-03 1.430390216410160065e-02 3.830987587571144104e-02 -8.381612598896026611e-02 -8.635813370347023010e-03 1.905960845761001110e-03 -5.569785833358764648e-02 -1.028750985860824585e-01 -9.417157620191574097e-02 1.296618673950433731e-02 -1.701717451214790344e-02 6.719631701707839966e-02 5.413332208991050720e-02 3.522324562072753906e-02 9.315232746303081512e-03 4.226261004805564880e-02 -2.369945403188467026e-03 7.363696396350860596e-02 3.203643858432769775e-02 4.853032063692808151e-03 -2.014457620680332184e-02 -5.430319160223007202e-02 -2.251782268285751343e-02 -5.300903692841529846e-02 -9.689833968877792358e-02 -8.351831883192062378e-02 -1.383926812559366226e-02 -6.302443146705627441e-02 -2.196805924177169800e-02 -4.244182258844375610e-02 5.497239530086517334e-02 -6.828477233648300171e-02 -1.261280030012130737e-01 -1.590122282505035400e-02 -7.633302593603730202e-04 7.934716343879699707e-02 -3.841100260615348816e-02 -7.088880240917205811e-02 -6.245642155408859253e-02 6.001540645956993103e-02 1.422578468918800354e-02 7.775972783565521240e-02 -9.025345742702484131e-02 -3.140605241060256958e-02 -6.791730970144271851e-02 -3.528795763850212097e-02 5.172282084822654724e-02 8.526691794395446777e-02 8.451321721076965332e-02 4.129360243678092957e-02 -1.181722059845924377e-01 -2.296236157417297363e-02 6.150781363248825073e-02 -6.657572835683822632e-02 1.155076548457145691e-01 -6.469143182039260864e-02 -7.325701415538787842e-02 -4.217468947172164917e-02 -3.162126988172531128e-02 -4.257699102163314819e-02 -2.965327352285385132e-02 7.070974260568618774e-02 5.598940700292587280e-02 -2.363849803805351257e-02 -4.767254739999771118e-02 -1.574959792196750641e-02 -5.591963976621627808e-02 -3.500771522521972656e-02 -3.385772183537483215e-02 -6.613246351480484009e-02 -6.702642142772674561e-02 1.678974926471710205e-02 -9.175776503980159760e-03 1.091861650347709656e-01 6.903892755508422852e-02 -4.351675882935523987e-02 3.939489647746086121e-02 4.821535572409629822e-02 -1.749397255480289459e-02 -1.110430154949426651e-02 -7.212156057357788086e-02 -3.270883485674858093e-02 4.830013588070869446e-02 4.656065255403518677e-02 -7.582196034491062164e-03 -5.425123125314712524e-02 -7.855067960917949677e-03 3.530965745449066162e-02 -2.967432513833045959e-02 2.774439752101898193e-02 -8.893200755119323730e-02 3.469917550683021545e-02 4.034840501844882965e-03 4.298314079642295837e-02 1.776189804077148438e-01 3.141238121315836906e-04 -2.914062701165676117e-02 1.121715176850557327e-02 1.262359693646430969e-02 6.075634807348251343e-02 -4.700638353824615479e-02 -5.631858110427856445e-02 -4.069644212722778320e-02 -4.907130450010299683e-02 -4.212846979498863220e-02 -5.977888777852058411e-02 -4.635041579604148865e-02 -6.999277323484420776e-02 -6.524685304611921310e-03 -5.277499929070472717e-02 7.039865478873252869e-03 -7.654803246259689331e-02 1.343183917924761772e-03 -7.004446536302566528e-02 -4.398170392960309982e-03 -2.034815028309822083e-02 6.171849742531776428e-02 -5.774263292551040649e-02 -1.153632625937461853e-01 9.460330754518508911e-02 4.280283302068710327e-02 -1.133437268435955048e-03 -1.125142648816108704e-01 5.060342326760292053e-02 -6.067791208624839783e-02 1.371897384524345398e-02 -2.541638351976871490e-02 9.747957810759544373e-04 -2.704700641334056854e-02 -3.741728141903877258e-02 -2.075247094035148621e-02 -7.448007911443710327e-02 -5.036347359418869019e-02 -6.044362485408782959e-02 -2.214199490845203400e-02 1.250054780393838882e-02 1.151580177247524261e-02 -1.576857827603816986e-02 2.332081831991672516e-02 -7.028671447187662125e-03 -2.798842638731002808e-02 -2.717820927500724792e-02 2.353119850158691406e-02 8.274689898826181889e-04 -2.938074432313442230e-02 1.640789210796356201e-02 7.741790264844894409e-02 2.277105115354061127e-02 3.719193860888481140e-02 -4.880123212933540344e-02 -1.338189374655485153e-02 4.469638690352439880e-02 -8.170279115438461304e-02 -1.125527452677488327e-02 4.745769780129194260e-03 8.736309595406055450e-03 -5.547213554382324219e-02 -7.401415612548589706e-03 2.595371194183826447e-02 -8.046889305114746094e-02 3.716914216056466103e-03 -4.394681379199028015e-02 -8.387710899114608765e-02 6.372920423746109009e-02 -6.664621084928512573e-02 -4.733549058437347412e-02 -1.645245030522346497e-02 -2.902346663177013397e-02 9.780600666999816895e-02 -3.219882771372795105e-02 1.293389946222305298e-01 2.783968113362789154e-02 5.765217822045087814e-03 3.124059736728668213e-02 -6.662241369485855103e-02 -5.949425324797630310e-02 2.182799577713012695e-02 -2.615453116595745087e-02 -2.904995903372764587e-02 -3.355390578508377075e-02 2.696591615676879883e-02 2.705014310777187347e-02 -3.215916454792022705e-02 1.866352930665016174e-02 -6.839536875486373901e-02 6.965879816561937332e-03 5.024415627121925354e-02 -3.105416521430015564e-02 5.534406378865242004e-02 1.261478476226329803e-02 1.808468438684940338e-02 -5.164666101336479187e-02 3.767363727092742920e-02 -7.493776828050613403e-02 1.406961213797330856e-02 3.717251494526863098e-02 3.588957339525222778e-02 -6.807047873735427856e-02 -4.057931527495384216e-02 -1.727697625756263733e-02 -6.566949188709259033e-02 5.952861160039901733e-02 2.295298129320144653e-02 6.805088371038436890e-02 -1.756727881729602814e-02 2.209991589188575745e-02 3.038986958563327789e-02 -6.414097547531127930e-02 2.028415910899639130e-02 2.299434738233685493e-03 4.064653441309928894e-02 9.828441543504595757e-04 3.777129948139190674e-02 1.075475290417671204e-02
-3.117584437131881714e-02 -4.639364033937454224e-02 2.702079154551029205e-02 7.669201493263244629e-02 -1.358089968562126160e-03 -2.609527297317981720e-02 7.280495949089527130e-03 9.066196158528327942e-03 -8.294102549552917480e-02 -1.452055945992469788e-02 -4.090408235788345337e-02 -1.218098448589444160e-03 -6.125422660261392593e-03 -5.328913684934377670e-03 -9.983931481838226318e-02 -2.467993460595607758e-02 6.419275701045989990e-02 7.716885302215814590e-03 -5.572560708969831467e-03 -5.533173307776451111e-02 -8.001879602670669556e-02 -1.539078354835510254e-02 -6.288938224315643311e-02 -1.021668240427970886e-01 2.394120208919048309e-02 2.328297868371009827e-02 -2.979209087789058685e-02 5.219093337655067444e-02 4.207905009388923645e-02 -7.500579953193664551e-02 -1.369340121746063232e-01 6.055356934666633606e-03 -3.904728591442108154e-02 3.257719427347183228e-02 9.751293063163757324e-02 1.215346343815326691e-02 -7.492092903703451157e-03 1.488348841667175293e-02 -3.081514686346054077e-02 -4.493824206292629242e-03 4.344023019075393677e-02 4.153926391154527664e-03 6.750254891812801361e-03 2.297884039580821991e-02 4.004972055554389954e-02 -1.195451896637678146e-02 -2.508029527962207794e-02 1.781979948282241821e-02 4.494071006774902344e-02 6.042665243148803711e-02 -6.961992383003234863e-02 2.459109760820865631e-02 4.590604826807975769e-02 -7.200355082750320435e-02 -3.869136795401573181e-02 8.781773969531059265e-03 -3.178298845887184143e-02 -4.516605660319328308e-02 -7.754613459110260010e-02 1.263075415045022964e-02 3.463866561651229858e-02 -6.255446374416351318e-02 1.008995398879051208e-01 1.070350334048271179e-01 4.622576385736465454e-02 4.052216932177543640e-02 1.052637100219726562e-01 -7.260882761329412460e-03 4.279128089547157288e-02 -7.795704156160354614e-02 7.983019575476646423e-03 -6.205932423472404480e-02 4.471898451447486877e-02 -2.460933104157447815e-02 -4.677856341004371643e-02 -9.500846266746520996e-03 -4.067518562078475952e-02 -2.418362908065319061e-02 1.415646262466907501e-02 2.633080445230007172e-02 -5.975713208317756653e-02 -3.095380961894989014e-02 -9.062417596578598022e-02 -7.579773664474487305e-02 5.012298352085053921e-04 -3.875777870416641235e-02 1.959748379886150360e-02 -1.039309129118919373e-01 -1.573538035154342651e-02 -8.520034700632095337e-02 5.588907003402709961e-02 4.063645005226135254e-02 5.607131868600845337e-02 3.529848158359527588e-02 -3.648474439978599548e-02 -2.661816962063312531e-02 6.704038009047508240e-03 -7.892578840255737305e-02 3.225607424974441528e-02 2.654507942497730255e-02 -3.161035245284438133e-03 3.594492748379707336e-02 1.370746549218893051e-02 1.783605106174945831e-02 -4.943550378084182739e-02 4.175532981753349304e-02 -1.928623206913471222e-02 4.291143640875816345e-02 2.453676238656044006e-02 1.466066539287567139e-01 -7.355600595474243164e-02 -1.885312027297914028e-03 -3.567526862025260925e-02 -3.923333808779716492e-02 8.049646392464637756e-03 5.058646947145462036e-02 -7.028660620562732220e-04 -1.331870723515748978e-02 2.738429605960845947e-02 6.452049314975738525e-02 -2.521202340722084045e-02 -6.450346112251281738e-02 -1.157414540648460388e-02 3.070348873734474182e-02 -1.906749419867992401e-02 -4.136267676949501038e-02 -2.366333082318305969e-02 3.530474752187728882e-02 8.502016216516494751e-02 -2.713442407548427582e-02 -3.242783620953559875e-02 -3.112529963254928589e-02 -7.494381070137023926e-02 9.062334150075912476e-02 7.326165586709976196e-02 6.838248670101165771e-02 2.207302115857601166e-02 4.198566824197769165e-02 1.625084551051259041e-03 -3.228059038519859314e-02 5.627945810556411743e-02 3.092744201421737671e-02 -5.901488475501537323e-03 3.251610323786735535e-02 6.727363169193267822e-02 8.023599535226821899e-02 -4.279360547661781311e-02 -7.282000966370105743e-03 -3.464303910732269287e-02 3.248279914259910583e-02 -6.320357322692871094e-02 -9.369051456451416016e-02 3.290585475042462349e-03 4.132315889000892639e-02 1.027055364102125168e-02 8.293797820806503296e-02 2.693506143987178802e-02 4.381571337580680847e-02 3.067149221897125244e-02 4.473695158958435059e-02 -7.051964104175567627e-02 -6.592993438243865967e-02 4.783473163843154907e-02 1.000859774649143219e-02 1.202270947396755219e-02 5.447706207633018494e-02 5.484516266733407974e-03 -4.968246445059776306e-02 -4.730907827615737915e-02 -7.113051414489746094e-02 -8.483877778053283691e-02 -1.237306836992502213e-02 4.886284098029136658e-02 2.248302102088928223e-02 3.712740167975425720e-02 -1.126326099038124084e-01 4.348311945796012878e-02 -5.993983894586563110e-02 4.882539063692092896e-02 -9.234151244163513184e-02 -3.513028146699070930e-03 -8.658279664814472198e-03 3.614828363060951233e-02 8.354759961366653442e-02 -3.781215474009513855e-02 7.802830543369054794e-03 -1.606652140617370605e-02 -4.648878797888755798e-02 -8.979674428701400757e-03 7.535443454980850220e-02 -3.341086953878402710e-02 5.002073198556900024e-02 2.775831520557403564e-02 3.105178941041231155e-03 3.535398468375205994e-02 -1.004376411437988281e-01 -6.634873151779174805e-02 -8.989229053258895874e-02 -8.083049952983856201e-02 1.563695259392261505e-02 1.093570515513420105e-01 -8.363461121916770935e-03 -6.127576529979705811e-02 -7.676739245653152466e-02 4.125047475099563599e-02 6.474097073078155518e-02 3.581942245364189148e-02 5.964128673076629639e-02 -7.433678209781646729e-02 4.074684344232082367e-03 3.058618120849132538e-02 -6.020618602633476257e-03 6.529489904642105103e-02 4.999089613556861877e-02 -6.706576794385910034e-02 -6.662884727120399475e-03 9.563767164945602417e-02 -1.820620521903038025e-02 7.510299235582351685e-02 -4.756315425038337708e-02 5.009627714753150940e-02 -5.307205021381378174e-02 -2.875951863825321198e-02 1.530032884329557419e-02 -5.204370245337486267e-02 -5.002646893262863159e-02 2.309913747012615204e-02 -2.668752521276473999e-02 -8.602979034185409546e-02 -7.965254038572311401e-02 3.350084275007247925e-02 2.093324251472949982e-02 7.497841864824295044e-02 -7.164534181356430054e-02 -1.013865843415260315e-01 1.099974568933248520e-02 9.589367546141147614e-03 -2.550098299980163574e-02 -1.238370463252067566e-01 -7.955981791019439697e-02 -9.156690537929534912e-02 -8.811753988265991211e-02 -1.362567953765392303e-02 1.534944679588079453e-02 4.311682656407356262e-03 -1.366866845637559891e-02 5.582881718873977661e-02 -8.508912287652492523e-03 -2.873976156115531921e-02 -2.815358713269233704e-02 -2.945966832339763641e-02 -5.555490404367446899e-02 2.361474931240081787e-02 -7.483614236116409302e-02 -9.035684913396835327e-02 -5.662203766405582428e-03
4.585107788443565369e-02 4.894424273516051471e-05 -3.406824916601181030e-02 2.122920937836170197e-02 -4.280664399266242981e-02 -3.875567018985748291e-02 -2.016744948923587799e-02 4.210212081670761108e-02 3.577716648578643799e-02 -3.390996530652046204e-02 2.631071396172046661e-02 -8.517320454120635986e-02 -1.347574740648269653e-01 2.007448486983776093e-02 1.170892734080553055e-02 4.468629602342844009e-03 -7.840275764465332031e-02 -2.600297145545482635e-02 5.347060784697532654e-02 -1.932485215365886688e-02 4.485159739851951599e-02 -2.022151648998260498e-02 -3.461755439639091492e-02 -7.785297930240631104e-02 -7.126905769109725952e-02 5.294802039861679077e-02 1.444359030574560165e-02 4.112844169139862061e-02 -6.777793169021606445e-02 -2.873771078884601593e-02 2.590786898508667946e-03 -4.655930027365684509e-02 -5.393727496266365051e-02 -2.433170378208160400e-02 6.636918336153030396e-02 -3.339873626828193665e-02 -3.052339516580104828e-02 4.159523546695709229e-02 -7.824373990297317505e-02 4.150128364562988281e-02 1.209729090332984924e-01 -1.384053565561771393e-02 6.690401118248701096e-03 -4.737789928913116455e-02 3.854773938655853271e-02 2.381633967161178589e-02 3.945294767618179321e-02 -5.464800819754600525e-02 -2.844126522541046143e-02 -5.531197041273117065e-02 -3.932654485106468201e-02 -3.727380931377410889e-02 9.765143692493438721e-02 5.623289942741394043e-02 2.361132763326168060e-02 -6.586903333663940430e-02 -3.703010268509387970e-03 -3.093699365854263306e-02 -1.331367902457714081e-02 2.977671846747398376e-02 -4.529507085680961609e-02 6.921567022800445557e-02 -1.940619084052741528e-03 -4.136637598276138306e-02 -4.676012322306632996e-02 1.142717599868774414e-01 -5.578296631574630737e-02 2.346687391400337219e-02 6.292466819286346436e-02 1.259721722453832626e-02 1.157293170690536499e-01 -7.179766148328781128e-02 -9.040905535221099854e-02 -3.501403552945703268e-04 3.641479834914207458e-02 3.714279457926750183e-02 6.432175636291503906e-02 -3.024602122604846954e-02 -8.994235843420028687e-02 7.033886760473251343e-02 -1.887213252484798431e-02 -8.978290110826492310e-02 6.607144325971603394e-02 -7.678975909948348999e-02 -3.252640832215547562e-03 5.738408491015434265e-02 -2.487494610249996185e-02 1.798124611377716064e-02 -1.972679793834686279e-02 -5.978968366980552673e-02 6.790780276060104370e-02 -7.159002125263214111e-02 5.684025585651397705e-03 -4.299120977520942688e-02 -1.879531145095825195e-02 2.873136103153228760e-02 -5.492550134658813477e-02 -3.223703056573867798e-02 4.945028573274612427e-02 -8.276440203189849854e-03 9.670379571616649628e-03 -8.657172322273254395e-03 -1.010015755891799927e-01 -3.806883096694946289e-02 -6.441988516598939896e-03 -1.818448305130004883e-03 1.479818369261920452e-03 7.378983311355113983e-03 -3.669088939204812050e-03 4.676460847258567810e-02 1.563803255558013916e-01 3.124483861029148102e-02 -3.853547945618629456e-02 3.848167136311531067e-03 6.648506224155426025e-02 5.333168432116508484e-02 4.955849424004554749e-02 6.157781556248664856e-02 -7.352115958929061890e-02 1.171034108847379684e-02 1.123200636357069016e-02 -3.803262114524841309e-02 -2.986867725849151611e-02 4.162967950105667114e-02 2.566086500883102417e-02 -2.366721630096435547e-02 4.277235269546508789e-02 -6.510298699140548706e-02 5.492379143834114075e-02 -1.017026901245117188e-01 -5.733110383152961731e-02 5.887856706976890564e-02 9.724608063697814941e-02 2.735745906829833984e-02 7.151908427476882935e-02 5.718857981264591217e-03 3.062523715198040009e-02 -1.361311674118041992e-01 8.340877480804920197e-03 3.968183882534503937e-03 6.469471007585525513e-02 7.864742726087570190e-02 -6.100652366876602173e-02 5.093572288751602173e-02 -1.515590846538543701e-01 4.249803721904754639e-02 3.127296268939971924e-02 1.040319260209798813e-02 6.189956516027450562e-02 2.680266834795475006e-02 -1.047878805547952652e-02 4.067029803991317749e-02 5.856869369745254517e-02 3.107790648937225342e-02 -1.665845513343811035e-02 7.750304788351058960e-02 9.573357179760932922e-03 -6.531900912523269653e-02 4.010463878512382507e-02 9.496846795082092285e-02 6.732539087533950806e-02 -9.155473671853542328e-03 3.987525030970573425e-02 -3.800300508737564087e-02 3.296568617224693298e-02 -6.388751417398452759e-02 -1.330210012383759022e-03 6.702730059623718262e-02 6.091709434986114502e-02 -6.913802027702331543e-02 3.840763587504625320e-03 -1.241780743002891541e-01 9.468414634466171265e-02 -7.042876631021499634e-02 1.022362336516380310e-01 3.932375460863113403e-02 -1.120369806885719299e-01 -4.020106513053178787e-03 -1.545309182256460190e-02 -1.479369401931762695e-01 -5.295395106077194214e-02 2.901126444339752197e-02 3.708364441990852356e-02 -5.372167751193046570e-02 -1.452773716300725937e-02 -1.348758488893508911e-01 -6.405331939458847046e-02 1.244845706969499588e-02 -1.132885552942752838e-02 -9.304310195147991180e-03 1.151793450117111206e-01 -1.722327433526515961e-02 1.646389625966548920e-02 -6.967267394065856934e-02 8.505673706531524658e-02 -6.806318461894989014e-02 4.537411034107208252e-03 -1.028101518750190735e-01 -7.130724936723709106e-02 -8.950375020503997803e-03 -8.159124292433261871e-03 7.208957523107528687e-02 3.139186650514602661e-02 -2.643748559057712555e-02 -7.727036625146865845e-02 2.787595614790916443e-02 -1.361494325101375580e-02 -6.960777938365936279e-02 5.169621109962463379e-02 4.838807508349418640e-03 3.082570619881153107e-03 -7.142960093915462494e-03 -4.944040626287460327e-02 3.056445904076099396e-02 4.044819157570600510e-03 4.469230771064758301e-02 3.971904516220092773e-02 -1.069801300764083862e-02 8.831343054771423340e-02 4.364354908466339111e-02 -4.533496499061584473e-02 -4.694079980254173279e-02 5.283004045486450195e-02 2.502153627574443817e-02 -1.575208851136267185e-03 -1.071511358022689819e-01 4.655000567436218262e-02 -2.703532204031944275e-02 4.601023346185684204e-02 -3.619787981733679771e-03 -7.757920771837234497e-03 -1.034720242023468018e-01 -1.129253301769495010e-02 9.401345252990722656e-02 -1.583279669284820557e-02 7.376682758331298828e-02 2.214003726840019226e-02 7.926745712757110596e-02 7.918396592140197754e-02 -1.063430495560169220e-02 -5.167225748300552368e-02 2.083172090351581573e-02 -3.883269429206848145e-02 2.006245404481887817e-02 -5.003573372960090637e-02 -1.917317509651184082e-02 -7.587794214487075806e-02 -2.235102094709873199e-02 6.018476560711860657e-03 -7.254630327224731445e-02 -3.679236769676208496e-02 1.268368307501077652e-02 -4.100359603762626648e-02 -8.329913020133972168e-02 6.669761985540390015e-02 1.029839292168617249e-01
-1.273270994424819946e-01 3.194997832179069519e-02 3.597890585660934448e-02 2.912739850580692291e-02 -1.427010595798492432e-01 8.589500188827514648e-02 3.707435727119445801e-02 2.290487103164196014e-02 -4.430140554904937744e-02 -9.870813786983489990e-02 3.401689976453781128e-02 7.558889687061309814e-02 -6.754792481660842896e-02 -3.590655699372291565e-02 8.713712543249130249e-02 -7.812061905860900879e-02 9.340982139110565186e-02 -8.936217427253723145e-02 1.545314341783523560e-01 9.224420040845870972e-02 -6.461004912853240967e-02 4.661984741687774658e-02 -5.121891200542449951e-02 -1.702636480331420898e-02 -1.285941572859883308e-03 -7.912642508745193481e-02 9.031910449266433716e-02 -2.337335236370563507e-02 -1.597881466150283813e-01 -1.364388614892959595e-01 -2.439819462597370148e-02 -9.812697768211364746e-03 2.110583148896694183e-02 -5.172319710254669189e-02 7.557018101215362549e-02 -8.947739005088806152e-02 -7.877699285745620728e-02 3.573041781783103943e-02 1.293061953037977219e-02 1.456761150620877743e-03 1.109141036868095398e-01 3.148011863231658936e-02 -1.612977311015129089e-02 1.006945818662643433e-01 -4.297510907053947449e-02 -1.607161015272140503e-01 3.866601735353469849e-02 2.700910344719886780e-02 -1.803586818277835846e-02 -1.779114082455635071e-02 -4.260788112878799438e-02 -9.821573644876480103e-02 9.568234533071517944e-02 8.952116966247558594e-02 3.972717002034187317e-02 3.650038689374923706e-02 -7.056363672018051147e-02 -1.346522420644760132e-01 -3.777360776439309120e-03 -3.895015642046928406e-02 2.741330489516258240e-02 5.617376044392585754e-02 1.039521843194961548e-01 -7.085982710123062134e-02 1.051753461360931396e-01 1.103061959147453308e-01 -4.199242219328880310e-02 -1.107765361666679382e-02 1.541954185813665390e-02 -6.375898420810699463e-02 -3.641523048281669617e-02 6.001688074320554733e-03 1.066667288541793823e-01 4.037336632609367371e-02 -3.402059525251388550e-02 1.421121209859848022e-01 -7.626685500144958496e-02 -8.501589298248291016e-03 -7.056134194135665894e-02 1.170658506453037262e-02 -1.249254047870635986e-01 1.859967410564422607e-02 -1.953475549817085266e-02 -9.680832922458648682e-02 -9.971836209297180176e-02 -1.983372028917074203e-03 -6.163008138537406921e-02 1.347468048334121704e-01 -8.260242640972137451e-02 1.247823536396026611e-01 2.452059648931026459e-02 -8.538748952560126781e-04 4.068709909915924072e-02 -4.008935391902923584e-02 1.295551005750894547e-02 3.150256723165512085e-02 2.752602845430374146e-02 1.612020283937454224e-01 9.720164537429809570e-02 -7.256780285388231277e-03 3.242748323827981949e-03 5.317496135830879211e-02 9.575227648019790649e-02 4.127860069274902344e-02 -2.573191933333873749e-02 3.911172226071357727e-02 -5.054347589612007141e-02 -1.404959112405776978e-01 -1.301856152713298798e-02 4.644946753978729248e-02 1.358376741409301758e-01 -1.734119653701782227e-02 3.241755440831184387e-02 5.938931554555892944e-02 9.961589239537715912e-03 -8.840042352676391602e-02 1.459265500307083130e-02 3.661226108670234680e-02 8.898795396089553833e-02 8.074028044939041138e-02 -1.427159458398818970e-02 -5.372504703700542450e-03 -5.911103263497352600e-02 1.502563804388046265e-01 -1.506877690553665161e-02 1.439025159925222397e-02 1.586738042533397675e-02 6.061705574393272400e-02 8.472882211208343506e-02 -3.548789024353027344e-02 -6.559739261865615845e-02 5.972975492477416992e-02 6.253126263618469238e-02 1.007724646478891373e-02 4.599468410015106201e-02 -1.717559294775128365e-03 -1.293192952871322632e-01 -2.668634802103042603e-02 2.791765891015529633e-02 -9.196729958057403564e-02 4.854048416018486023e-02 -1.963652856647968292e-02 -4.559824243187904358e-03 -2.341274917125701904e-02 -5.534695833921432495e-02 -4.158987477421760559e-02 2.472903393208980560e-02 1.032421961426734924e-01 -1.384632587432861328e-01 -3.673866158351302147e-03 -8.760868012905120850e-02 -3.493870794773101807e-02 1.167732626199722290e-01 -1.857973635196685791e-02 9.710213541984558105e-02 -6.899829208850860596e-02 4.121999815106391907e-02 1.458803564310073853e-02 2.953162416815757751e-02 -1.392563879489898682e-01 2.417190000414848328e-02 -3.230702131986618042e-02 -1.083038523793220520e-01 1.198420207947492599e-02 -2.158193662762641907e-02 4.063256084918975830e-02 -1.552343275398015976e-02 8.429215103387832642e-02 -3.257590904831886292e-02 -2.503574080765247345e-02 9.675209294073283672e-04 -1.570723764598369598e-02 -5.762612447142601013e-02 -5.534294527024030685e-03 6.927388906478881836e-02 2.283851988613605499e-02 -2.693358436226844788e-02 3.169395029544830322e-02 -1.095087230205535889e-01 4.949212819337844849e-02 -9.600661695003509521e-02 -1.784086599946022034e-02 6.440132856369018555e-02 1.004654765129089355e-01 -1.267386078834533691e-01 2.667146362364292145e-02 -5.225978791713714600e-02 1.024577617645263672e-01 8.269992657005786896e-03 1.602480188012123108e-02 1.182979568839073181e-01 -7.579883188009262085e-02 7.200209051370620728e-02 -6.626986712217330933e-02 -6.040735542774200439e-02 -1.415731906890869141e-01 -4.483502730727195740e-02 1.996924541890621185e-02 2.458028309047222137e-02 1.297054886817932129e-01 -1.356030851602554321e-01 4.927293956279754639e-02 2.467720955610275269e-02 -6.803546845912933350e-02 -1.932587125338613987e-03 -7.400622125715017319e-03 9.135440737009048462e-02 4.982987884432077408e-03 -1.332271695137023926e-01 5.226493347436189651e-03 4.524724185466766357e-02 -1.220712885260581970e-01 -2.141476795077323914e-02 6.097024306654930115e-03 2.890509925782680511e-02 1.139364168047904968e-01 9.289547451771795750e-04 3.618779778480529785e-02 4.526139423251152039e-02 1.151436865329742432e-01 8.462160825729370117e-03 -6.916320323944091797e-02 4.369655996561050415e-02 -5.084299668669700623e-02 -3.882136195898056030e-02 -6.128944456577301025e-02 3.267464786767959595e-02 -2.982416190207004547e-02 -3.847627714276313782e-02 -9.419070929288864136e-02 -9.565409272909164429e-03 -7.437951862812042236e-02 8.398337662220001221e-02 -1.393520832061767578e-02 -7.042735815048217773e-02 -6.817772518843412399e-03 -1.694369614124298096e-01 3.818790242075920105e-02 -3.953508287668228149e-02 -3.178797662258148193e-02 -8.055977523326873779e-02 -4.618335887789726257e-02 -9.977094829082489014e-02 -9.394347667694091797e-03 3.064697049558162689e-02 -1.699309945106506348e-01 5.376423150300979614e-02 -1.099374368786811829e-01 1.279945522546768188e-01 7.847633957862854004e-02 1.345467120409011841e-01 -1.706532090902328491e-01 -2.703234180808067322e-02 1.213550218380987644e-03 -8.483689278364181519e-02 8.781445771455764771e-02
-5.955243110656738281e-02 -4.933018237352371216e-02 2.854303456842899323e-02 -9.434791654348373413e-02 -4.358749464154243469e-02 1.359418034553527832e-01 -6.009322404861450195e-02 -9.409623593091964722e-02 -3.382978588342666626e-02 -6.250862777233123779e-02 1.013119220733642578e-01 -9.693346917629241943e-03 -5.404743552207946777e-02 1.056601554155349731e-01 -2.544274553656578064e-02 -3.635448589920997620e-02 2.894561924040317535e-02 -1.247594356536865234e-01 1.648927852511405945e-02 4.483170062303543091e-02 -8.221013098955154419e-02 5.107986181974411011e-02 -6.891418993473052979e-02 -4.452527314424514771e-02 -2.223092503845691681e-02 -2.683510771021246910e-03 -7.783086597919464111e-02 -7.408210635185241699e-02 5.459589883685112000e-02 5.183268338441848755e-02 -8.113014698028564453e-02 1.905602775514125824e-02 -4.790173843502998352e-04 2.492002025246620178e-02 -4.386166110634803772e-02 4.461268428713083267e-03 -1.322449445724487305e-01 1.189750432968139648e-01 -2.671279758214950562e-02 3.170340880751609802e-02 -9.169854223728179932e-02 1.132984831929206848e-01 9.605466574430465698e-02 1.789394952356815338e-02 -5.216484889388084412e-02 9.180951118469238281e-02 -1.467532711103558540e-03 1.176593825221061707e-02 2.535505779087543488e-02 3.870883956551551819e-03 -1.654279790818691254e-02 -6.150846555829048157e-02 -5.285448580980300903e-02 -7.404716452583670616e-04 -3.700561821460723877e-02 3.965470194816589355e-02 -5.529215186834335327e-02 7.301971316337585449e-02 2.864742279052734375e-02 -2.003433182835578918e-02 1.638430170714855194e-02 9.859490394592285156e-02 3.978881612420082092e-02 4.625238478183746338e-03 3.726761415600776672e-02 1.136539429426193237e-01 1.251301169395446777e-01 3.966430202126502991e-03 1.235038693994283676e-02 -1.524476259946823120e-01 3.561826795339584351e-02 -4.990858957171440125e-02 -9.597697108983993530e-02 1.238061934709548950e-01 -3.040102496743202209e-02 1.566063165664672852e-01 -9.017288684844970703e-02 4.251075536012649536e-02 3.127555549144744873e-02 -2.415967918932437897e-02 -4.897243529558181763e-02 -1.216214802116155624e-02 -1.992684453725814819e-01 -7.514093816280364990e-02 5.169656127691268921e-03 -9.904380887746810913e-02 -6.672637164592742920e-02 -3.929527103900909424e-02 1.346797682344913483e-02 -4.239332303404808044e-02 4.000073671340942383e-02 7.590368390083312988e-02 9.988941252231597900e-02 -1.476792711764574051e-02 -8.696283400058746338e-02 2.577583864331245422e-02 1.867726258933544159e-02 -1.488455533981323242e-01 -8.926925808191299438e-02 -1.101071760058403015e-02 -9.518780559301376343e-02 2.176396548748016357e-02 1.568186730146408081e-01 -9.518899768590927124e-02 -3.767059743404388428e-02 -7.774166017770767212e-02 3.364299982786178589e-02 -4.219167307019233704e-02 2.780820615589618683e-02 7.399980723857879639e-02 -2.668403554707765579e-03 -3.962278738617897034e-02 -2.768697449937462807e-03 4.069200903177261353e-02 -2.123824805021286011e-01 7.877852022647857666e-02 -3.136807307600975037e-02 -8.133105188608169556e-02 -4.999731853604316711e-02 1.099281571805477142e-02 -4.342357441782951355e-02 -1.800012774765491486e-02 -4.819421842694282532e-02 -6.037810444831848145e-02 7.576856762170791626e-02 -1.397374318912625313e-03 -2.577144093811511993e-02 -1.238660328090190887e-02 -4.008579254150390625e-02 -6.030858494341373444e-03 1.259229332208633423e-01 -1.910557225346565247e-02 -2.260243892669677734e-02 -3.171647712588310242e-02 -1.352367252111434937e-01 3.016384318470954895e-02 1.283417921513319016e-02 -9.274432435631752014e-03 -3.955916687846183777e-02 -7.582551985979080200e-02 -6.897741695865988731e-04 1.002705693244934082e-01 7.711618393659591675e-02 -2.507854253053665161e-02 -7.174119353294372559e-02 2.177648991346359253e-02 -4.167539626359939575e-02 1.238478720188140869e-01 -9.123730659484863281e-02 5.025511234998703003e-02 -1.508359163999557495e-01 3.973131068050861359e-03 -1.057251468300819397e-01 -7.738784886896610260e-03 9.377560764551162720e-02 5.770803242921829224e-02 5.674000084400177002e-02 -1.109561603516340256e-02 -3.851742669939994812e-02 -6.186483427882194519e-02 -1.013038530945777893e-01 -8.678291738033294678e-02 -3.686740249395370483e-02 -1.100356802344322205e-01 4.433409310877323151e-03 -1.115530077368021011e-02 8.681562729179859161e-03 9.696966409683227539e-02 -9.562484920024871826e-02 -5.529680103063583374e-02 3.732860460877418518e-02 -6.680562347173690796e-02 3.126940503716468811e-02 -3.010627068579196930e-02 -7.849822193384170532e-02 1.906726509332656860e-02 -5.536523461341857910e-02 7.360802590847015381e-02 1.344421207904815674e-01 2.932261268142610788e-04 7.950020581483840942e-02 -4.580957442522048950e-02 -4.753421992063522339e-03 -1.296503748744726181e-02 -1.123966798186302185e-01 -1.232684683054685593e-02 -3.256393596529960632e-02 2.895935624837875366e-02 -1.425057277083396912e-02 1.902239955961704254e-02 1.058158371597528458e-02 4.137326404452323914e-02 3.920830786228179932e-02 5.026214942336082458e-02 2.276376634836196899e-02 -2.205074205994606018e-02 -3.317755833268165588e-02 -1.590316183865070343e-02 -3.501554206013679504e-02 5.500356107950210571e-02 -1.253979057073593140e-01 -1.018617115914821625e-02 4.471849650144577026e-02 -1.774102449417114258e-01 4.584453999996185303e-02 3.233309462666511536e-02 4.144919663667678833e-02 5.176029354333877563e-02 1.047369688749313354e-01 5.924891680479049683e-03 9.108278900384902954e-02 -9.930595755577087402e-02 8.856105618178844452e-03 5.559978075325489044e-03 4.010634869337081909e-02 -4.355915635824203491e-02 -1.157772168517112732e-01 -1.777023635804653168e-02 9.492592513561248779e-02 -3.020544536411762238e-04 8.072686940431594849e-02 -1.228400915861129761e-01 2.003717869520187378e-01 1.595618575811386108e-02 9.831404313445091248e-03 3.582334890961647034e-02 5.480911210179328918e-02 6.412736326456069946e-02 3.847466409206390381e-02 1.653535664081573486e-01 -9.228358417749404907e-02 -5.531199648976325989e-02 -3.438005968928337097e-02 3.723060945048928261e-03 5.991820991039276123e-02 -6.616863608360290527e-02 -1.334710419178009033e-01 -6.039751693606376648e-02 7.552707567811012268e-03 1.456262022256851196e-01 -3.211988508701324463e-02 -8.175073191523551941e-03 3.926418721675872803e-02 3.963859751820564270e-02 5.517283454537391663e-02 1.842303015291690826e-02 7.695277780294418335e-02 -1.145838573575019836e-01 -5.827703699469566345e-02 -5.918712541460990906e-02 2.372552081942558289e-02 6.023637834005057812e-04 3.537280485033988953e-02 1.025706976652145386e-01 -1.349631845951080322e-01 3.607107698917388916e-02
-1.430673804134130478e-02 -7.936701178550720215e-03 -3.025451302528381348e-02 -4.643695056438446045e-02 1.278535127639770508e-01 6.671025604009628296e-02 3.891109302639961243e-02 5.278974771499633789e-02 4.935107659548521042e-03 6.015247851610183716e-02 -8.078446984291076660e-02 -4.248725250363349915e-02 -3.337426576763391495e-03 4.536340013146400452e-02 -3.979216888546943665e-02 -1.677884534001350403e-02 5.005387589335441589e-02 1.046273410320281982e-01 -5.179097503423690796e-02 -3.711341880261898041e-03 3.677871450781822205e-02 4.973494634032249451e-02 6.415171921253204346e-02 -6.575955450534820557e-02 -7.728248834609985352e-02 1.706932671368122101e-02 3.407631441950798035e-02 5.115802865475416183e-03 3.049983456730842590e-02 -9.208337962627410889e-02 -6.744804978370666504e-02 -4.045171290636062622e-02 -5.956302955746650696e-02 -1.500584557652473450e-02 4.894522577524185181e-02 -3.398293256759643555e-02 -4.536928981542587280e-02 2.531182393431663513e-02 -3.561501204967498779e-02 2.705856598913669586e-02 2.957520307973027229e-03 -1.153535097837448120e-01 -4.240459948778152466e-02 -2.168326079845428467e-02 -6.008265912532806396e-02 -7.018650323152542114e-02 -4.153312370181083679e-02 3.295337781310081482e-02 -6.353820860385894775e-02 1.159525848925113678e-02 -9.581917524337768555e-02 1.256536394357681274e-01 2.564149536192417145e-02 -3.328405693173408508e-02 7.029595226049423218e-02 -1.538452459499239922e-03 1.158882752060890198e-01 2.423390187323093414e-02 -1.074778661131858826e-01 -1.429321803152561188e-02 -1.136463060975074768e-01 -3.442624351009726524e-03 -2.865602448582649231e-02 -2.945482544600963593e-02 8.093907497823238373e-03 -4.251776263117790222e-02 1.830357126891613007e-02 5.411688238382339478e-02 -1.023103948682546616e-02 6.754256784915924072e-02 -1.139526814222335815e-01 5.569619685411453247e-02 3.621317911893129349e-03 -3.076367313042283058e-03 -4.556638188660144806e-03 -4.031436145305633545e-02 -5.365455150604248047e-02 4.321260005235671997e-02 9.794142842292785645e-02 9.300217032432556152e-02 8.155376464128494263e-02 1.491482369601726532e-02 -1.128480285406112671e-01 -6.544066709466278553e-04 -8.863948285579681396e-02 -2.665068209171295166e-02 -9.761653095483779907e-02 -3.557293443009257317e-03 -5.426086112856864929e-02 6.362811475992202759e-02 5.696845799684524536e-02 5.809239298105239868e-02 -9.343091398477554321e-02 4.523765761405229568e-03 -1.303306221961975098e-01 1.056599915027618408e-01 5.034604575484991074e-03 -1.152598559856414795e-01 -6.653877347707748413e-02 -1.046453267335891724e-01 4.517877846956253052e-02 -3.421576693654060364e-02 9.372544288635253906e-02 -1.458797045052051544e-02 6.001131609082221985e-02 2.326045557856559753e-02 1.286936807446181774e-03 -1.037256196141242981e-01 1.110394224524497986e-01 1.954982429742813110e-02 -1.356308311223983765e-01 -1.556358952075242996e-02 -8.723581582307815552e-02 -1.060057729482650757e-01 -1.079162433743476868e-01 6.138870492577552795e-02 -2.893182821571826935e-02 -3.955852612853050232e-02 4.320632666349411011e-02 -1.107654720544815063e-01 -7.762039452791213989e-02 8.123270422220230103e-02 -4.028031602501869202e-02 2.185660600662231445e-02 -5.006220191717147827e-02 2.104048617184162140e-02 -5.206145346164703369e-02 1.739194095134735107e-01 1.946108415722846985e-02 4.209581390023231506e-02 6.163270026445388794e-02 -6.604719161987304688e-02 2.015894837677478790e-02 -7.209327071905136108e-02 3.839683160185813904e-02 -2.754128538072109222e-02 -5.009218119084835052e-03 7.158206403255462646e-02 5.950858443975448608e-02 6.777983158826828003e-03 -1.527983136475086212e-02 -1.021336950361728668e-02 4.198703914880752563e-02 1.338106207549571991e-02 5.024835839867591858e-02 9.341535717248916626e-02 -3.176014125347137451e-02 6.518632173538208008e-02 -2.602096181362867355e-03 2.296499535441398621e-02 1.807959401048719883e-03 -6.752030551433563232e-02 -5.464679002761840820e-02 1.696533709764480591e-02 -9.126894921064376831e-02 2.677644602954387665e-02 -9.763831645250320435e-02 5.207019671797752380e-02 7.558429241180419922e-02 8.528454601764678955e-02 -2.011930197477340698e-01 -5.431981757283210754e-02 6.219376251101493835e-02 -2.464764751493930817e-02 9.141098707914352417e-02 4.259324446320533752e-02 3.143082931637763977e-02 6.817463040351867676e-02 3.163032466545701027e-03 9.192254394292831421e-03 3.293144330382347107e-02 2.650247700512409210e-02 -5.129532516002655029e-02 7.072857767343521118e-02 -2.909697592258453369e-02 1.401025615632534027e-02 -5.560036748647689819e-02 -6.357433646917343140e-02 1.872664690017700195e-02 -9.345575422048568726e-02 1.265135407447814941e-01 1.639771461486816406e-02 -1.272411830723285675e-02 -8.845672011375427246e-02 1.390960533171892166e-03 1.073520481586456299e-01 -3.702637180685997009e-02 -3.692506253719329834e-02 -1.571938954293727875e-02 -2.168458327651023865e-02 -1.234000474214553833e-01 4.285151883959770203e-02 -1.275196950882673264e-02 7.083670049905776978e-02 2.082284353673458099e-02 -1.869267597794532776e-02 -2.895420417189598083e-02 -3.761540725827217102e-02 -2.242297399789094925e-03 -4.470791295170783997e-02 1.343948692083358765e-01 2.507755532860755920e-02 2.320395223796367645e-02 -4.564309120178222656e-02 -8.848630636930465698e-02 4.582978785037994385e-02 4.245305806398391724e-02 7.064228504896163940e-02 -1.956868544220924377e-02 -1.104190479964017868e-03 4.736003279685974121e-02 1.306092552840709686e-02 2.783303335309028625e-02 -9.298501163721084595e-02 5.272121354937553406e-02 1.051918417215347290e-01 -3.535425662994384766e-02 -3.944724425673484802e-02 5.907068401575088501e-02 -5.292908474802970886e-02 3.826788440346717834e-02 -3.961470723152160645e-02 -9.726101905107498169e-02 -3.327441588044166565e-02 -2.560416422784328461e-02 2.483969088643789291e-03 -4.174875840544700623e-02 3.201853111386299133e-02 7.350077480077743530e-02 -2.707172185182571411e-02 -4.952019080519676208e-02 4.362642392516136169e-02 5.513158068060874939e-02 -9.701190888881683350e-02 1.409419439733028412e-02 -4.215295612812042236e-02 3.313235938549041748e-02 3.155487030744552612e-02 1.808476634323596954e-02 -2.239796146750450134e-02 -1.364528015255928040e-02 -6.322023272514343262e-02 4.502256214618682861e-02 8.744109421968460083e-02 -4.443471506237983704e-02 1.948649622499942780e-02 -2.654446661472320557e-02 6.583338603377342224e-03 -1.688533276319503784e-02 -7.171768695116043091e-02 -4.351331153884530067e-04 -1.348460000008344650e-02 -5.688479542732238770e-02 -2.329472824931144714e-02 4.916629288345575333e-03 4.605537652969360352e-02
-6.176465004682540894e-02 -1.436365842819213867e-01 1.163533961516804993e-04 -1.011877059936523438e-01 2.921698801219463348e-02 -1.539136096835136414e-02 -1.165969111025333405e-02 -2.794400556012988091e-03 1.966691203415393829e-02 3.092802688479423523e-02 8.991361595690250397e-03 -7.084587216377258301e-02 3.255270887166261673e-03 -6.325779855251312256e-02 8.404307812452316284e-02 2.237505652010440826e-02 2.738638594746589661e-02 3.153891768306493759e-03 -4.440004937350749969e-03 4.167376551777124405e-03 3.793126717209815979e-02 -4.754633083939552307e-02 -4.635052382946014404e-02 4.669450689107179642e-03 -2.621640637516975403e-02 2.836964651942253113e-02 -1.174487173557281494e-01 -4.926976282149553299e-03 -1.901442557573318481e-02 -5.618528276681900024e-02 1.765004917979240417e-02 -6.680776178836822510e-02 4.407049342989921570e-02 -3.762802481651306152e-02 6.467542052268981934e-02 -3.353921696543693542e-02 1.365589560009539127e-03 -5.803506448864936829e-02 -3.444593865424394608e-03 5.804154556244611740e-03 -9.566483646631240845e-02 -1.006069630384445190e-01 -2.736046724021434784e-02 -4.720692709088325500e-02 5.958300456404685974e-02 4.684749618172645569e-02 -7.204738259315490723e-02 -4.163909330964088440e-02 -6.320419907569885254e-02 3.361071273684501648e-02 -3.959210589528083801e-02 4.448537249118089676e-03 -1.491086278110742569e-02 1.011855993419885635e-02 6.734491139650344849e-02 -2.051524445414543152e-02 4.018049314618110657e-02 6.281629949808120728e-02 -6.853158585727214813e-03 4.827388003468513489e-02 -7.939396798610687256e-02 2.574070729315280914e-02 -9.117752313613891602e-02 7.865319401025772095e-02 2.368691004812717438e-02 -2.957259118556976318e-02 1.276505645364522934e-02 -2.250634692609310150e-02 -2.871538698673248291e-02 -2.937064319849014282e-02 -5.271898582577705383e-02 5.886351689696311951e-02 -2.747620642185211182e-02 -8.305987343192100525e-03 -1.014064848423004150e-01 -1.801189780235290527e-02 6.525283306837081909e-02 1.193870007991790771e-01 4.783296957612037659e-02 1.754951290786266327e-02 4.899624735116958618e-02 -1.568449474871158600e-02 -9.631423652172088623e-02 -1.164544653147459030e-02 -1.325631886720657349e-01 -1.502103805541992188e-01 2.326109632849693298e-02 1.482800144003704190e-04 3.217626735568046570e-02 -1.356822624802589417e-02 1.580527238547801971e-02 2.448904141783714294e-02 -6.507799774408340454e-02 -7.858758419752120972e-02 -8.959086239337921143e-02 -6.852186471223831177e-02 2.994421869516372681e-03 -3.664598241448402405e-02 1.528041623532772064e-02 -6.727731227874755859e-02 -1.236034333705902100e-01 5.748011171817779541e-03 2.658350020647048950e-02 4.574231337755918503e-03 1.011107768863439560e-02 -7.835087925195693970e-02 2.117574401199817657e-02 -3.058882663026452065e-03 -4.443168640136718750e-02 -1.583926007151603699e-02 -1.173187270760536194e-01 -4.102376289665699005e-03 -1.024139225482940674e-01 7.285460829734802246e-02 -4.283019527792930603e-02 9.222388267517089844e-02 -7.133369892835617065e-02 -5.168902501463890076e-02 -2.438031323254108429e-02 -1.299068778753280640e-01 -1.624274253845214844e-02 -6.152820773422718048e-03 -5.280492827296257019e-02 2.561966888606548309e-02 -4.326902795583009720e-03 -3.095528110861778259e-03 -1.858396083116531372e-02 -1.698998920619487762e-02 -1.276023089885711670e-01 1.277571916580200195e-01 8.789963088929653168e-03 -8.880554139614105225e-02 -2.051484771072864532e-02 -2.457834966480731964e-02 -1.026139110326766968e-01 -6.301624327898025513e-02 6.553113926202058792e-03 1.144774928689002991e-01 8.458486199378967285e-02 -7.896129041910171509e-02 -7.270181551575660706e-03 -2.038600388914346695e-03 2.967927684949245304e-05 -7.683701813220977783e-02 -3.314037621021270752e-02 1.945257186889648438e-02 5.433047935366630554e-02 -7.615335285663604736e-03 -2.080275490880012512e-02 6.194387376308441162e-02 3.697507455945014954e-02 -2.313569560647010803e-02 2.403996326029300690e-02 -4.042454063892364502e-02 2.241069683805108070e-03 3.192261978983879089e-02 8.712146431207656860e-02 -1.321724988520145416e-02 6.293176859617233276e-02 1.252701226621866226e-02 -1.089248657226562500e-01 2.081162296235561371e-03 -3.118137083947658539e-02 -7.203274965286254883e-02 -5.398098379373550415e-02 -1.081011965870857239e-01 -1.478730291128158569e-01 -4.232333973050117493e-02 2.384022995829582214e-02 -2.876426465809345245e-02 1.234941780567169189e-01 -2.262994833290576935e-02 -2.586814947426319122e-02 3.012290410697460175e-02 -2.935242839157581329e-02 2.081374637782573700e-02 3.767751529812812805e-02 7.048063911497592926e-03 -5.653158575296401978e-02 -1.776420325040817261e-01 6.723383069038391113e-02 4.781709983944892883e-03 -3.491034032776951790e-03 5.924491211771965027e-02 7.021196186542510986e-02 -6.131830159574747086e-03 1.447570025920867920e-01 -3.733679652214050293e-02 -3.465775027871131897e-02 -2.622078917920589447e-02 -7.308801636099815369e-03 -1.120806857943534851e-01 1.811755634844303131e-02 3.724593296647071838e-02 7.716838270425796509e-02 7.864831387996673584e-02 6.877707317471504211e-03 -2.719233557581901550e-02 4.210643097758293152e-02 -4.832482710480690002e-02 7.982054352760314941e-02 -9.558316320180892944e-02 8.223665878176689148e-03 1.888681761920452118e-02 -3.203287720680236816e-02 2.419848367571830750e-02 -5.570343928411602974e-04 -1.547680515795946121e-02 -4.529738426208496094e-02 -8.710763603448867798e-02 2.081041596829891205e-02 6.724677979946136475e-02 1.413270249031484127e-03 -7.919157296419143677e-02 -1.207976341247558594e-01 -3.146208077669143677e-02 -6.974174827337265015e-02 -5.646754801273345947e-02 -2.679969184100627899e-02 1.471038255840539932e-02 8.675631880760192871e-02 -3.658451139926910400e-02 -4.303749278187751770e-02 -2.124636471271514893e-01 -9.434047341346740723e-02 4.646452516317367554e-02 1.113327126950025558e-02 3.110906481742858887e-02 9.869933128356933594e-02 -9.333973377943038940e-02 -1.607275940477848053e-02 -4.035323858261108398e-02 2.923104539513587952e-02 -4.514915496110916138e-02 5.156409367918968201e-02 3.030716627836227417e-02 -6.992322858422994614e-03 8.697184734046459198e-03 1.002545505762100220e-01 4.547739028930664062e-02 3.055528504773974419e-04 3.175167739391326904e-02 3.682084009051322937e-02 5.567037314176559448e-02 6.446970254182815552e-02 6.727907806634902954e-02 2.044986374676227570e-02 -4.655317589640617371e-02 -2.022905461490154266e-02 -9.179756790399551392e-02 -5.802653729915618896e-02 -3.489641845226287842e-02 4.092303570359945297e-03 -3.384973853826522827e-02 2.109672315418720245e-02 1.091753765940666199e-01
-8.735677227377891541e-03 6.322876550257205963e-03 3.284812904894351959e-03 -8.105997741222381592e-02 -4.525771364569664001e-03 -9.106168523430824280e-03 -1.809040829539299011e-02 2.387597411870956421e-02 -2.707736194133758545e-02 -5.180407315492630005e-02 -9.781619906425476074e-02 -6.362596154212951660e-02 7.619373500347137451e-02 4.722879827022552490e-02 -2.932390384376049042e-02 3.308358788490295410e-02 -6.844851374626159668e-02 -2.449759840965270996e-02 -4.289397224783897400e-02 -1.234334986656904221e-02 -1.229156646877527237e-02 -6.952862255275249481e-03 -1.041682623326778412e-02 -5.534611409530043602e-05 -3.199015185236930847e-02 -2.905416302382946014e-02 3.139391541481018066e-02 1.596834161318838596e-03 -6.156330928206443787e-02 5.290135368704795837e-02 -1.312414999119937420e-03 2.142764441668987274e-02 5.670997500419616699e-02 -4.407830163836479187e-02 1.500494405627250671e-02 1.917275134474039078e-03 2.513822913169860840e-02 -3.273610770702362061e-02 -2.614248916506767273e-02 5.452688038349151611e-02 4.421015828847885132e-02 -2.221852727234363556e-02 1.089323591440916061e-02 7.941518560983240604e-04 -5.844332743436098099e-03 5.831073969602584839e-02 6.455823779106140137e-02 -2.124989405274391174e-02 2.375794015824794769e-02 -6.115354970097541809e-02 -3.367631137371063232e-02 5.979353189468383789e-02 1.720601134002208710e-02 2.695700526237487793e-02 2.516618743538856506e-02 7.467547897249460220e-03 -3.190734609961509705e-02 2.082654275000095367e-02 -1.385980658233165741e-02 3.110246616415679455e-04 -1.662208884954452515e-02 -4.522533342242240906e-02 -2.142863161861896515e-02 -9.533625096082687378e-03 -4.036151617765426636e-02 -1.239301543682813644e-02 4.342396184802055359e-02 -2.685091830790042877e-02 8.306720107793807983e-02 -4.099697992205619812e-02 1.809241250157356262e-02 -5.193994846194982529e-03 4.062546044588088989e-02 -1.436542440205812454e-02 3.858843445777893066e-02 -9.851019829511642456e-03 -1.872784271836280823e-02 3.160832449793815613e-02 -1.838871464133262634e-02 4.040527343750000000e-02 6.489179283380508423e-02 -3.465492511168122292e-03 -2.581816352903842926e-02 5.407030694186687469e-03 4.769350960850715637e-02 1.415141019970178604e-02 3.769609332084655762e-02 -1.840042322874069214e-02 -3.829713538289070129e-02 2.508954145014286041e-02 2.249072538688778877e-03 7.245802786201238632e-03 3.841309994459152222e-02 2.503154054284095764e-02 5.056504532694816589e-02 -4.050677642226219177e-02 -2.225918509066104889e-02 -5.252298340201377869e-02 2.499661594629287720e-02 3.370854631066322327e-02 1.770558999851346016e-03 -4.109142348170280457e-02 5.842594057321548462e-02 1.053197123110294342e-02 -3.497050702571868896e-02 -1.287598907947540283e-02 -6.631244439631700516e-03 2.069607190787792206e-02 1.046197768300771713e-02 -2.120392583310604095e-02 1.419025938957929611e-02 -2.678155526518821716e-02 -4.515495523810386658e-02 -1.086446427507326007e-04 2.414399571716785431e-02 3.988747298717498779e-02 6.520605087280273438e-02 6.618680432438850403e-03 6.787316501140594482e-02 4.732079431414604187e-02 -5.273516848683357239e-02 9.756507351994514465e-03 3.615038841962814331e-02 -5.223939195275306702e-02 1.054161321371793747e-02 -4.658523574471473694e-02 2.978934533894062042e-02 2.777020633220672607e-02 2.606183290481567383e-03 -1.978258788585662842e-02 5.063499137759208679e-02 1.457381993532180786e-02 -5.286194756627082825e-02 3.603852540254592896e-02 1.825354434549808502e-02 -9.555626660585403442e-03 1.627274788916110992e-02 1.387520320713520050e-02 2.589428424835205078e-02 4.837920516729354858e-02 -1.567415706813335419e-02 -1.114782784134149551e-02 5.378233268857002258e-02 1.327919121831655502e-02 -4.811984952539205551e-03 5.713128298521041870e-02 9.120177477598190308e-02 1.879078149795532227e-02 2.478657057508826256e-03 -4.662061482667922974e-02 -1.805954240262508392e-02 -3.196781873703002930e-02 -4.292342066764831543e-02 -9.328915923833847046e-02 -1.806409470736980438e-02 -2.345735020935535431e-02 4.700376838445663452e-02 2.436052449047565460e-02 -3.774547204375267029e-02 -3.584001585841178894e-02 2.266130875796079636e-03 2.470726706087589264e-02 5.026054382324218750e-02 1.903510279953479767e-02 2.946998178958892822e-02 4.758414998650550842e-02 -3.279130533337593079e-02 -2.288387343287467957e-02 4.158895462751388550e-02 -3.931844606995582581e-03 -4.568956419825553894e-02 2.527899108827114105e-02 -8.992881048470735550e-04 -5.425208434462547302e-02 -3.012764453887939453e-02 6.001753732562065125e-03 -6.919866055250167847e-02 -5.947111174464225769e-02 4.697074741125106812e-02 -8.212313055992126465e-02 4.187298566102981567e-02 3.959711641073226929e-02 -3.095112740993499756e-03 2.930844202637672424e-02 -6.757657974958419800e-02 -3.678501350805163383e-03 -6.210882682353258133e-03 3.704300895333290100e-02 -7.311975210905075073e-02 1.002631522715091705e-02 1.830357871949672699e-02 -2.875717170536518097e-02 -3.717895224690437317e-02 -1.614659652113914490e-02 -5.343515076674520969e-04 1.321958145126700401e-03 9.614807553589344025e-03 4.792594537138938904e-02 -2.714841812849044800e-02 -5.938301328569650650e-03 6.584168970584869385e-02 -2.296840585768222809e-02 2.999774925410747528e-02 -2.746444009244441986e-02 7.380757015198469162e-03 -2.223944664001464844e-02 -1.170796249061822891e-02 2.071216516196727753e-02 1.078021479770541191e-03 1.765812747180461884e-02 8.492801338434219360e-02 7.401765137910842896e-02 3.540171310305595398e-02 8.844244293868541718e-03 5.217507109045982361e-02 -5.873553920537233353e-03 7.060924917459487915e-02 1.775136031210422516e-02 -3.932947292923927307e-02 -2.667776867747306824e-02 -2.810934558510780334e-02 -1.779448124580085278e-03 -6.625257432460784912e-02 -8.125416189432144165e-02 4.063539206981658936e-02 -2.826371975243091583e-02 3.352380916476249695e-02 6.765583530068397522e-04 2.177742868661880493e-02 -3.534880653023719788e-02 -1.572722196578979492e-02 -2.561348956078290939e-03 -1.283058077096939087e-01 3.645416721701622009e-02 -3.731471719220280647e-03 1.708431728184223175e-02 -6.410005688667297363e-02 -1.820227317512035370e-02 -8.313401602208614349e-03 9.138740133494138718e-04 -1.740703731775283813e-02 4.207629710435867310e-02 1.531278993934392929e-02 -1.924061588943004608e-02 -2.451063878834247589e-02 -1.544456090778112411e-02 -2.777098491787910461e-02 -2.271438250318169594e-03 -2.234735060483217239e-03 1.991469599306583405e-02 -1.425987947732210159e-02 -3.669893834739923477e-03 -1.595976203680038452e-02 7.377562113106250763e-03 3.572494536638259888e-02 -5.082005634903907776e-02
-1.325615309178829193e-02 -5.592794343829154968e-02 3.445378318428993225e-02 1.122481971979141235e-01 -1.334632188081741333e-01 2.019934169948101044e-02 7.784103602170944214e-02 9.500706940889358521e-02 4.318267479538917542e-02 -7.506817579269409180e-02 1.066075637936592102e-01 -8.500918000936508179e-02 -1.331153810024261475e-01 4.187720268964767456e-02 -5.166575778275728226e-03 -1.106606125831604004e-01 -1.508794426918029785e-01 -5.213867127895355225e-02 7.454691082239151001e-02 2.741674333810806274e-02 8.463125675916671753e-02 3.511578589677810669e-02 -3.445163741707801819e-02 2.719535492360591888e-02 -6.121035292744636536e-02 -4.383423924446105957e-02 -1.346478331834077835e-02 -7.113271951675415039e-02 6.327279657125473022e-02 -1.168102100491523743e-01 1.048148423433303833e-02 2.051949687302112579e-02 3.206067904829978943e-02 -6.508698314428329468e-02 1.512880064547061920e-02 -4.244899004697799683e-02 7.432106137275695801e-02 2.411784604191780090e-02 2.409730665385723114e-02 -4.445909522473812103e-03 5.564841255545616150e-02 -4.118066281080245972e-02 5.878963321447372437e-02 -3.187135979533195496e-02 3.870480880141258240e-02 -2.966204471886157990e-02 -3.863897174596786499e-02 -1.183244585990905762e-01 1.929929107427597046e-02 -9.859857708215713501e-02 -1.041188277304172516e-02 -1.007156297564506531e-01 -4.491059482097625732e-02 3.383075445890426636e-02 -6.660975515842437744e-02 -4.279090464115142822e-02 -1.360204815864562988e-01 2.262138016521930695e-02 2.344407513737678528e-02 -7.157505489885807037e-03 3.892067819833755493e-02 -3.534442186355590820e-02 -1.452667172998189926e-03 -1.270345598459243774e-01 2.083585225045681000e-02 1.331649720668792725e-01 -2.722820825874805450e-02 9.194649010896682739e-02 3.687613084912300110e-02 2.964873239398002625e-02 2.123902365565299988e-02 -4.043526947498321533e-02 3.016621619462966919e-02 -1.806044951081275940e-02 -7.665746379643678665e-04 1.256831735372543335e-02 9.512890130281448364e-02 -7.558881305158138275e-03 -3.582792729139328003e-02 -1.040893048048019409e-01 1.104636001400649548e-03 1.175407469272613525e-01 7.754692435264587402e-02 7.437101751565933228e-02 1.838484779000282288e-02 9.914373978972434998e-03 -7.160579413175582886e-02 -1.867708750069141388e-02 -2.752058394253253937e-02 -6.901584565639495850e-02 1.092858263291418552e-03 4.525436833500862122e-02 1.824395544826984406e-02 -1.420670896768569946e-01 2.089418843388557434e-02 6.110474839806556702e-02 -1.352695375680923462e-01 1.252101268619298935e-02 7.061754912137985229e-02 -7.130064815282821655e-02 2.627979964017868042e-02 -1.490052938461303711e-01 1.340032741427421570e-02 1.390787214040756226e-01 3.986522555351257324e-02 5.126179754734039307e-02 4.445286933332681656e-03 4.868278652429580688e-02 4.022353887557983398e-02 -6.308867037296295166e-02 1.298741251230239868e-01 -9.746198356151580811e-02 4.476901888847351074e-02 7.536824047565460205e-02 9.167370200157165527e-02 1.143790315836668015e-02 9.732401371002197266e-02 -5.659586563706398010e-02 -3.758324682712554932e-02 3.567477688193321228e-02 -3.753104060888290405e-02 -7.347771525382995605e-02 -8.524506539106369019e-02 -6.739576812833547592e-03 -8.748200535774230957e-02 -7.461027242243289948e-03 7.816034555435180664e-02 -1.647979579865932465e-02 1.692906171083450317e-01 -1.827982626855373383e-02 6.245612725615501404e-02 -7.914648205041885376e-02 -3.872619941830635071e-02 1.028164941817522049e-02 1.675563678145408630e-02 -1.862798482179641724e-01 2.539597451686859131e-02 -1.833108626306056976e-02 -3.068329393863677979e-02 -1.249720454216003418e-01 3.081638552248477936e-02 8.838429301977157593e-02 5.500452592968940735e-02 1.671727932989597321e-02 4.315753281116485596e-02 3.165163844823837280e-02 1.042220965027809143e-01 -3.759191557765007019e-02 -7.552250474691390991e-02 1.118714269250631332e-02 -2.666461467742919922e-02 1.537152007222175598e-02 -6.390133500099182129e-02 1.357885152101516724e-01 -4.727402236312627792e-03 -4.600756615400314331e-02 3.599208220839500427e-02 -4.201672226190567017e-02 4.413371160626411438e-02 -2.112036757171154022e-02 1.405772119760513306e-01 1.816786639392375946e-02 -5.146329849958419800e-02 8.005132526159286499e-02 -1.131086517125368118e-02 4.398360848426818848e-02 -1.172102801501750946e-02 -4.406633228063583374e-02 -5.427789292298257351e-04 -9.417861700057983398e-02 -2.090221457183361053e-02 -9.655234217643737793e-02 6.050600484013557434e-02 1.391672808676958084e-02 1.051262170076370239e-01 1.727249287068843842e-02 1.435246039181947708e-02 2.230573073029518127e-02 -6.701368838548660278e-02 -1.034509167075157166e-01 9.465053677558898926e-02 5.772577971220016479e-02 7.950749248266220093e-02 -5.490299686789512634e-02 -1.711321175098419189e-01 -7.340799551457166672e-03 2.523326128721237183e-02 2.357877977192401886e-02 -1.038956940174102783e-01 2.863031625747680664e-02 2.895555272698402405e-02 -4.303500056266784668e-02 -5.178274586796760559e-02 -2.348692715167999268e-02 5.867059901356697083e-02 3.803183138370513916e-02 -2.060197107493877411e-02 1.871325541287660599e-03 -2.019668556749820709e-02 1.326864957809448242e-01 -7.618360966444015503e-02 1.263669580221176147e-01 7.598060369491577148e-02 -9.453728049993515015e-02 -1.109163928776979446e-02 -1.716694682836532593e-01 4.605678096413612366e-02 -6.117083132266998291e-02 -3.085112571716308594e-01 -6.791642867028713226e-03 3.921972960233688354e-02 -8.213328570127487183e-02 -4.558751732110977173e-02 1.507160719484090805e-02 -4.155559465289115906e-02 2.859129942953586578e-02 -5.222178250551223755e-02 7.930700480937957764e-02 8.255304396152496338e-02 1.095910221338272095e-01 -2.539518475532531738e-02 -6.353607028722763062e-02 -1.149648427963256836e-01 5.981966108083724976e-02 -2.287874370813369751e-02 1.561493426561355591e-02 -2.131641469895839691e-02 4.065668210387229919e-02 3.171382471919059753e-02 1.361023187637329102e-01 -3.608186542987823486e-02 -4.504553228616714478e-02 -9.511185437440872192e-02 3.767418488860130310e-02 -6.301791872829198837e-03 -6.106322631239891052e-03 -8.743971586227416992e-02 1.004335843026638031e-02 7.727771531790494919e-03 -3.746128454804420471e-02 3.907192125916481018e-02 -4.765754938125610352e-02 -3.868640959262847900e-02 9.605377167463302612e-02 -7.663426548242568970e-02 6.905053555965423584e-02 -8.854765444993972778e-02 -1.016697436571121216e-01 1.411294005811214447e-02 -5.801479145884513855e-02 1.320745050907135010e-01 7.401633262634277344e-02 -1.116153672337532043e-01 -4.254626482725143433e-02 1.053624227643013000e-02 5.051476135849952698e-02
-3.347130864858627319e-02 -2.557252719998359680e-02 -9.885327517986297607e-02 2.902852185070514679e-02 -1.283315289765596390e-02 2.894642949104309082e-02 6.247428245842456818e-03 -3.038274683058261871e-02 6.502370536327362061e-02 -1.261999160051345825e-01 6.148477271199226379e-02 -5.098836496472358704e-02 -1.216591745615005493e-01 3.013521805405616760e-02 1.371275819838047028e-02 -1.414576619863510132e-01 -6.730942428112030029e-02 5.259824451059103012e-03 -9.606930613517761230e-02 -5.841668322682380676e-02 -1.188104227185249329e-01 -7.349868863821029663e-02 5.982691049575805664e-02 -7.703080307692289352e-03 -3.876862674951553345e-02 -8.241167664527893066e-02 5.399105697870254517e-02 -1.063936352729797363e-01 6.231521442532539368e-02 -3.026378713548183441e-02 4.317750281188637018e-04 -5.991432815790176392e-02 9.050187468528747559e-02 1.136541459709405899e-02 -6.416378170251846313e-02 -3.507968783378601074e-02 1.141234636306762695e-01 -6.042147520929574966e-03 -2.170771807432174683e-01 3.347384976223111153e-03 3.562720865011215210e-02 -7.816810160875320435e-02 -4.278299957513809204e-02 -4.687013104557991028e-02 -9.712547063827514648e-02 -4.767472669482231140e-02 2.857314050197601318e-02 -1.183675527572631836e-01 -7.587827742099761963e-02 -9.427016600966453552e-03 6.865523010492324829e-02 2.197066694498062134e-02 -1.361009180545806885e-01 4.640871193259954453e-03 7.538316771388053894e-03 -5.950203537940979004e-02 -7.256420701742172241e-02 6.303964555263519287e-02 1.193128153681755066e-02 3.831497952342033386e-02 5.178262665867805481e-02 -1.905535906553268433e-01 -1.749842485878616571e-04 -7.802129536867141724e-02 5.371397361159324646e-02 -3.504619933664798737e-03 -5.510774441063404083e-03 2.925777807831764221e-02 -1.094839069992303848e-02 -4.159538075327873230e-02 1.339294202625751495e-02 -3.466550260782241821e-03 -1.503271460533142090e-01 6.052462384104728699e-02 5.298482999205589294e-02 -2.556805871427059174e-02 -6.551677733659744263e-02 -2.267003245651721954e-02 -5.994327738881111145e-02 4.750662948936223984e-03 -2.418587682768702507e-03 1.225291416049003601e-01 -7.679301500320434570e-02 -3.363383561372756958e-02 -1.081403065472841263e-02 9.085703641176223755e-02 -3.022103384137153625e-02 -8.542466163635253906e-02 7.255724817514419556e-02 -1.263787895441055298e-01 -5.774602293968200684e-02 8.614972233772277832e-02 -1.122717633843421936e-01 -2.720228023827075958e-02 1.674169860780239105e-02 -2.965779229998588562e-02 -1.414419244974851608e-02 5.313527770340442657e-03 -1.001564487814903259e-01 -1.965369731187820435e-01 6.810387223958969116e-02 -9.164521098136901855e-02 2.196683362126350403e-02 7.118186354637145996e-02 2.818821230903267860e-03 6.237480789422988892e-02 1.078394521027803421e-02 9.788851253688335419e-03 -2.080968953669071198e-02 -3.316414356231689453e-02 1.310251355171203613e-01 5.015294998884201050e-02 9.123674035072326660e-02 6.744307279586791992e-02 -4.527220129966735840e-02 2.347185648977756500e-02 -1.181931123137474060e-01 1.044263541698455811e-01 9.552595019340515137e-02 3.387792035937309265e-02 6.503797601908445358e-03 8.205664902925491333e-02 5.988443642854690552e-02 2.753905579447746277e-02 4.750708863139152527e-02 -5.892766639590263367e-02 1.555769331753253937e-02 9.483812004327774048e-02 8.475214242935180664e-03 -4.003514349460601807e-02 -2.061443030834197998e-02 3.638559952378273010e-02 1.088631805032491684e-02 -6.289448589086532593e-02 -1.158712133765220642e-01 -3.916668146848678589e-02 -3.347865864634513855e-02 -3.505441546440124512e-02 1.089191716164350510e-02 -1.529862582683563232e-01 -6.729572545737028122e-03 -3.492339700460433960e-02 6.202930957078933716e-02 -1.047161296010017395e-01 1.175415888428688049e-01 6.773801147937774658e-02 7.856285572052001953e-02 -3.789076581597328186e-02 -3.233117610216140747e-02 -2.870446257293224335e-02 3.256314620375633240e-02 -3.426755592226982117e-02 -4.482331685721874237e-03 3.602355718612670898e-02 2.687188237905502319e-02 6.372766196727752686e-02 3.447813540697097778e-02 4.245475307106971741e-02 -3.332747891545295715e-02 -9.807282686233520508e-02 -3.217203170061111450e-02 1.287254132330417633e-02 1.032390911132097244e-02 5.468832794576883316e-03 -2.795320190489292145e-02 -8.824611455202102661e-02 -4.694463219493627548e-03 -1.303371973335742950e-02 -2.461951971054077148e-02 -1.924118213355541229e-02 3.555713221430778503e-02 3.124815039336681366e-02 3.575162962079048157e-02 1.011605709791183472e-01 -4.579398781061172485e-02 -1.279572024941444397e-02 -3.898085094988346100e-03 -1.282514724880456924e-02 -6.071199476718902588e-02 -1.215958446264266968e-01 -2.657512389123439789e-02 3.377523645758628845e-02 -6.609505042433738708e-03 -4.200649261474609375e-02 -6.644405424594879150e-02 -5.049085617065429688e-02 -1.217287965118885040e-02 -1.141901090741157532e-01 -5.145416036248207092e-02 1.386362612247467041e-01 1.481005735695362091e-02 -6.515142507851123810e-03 -3.048607707023620605e-02 5.209925398230552673e-02 6.193472817540168762e-02 5.651905201375484467e-03 4.616031365003436804e-04 -4.951824434101581573e-03 1.300830859690904617e-03 -6.056895852088928223e-02 1.469278149306774139e-02 -5.259324610233306885e-02 2.214077487587928772e-02 -4.533350095152854919e-02 1.381357666105031967e-02 -4.039033874869346619e-02 -2.674559131264686584e-02 5.231327377259731293e-03 -7.412019371986389160e-02 -2.911396510899066925e-02 -6.783413141965866089e-02 6.044088304042816162e-02 1.408140268176794052e-02 -8.506835997104644775e-02 -4.162046313285827637e-02 2.598887495696544647e-02 -5.504909157752990723e-02 3.388822078704833984e-02 4.086023196578025818e-02 -1.095747277140617371e-01 -2.119542472064495087e-02 -1.226567178964614868e-01 -1.563225057907402515e-03 1.159572526812553406e-01 -7.370667159557342529e-02 -1.062094718217849731e-01 -1.220356151461601257e-01 -2.998698735609650612e-03 1.262321509420871735e-02 3.913777694106101990e-02 6.711862981319427490e-02 -2.703426033258438110e-02 -9.300143271684646606e-02 4.420824348926544189e-02 3.149831434711813927e-03 -6.641025841236114502e-02 -1.087356880307197571e-01 -9.225056320428848267e-02 1.898300647735595703e-02 7.529940456151962280e-02 -5.323011893779039383e-03 1.814886368811130524e-02 6.497876346111297607e-02 5.962292850017547607e-02 4.612823203206062317e-02 8.459901437163352966e-03 1.080862954258918762e-01 -1.818607002496719360e-02 -1.316208541393280029e-01 -1.818160712718963623e-01 6.801334023475646973e-02 9.256472811102867126e-03 -2.870293147861957550e-02 -1.438710931688547134e-02 9.076346457004547119e-02 -2.796027436852455139e-02
-1.824831962585449219e-02 1.653337627649307251e-01 9.613718837499618530e-02 -3.174717724323272705e-02 -4.684315621852874756e-02 -2.895829826593399048e-02 -1.222993526607751846e-02 -1.260287687182426453e-02 4.760656505823135376e-02 1.104862987995147705e-02 4.558531567454338074e-03 2.896683476865291595e-02 8.272637426853179932e-02 2.329947613179683685e-02 1.992771774530410767e-01 -2.281280420720577240e-02 7.652161270380020142e-02 -1.447813678532838821e-02 9.778697043657302856e-03 -2.952781505882740021e-03 1.049975864589214325e-02 5.294360220432281494e-02 7.005066145211458206e-03 1.234491094946861267e-01 -5.165431648492813110e-02 7.693096995353698730e-02 -6.802984327077865601e-02 -7.393480627797544003e-04 -1.212475970387458801e-01 3.411564603447914124e-02 8.233986794948577881e-02 3.196593746542930603e-02 2.040037885308265686e-02 -7.909883558750152588e-02 5.413046851754188538e-02 -5.669455975294113159e-03 -8.129205554723739624e-02 7.982521504163742065e-02 -2.575291506946086884e-02 9.964121505618095398e-03 4.021302610635757446e-02 -3.400302305817604065e-02 -1.026236340403556824e-01 4.665758833289146423e-02 -1.263641268014907837e-01 -9.283555299043655396e-02 6.405959278345108032e-02 5.344823002815246582e-02 -6.515301018953323364e-02 2.014116570353507996e-02 -8.240406215190887451e-02 -1.683742552995681763e-02 -2.452537603676319122e-02 -9.863273007795214653e-04 2.912806160748004913e-02 8.432045578956604004e-03 -4.443133622407913208e-02 -9.536427259445190430e-02 -4.149450361728668213e-02 -1.432224363088607788e-02 -1.355326026678085327e-01 9.178157895803451538e-03 -5.569795891642570496e-02 -1.086607426404953003e-01 9.097634255886077881e-02 6.892879307270050049e-02 -7.896712422370910645e-02 1.000584289431571960e-01 -1.350040584802627563e-01 1.025424450635910034e-01 -9.067229926586151123e-03 -1.385051384568214417e-02 7.310728728771209717e-02 -4.331982135772705078e-02 -1.493396610021591187e-01 1.900510117411613464e-02 5.975193902850151062e-02 -3.844417631626129150e-02 -9.823786467313766479e-02 4.038823768496513367e-02 8.401085436344146729e-02 -3.445930778980255127e-02 9.878351539373397827e-02 3.651430830359458923e-02 -1.504464820027351379e-02 -2.310199476778507233e-02 1.539483200758695602e-02 5.318445712327957153e-02 -1.669120639562606812e-01 1.323653012514114380e-01 1.113904044032096863e-01 -1.334731560200452805e-02 6.857860833406448364e-02 -1.907867565751075745e-02 -4.883687570691108704e-02 -2.575310692191123962e-02 9.921137243509292603e-02 1.225763484835624695e-01 9.580761939287185669e-02 -9.037707000970840454e-02 3.155776113271713257e-02 8.341746032238006592e-02 5.919427424669265747e-02 -6.410600990056991577e-02 -1.429384481161832809e-02 2.334320545196533203e-02 -5.291347578167915344e-02 3.719887882471084595e-02 -9.940825402736663818e-02 -5.129299685359001160e-02 2.745778858661651611e-02 2.332483790814876556e-02 -8.061413466930389404e-02 2.022786624729633331e-02 8.395058661699295044e-02 -5.808669701218605042e-02 9.264803677797317505e-02 -1.351765841245651245e-01 5.022852495312690735e-02 -1.296431422233581543e-01 6.917718332260847092e-03 7.622410077601671219e-03 5.904198065400123596e-02 8.456905931234359741e-02 -6.668712198734283447e-02 -1.437903475016355515e-02 -9.262364357709884644e-02 1.910311914980411530e-02 -1.734718680381774902e-02 -8.986351639032363892e-02 7.278406992554664612e-03 2.629423514008522034e-02 5.600049044005572796e-04 -5.046909675002098083e-02 5.730539932847023010e-02 -2.010434865951538086e-03 -4.502738639712333679e-02 -9.150253236293792725e-02 2.729524113237857819e-02 -3.603013604879379272e-02 4.108360782265663147e-02 4.106481093913316727e-03 -9.556939452886581421e-02 4.824476689100265503e-02 -1.589334309101104736e-01 2.728294581174850464e-02 -1.606566272675991058e-02 1.250013709068298340e-01 -4.083816334605216980e-02 -1.973021961748600006e-02 5.324773490428924561e-02 1.063266992568969727e-01 -3.734460100531578064e-02 -6.340602040290832520e-02 -2.267125807702541351e-02 8.128188550472259521e-02 5.643128533847630024e-04 -2.130962535738945007e-02 4.421640187501907349e-02 -2.974510006606578827e-02 -5.153667926788330078e-02 -1.198288984596729279e-02 -4.800140112638473511e-02 -1.982356607913970947e-02 5.614111572504043579e-02 -6.635051220655441284e-02 -4.635469615459442139e-02 -4.754149541258811951e-02 8.711838722229003906e-02 1.245398633182048798e-02 -7.534884661436080933e-02 -2.296744287014007568e-02 -1.091699451208114624e-01 -1.191240102052688599e-01 -5.096954479813575745e-02 8.143769204616546631e-02 -1.268937885761260986e-01 9.352739900350570679e-02 -5.296328291296958923e-02 1.465392559766769409e-01 -8.858225494623184204e-02 -3.477313322946429253e-03 3.716905368492007256e-03 -1.191050186753273010e-01 -4.214937239885330200e-02 5.299713835120201111e-02 -1.061692014336585999e-01 1.200690567493438721e-01 -4.451954364776611328e-02 -4.375841468572616577e-03 -1.706832647323608398e-02 1.482559740543365479e-02 1.838740892708301544e-02 -1.217334643006324768e-01 5.607909988611936569e-04 4.112012684345245361e-02 -1.656155474483966827e-02 -9.091801941394805908e-02 6.381570547819137573e-02 5.298624932765960693e-02 -3.869193792343139648e-02 4.408466070890426636e-02 3.658576309680938721e-02 -1.411000173538923264e-02 -6.829912960529327393e-02 2.470313571393489838e-02 -6.282227486371994019e-02 1.699914783239364624e-02 7.303092163056135178e-03 7.687582634389400482e-03 -2.213869616389274597e-02 -1.094511076807975769e-01 -3.289685025811195374e-02 5.769123882055282593e-02 -3.105123713612556458e-02 9.366478025913238525e-02 -9.733558632433414459e-03 2.287669666111469269e-02 6.911811232566833496e-02 7.334931194782257080e-02 -4.943413659930229187e-02 1.484884135425090790e-02 -2.663871832191944122e-02 -2.706889621913433075e-02 -2.242975868284702301e-02 3.741201013326644897e-02 -5.167477298527956009e-03 -1.651106029748916626e-02 -3.931548446416854858e-03 -1.511582825332880020e-02 -5.213719978928565979e-02 7.329467684030532837e-02 9.237512201070785522e-02 1.958949677646160126e-02 -5.938757583498954773e-02 -3.178719058632850647e-02 -3.731523454189300537e-02 1.684886589646339417e-02 -1.965777575969696045e-02 5.642038304358720779e-03 -1.364290155470371246e-02 -1.005737669765949249e-02 -2.910577505826950073e-02 4.176704213023185730e-03 5.079770088195800781e-02 -1.706791967153549194e-01 -2.177014015614986420e-02 5.546055361628532410e-02 1.330988109111785889e-01 8.748720586299896240e-02 -3.656124323606491089e-02 -5.959032103419303894e-02 -3.402067348361015320e-02 -3.218159079551696777e-02 4.421679675579071045e-02 2.739255502820014954e-02
3.062156401574611664e-02 9.354255162179470062e-03 9.169057011604309082e-02 1.528255641460418701e-02 -4.494449589401483536e-03 -4.056902229785919189e-02 -1.843868754804134369e-02 -8.628556132316589355e-02 -7.543683052062988281e-02 -1.176648885011672974e-01 2.380854217335581779e-03 9.477169811725616455e-02 1.335827112197875977e-01 8.957559242844581604e-03 -2.912454865872859955e-02 -2.283418327569961548e-01 3.673342987895011902e-02 -3.032510355114936829e-02 1.091486737132072449e-01 -1.467404514551162720e-02 -3.650076687335968018e-02 4.739520326256752014e-02 -5.588009580969810486e-02 2.696452476084232330e-02 2.841004729270935059e-02 -9.886018931865692139e-02 1.848224923014640808e-02 -2.935005165636539459e-02 2.164287678897380829e-02 8.357531577348709106e-02 -1.252028793096542358e-01 3.612631931900978088e-02 -1.519946847110986710e-02 3.035398665815591812e-03 -6.323480606079101562e-02 -1.238623913377523422e-02 -7.019402086734771729e-02 5.932485684752464294e-02 6.985737383365631104e-02 2.855407306924462318e-03 -2.815379574894905090e-02 5.670125829055905342e-04 -4.022961482405662537e-02 4.888937994837760925e-02 5.968624725937843323e-02 5.277041345834732056e-02 -9.211041033267974854e-02 -1.302842632867395878e-03 -6.008875370025634766e-02 7.311833649873733521e-02 7.356334477663040161e-03 -2.930961176753044128e-02 5.463200062513351440e-02 2.653780020773410797e-02 -5.428892374038696289e-02 2.942448668181896210e-02 -9.960898756980895996e-02 4.498153179883956909e-02 -2.707812190055847168e-02 -7.371485233306884766e-02 2.535197697579860687e-02 1.023728847503662109e-01 -2.340301871299743652e-02 3.003861522302031517e-03 4.295655526220798492e-03 3.497310727834701538e-02 8.848256617784500122e-02 -8.663085103034973145e-02 2.611889317631721497e-02 -2.369714668020606041e-03 3.366318345069885254e-02 -1.065339520573616028e-01 1.328782364726066589e-02 7.151655387133359909e-03 3.826701268553733826e-02 7.607546448707580566e-02 5.222012847661972046e-02 -5.811667442321777344e-02 -9.168970584869384766e-02 -2.094940654933452606e-02 -3.281874116510152817e-03 5.547092109918594360e-02 -7.436627149581909180e-02 -7.841244339942932129e-03 -3.741781413555145264e-02 3.153436258435249329e-02 -4.296790063381195068e-02 -1.876696012914180756e-02 9.017317742109298706e-02 5.048468708992004395e-02 5.822730436921119690e-02 2.728232555091381073e-02 -1.487865671515464783e-02 5.209403112530708313e-02 6.486804783344268799e-02 -4.600453749299049377e-02 1.361282616853713989e-01 8.486454188823699951e-02 -1.078844964504241943e-01 -5.492510199546813965e-01 -2.144401222467422485e-01 -5.687932670116424561e-02 7.893195003271102905e-02 3.919951617717742920e-02 1.725293695926666260e-02 -1.656874455511569977e-02 -1.244443133473396301e-01 3.148256242275238037e-02 -1.586710959672927856e-01 -2.343730628490447998e-02 5.314376577734947205e-02 5.712854862213134766e-02 -5.195404589176177979e-02 2.083608694374561310e-02 -6.956594064831733704e-03 3.394115343689918518e-02 1.117060746764764190e-04 1.123361848294734955e-02 3.803328052163124084e-02 1.159621030092239380e-01 -2.741075493395328522e-02 -2.460325323045253754e-02 2.412372082471847534e-02 2.015730738639831543e-02 4.540644958615303040e-02 -2.955500595271587372e-02 9.293303638696670532e-02 1.080417409539222717e-01 -4.519224632531404495e-03 -2.238108217716217041e-02 -3.858959302306175232e-02 6.510862708091735840e-02 4.785573109984397888e-02 4.091916605830192566e-02 -3.105609305202960968e-02 2.815599739551544189e-02 5.829100310802459717e-02 2.545194141566753387e-02 2.016721665859222412e-02 3.164674341678619385e-02 -4.578426480293273926e-02 -6.827742792665958405e-03 1.830617897212505341e-02 -2.156397327780723572e-03 -2.360887452960014343e-02 -1.621427573263645172e-02 3.227187320590019226e-02 6.809848546981811523e-02 -5.615442246198654175e-02 -1.173632312566041946e-02 -6.666903942823410034e-02 5.411279574036598206e-02 -4.934935271739959717e-02 1.847963035106658936e-02 5.013650283217430115e-03 2.464796975255012512e-02 1.573283784091472626e-02 -1.641961373388767242e-02 -3.893944993615150452e-02 -3.643029555678367615e-02 3.365739807486534119e-02 -6.783486902713775635e-02 -5.618552863597869873e-02 5.037881806492805481e-02 1.694500818848609924e-02 3.174471110105514526e-02 -2.163992077112197876e-02 2.212791005149483681e-03 2.163171954452991486e-02 -9.767203778028488159e-02 -4.579732939600944519e-02 -4.729579389095306396e-02 -4.208888858556747437e-02 -1.126902364194393158e-02 -8.348727598786354065e-03 1.798771508038043976e-02 4.486998543143272400e-02 -4.293266683816909790e-02 2.765452302992343903e-02 1.676942110061645508e-01 9.646602720022201538e-02 -5.238728970289230347e-02 -2.319053746759891510e-02 2.830293215811252594e-02 -4.808294400572776794e-02 4.466675221920013428e-02 -4.147996008396148682e-02 -2.474541589617729187e-02 3.838451951742172241e-02 2.933572418987751007e-02 -1.162660419940948486e-01 5.329927662387490273e-04 -3.218130394816398621e-02 -2.012441866099834442e-02 6.259379535913467407e-02 -1.167045980691909790e-01 2.979957126080989838e-02 7.506254315376281738e-02 -7.589673250913619995e-02 1.000333763659000397e-02 -9.384103119373321533e-02 -1.284898165613412857e-02 4.308096319437026978e-02 9.492470324039459229e-02 5.559605546295642853e-03 -1.797601766884326935e-02 -1.109242439270019531e-02 -2.443495020270347595e-02 4.582794383168220520e-02 3.184827417135238647e-02 9.841293096542358398e-02 -4.012317582964897156e-02 -1.185035333037376404e-02 5.071526975370943546e-04 -7.282671984285116196e-03 6.447734683752059937e-02 -2.896882221102714539e-02 -7.571323961019515991e-02 -7.142260670661926270e-02 5.966733209788799286e-03 3.875524178147315979e-02 2.885929774492979050e-03 -7.297823578119277954e-02 1.095064450055360794e-03 8.622189983725547791e-03 3.478778898715972900e-02 -4.550972953438758850e-02 1.534284278750419617e-02 -1.573830991983413696e-01 -5.032161250710487366e-02 5.468429531902074814e-03 3.910116851329803467e-02 -2.157404669560492039e-04 4.205259680747985840e-02 -5.131815373897552490e-02 -5.281526222825050354e-02 -2.695900499820709229e-01 -5.693974345922470093e-02 -4.159663617610931396e-02 -3.288011532276868820e-03 -1.072050929069519043e-01 -1.951221078634262085e-01 -5.429499968886375427e-02 -4.548211023211479187e-02 7.091549783945083618e-02 3.542191162705421448e-02 6.415995955467224121e-02 -8.737379312515258789e-02 1.529005765914916992e-01 1.786076836287975311e-02 5.930912122130393982e-02 6.737015210092067719e-03 6.819053739309310913e-02 -7.095268368721008301e-02 5.348080769181251526e-02 2.779835835099220276e-02
-3.231363743543624878e-02 5.004436895251274109e-02 7.777059823274612427e-02 -2.212627604603767395e-02 1.435551978647708893e-02 5.246279016137123108e-02 3.444242849946022034e-02 -6.585936248302459717e-02 -3.122353181242942810e-02 -2.848319709300994873e-02 4.596026241779327393e-02 3.453944995999336243e-02 -1.616878956556320190e-01 3.650607541203498840e-02 -2.461430989205837250e-02 -2.241758629679679871e-03 1.517556607723236084e-02 -3.038168139755725861e-02 -8.093519136309623718e-03 -7.821013778448104858e-02 1.289738863706588745e-01 -2.108855731785297394e-02 1.747314259409904480e-02 -4.930649697780609131e-02 -1.199385449290275574e-01 -3.301376011222600937e-03 -6.803894788026809692e-02 1.794277131557464600e-02 -1.548094209283590317e-02 6.078674644231796265e-02 -4.341544583439826965e-02 -1.251251529902219772e-02 -5.211954191327095032e-02 -4.490626975893974304e-02 6.733714789152145386e-02 -3.114479966461658478e-02 5.665023252367973328e-02 5.529341846704483032e-02 5.700364126823842525e-04 6.498356163501739502e-02 5.489318282343447208e-04 2.203304879367351532e-02 2.724845893681049347e-02 -6.421987712383270264e-02 9.006939083337783813e-02 -3.651275485754013062e-02 3.458633646368980408e-02 8.934615552425384521e-02 9.417289495468139648e-02 -2.342943288385868073e-02 4.317736253142356873e-02 -3.465639799833297729e-02 1.593674533069133759e-02 5.912006273865699768e-02 3.582757338881492615e-02 -4.121407866477966309e-02 4.640291631221771240e-02 6.035758554935455322e-02 3.352108225226402283e-02 1.191957443952560425e-01 5.588735267519950867e-02 9.335243701934814453e-02 -2.054764181375503540e-01 5.525930784642696381e-03 -7.061321754008531570e-03 -1.261015888303518295e-02 -2.205524221062660217e-02 5.705662071704864502e-03 7.497535087168216705e-03 -1.313015725463628769e-02 9.860647469758987427e-02 9.374241530895233154e-02 3.283710405230522156e-02 -3.946483507752418518e-02 -3.150745853781700134e-02 7.057579606771469116e-02 -5.155598744750022888e-02 -2.515983302146196365e-03 1.217372417449951172e-01 -3.401096910238265991e-02 -3.228138014674186707e-02 9.539438784122467041e-02 4.946653172373771667e-02 -4.108892008662223816e-02 3.293563798069953918e-02 -7.266963948495686054e-04 -2.647232078015804291e-02 -2.920191548764705658e-02 3.099722228944301605e-02 1.215114891529083252e-01 5.465168133378028870e-02 -4.963991791009902954e-02 9.657534211874008179e-02 -3.658314794301986694e-02 -1.113161997636780143e-04 -5.127101391553878784e-02 1.756428927183151245e-02 9.804493933916091919e-02 8.905979245901107788e-02 -2.905537560582160950e-02 5.622668191790580750e-02 -1.051887348294258118e-01 -5.405218154191970825e-02 -2.700158208608627319e-02 -8.809926360845565796e-02 -4.148716479539871216e-02 3.169556846842169762e-03 -1.466758269816637039e-02 -5.200320854783058167e-02 7.254289090633392334e-02 -5.505293142050504684e-03 -4.288113117218017578e-02 -1.798075437545776367e-01 6.639155000448226929e-02 4.466208443045616150e-02 2.317348495125770569e-02 8.989465422928333282e-03 -6.295297294855117798e-03 -1.090591475367546082e-01 2.711059292778372765e-03 -1.205094605684280396e-01 3.842599689960479736e-02 -2.407343499362468719e-02 -4.770690947771072388e-02 1.182106807827949524e-01 8.133262163028120995e-04 -1.444699894636869431e-02 1.370084658265113831e-02 -3.148617222905158997e-02 4.614219814538955688e-02 6.982032209634780884e-02 2.033882960677146912e-02 3.625236079096794128e-02 -6.116409227252006531e-02 4.753065854310989380e-02 -7.850656658411026001e-02 6.547225266695022583e-02 5.610934272408485413e-02 7.549084722995758057e-02 -7.281020749360322952e-03 2.845445461571216583e-02 -3.360197320580482483e-02 -1.610916256904602051e-01 -8.239500224590301514e-02 5.012629926204681396e-02 2.100901305675506592e-02 7.982301712036132812e-02 4.209475591778755188e-03 2.367618493735790253e-02 4.067326337099075317e-02 -8.162106573581695557e-02 1.092451438307762146e-01 -5.842583253979682922e-02 -9.438457898795604706e-03 -5.764482542872428894e-02 4.817533120512962341e-02 1.440313458442687988e-01 -6.502602249383926392e-02 -1.361018233001232147e-02 5.923420563340187073e-02 5.400202050805091858e-02 3.733860328793525696e-02 -5.251384340226650238e-03 4.024576395750045776e-02 1.934706233441829681e-02 1.013204678893089294e-01 -3.654729342088103294e-03 1.663714274764060974e-02 -1.493135560303926468e-02 -2.879849076271057129e-02 5.061037465929985046e-02 -2.320636622607707977e-02 1.318057179450988770e-01 4.216040670871734619e-02 1.163201988674700260e-03 -8.592899143695831299e-02 1.253205388784408569e-01 -9.078258648514747620e-03 -3.421786800026893616e-02 -1.175995022058486938e-01 -8.035454899072647095e-02 -5.033586919307708740e-02 4.666176624596118927e-03 -4.222546145319938660e-02 9.198971092700958252e-02 -6.557994335889816284e-02 5.389521643519401550e-02 -1.276447065174579620e-02 7.772111147642135620e-02 6.931909359991550446e-03 -7.396484911441802979e-02 -7.741969078779220581e-03 -1.177661716938018799e-01 -5.476674530655145645e-03 -8.640203624963760376e-02 -8.342190645635128021e-03 -8.086049556732177734e-02 -5.727071687579154968e-02 -2.699136920273303986e-02 2.886039204895496368e-02 -1.105738151818513870e-02 8.424063026905059814e-02 1.124823465943336487e-01 4.823859315365552902e-03 -6.102967634797096252e-02 -3.686396777629852295e-02 -9.432504326105117798e-02 -8.048059046268463135e-02 -1.682105287909507751e-02 -1.508425548672676086e-02 1.155914887785911560e-01 -4.286337643861770630e-03 -5.908770114183425903e-02 -1.198949813842773438e-01 -1.809810660779476166e-02 1.661137491464614868e-02 -2.069850824773311615e-02 -8.489753305912017822e-02 4.669464007019996643e-02 7.908646017313003540e-02 1.435558218508958817e-02 2.412148378789424896e-02 -1.197654306888580322e-01 1.951380632817745209e-02 1.050073560327291489e-02 -3.346441686153411865e-02 -6.003785133361816406e-02 2.711716853082180023e-02 -1.637832820415496826e-02 -6.282825022935867310e-02 1.276416238397359848e-02 1.206973101943731308e-03 5.408922210335731506e-02 8.649102598428726196e-02 -3.080284968018531799e-02 -3.385989461094141006e-03 -2.347370423376560211e-02 4.838499426841735840e-02 1.174777839332818985e-02 8.996740914881229401e-03 -7.554077357053756714e-02 -1.804283075034618378e-02 9.125586599111557007e-03 7.204057276248931885e-02 -6.249729916453361511e-02 1.262300908565521240e-01 -1.308594793081283569e-01 3.910099342465400696e-02 -5.070317164063453674e-02 -6.821869313716888428e-02 -7.545377593487501144e-03 7.935959845781326294e-02 7.239635288715362549e-02 -9.505316615104675293e-02 -5.045289173722267151e-02 7.225211709737777710e-02
