5.290592089295387268e-03 -2.448352286592125893e-03 1.591865718364715576e-02 -7.986404001712799072e-03 -2.959324046969413757e-02 3.398450464010238647e-02 -3.493385016918182373e-02 1.525784190744161606e-02 -1.816700212657451630e-02 -2.448651008307933807e-03 -5.504251271486282349e-02 -5.897209420800209045e-02 6.940333545207977295e-02 3.489709272980690002e-02 5.846618209034204483e-03 1.267663761973381042e-02 -4.283418133854866028e-02 -9.517312049865722656e-02 -3.348745778203010559e-02 3.589796135202050209e-03 3.727421164512634277e-02 7.506173104047775269e-03 1.186093501746654510e-02 7.694524712860584259e-03 -1.541602052748203278e-02 -4.210525949019938707e-04 8.620060980319976807e-03 2.883291989564895630e-02 1.535216998308897018e-02 -2.191061154007911682e-02 -3.220213204622268677e-02 1.818140968680381775e-02 2.844571880996227264e-02 -2.745640464127063751e-02 -1.081041409634053707e-03 2.510587498545646667e-02 5.306021124124526978e-02 -7.529278751462697983e-03 -4.751040600240230560e-03 5.181173328310251236e-03 -4.382700100541114807e-02 -2.116440050303936005e-02 -7.396674714982509613e-03 -5.348036997020244598e-03 4.455724265426397324e-03 1.080963201820850372e-02 -2.045092731714248657e-02 2.030492573976516724e-02 3.791065514087677002e-02 -4.960978869348764420e-03 -4.401436541229486465e-03 -3.189989365637302399e-03 3.397819772362709045e-02 -2.652810886502265930e-02 -2.866516076028347015e-02 2.990427240729331970e-02 -9.072005050256848335e-04 -9.717172011733055115e-03 1.940436474978923798e-02 3.702902048826217651e-02 2.214873023331165314e-02 1.790805836208164692e-03 -2.514298819005489349e-02 -8.316199295222759247e-03 -1.483651157468557358e-02 -2.040233835577964783e-02 -9.953848086297512054e-03 -3.553264774382114410e-03 -5.774154514074325562e-02 1.040827715769410133e-03 -5.164650268852710724e-03 -1.004656124860048294e-02 -2.856361679732799530e-02 4.435578826814889908e-03 2.955663483589887619e-03 -5.391456070356070995e-04 1.085165981203317642e-02 2.356655523180961609e-02 1.295236288569867611e-03 -2.550551481544971466e-02 1.582393050193786621e-02 2.585954219102859497e-02 4.224215168505907059e-03 -4.647103603929281235e-03 2.894616127014160156e-02 1.144995403592474759e-04 4.087367269676178694e-04 2.145808748900890350e-02 -1.290285959839820862e-02 6.094554439187049866e-03 -5.882012471556663513e-02 -4.174816235899925232e-02 -1.117894146591424942e-02 1.730659790337085724e-02 1.124560236930847168e-01 2.603336703032255173e-03 3.931969404220581055e-02 3.128411248326301575e-02 6.468357751145958900e-04 -5.354165565222501755e-03 -1.453204825520515442e-02 3.729950264096260071e-02 -2.107544802129268646e-03 5.671088118106126785e-03 -2.108603715896606445e-02 1.169555238448083401e-03 -2.892789989709854126e-02 1.473729964345693588e-02 -4.398574680089950562e-02 7.081655319780111313e-03 -4.368042573332786560e-02 -6.157590541988611221e-03 8.221229072660207748e-04 3.464048355817794800e-02 3.313193330541253090e-03 -8.797178976237773895e-03 3.917905967682600021e-03 -6.190526764839887619e-04 -2.535882871598005295e-03 -9.780962951481342316e-03 -7.598167750984430313e-03 4.196357447654008865e-03 7.154428167268633842e-04 -1.297149225138127804e-03 -5.940852314233779907e-02 1.680354401469230652e-02 -4.477946832776069641e-02 4.283976182341575623e-02
-3.193247690796852112e-02 9.870979934930801392e-03 -3.757426748052239418e-03 -8.387031964957714081e-03 3.341506049036979675e-02 2.809639833867549896e-02 -3.783451020717620850e-02 -2.403400093317031860e-02 6.835969164967536926e-03 -2.429325133562088013e-03 6.531795114278793335e-02 -1.215928141027688980e-02 5.753298755735158920e-03 9.578538127243518829e-03 -5.019066389650106430e-03 7.280756719410419464e-03 1.777938799932599068e-03 5.450600385665893555e-02 -7.511998526751995087e-03 2.027336740866303444e-03 -2.594177797436714172e-02 3.498271107673645020e-02 -2.572615817189216614e-02 4.206229373812675476e-02 3.135375306010246277e-02 9.445384144783020020e-03 1.210021786391735077e-02 -6.164904683828353882e-03 -2.896489575505256653e-03 1.570593006908893585e-02 2.402495406568050385e-02 -4.405866190791130066e-02 2.143414132297039032e-02 -1.404246501624584198e-02 -2.814735285937786102e-03 2.610759809613227844e-02 -3.165278350934386253e-03 1.294948160648345947e-03 -8.088302565738558769e-04 -7.608620449900627136e-03 -5.854794755578041077e-03 2.278298139572143555e-02 -1.461557950824499130e-02 1.080800965428352356e-02 4.900268465280532837e-02 -1.163834612816572189e-02 3.900115916621871293e-05 -4.954075068235397339e-02 -6.506387726403772831e-04 -5.110442638397216797e-03 1.002762187272310257e-02 -6.342954467982053757e-03 -4.093837924301624298e-03 -3.056186065077781677e-02 4.080515354871749878e-03 2.319523878395557404e-02 2.706287661567330360e-03 -1.629349589347839355e-02 1.542979199439287186e-02 8.078059181571006775e-03 4.679099470376968384e-02 2.444598590955138206e-03 4.346152767539024353e-03 1.468313578516244888e-02 2.468119189143180847e-02 2.740121260285377502e-02 2.774246968328952789e-02 1.626475481316447258e-03 3.710195794701576233e-02 -6.785776000469923019e-03 3.927137702703475952e-03 -1.078440770506858826e-01 3.505394980311393738e-02 -4.252058267593383789e-02 5.137503147125244141e-03 -1.060173101723194122e-02 -1.219614408910274506e-02 -4.108957946300506592e-02 -4.602910019457340240e-03 4.008883982896804810e-02 -2.404105663299560547e-02 -3.665331006050109863e-02 3.438566811382770538e-03 -8.903359621763229370e-02 -5.780570581555366516e-02 2.014048025012016296e-02 3.212893381714820862e-02 1.791903562843799591e-02 -1.838028198108077049e-03 -1.543015986680984497e-02 4.951103776693344116e-02 -4.398383200168609619e-02 2.603497356176376343e-03 -6.108687445521354675e-02 -1.605438999831676483e-03 -1.638044603168964386e-03 1.580283045768737793e-02 2.820091135799884796e-02 2.216742839664220810e-03 -9.984460193663835526e-04 -9.176451712846755981e-03 9.304977208375930786e-02 3.849747125059366226e-03 2.290252223610877991e-02 1.743711158633232117e-02 9.896272793412208557e-03 2.002572454512119293e-02 2.080890908837318420e-02 -4.932107031345367432e-02 -8.071609772741794586e-03 -3.405535221099853516e-02 -2.342970983590930700e-04 1.215388998389244080e-03 -3.673721849918365479e-02 3.387544536963105202e-03 1.733219437301158905e-02 -3.803553292527794838e-03 -1.365022920072078705e-02 4.958011209964752197e-02 -3.496098518371582031e-02 -4.331569001078605652e-02 7.307715713977813721e-04 -2.215956896543502808e-02 -4.839741624891757965e-03 -5.353685840964317322e-02 1.887083053588867188e-02 -1.419842522591352463e-02 -2.572904340922832489e-03
8.080976083874702454e-03 -1.248211562633514404e-01 7.872913964092731476e-03 8.624846115708351135e-03 2.786992304027080536e-02 3.678681328892707825e-02 1.717521809041500092e-02 -4.892538115382194519e-02 -5.630361288785934448e-02 -1.569103333167731762e-03 1.778083969838917255e-03 -3.469382971525192261e-02 -2.199612092226743698e-03 -1.329457461833953857e-01 2.865992300212383270e-02 -6.843517068773508072e-03 -1.101284194737672806e-02 -9.370175190269947052e-03 -2.575797028839588165e-02 3.702217945829033852e-03 1.392599940299987793e-02 -6.266101263463497162e-03 9.424975514411926270e-02 -6.889534997753798962e-04 2.949352143332362175e-03 2.788819000124931335e-02 -2.552431635558605194e-02 4.793896339833736420e-03 -3.528339089825749397e-03 6.988200359046459198e-03 1.093907002359628677e-02 -1.095250435173511505e-02 5.338575690984725952e-02 3.578431531786918640e-02 2.129195956513285637e-03 5.562071502208709717e-02 -5.390796065330505371e-02 7.368948718067258596e-05 4.418081138283014297e-03 2.650128910318017006e-03 -1.073677539825439453e-01 -5.116390809416770935e-02 -1.477041561156511307e-02 -2.468226477503776550e-02 -1.108362991362810135e-02 -4.920382052659988403e-02 2.812096290290355682e-02 6.858199369162321091e-03 -4.480281379073858261e-03 -2.260255627334117889e-03 -1.257760263979434967e-02 5.135095119476318359e-02 5.894062574952840805e-03 8.276918902993202209e-03 1.129336538724601269e-03 2.833576872944831848e-02 -8.699879981577396393e-04 6.995584070682525635e-02 -1.051897183060646057e-02 3.885758668184280396e-02 -1.433156337589025497e-02 7.432927377521991730e-03 -1.613858854398131371e-03 -2.255636500194668770e-03 -3.332502674311399460e-03 8.862821385264396667e-03 -7.067657075822353363e-03 5.679392721503973007e-03 -5.320027936249971390e-03 -8.958378806710243225e-03 2.222645469009876251e-02 -1.848142780363559723e-02 4.826687276363372803e-02 1.677832938730716705e-02 7.055672904243692756e-05 5.368733033537864685e-02 8.483056910336017609e-03 1.164910569787025452e-01 3.366124117746949196e-03 6.013111025094985962e-02 1.919890567660331726e-02 9.668225538916885853e-04 4.279352258890867233e-03 2.326131565496325493e-03 -2.095216512680053711e-02 9.273622930049896240e-02 6.164240650832653046e-03 3.772818949073553085e-03 -9.835211560130119324e-03 -2.541663870215415955e-02 4.880620911717414856e-02 3.687437251210212708e-02 6.369330920279026031e-03 3.180418908596038818e-02 1.848964951932430267e-02 3.802093677222728729e-03 4.896602034568786621e-02 2.857248112559318542e-02 -4.232299688737839460e-04 5.008748266845941544e-04 -1.260692719370126724e-02 2.412170358002185822e-02 -3.784173168241977692e-04 2.856599725782871246e-02 -3.282860666513442993e-02 2.758944407105445862e-02 3.360483795404434204e-02 9.428703226149082184e-03 -2.017053402960300446e-02 -1.281116250902414322e-02 -1.376535650342702866e-02 -4.137843847274780273e-03 2.520275069400668144e-03 8.660637773573398590e-03 3.759308950975537300e-03 -2.504867129027843475e-02 3.531324909999966621e-03 -7.926800288259983063e-03 -1.400605142116546631e-01 -5.131832137703895569e-02 -2.041553612798452377e-03 1.652562408708035946e-03 1.443356554955244064e-02 3.065249184146523476e-03 -2.568298764526844025e-02 -1.769294962286949158e-02 4.017753154039382935e-02 -1.120476704090833664e-02
-3.852311754599213600e-03 -2.775574848055839539e-02 -2.498674951493740082e-02 -2.746128244325518608e-03 -2.133372938260436058e-03 -3.486041352152824402e-02 1.737995631992816925e-02 -2.580654434859752655e-02 -2.783509716391563416e-02 4.021526314318180084e-03 2.491679601371288300e-02 3.034648299217224121e-02 -1.048286911100149155e-03 -3.201025724411010742e-02 -2.805993519723415375e-02 2.090054564177989960e-02 4.294152185320854187e-02 -2.619431540369987488e-02 1.514874398708343506e-02 5.508429836481809616e-03 -2.079276181757450104e-02 -1.422694791108369827e-02 1.737267011776566505e-03 2.939300145953893661e-03 -1.572820730507373810e-02 -7.961236871778964996e-03 3.100261092185974121e-03 5.416223034262657166e-02 1.192141603678464890e-02 1.596709340810775757e-02 2.959696762263774872e-02 1.325536333024501801e-02 -3.954826295375823975e-02 -1.498711644671857357e-03 -3.331549465656280518e-03 1.494675595313310623e-02 -5.576204136013984680e-02 1.819810015149414539e-03 1.983791589736938477e-03 -6.763861514627933502e-03 2.873479016125202179e-02 -1.712086237967014313e-02 9.008409455418586731e-03 1.041181106120347977e-02 -1.290893368422985077e-02 -4.256694577634334564e-03 1.956598088145256042e-02 -1.214526593685150146e-02 4.325402900576591492e-02 -2.339210826903581619e-03 3.816175740212202072e-04 8.168314583599567413e-03 3.285717219114303589e-03 9.420640766620635986e-03 -3.359945490956306458e-02 1.478804647922515869e-02 8.923327550292015076e-05 1.483924966305494308e-02 1.140646729618310928e-02 -2.651578374207019806e-02 -1.565630547702312469e-02 6.828961195424199104e-04 3.968211635947227478e-02 -2.546656504273414612e-02 -1.259690150618553162e-02 1.225517969578504562e-02 3.329107910394668579e-02 -2.446522004902362823e-03 1.457332167774438858e-02 6.087529007345438004e-03 1.214270293712615967e-02 2.456681430339813232e-02 1.075540576130151749e-02 -9.295566938817501068e-03 -9.001106955111026764e-03 -1.900761388242244720e-02 -3.441963053774088621e-04 1.031427644193172455e-02 -3.126643830910325050e-03 2.108367532491683960e-02 -2.412355504930019379e-02 3.796291351318359375e-02 -2.316969679668545723e-03 1.399077102541923523e-02 -3.573879599571228027e-02 -1.403299160301685333e-02 -1.195053160190582275e-01 1.321858260780572891e-02 -2.585421688854694366e-02 1.412936579436063766e-02 7.582911103963851929e-02 4.312912002205848694e-02 4.198284819722175598e-02 8.535687811672687531e-03 1.347781345248222351e-02 3.422352019697427750e-04 2.272646315395832062e-02 2.250627055764198303e-02 -5.070249084383249283e-03 -5.656950641423463821e-03 -2.193091623485088348e-02 -2.154328860342502594e-02 -3.065570257604122162e-03 4.254314675927162170e-02 -5.701942835003137589e-03 1.796384714543819427e-02 1.295729447156190872e-02 -6.343479454517364502e-02 7.552466541528701782e-02 -1.880646334029734135e-03 6.791041791439056396e-02 1.351295213680714369e-04 -1.406774739734828472e-03 -1.114969514310359955e-02 2.724110148847103119e-03 2.016350626945495605e-02 -1.061763730831444263e-03 -8.594381622970104218e-03 -2.725457400083541870e-02 2.145501226186752319e-02 -1.429630164057016373e-02 1.863473153207451105e-04 2.480239979922771454e-02 -6.673109252005815506e-03 -4.654141888022422791e-02 1.436491776257753372e-02 -3.933639079332351685e-02 -3.032291680574417114e-02
6.435842812061309814e-02 1.711194217205047607e-02 -8.378264610655605793e-04 -5.098668858408927917e-03 1.567773520946502686e-02 -4.966935887932777405e-02 -2.063237689435482025e-02 -2.803423441946506500e-02 -1.741411350667476654e-02 -1.727835115161724389e-05 -4.560936987400054932e-02 -2.202082425355911255e-02 2.009190618991851807e-02 1.124565303325653076e-02 2.259672805666923523e-02 -6.895103491842746735e-03 3.544665127992630005e-02 -3.281451761722564697e-03 -3.187760338187217712e-02 -4.512652521952986717e-04 -2.601925842463970184e-02 2.749729342758655548e-02 -1.259109377861022949e-02 8.246631361544132233e-03 -7.850320637226104736e-02 -3.916132077574729919e-02 2.382402494549751282e-02 1.597801037132740021e-02 -5.660105030983686447e-03 -4.537817090749740601e-02 5.227885395288467407e-02 2.317113243043422699e-02 1.635868661105632782e-02 2.535439096391201019e-03 -2.513708081096410751e-03 5.053232889622449875e-03 -3.352646902203559875e-02 -1.263938378542661667e-02 3.781898645684123039e-03 -1.512613520026206970e-02 3.044989891350269318e-02 5.671085673384368420e-04 7.443813234567642212e-02 2.712599374353885651e-02 -4.422147944569587708e-02 -1.447423268109560013e-02 -8.773254230618476868e-03 -2.160248532891273499e-02 1.274698763154447079e-03 -1.914278231561183929e-02 1.328688394278287888e-02 6.805987562984228134e-03 2.255825698375701904e-02 -4.883257206529378891e-03 -1.462250220356509089e-04 -3.314874321222305298e-02 2.875284058973193169e-03 8.615724742412567139e-03 -3.739967476576566696e-03 3.460212796926498413e-02 6.888930499553680420e-02 2.285365189891308546e-04 7.228238508105278015e-03 4.196800291538238525e-02 2.683985419571399689e-02 1.737294718623161316e-02 -6.840901076793670654e-02 -6.003067246638238430e-04 -6.260889116674661636e-03 7.942249998450279236e-03 1.803647843189537525e-03 4.449817910790443420e-02 -9.174742735922336578e-03 -7.749484386295080185e-03 -7.971393875777721405e-03 7.938616909086704254e-03 -3.284167498350143433e-03 -4.195051733404397964e-03 -2.663803985342383385e-03 -8.844074606895446777e-02 -2.230098843574523926e-02 -7.793396711349487305e-02 -4.699254059232771397e-04 1.575946435332298279e-02 7.829034328460693359e-02 1.554966904222965240e-02 5.967969074845314026e-03 -8.115236647427082062e-03 -3.227399662137031555e-02 -4.962612688541412354e-02 -3.161018830724060535e-04 4.246051236987113953e-02 1.360282488167285919e-02 -2.507696859538555145e-02 2.552855014801025391e-02 4.776676651090383530e-03 2.814580127596855164e-02 2.593096904456615448e-02 6.346291629597544670e-04 1.330388709902763367e-03 -8.057841099798679352e-03 -3.350594639778137207e-02 3.356908913701772690e-03 -6.013454869389533997e-03 1.650243066251277924e-02 -3.904872015118598938e-02 3.411323297768831253e-03 -3.083126805722713470e-02 2.522888407111167908e-02 -2.519566798582673073e-03 9.942299686372280121e-03 4.609775263816118240e-03 2.610321156680583954e-03 3.695586323738098145e-02 3.209081012755632401e-03 2.518158219754695892e-02 4.247236356604844332e-04 1.600244082510471344e-02 -3.032682836055755615e-02 -2.561610192060470581e-02 1.904781325720250607e-03 -4.725692328065633774e-03 -6.107569113373756409e-02 -3.971929661929607391e-03 -2.271541766822338104e-02 2.646758966147899628e-02 -5.070546641945838928e-03 9.939256124198436737e-03
-5.938590038567781448e-03 9.247715026140213013e-02 1.265378668904304504e-02 -8.995164185762405396e-03 2.131479233503341675e-02 -2.033798024058341980e-02 -1.178016047924757004e-02 -2.490665204823017120e-02 5.708460230380296707e-03 -1.043668249621987343e-03 -2.954378910362720490e-02 1.636750064790248871e-02 2.009185589849948883e-02 3.043018095195293427e-02 -6.150156725198030472e-03 1.487220264971256256e-02 2.020914107561111450e-02 2.180218696594238281e-02 2.574101788923144341e-03 -5.555856507271528244e-03 4.850541055202484131e-02 -4.539455752819776535e-03 -5.206086859107017517e-02 -1.404685676097869873e-01 -3.127806354314088821e-03 -1.906081289052963257e-02 -6.431648135185241699e-02 3.156645398121327162e-04 -4.878563922829926014e-04 8.495914516970515251e-04 9.621366858482360840e-02 -3.347052261233329773e-02 4.165119491517543793e-03 -2.775945700705051422e-02 1.913968590088188648e-03 -2.187636273447424173e-04 -6.553263962268829346e-02 4.776499420404434204e-02 6.830517668277025223e-03 -2.571326680481433868e-02 -3.910693153738975525e-02 -9.048266336321830750e-03 1.874084025621414185e-02 -2.155932411551475525e-02 2.130808122456073761e-02 -4.526664316654205322e-02 -1.634262315928936005e-02 4.471873119473457336e-02 -1.706630736589431763e-02 -8.791212923824787140e-03 1.802020706236362457e-03 6.766501814126968384e-03 -1.802704110741615295e-02 1.200779993087053299e-02 -1.319652143865823746e-02 -3.089134581387042999e-02 7.679982809349894524e-04 3.013741038739681244e-02 3.332890337333083153e-03 -1.122522205114364624e-01 -2.516485191881656647e-02 -9.589425288140773773e-03 1.555103529244661331e-02 9.077346883714199066e-03 5.942377727478742599e-03 -1.771600730717182159e-02 -2.349073253571987152e-02 -5.818343721330165863e-03 -2.166675031185150146e-02 -8.022878319025039673e-03 1.296661142259836197e-02 6.185625120997428894e-02 2.750815637409687042e-02 -1.571431942284107208e-02 7.937705144286155701e-03 9.694984182715415955e-03 2.531036548316478729e-02 -1.662226393818855286e-02 -2.242828719317913055e-03 -1.291182450950145721e-02 -1.307662297040224075e-02 -3.018313087522983551e-02 -2.261550165712833405e-03 -2.997972629964351654e-02 3.022493422031402588e-02 9.327688068151473999e-02 3.311049938201904297e-02 -3.641552058979868889e-03 1.045729219913482666e-01 -1.043468993157148361e-02 -2.063803933560848236e-02 1.787395589053630829e-02 1.395249087363481522e-02 1.477751042693853378e-02 2.241591922938823700e-02 2.748894272372126579e-03 -2.286783047020435333e-02 -1.115678399801254272e-01 -2.807134587783366442e-04 2.181378891691565514e-03 -2.134141139686107635e-02 1.054959837347269058e-02 -1.232694718055427074e-03 7.061512768268585205e-02 1.313826814293861389e-02 7.902231067419052124e-02 -3.096983581781387329e-02 -2.138065174221992493e-02 -8.606333285570144653e-03 -1.545907836407423019e-02 -2.808432467281818390e-02 -6.027737981639802456e-04 -2.391458721831440926e-03 -1.351545155048370361e-01 -1.573523972183465958e-03 3.241217508912086487e-02 4.054160322993993759e-03 3.271524328738451004e-04 1.028935518115758896e-02 3.544331341981887817e-02 4.598613362759351730e-03 -8.177275885827839375e-04 2.603779546916484833e-02 2.580121159553527832e-03 9.981298819184303284e-03 -1.220779493451118469e-02 3.266879543662071228e-02 6.408856809139251709e-02
