-0.0016649183 0.065661356 0.018637497 0.003002449 0.008262848 -0.026006388 -0.020741012 0.0021447216 -0.0024137401 -0.06535996 0.0029949825 -0.022189295 0.02999541 -0.014620344 0.0015365168 0.0024615705 -0.018304024 0.05502022 -0.006320466 0.051100537 0.017970704 0.003778524 0.016281215 0.012829467 -0.011487307 -0.08626923 0.014102529 -0.0085376 0.0023877074 0.0007297931 -0.01294618 0.06805204 -0.019220635 0.0029113933 0.017178519 0.062295612 -0.05672789 0.010613359 -0.0156818 -0.036413427 0.026639324 0.0004885462 -0.011655032 0.0016256552 0.005485716 -0.03813263 -0.05077958 -0.03622911 0.028274039 0.0085734455 0.00040628045 -0.0059265643 -0.00931986 -0.06907041 0.008983996 0.035782143 0.015439421 -0.0032808415 0.04017137 -0.091786295 -0.027508926 -0.020309234 -0.0014309123 0.013892706 -0.006350694 -0.0290123 -0.02181388 -0.021185424 0.03360142 -0.0017456342 -0.0018773992 0.0467138 0.0040460853 0.020915546 -0.0020346043 0.02280347 0.0013210153 0.0014709298 -0.0049717193 -0.0049972152 -0.00070098724 0.031802125 0.04066723 -0.028181745 -0.0016021344 -0.07734505 0.0073637064 0.041991882 -0.07543212 -0.012758981 0.001670843 0.018963858 -0.012752686 0.008063405 -0.015059233 0.003707608 -0.010675784 -0.021934047 0.0010734826 0.017834498 0.021142198 -0.020204706 -0.01392468 0.0021545268 0.0006996162 -0.013459197 -0.0012648142 0.06718106 -0.0029599566 -0.05395718 0.029307416 -0.0047597485 0.009957347 0.0028297356 0.018570835 0.061588194 -0.00014757845 0.011502125 0.004927055 0.020941034 -0.0010693105 -0.016728068 0.009332179 0.0046606814 0.02319574 0.040060494 -0.007049675 -0.020475069
-0.0023030282 0.016446594 0.0061292886 0.00048248595 0.010715171 0.03380813 -0.0011507426 -0.00091319735 0.002149351 0.03184441 0.0041092117 0.0005178867 0.028044483 0.020670602 0.0009995543 0.025660643 0.0142654255 0.00796285 0.009365818 0.029385813 0.0004526658 -0.0023141257 0.010015356 0.04462755 0.007852568 0.0016188337 -0.046352535 -0.013399262 0.0048035537 -0.00032401923 0.00023399596 -0.01952736 0.041209336 -0.009316425 0.014775367 -0.008271222 0.04229972 0.014349833 -0.047783826 0.01573958 -0.019855233 -0.006097062 -0.0130905295 -0.026476339 -0.02803036 -0.0015036204 0.024944525 -0.028110974 -0.0011794148 0.006405417 -0.0009399907 0.0008039838 0.07827817 0.08027676 0.00012610001 0.03968838 -0.0013052024 0.0005633406 0.021908538 -0.03765278 0.0011621731 -0.0821839 0.0021218006 0.07338138 0.037492722 0.05489598 0.038820624 0.018331101 0.0050410614 0.0018326237 0.0015920617 -0.0030898664 0.003615519 0.09260936 0.00017910099 -0.0011283181 -0.0048711156 0.0018744174 0.060326856 -0.06644708 0.0049930615 -0.041427873 0.048410088 -0.025743948 -0.00053718657 -0.04069237 -0.049459375 -0.00024167862 -0.017992258 0.0055704787 0.0015123758 -0.040030688 0.004837263 -0.010954536 0.0040068147 0.0033830404 0.0019548244 -0.028055906 0.0015082223 0.030158103 -0.0034115321 0.0119894175 -0.0008897392 -0.0018690254 0.002069127 0.0035000807 0.030697046 -0.0718039 -0.00083458575 0.031387344 0.008697948 -8.962554e-05 -0.0053542294 0.0013213392 0.00534876 0.043770853 0.0048529636 -0.015647393 -0.050599806 0.00088621036 0.0027677899 -0.04104294 0.009064793 -0.0041602966 0.026887022 0.00019361309 0.011319049 -0.022987412
0.0023566666 -0.011431096 0.07698431 -0.008881302 -0.15555994 -0.06684692 -0.043114245 -0.005032811 0.0019168558 -0.03831822 -0.0033158066 0.03136394 -0.14225979 0.04089654 -0.00047354333 0.08517952 -0.028120445 0.058941863 0.028267246 -0.0106992265 -0.028430106 0.006301789 0.0016469235 0.12250777 0.018314146 0.011426543 0.031408697 -0.011718316 -0.0023651784 -0.0037840782 0.0113159595 0.057570502 0.00794239 0.009735208 0.02315109 -0.036643133 0.0065480093 0.034052484 -0.0022088124 0.008399611 -0.075241745 0.012791043 0.03015594 -0.02241353 0.078535855 0.040938415 -0.10400156 -0.01023209 0.038213775 -0.024871554 -0.0010488718 0.0041917902 0.016455403 -0.080609635 -0.0018244106 -0.0733408 0.0074412394 -0.0022006417 -0.043999385 0.030886615 0.030334901 0.004485111 0.011145678 -0.0017337487 0.030610312 0.043795504 0.03990914 0.026980324 0.024060855 -0.0070183 -0.0011179354 0.034763556 -0.0025369949 0.034020003 -0.00094605715 -0.13486171 0.013044453 -0.009627131 0.04016778 0.08256011 -0.02616115 -0.0014355826 0.04550715 -0.008200073 -0.0023373424 -0.021593995 0.026762241 -0.008264863 -0.013384791 0.025003536 0.002187072 0.030769292 -0.014996807 -0.031124175 -0.006782228 0.0018075815 -0.045934014 -0.0021246946 0.003457115 0.03737928 -0.022796584 0.017877765 -0.005858793 -0.001073601 -0.0064749233 0.07136937 0.017267464 -0.00084668235 0.002365548 0.094352186 -0.0064444332 0.00014688027 0.016402962 0.0031588136 0.0119471345 0.008595624 0.0023973002 -0.12502857 -0.039488137 -0.007115823 -0.0028364256 0.02811631 0.016661702 0.0016314682 0.006423403 -0.022436833 0.04245744 0.051989216
0.0027061417 0.055620752 0.0013007524 -0.0009366902 -0.03188664 -0.019722518 -0.036657017 -0.0019857218 0.0021917573 -0.037185714 0.0002988098 0.005010926 -0.027506353 0.014526343 0.0022583923 0.033988494 -0.03595532 -0.026425585 -0.027513402 -0.03783905 0.008134562 -0.0043148655 -0.015687317 -0.041575924 0.046927042 0.007169256 0.025986334 -0.01292368 0.006451834 -0.0018011866 -0.010902747 0.081960306 -0.028811356 -0.050486565 0.027753005 -0.01997637 0.053765606 -0.067063116 -0.031675663 0.04577241 0.025867673 0.031159068 -0.051107023 -0.047224503 -0.0051565194 -0.06401657 -0.0002446103 0.06656911 -0.008138797 0.0057895835 0.0026862856 -0.001980328 0.011280438 -0.054227278 0.013266852 0.017794115 -0.019654876 0.0009700847 -0.03180167 -0.016651072 0.0019942834 -0.01811922 0.0020963673 -0.044075955 -0.048877165 0.019944612 -0.061419606 -0.027409324 0.00056188874 6.972715e-05 -0.0028357846 0.021685898 -0.0011656223 0.0068066353 -9.6463766e-05 -0.010117796 0.0023668644 0.0005750786 0.0066147842 0.034299895 -0.0038090914 -0.0016825101 -0.027406171 0.019973392 -0.00062722084 -0.01445648 -0.018787399 -0.015558369 0.06749572 0.0051313224 -0.00015383525 -0.0053794733 0.042861372 -0.0025242155 0.00069181883 -0.009996532 -0.020570923 0.014985313 -0.0005508657 -0.03448891 -0.011998086 0.1052702 0.0087968325 -0.0032142645 0.0031370847 0.032878026 0.011754339 0.0070229894 0.0007965124 0.03883746 0.03509895 0.002311848 0.02078869 0.005076103 0.038625773 -0.01837552 0.0028856269 0.0072980686 0.008187052 0.030902352 0.0012182579 -0.007862916 0.030784009 0.0012806855 0.042402785 -0.04071507 0.005796468 -0.027959859
0.002427551 -0.0076211453 0.019023882 -0.0046956204 0.030013409 0.05113604 0.00631917 -0.00024452302 -0.0010534822 -0.044126086 -0.0044262013 0.0007067299 0.024801264 -0.029610679 -0.00076935044 0.024404226 -0.009031401 0.051303446 0.013803871 0.019051086 -0.00012463506 -0.003030352 0.006579818 -0.02684027 0.039228726 0.010192024 0.0128439935 -0.010224159 9.84713e-05 -0.0006945158 0.0033518313 0.03675502 -0.003932836 -0.068924166 -0.011574439 -0.0025197056 -0.056428343 -0.0020578422 -0.011201207 7.075129e-05 -0.08954105 0.0071316767 0.0028938132 0.0033628042 -0.0049967063 0.025495255 0.014111886 0.05341172 0.03741316 0.001551383 4.3248633e-06 -0.0027676963 0.007976734 0.016651189 0.0048252917 -0.02951011 -0.0127997 0.0006479085 0.11576873 0.026868472 -0.018366827 -0.013015172 0.0014433688 0.039043713 0.031079967 0.0129078785 -0.032142356 -0.014466959 0.008275098 0.00013658349 -0.00068497227 0.0010069998 -0.0032225596 -0.035574313 0.00042844797 -0.009335197 0.003882622 0.00056451093 -0.06368023 0.009140097 -0.006975425 -0.05743312 0.017059932 0.038789157 0.00016280173 0.028272305 0.017616753 0.004081042 -0.015399597 0.010428087 -0.0019565304 -0.03763787 -0.019146051 -0.008243027 0.010719785 -0.0045314105 -0.007699948 0.035195947 -0.0012843899 -0.037696686 -0.003259248 0.000572615 -0.022611044 -0.00019115614 0.00055958214 -0.10120711 -0.06284612 0.042060617 -0.00023164914 0.016942095 0.005542381 -0.00032440943 0.0013729866 0.00047736536 0.003705917 0.021019282 0.0016416487 -0.059081487 0.039643776 -0.008755106 0.0017647651 0.0808494 0.008692136 0.0020853495 0.06544271 -0.0011940418 0.01832331 -0.021911718
0.0012710239 0.05110084 -0.0014947415 0.00070222496 0.017516255 0.020892462 0.038657732 -0.0002183427 3.599192e-06 0.036058877 -0.0024946604 0.024048252 -0.1470701 -0.018388964 0.0077022403 -0.060484353 -0.0058132582 0.04457465 -0.016218323 0.014277073 0.009474803 -0.010891844 0.006585114 0.042052254 0.05336275 0.04341519 -0.16155484 -0.008300148 -0.0074427403 -0.012809467 0.010599108 -0.02256718 0.037793104 0.011418156 -0.027242554 -0.025412759 0.024367293 -0.18929748 0.10142347 0.002888928 -0.02141607 0.031559948 -0.018374402 0.056065205 -0.020243749 -0.020542352 0.08835184 0.008949392 0.10217573 0.0031600436 -0.007552662 -0.00023064765 -0.0294852 0.04076163 0.008493899 0.023036895 -0.031603597 -0.005326379 0.027089737 -0.0269829 0.05521934 0.018103464 0.0012025555 -0.018081037 0.021651946 0.0130176 0.004012218 -0.03271966 -0.0647161 0.0034390003 0.007718318 0.0035783583 0.0061955904 0.03776488 -0.0007608615 0.055593394 0.0013377736 -0.002429609 -0.039810337 0.056511406 0.035447944 -0.0071404083 0.022697236 0.05302544 0.0039348295 -0.076655455 -0.014381051 -0.0011927256 -0.0019349284 0.0024235782 -0.0017990966 0.028254837 0.03755082 0.007718077 0.089983225 -0.011796082 0.029856008 0.033383604 0.0019338365 0.0550245 -0.024349626 0.0048276503 0.06434005 0.0001561071 -0.00010739687 -0.006215477 -0.045466613 0.01805646 0.00095379073 0.0106802415 0.023812005 0.0036603152 -0.009313845 0.0006362457 -0.03262211 -0.018074311 0.006192076 -0.000622066 0.07210468 0.018625433 0.0035013456 0.03632478 0.031503145 0.0006040908 -0.08526266 0.013241487 0.029645514 -0.04302723
