0.04851628 -0.04518223 0.00010572638 0.034940172 -0.09349801 0.13626176 0.04575491 0.11917651 0.036086537 0.12561476 0.13030262 0.02783379 0.12828098 -0.12163538 -0.030239495 0.0072797383 0.013264866 -0.029624451 0.059127074 -0.016835773 -0.03915325 -0.049979374 -0.03788513 -0.07016018 0.19072387 -0.028421432 0.0816679 0.029255208 -0.09802944 0.16966504 0.09480799 0.15720871 0.0810539 0.050121415 0.017941719 -0.01970197 0.12373381 -0.033401158 0.030580128 -0.02464116 0.14188951 -0.05387014 0.07958007 -0.040775213 -0.050498083 0.004388542 -0.116190806 0.0031111236 0.41318783 -0.0637855 -0.058146823 -0.0692891 0.020559844 0.045188457 0.15565671 0.14864856 0.015428854 0.067159705 0.16050169 0.051449478 -0.035830732 0.14977181 0.049216412 0.11476098 0.105550475 -0.015306921 0.025747942 0.020453079 -0.04487387 -0.0017792509 0.004398431 -0.020273652 0.6053512 -0.13625225 0.050221667 0.00041650672 0.03282216 0.082052216 -0.012681591 0.13094574 -0.035786487 0.05025264 0.12296056 0.011878835 0.1572343 0.10370888 0.025596447 0.04786129 0.20644093 0.12096248 0.064812556 0.0048245406 0.008997506 -0.07366101 -0.015704338 -0.055441283 0.80553967 -0.19313808 -0.020679226 -0.058399122 0.040842567 -0.005451753 0.16107893 0.17018493 -0.011519904 0.08158091 0.2920304 0.02347839 0.23511638 0.30795956 0.16113873 0.091654785 0.54285085 0.054923117 0.057538442 0.028470624 0.004760786 -0.010406873 -0.02713135 -0.015010182
-0.06666407 0.070018776 0.040749263 -0.00289255 0.076910526 0.04593955 -0.15542433 0.055367906 0.0425389 0.08199587 -0.0576012 -0.027379014 0.20424907 0.14928356 0.089785 -0.07652859 -0.032404114 0.06398509 -0.066941515 0.00829722 -0.031984 -0.030910475 -0.070960194 0.06511864 0.024375863 0.043137237 -0.014704587 0.08056252 0.059510123 0.1612939 -0.08111678 0.1650287 -0.020302285 -0.040390998 -0.094203085 -0.10471497 0.11964406 -0.09400943 0.0699858 -0.18349189 -0.18960483 0.06255199 0.047918804 -0.014631783 -0.017198054 -0.02934292 -0.031261988 -0.024707325 0.0019202402 -0.02233853 -0.07211193 0.072911605 0.024606664 0.14889729 0.08274164 0.16319865 0.05273789 -0.064716466 -0.07667915 0.029788189 0.21066658 0.020743435 -0.095011316 -0.16692954 -0.07416452 0.065927625 -0.024622472 -0.012657452 0.02302978 -0.045063972 0.010528223 -0.041113246 0.050868753 0.025729217 0.012456588 -0.019855987 0.051080085 0.19772741 0.12417464 0.0126259625 0.019203844 -0.18279882 0.06278751 -0.076680325 0.3335471 0.023852853 0.009058429 -0.27176508 -0.035530616 0.019949593 -0.008296557 0.01942509 -0.06185792 0.019652937 0.015512045 0.026199479 0.22565964 -0.062393934 -0.09091542 0.123096265 -0.057126984 0.23755014 0.05333241 0.01842091 0.04145331 -0.2954699 -0.043378558 0.010349543 0.52439916 0.08794071 0.05130752 -0.51404524 0.008285972 -0.012334052 -0.097678356 -0.019814916 -0.04618831 0.09505951 0.036051366 -0.10831263
-0.23712033 -0.20626032 0.08594947 -0.041220956 -0.020879544 -0.0988138 -0.05970191 -0.076560974 -0.023120651 0.18881933 -0.048625402 -0.04476923 0.013798478 0.050210312 0.040909372 -0.049710322 0.012537916 0.0422983 0.012590028 0.025406752 0.10214364 0.052513156 -0.0014120986 0.049123798 -0.19334698 -0.33963436 0.084305905 -0.09047866 0.14611559 -0.10450273 0.062099382 0.018582106 0.057459597 0.19328642 -0.16061562 -0.053713992 -0.034165777 -0.07461222 -0.01183591 0.10052915 -0.015119953 -0.019381413 0.07184849 0.03572257 -0.012232763 0.010620824 -0.027908223 0.04076261 -0.44695613 -0.34586847 0.014529711 -0.060820132 0.12875089 0.054307237 0.047164667 -0.058329903 -0.010495917 0.13157502 -0.1704757 -0.06744757 -0.011980823 -0.11158902 -0.0164951 0.11697505 -0.09382455 0.0059266146 0.0021759663 0.06781475 -0.025344381 0.088044114 0.020200375 0.009663203 -0.60508925 -0.50501966 0.06420199 -0.08428853 0.00091147044 0.15173449 0.08375038 0.024318768 0.004946121 0.14570196 -0.14274497 -0.05036742 -0.10716094 -0.1476133 -0.09040178 0.18696691 -0.20557396 -0.030402983 0.0110232495 0.07067153 0.09213383 -0.0048192856 -0.0065353955 -0.03222272 -0.7538391 -0.7299258 0.028452553 0.018214004 -0.044161055 0.10485466 -0.12579657 0.067217685 -0.006223715 0.17960438 -0.21014173 -0.05656152 -0.5325786 -0.076090045 -0.0822736 0.13819784 -0.2947493 -0.027861383 0.06706086 0.053509098 0.106682956 0.023011157 -0.010169493 0.021599615
-0.17621697 -0.077187255 0.045367923 -0.00948056 -0.02298566 -0.05803634 -0.1590344 0.030636169 0.015674952 -0.016496802 -0.16442211 0.07360984 0.024376666 -0.062373813 0.10077003 0.16109729 0.0018804348 0.15522076 0.013461317 -0.0012620533 -0.019642822 -0.030535318 0.02079547 0.0012337023 -0.17356633 0.06201452 0.02448002 0.020670502 -0.06230227 -0.046063315 -0.056576572 0.14620395 0.007671386 -0.01198784 0.014252031 0.054552402 0.081150755 -0.025379138 0.11022365 0.15600097 0.04939575 0.1529394 -0.04012498 -0.0058585354 -0.017484777 -0.077311344 -0.03341006 -0.06907096 -0.06562803 0.0781872 -0.024004731 0.043086514 0.005452026 -0.10590991 -0.033570006 0.11511247 -0.07632378 0.12864934 -0.13156554 0.02322197 -0.042089745 0.14229576 0.003726683 0.15544625 0.047555365 0.13405636 -0.0040320163 0.015289405 -0.03081508 -0.04301367 -0.029357256 -0.04319563 -0.19573024 0.13442162 0.01958418 -0.07184221 0.014642972 -0.035600208 0.0116719175 0.14367306 -0.0765058 0.14715275 -0.15473552 0.12029992 0.10312433 0.1368601 -0.06401287 0.12520863 0.038617164 -0.02998556 0.018484853 0.13877945 0.05129196 -0.04050617 0.027767982 0.036419008 -0.3254198 0.10137568 0.036183596 -0.061823297 0.021922562 -0.13244177 0.019009868 0.11930808 -0.020776123 0.14391635 -0.08245523 0.039230425 0.12391934 0.12304829 -0.013952447 0.084583916 0.33932465 0.08861239 0.050320227 0.10921294 -0.12582926 -0.0384713 0.009884782 -0.12411953
-0.119579606 -0.14610316 0.047967304 -0.014923989 0.0040087444 0.11808045 -0.022144146 0.10315299 0.053422287 0.07037025 0.016233271 -0.04762513 0.06639734 0.09876713 -0.027297113 0.029805442 0.12139264 0.054920714 -0.062656924 0.02472192 -0.10835326 -0.10960787 -0.020003099 -0.020411352 -0.17833339 -0.26458356 -0.0017049365 -0.12908362 -0.010890011 0.12185576 -0.008483401 0.04961928 -0.055187043 0.09273679 0.042219784 -0.09085936 -0.02672335 0.09546176 -0.058502253 0.025797484 -0.010379015 0.031288918 0.0029331658 0.011024222 -0.048260912 -0.068788186 0.04424345 0.042681962 -0.17835958 -0.35926124 0.04531864 -0.01370735 0.019843474 0.09561746 0.038173046 -0.036181927 0.069984585 0.01127162 -0.062765405 0.08457204 0.13661619 0.076138414 -0.04273413 -0.074246496 0.064005174 0.17551109 -0.064073175 0.024495112 -0.10372922 0.016635215 0.033976544 -0.011512288 -0.09911042 -0.46004382 -0.026398713 -0.027977787 0.05573461 0.015947888 -0.0015985728 -0.009000386 -0.026563654 -0.036579717 -0.015541798 -0.0331683 0.044089753 0.17607462 -0.06022291 -0.14550057 0.10159947 0.17337736 0.002058196 -0.028241426 -0.107180744 -0.062306523 0.004267683 0.03366271 -0.15940651 -0.6421492 0.054487024 -0.077024475 0.08699833 0.115910985 0.069916815 0.1670279 0.037184317 -0.039232206 -0.047556266 0.0829277 0.06805816 0.32281816 0.055690076 -0.08639483 0.24341376 0.19704923 -0.080278784 0.11486205 -0.05711127 -0.08798996 -0.03257646 0.13258085
0.12556474 0.011728781 0.05465726 0.060597207 0.037468195 0.16540493 0.029904315 0.08989262 -0.042737 0.15493885 0.048184503 -0.0057552117 -0.029286526 -0.079413295 -0.041712064 0.22787407 0.011614567 0.01987438 0.079305254 0.04279424 -0.026436524 -0.054529857 0.014609158 -0.023863267 0.07670536 0.0030869427 -0.051840127 0.08906359 0.09888356 0.2984669 0.05284269 -0.039853822 0.012454918 0.10221206 0.0092937285 -0.0022053283 -0.0007059356 -0.15100475 -0.11954103 0.13483764 0.05345178 -0.08252726 0.040753722 0.055413518 0.08196557 0.004253748 -0.013260712 0.08417754 -0.047953717 -0.24785961 -0.08854903 0.047508463 0.035259772 0.10956008 -0.072377875 -0.07514925 -0.036741316 0.2650601 0.04402447 0.03733022 -0.09675624 -0.089005426 -0.051983424 0.15422171 0.06091847 -0.028726475 0.07219944 0.021738168 -0.056015953 0.006707165 0.06344132 -0.0036252427 -0.10599855 -0.3956996 -0.023417758 0.04101158 0.07641822 0.03469458 0.05602179 -0.0796252 0.06346542 0.28847092 -0.013661158 -0.023596061 0.034594353 -0.30457753 -0.03045645 0.20999472 -0.0071980827 -0.014411751 0.058836225 -0.07242141 -0.031241238 -0.050390694 0.013977125 -0.06561938 -0.01785294 -0.65496665 0.048384715 0.07670976 0.1025468 0.030949995 -0.025986241 -0.050829217 0.056368083 0.26881117 0.08294377 0.16979219 0.018138805 -0.30890092 -0.0036197228 0.27526134 0.18187349 0.02125998 0.051933866 -0.057837777 0.05603529 -0.009964185 0.013727651 -0.09881116
0.09743799 0.043862313 0.01657671 -0.027537787 0.05821661 0.05387942 -0.08427851 -0.018802889 -0.023631537 -0.10290312 0.13724314 0.09119982 -0.07442674 -0.027854389 0.0012825043 0.14662646 -0.061430875 -0.11850705 -0.07263084 -0.0124116065 -0.06613266 0.00039993518 -0.049994137 0.0557052 0.13585107 0.10914674 0.075053394 0.11145345 0.08956275 -0.010706333 -0.040341992 0.09415002 0.01647646 -0.10725619 0.010924634 0.07162209 0.019841922 0.19027537 -0.07502856 0.060957365 -0.11254033 -0.09412595 0.023690438 -0.07574955 -0.029419465 0.014226244 -0.10126109 0.030346507 0.31017357 0.19835989 -0.056460313 0.05295681 -0.06308883 0.15154396 0.004218804 -0.0014024331 -0.023558743 -0.06907946 -0.022588754 -0.045804165 -0.058953602 0.22146918 -0.118099116 0.09228563 -0.11565577 -0.09554903 -0.03479407 -0.036968518 0.0652519 0.069853485 -0.07831613 0.015372201 0.5585368 0.29484892 0.111173 0.044692587 0.06686852 0.09639623 -0.09338666 -0.007146206 -0.025619375 0.07887168 0.08890884 0.085507534 -0.19728327 0.29490578 -0.055163708 0.19752204 -0.10107497 -0.10222851 -0.019506253 -0.035206337 0.03330886 0.040380605 -0.045995574 0.06456433 0.8119494 0.5662408 0.072053835 0.024550404 0.040504593 0.23426156 -0.23293099 0.12792431 -0.079254 -0.017210925 0.020784011 -0.042761426 -0.31975788 0.38955966 -0.19027664 0.36583316 -0.05750496 -0.20115077 0.029640721 -0.010099569 0.07370076 -0.026368614 -0.07444461 0.101440094
-0.1439665 -0.21291395 -0.0434753 -0.04378315 0.043333434 -0.12895826 -0.13435423 0.0495928 -0.011503445 0.17311753 -0.09015396 -0.0014997413 -0.2088269 0.05754612 -0.039562955 -0.007986534 -0.003002303 -0.06026041 0.014142823 0.007525935 0.059132554 -0.010322659 -0.00771498 0.011620527 -0.14183524 -0.03578627 -5.099443e-06 -0.10892395 0.021651605 0.02912476 -0.17158659 0.067186356 0.025230033 0.11745207 -0.012288013 -0.0061138705 -0.2164093 0.08171017 -0.055741344 -0.07850246 0.017078625 -0.03268429 0.07562983 0.06855459 0.055615347 -0.012646141 -0.037474077 0.04879074 -0.16837464 0.06668567 0.057716332 0.05551675 0.039426714 0.08455816 -0.14020953 0.011583532 -0.030750556 0.17483 -0.03483013 0.029018914 -0.23981197 0.062162828 -0.0039056335 -0.015653048 0.052649595 -0.005386377 0.007255674 0.020579424 -0.090248905 -0.017394748 -0.05777925 0.0537251 -0.11545804 0.19135274 0.029193308 0.045976046 -0.0049321246 0.13896094 -0.16070738 0.050632138 0.024242792 0.1311885 -0.104487136 0.09615918 -0.29131615 0.052546747 0.04353031 0.12018856 -0.028865552 0.11844844 0.027305309 0.020795593 -0.0245469 0.0017086563 -0.025728684 0.0005123072 -0.21745841 0.26366043 0.008797286 0.012169543 -0.18781357 0.24235067 -0.20723854 0.118822575 0.12740651 0.13967006 -0.12967838 0.060780853 -0.58697456 0.24025798 0.1854124 0.024877636 -0.12887341 0.26556656 -0.0017605104 0.06515775 0.056969844 -0.010289903 -0.005237499 -0.032632574
-0.15333536 -0.08480737 -0.07254109 -0.08230108 0.057408478 0.052532244 -0.053109072 -0.015627164 0.084780335 0.11981703 0.014583601 -0.017051334 -0.07163481 -0.12326064 -0.075379215 0.013091572 -0.042065904 -0.068065025 0.0039181937 0.04887767 -0.0154383555 0.0071586967 -0.017585048 0.03517958 -0.088044904 -0.06979316 -0.01856787 0.08216098 -0.09700538 -0.08073352 -0.0699372 0.07943358 0.068184175 0.07517127 -0.11268382 0.07869464 0.025325015 -0.12759085 -0.031210056 0.1428487 -0.0045816153 -0.0601533 -0.035962194 -0.042624075 0.0050357925 0.06841091 0.03890173 -0.059035398 -0.0077870777 -0.1355565 0.079807654 0.09374772 0.0808711 0.022042014 -0.08902184 -0.0077370545 0.040129133 0.09978413 -0.039495785 -0.082858026 -0.0906523 -0.097713605 -0.025316704 0.06816941 0.0018724591 0.033496175 -0.035675395 -0.014091535 -0.034379404 0.09607122 0.029774942 -0.00075119495 0.11818549 -0.19674708 0.073233135 -0.0456633 -0.09251626 0.029247591 -0.13457385 0.0026509557 -0.07329978 0.27858576 -0.104525864 0.074223176 -0.05904337 0.059995502 -0.000546228 0.25813976 0.04268577 0.019730149 -0.036730982 -0.05296218 0.07298429 0.08204576 0.016581085 0.0057085655 0.16423783 -0.32672322 -0.034604266 0.046054803 0.030971976 0.04940839 -0.21927764 -0.001962198 -0.108153515 0.30153078 -0.039568342 -0.07735554 -0.45151222 0.017441582 0.04493114 0.5124267 0.008808589 0.062346064 -0.020271877 0.009192474 0.02215736 0.106796674 0.01835279 0.02403422
-0.027914567 0.0025233917 0.07820042 0.07965654 0.06710424 -0.086126685 -0.25598106 0.015169406 -0.049402613 0.19182628 -0.012838083 0.07927513 -0.101616696 0.02241503 0.13619627 0.10091555 -0.042365883 0.006858634 0.05571067 -0.055137943 -0.0039276257 0.034104776 -0.08848244 0.013920027 -0.10128275 0.11451127 0.054473706 0.06441274 0.087323986 0.01705854 -0.27506587 0.1254237 -0.061640672 0.14107324 -0.06311091 0.14921847 -0.11879613 -0.0016927795 0.012999231 0.07464108 0.20314248 0.09186568 0.025514595 -0.015953818 -0.048761968 -0.016100917 0.033453967 0.030679988 -0.19142789 0.20110765 0.064862244 0.10273919 -0.10510212 0.12621264 -0.2385628 0.10233425 0.08709 0.19540827 -0.08833185 0.11295593 -0.11938898 0.21935575 0.070232645 0.17358498 0.043964785 -0.012647358 -0.058229376 5.061867e-05 -0.03631257 -0.0128486445 -0.05963336 0.012997803 -0.20186442 0.21569581 0.0023931349 -0.03177951 0.04730957 0.0794265 -0.24374017 0.09780582 -0.07887159 0.21856895 0.021354903 0.007899307 -0.18757252 0.25955397 -0.0942373 0.25620764 -0.043822948 -0.08358425 -0.06808137 0.055647943 0.023955032 0.017550295 -0.002354769 -0.015009317 -0.21504277 0.56601644 -0.01067736 -0.050054487 -0.17245242 0.24524906 -0.27436358 0.15088728 0.018559441 0.28994852 -0.02964507 0.12945014 -0.3123192 0.33109912 0.04932972 0.38879213 0.07241996 -0.034451686 -0.0604426 0.1442249 0.03286275 -0.03471276 -0.00697133 0.01662103
0.060348693 0.048249252 0.017066872 0.026987651 0.04231877 0.05422548 -0.0048993407 0.041270368 -0.077196136 -0.11867521 0.10373765 0.09137248 -0.10192529 0.10002449 0.101803906 0.01016964 0.2342233 0.06441658 0.010318402 -0.04532871 -0.008040711 -0.08671496 0.017782312 0.05722777 0.054510206 -0.1261692 -0.050347637 -0.01577202 -0.013057247 0.12356802 0.084656164 0.09934499 0.064452566 -0.093860514 0.10830025 0.047039747 -0.028950604 -0.020314932 0.024879968 -0.07120262 0.1453979 0.06449804 0.046197515 0.006227434 -0.038151424 -0.023072489 0.0055846386 0.084595606 -0.06787487 -0.141115 0.050666872 0.02881358 0.10129883 0.0640317 0.045194577 0.08718345 -0.021627588 -0.047910698 0.11329819 0.10709333 0.016788784 -0.024833333 0.038931143 -0.09580279 0.27265865 0.09226813 0.010318418 0.060332645 -0.023611177 -0.01416264 0.006278037 -0.030322108 0.006387946 -0.037879158 -0.09636145 -0.035399843 -0.07383348 0.044549797 0.054725755 -0.027804958 0.0040979073 -0.053374834 0.07068658 0.0900747 0.046872713 0.026978044 0.036235884 -0.06664454 0.21647228 0.12351214 0.024431678 0.072076224 0.049529586 -0.04629824 0.084160715 0.0345465 -0.23450191 -0.08878494 0.037149526 -0.04531222 0.0008361837 0.18262002 -0.018717578 0.042166546 0.0700725 -0.059473496 0.010076527 0.23342107 -0.043028835 0.1568896 -0.016501203 -0.33217147 0.30852854 0.26581055 -0.0063577434 0.05872694 0.0009579709 0.011038024 0.043301 -0.10527434
-0.08060884 -0.08316659 0.0069386787 0.053047426 -0.033344913 0.044602353 0.15663995 -0.08260221 -0.011198762 -0.17964758 0.014895186 0.01971427 -0.17952794 0.24007258 0.032111023 -0.03452792 0.1759859 0.009719287 -0.0044388906 0.06991219 -0.0030945565 0.05827086 -0.06546099 -0.022690468 -0.1137393 -0.11895864 -0.03451274 -0.03621626 0.012661496 0.061874658 0.25046405 -0.022652296 -0.05133211 -0.16203226 0.1255785 -0.0020923454 -0.15953246 0.16217364 0.11774208 -0.1258163 0.10308123 0.060691882 -0.032660283 0.06848654 0.09405079 -0.030807944 -0.001894156 0.001433299 -0.056316566 -0.051549148 -0.048055492 -0.06364066 -0.063593194 0.059691977 0.26535225 0.10964079 0.08390878 -0.15126339 0.042312186 0.07375971 -0.012480285 0.10720544 0.06396721 -0.07666339 0.08195772 -0.0066500413 -0.05332336 0.071209535 0.068627745 -0.07398074 -0.0190487 -0.021939889 -0.23049933 0.09252498 -0.08347209 0.017276708 -0.18856008 0.08728985 0.13589384 0.041566595 0.00887629 -0.21900445 -0.0021072098 -0.037327107 -0.10013799 0.14939857 0.13165243 -0.2077487 -0.012191361 0.11849851 0.019971697 0.14581844 -0.06711536 -0.09685054 -0.07078374 -0.06767256 -0.33170485 0.12750569 0.051419996 -0.10972568 -0.046674058 0.17282237 0.11530468 0.07859567 0.05202623 -0.24770293 0.022855 0.13175745 -0.13221204 0.48916754 0.008080397 -0.5220346 0.16091898 0.10252033 0.035011016 0.0659005 0.10314846 -0.13756236 -0.02387206 -0.084083855
-0.016677981 0.045862064 0.08940808 -0.08117461 -0.046112493 -0.003629541 -0.0760556 0.00833302 -0.080190554 0.025542863 -0.016677912 0.0397692 0.124126434 -0.015443578 -0.05213046 -0.0073500997 0.014790978 -0.095843 -0.0025819682 -0.0072041955 0.021585276 0.0009952807 0.0091622565 0.08179066 -0.15052035 0.14214054 0.01722864 0.0009771227 0.01508233 -0.06742124 -0.06073576 -0.023905335 0.044094667 0.024640702 0.04615935 -0.09379116 -0.012829741 -0.06654911 -0.11005898 -0.008312326 -0.023242226 0.05719138 0.091640696 -0.047475822 0.009995426 -0.015184636 -0.04245061 -0.07400537 -0.21489838 0.36688364 0.048126113 0.06246692 0.0063942093 0.04946292 -0.014151111 -0.036571987 -0.040845692 -0.05420271 -0.017408542 -0.048367407 -0.09090438 -0.06745052 -0.081181146 -0.12726727 -0.0060029565 0.016118318 -0.0108800605 0.03693236 0.036542337 0.032552216 -0.029889844 0.035268165 -0.2820331 0.56269765 0.10803901 -0.0023221513 0.070956014 0.10325045 -0.049766872 -0.05283645 -0.034232907 0.04278044 -0.09932756 -0.027980225 -0.122518666 -0.03075464 -0.014891508 0.12057491 0.07443818 -0.032178402 -0.006573971 -0.021747256 -0.009840515 0.03149065 -0.01601432 -0.0014953637 -0.31201765 0.8244483 0.083738476 0.059610043 -0.014800007 -0.010381011 -0.18283902 -0.08024018 -0.15482092 0.08461539 -0.071650796 -0.116109334 -0.10039316 -0.057660516 -0.20683944 0.22888185 -0.105479635 0.05779966 -0.0614977 -0.051677406 0.046074692 0.05026855 0.010169645 -0.06913193
0.0025485288 -0.04571872 0.10210622 -0.010803558 -0.085976444 0.0009295477 -0.153529 -0.107952364 0.09270919 0.088761 -0.01262535 -0.08475828 0.09574466 -0.046540312 0.020469123 0.1149867 0.0071824994 -0.046973545 0.02403967 0.12262888 -0.002809974 0.007803971 0.031396963 -0.021948066 0.08997247 0.09817959 0.06759334 -0.14156486 0.08384106 0.15389602 -0.037907165 -0.058125623 0.036359675 0.13636161 0.03931219 -0.045455582 0.1776258 -0.0124656735 0.060500745 -0.0026304545 0.052289363 -0.010654912 -0.01231918 0.109358944 0.017826919 0.0031029496 0.072055966 0.04563327 0.026211377 0.02391685 0.14461339 -0.12579654 0.03152221 0.010720931 -0.022411004 -0.048256874 0.053871002 0.19303824 0.05923137 -0.11653666 0.058788165 -0.08417641 -0.001430599 0.070639715 -0.015911741 0.0032061967 0.0688731 0.03582412 -0.02116051 0.0018788235 0.0959969 -0.0054517128 0.0908757 0.05172653 -0.0524907 -0.014503444 0.04986926 0.15750507 -0.13790765 0.012086725 -0.030938223 0.20029745 0.13441113 -0.029195156 0.0964458 -0.15020727 -0.080743454 0.12987083 -0.051888935 0.10351878 -0.061205044 0.07244014 0.07122281 0.027503178 0.014278642 0.048907783 0.13311423 0.044104293 -0.04787556 -0.040382855 -0.058196962 0.1541422 0.07082389 -0.12628052 0.02508933 0.19204853 -0.008647954 -0.00013522287 0.20514871 -0.12566505 -0.21588472 0.22540726 -0.2833459 0.15246576 -0.02996633 -0.07651591 0.0978455 0.02881485 -0.09283888 -0.040766202
-0.10189835 -0.05799387 0.036396373 0.09757121 -0.017081333 0.15303767 -0.015461524 0.026121927 0.05246688 -0.004689109 -0.040439542 -0.0057839938 0.17354517 -0.24674195 -0.083539866 0.0694703 0.08632917 -0.004200249 -0.019338815 0.0072013214 -0.05075249 -0.024360454 -0.05013322 -0.014821681 0.02033023 -0.053191777 0.078014426 0.0084144445 0.091469966 0.2009139 0.08591619 0.101102106 0.022079261 0.103720166 -0.039110105 -0.06261031 0.22136486 -0.08502584 -0.02240862 0.2666175 0.29163548 0.024980517 0.03652488 -0.008617396 0.017972346 0.0035426035 -0.05802654 -0.032128062 0.2533865 -0.17821148 -0.04211637 0.08139268 0.11801394 0.123794585 0.14367716 0.056620587 -0.012673469 -0.0092162425 0.094720095 -0.09662084 0.12833212 -0.08916501 -0.11683833 0.13097382 0.20699392 0.07479174 0.020409761 0.044764582 0.012853935 0.017111918 -0.008574692 0.015553106 0.35398048 -0.15452869 0.02083316 -0.056130406 0.034442138 0.1572181 0.047765676 0.14585087 0.049945336 0.055061057 0.0008402231 0.079682045 -0.04388372 -0.0031789672 -0.08800719 0.032737885 0.25462982 0.099955104 0.05082203 0.0445966 0.0023938676 0.08971381 -0.03953203 -0.043246273 0.52203816 -0.21986274 0.047718976 0.026417663 0.13947515 0.18260166 0.032064117 0.13490754 0.081712365 0.059339587 0.010001335 0.049021177 0.08065165 0.15246035 -0.10100453 0.20660722 0.06394961 0.43941376 -0.015524497 0.0856306 0.083270304 0.063140355 -0.043028552 -0.033258077
-0.018682677 0.013733125 -0.049808186 0.060927473 -0.10708504 -0.06235755 -0.04390392 -0.030785467 -0.029404664 0.08996124 -0.042696767 0.023827458 -0.020400727 -0.15730768 0.05135959 -0.03720827 0.13250427 0.08220749 -0.0036438715 0.027551744 -0.040837258 0.07584728 -0.027696924 0.06014751 -0.10248299 -0.024691118 -0.06722353 0.055589557 0.03451796 -0.19292754 0.0005912231 -0.1048349 -0.04203085 0.15627249 -0.09434961 -0.02340078 -0.079496205 -0.04080031 -0.06415235 -0.02980628 0.1359003 -0.067908935 -0.029012712 -0.036387913 -0.004582813 0.05710968 -0.10533497 -0.0024316541 -0.3626866 0.07669688 0.0751075 -0.046839707 0.07951416 -0.051269315 -0.12002343 -0.04168611 0.02543783 0.055245936 0.060840365 -0.009511348 -0.095889926 -0.0992606 -0.1058907 -0.10599101 0.119581714 0.06204918 0.005221592 0.0058230534 0.075258836 0.08566693 -0.056299135 -0.065947734 -0.46873963 0.07900358 -0.014117945 0.040760495 0.087664 -0.085049875 0.005132766 -0.14082465 0.025496587 0.10609392 -0.02861046 -0.008948122 -0.29950067 -0.061242543 -0.1320919 -0.104209326 0.062013168 -0.013166911 0.038703796 0.017089723 0.0019481389 0.010163725 0.02105275 0.0052167 -0.5951296 0.18139867 -0.052218664 0.07982497 -0.023240525 -0.03725265 -0.13080889 -0.026908506 -0.10889676 0.081848316 -0.096067585 0.046042625 -0.43100944 -0.075097844 -0.11703288 0.2592198 0.089005314 0.13246639 -0.018441336 0.0512663 0.023526562 -0.042466495 0.020596286 0.017490273
-0.017249353 -0.13353285 0.07139578 -0.08540868 -0.057861354 -0.03386127 -0.0058599957 0.01897646 -0.032724705 0.05795112 -0.14320502 -0.015467791 -0.1673335 0.09985385 0.016799586 0.008494278 0.12727977 0.0151209505 0.004962927 0.0031887162 -0.0520777 -0.09117375 -0.03520367 -0.004641644 -0.06496527 -0.10710341 0.046021763 -0.11897441 0.12713793 -0.0252808 -0.029928561 -0.019614698 -0.04788272 0.093793266 -0.10488277 -0.018289557 -0.12840489 0.16213056 0.092921734 0.08834645 0.11557334 0.046251845 -0.054775335 0.017904578 0.047798842 0.015757192 0.02714377 0.011246089 -0.13162643 -0.10042941 -0.008749755 -0.053293742 0.065625824 0.034237932 -0.0021607426 -0.034747884 0.08422186 0.13636562 -0.03777556 -0.030885186 -0.27019048 0.068408854 0.048016194 -0.06567509 -0.024831124 -0.078699164 0.031019429 0.03864732 0.054690067 0.008318422 -0.009965236 0.05660755 -0.23690999 -0.2707666 -0.02759021 0.04934862 -0.021501632 0.04666806 -0.09363887 -0.0479745 0.01732284 0.081319764 0.021921175 0.05365445 -0.34788334 0.13242207 -0.025905943 0.056031898 -0.009703059 0.023636878 0.020595122 -0.030200236 0.029840907 -0.07110298 0.013733012 -0.030197794 -0.45716786 -0.4401139 0.049916577 -0.11577214 0.0025159938 0.005262678 -0.22339353 0.08021557 0.02192395 0.07119914 -0.094909 -0.06636861 -0.68909514 0.1564808 -0.035683587 0.09947943 0.075588636 -0.06409654 0.020785918 -0.019047031 -0.027193964 0.032672845 0.056061916 -0.06824352
0.036763314 -0.08749542 -0.15527911 0.028855663 0.09190943 -0.23849905 -0.07782337 -0.060784344 -0.09328371 0.06844276 0.18918745 0.15299232 -0.09038188 -0.093663804 0.12852319 0.14738305 0.01698543 0.072293565 -0.066805966 0.06454212 -0.073154666 -0.013612075 -0.13224562 0.09487125 0.114826486 -0.018271742 0.014537624 0.11900293 -0.009602932 -0.21983315 0.048524603 0.040095933 -0.10984534 0.12395813 0.02528969 0.1491573 -0.077791594 0.08786781 0.0014024433 0.1908912 -0.060100194 0.10313807 0.025678532 -0.0032128792 -0.020068636 0.05852796 0.01624322 0.0013437126 0.31909382 -0.031393535 -0.10018814 -0.039617147 -0.004220105 -0.11321283 -0.07763803 -0.021611173 0.033316355 0.088810176 0.035600167 0.052541643 -0.066756055 0.064406835 0.09756021 0.18638535 -0.079491034 0.041041926 0.1063114 -0.04946039 0.033048578 -0.03514076 -0.0605053 -0.005864005 0.5135029 0.0065578106 -0.022999544 -0.07251505 0.15715411 -0.13258725 0.0032143623 -0.061178405 -0.022131866 0.12568362 0.13526869 0.14644173 0.008121555 -0.031358074 0.021040538 0.074186966 -0.034280647 -0.08943646 -0.05238965 -0.08201847 0.029020734 -0.035478484 -0.030857053 0.034382593 0.5507641 0.05503936 0.06179586 -0.07191591 -0.0050624246 -0.16250487 -0.052016012 -0.06446469 -0.08975103 0.16976242 0.07205161 0.19978608 0.021627577 -0.103652075 0.026324647 -3.9736464e-05 -0.05810219 -0.022124033 0.07356141 0.013072531 0.09376839 0.06958631 -0.03491122 -0.14499691
-0.06649588 -0.07555384 0.015665665 -0.093953766 -0.109791175 0.079003915 0.015505563 0.024582252 -0.10083068 -0.03965667 0.1408359 -0.0005445321 0.04608006 -0.17662092 0.2211194 0.1147413 -0.01596405 -0.0537809 -0.022816233 0.05600067 -0.07449707 -0.05208155 -0.015190146 0.016118081 0.07832644 -0.09540595 0.05526874 -0.09992098 -0.116038606 -0.015578152 0.053790864 -0.08177094 -0.08302727 0.021518227 0.043342136 -0.11003474 0.07680203 0.07459627 0.16195579 0.11175491 0.037804026 -0.07347421 0.008624819 -0.022702126 0.009275626 -0.028939527 0.011477638 -0.038331423 0.23704903 0.09269261 0.07167203 -0.05428626 0.00061106536 0.044183586 0.094109654 -0.116886646 0.003202647 0.17480166 0.051370695 0.07605636 0.0035256871 0.026559027 0.09521329 0.14687467 0.122191556 -0.06470127 0.0159388 0.0132627105 -0.024196925 -0.07254309 0.04218165 0.028061884 0.17714207 0.20178916 -0.0023819618 0.0040592053 -0.035223562 -0.10024335 -0.022872241 -0.0970153 0.02002493 0.18719676 0.10664556 -0.04219126 0.02758199 -0.020192336 0.15108559 0.0013628715 -0.045954075 -0.05596528 0.014952268 -0.050053522 -0.040817842 -0.028255742 -0.0810631 -0.022774657 0.31788272 0.15239236 0.06320563 -0.118426174 -0.19138376 -0.05981371 0.0060789958 -0.046164155 0.019268759 0.2092212 0.1281952 0.00041894848 -0.12041105 0.01392931 0.14106601 -0.18937077 0.008486035 0.21205585 -0.00071180594 -0.0539488 0.024206867 -0.004528076 -0.06812664 -0.043979075
-0.036760844 0.013720955 -0.042053103 0.0022632903 0.015279673 0.13887176 -0.13795556 -0.01599483 0.08284089 -0.09335603 0.025197927 -0.02619175 -0.12383593 0.09592047 0.023592757 -0.020490045 -0.1203092 -0.04957722 0.03877262 -0.058981378 0.029942105 -0.008582205 0.02733844 -0.076604575 0.04813973 0.20474964 0.056214146 0.011286066 0.05148827 0.107853636 -0.16929173 0.030016389 -0.060484916 -0.072175816 0.09339716 0.017535025 -0.23169966 0.10652699 0.038357217 0.032185994 -0.05794251 0.04674913 0.013004801 0.039054763 0.015596955 -0.019230304 0.006802758 -0.0007911225 0.18007034 0.32739162 -0.079040825 -0.06300138 0.08313804 0.2276046 -0.15290198 0.042077377 0.061674457 -0.0632882 0.047488026 -0.039348558 -0.26626527 0.14463769 -0.07412373 -0.015573167 -0.049902093 -0.041596964 0.00070906203 -0.004514826 0.03496415 -0.039036583 -0.06816065 0.014251948 0.32056454 0.4678344 0.072872534 -0.00011886682 0.031744316 0.24649176 -0.17268063 -0.021081474 -0.035363726 0.009239192 0.06431367 -0.048849076 -0.18840441 0.091481574 -0.015752994 0.09957259 -0.047641393 -0.07916133 -0.03938194 -0.06564291 0.07706816 -0.0067185326 -0.026484815 0.003960488 0.43433046 0.6671798 0.062191214 -0.047708135 -0.12863922 0.28676385 -0.26545277 -0.025858806 0.122029886 -0.088345855 0.059037395 -0.04091341 -0.24854009 0.13827655 0.04420199 -0.06378775 -0.22331746 -0.037245147 0.045070224 -0.12567489 0.08874563 -0.033548504 -0.14323758 -0.02616258
0.013780305 0.072343715 0.08398644 0.06324329 0.004931669 -0.15982606 -0.01766146 -0.0014694429 -0.026440693 -0.18891528 0.1020976 0.023033848 -0.047228377 -0.16082254 0.016013272 0.053831916 0.013699592 -0.08273273 -0.03979818 0.05226529 0.0153553365 0.012946753 0.058850348 0.054475054 0.07421898 0.06624247 0.07174205 -0.04366198 -0.052547157 -0.045868304 0.057641845 -0.04704851 0.032981955 -0.10008954 0.06378426 -0.015199193 -0.11590039 -0.13529387 -0.057905942 -0.035111733 0.008375039 0.0060907486 -0.050844118 0.048150003 -0.01639286 0.036646545 0.03030209 -0.06877985 0.30616564 0.16947417 0.031680804 -0.03077055 -0.124446526 -0.07132224 0.007372633 0.05612622 -0.015736511 -0.13974313 -0.019928426 -0.07247627 -0.07406657 -0.16729212 0.010795105 0.0033856586 0.17159367 -0.068455264 -0.009390909 -0.027012438 -0.022273438 0.030152876 -0.06722838 -0.05612139 0.4913912 0.316991 -0.0010286518 -0.056336433 -0.076368466 -0.19075437 0.004117418 -0.12323153 -0.09353087 -0.043930914 -0.0142806955 0.06736317 -0.09514391 -0.057087254 0.0197207 -0.16053891 0.09571749 -0.05190312 -0.067899846 -0.017626481 -0.03281273 -0.0033762124 0.03562539 0.039842475 0.7524784 0.60086393 -0.058456514 -0.013686558 -0.0678869 -0.13310987 0.09007727 -0.038482297 -0.18231021 -0.2420209 -0.00065658626 -0.024778632 -0.0559358 -0.12064925 -0.07361651 -0.09323873 -0.0901427 -0.0021673378 -0.075660184 -0.021581082 0.015712837 -0.04569264 0.027015781 0.042881217
-0.20161037 -0.013057036 -0.016926683 -0.044802602 -3.148585e-05 0.059883077 -0.059465803 -0.092730284 -0.053917617 0.14943506 -0.0041677463 -0.040520255 -0.014363081 -0.034075562 0.023494674 0.15788184 -0.12047023 -0.026897816 0.010084103 0.014801646 0.009378694 -0.054848753 -0.051163323 -0.047462117 -0.034870952 -0.1681921 -0.0019165477 0.044935193 0.044788457 -0.0953986 0.057052635 -0.061756603 -0.008996491 0.22611202 -0.008343015 0.08110241 -0.01388211 0.0011645826 -0.009338401 0.36512184 0.053345725 -0.034333553 0.003387364 -0.010680893 -0.063672975 -0.09705555 -0.030328833 -0.0009500301 -0.018323317 -0.30420852 0.06588901 0.05161072 -0.050308898 -0.034958016 0.049393017 -0.07730408 -0.031186398 0.29935294 -0.0796687 0.09101528 0.049322795 0.124682896 0.022586824 0.1820711 0.056209255 -0.040970977 0.08440451 0.018121464 0.035615653 -0.09057001 -0.020482399 -0.006524823 0.038979188 -0.5312878 -0.061587334 -0.04826616 0.11496577 -0.08809512 0.037087332 -0.009827768 -0.013774616 0.2413229 0.022924373 0.03745324 0.03746056 0.04449975 0.017389013 0.23431355 0.014840716 -0.046597876 0.024241244 0.014352319 -0.027213 -0.032534678 -0.0769244 -0.014293594 0.08671525 -0.8327586 0.0039399317 -0.041702624 0.12648098 -0.17243367 0.15036906 -0.013489777 -0.03449546 0.45167908 0.025139803 -0.049067367 0.08365593 -0.036158964 0.2697181 0.4429953 0.064418346 0.07437714 0.031541064 -0.0850463 -0.08466378 -0.040610895 -0.012792842 -0.016220275
-0.1013337 0.033179734 -0.03503151 -0.07701188 0.06783421 -0.13676855 -0.044796877 -0.018382186 -0.03765799 0.08934649 -0.026088702 -0.07325494 0.024628572 -0.038750235 0.1383524 0.031985383 -0.06017129 -0.15542419 0.050914276 0.023584932 0.06934023 -0.0041749375 0.09486802 0.020896636 0.092434175 0.19094789 0.028422892 0.033399962 0.061456166 -0.07476506 -0.038234275 0.025633002 -0.039442237 0.024975907 -0.014261423 -0.05851716 0.11815832 0.012444609 0.053061347 0.09557272 0.10468796 -0.006433453 0.03693437 -0.08595512 0.046048056 0.015675038 0.02196306 -0.07148022 0.20813468 0.21555197 0.036473516 -0.11516161 0.04524843 -0.1031714 -0.021219438 0.008510377 0.07746866 0.18060303 -0.027791314 0.02199557 0.07865466 -0.042481277 0.1862205 -0.047014423 0.13197978 0.0309127 0.029587472 0.033405434 0.114651255 0.047107823 0.054889347 -0.15660317 0.20670426 0.27545506 0.04260774 -0.13099448 -0.025838759 0.03628792 -0.11405609 -0.06612366 -0.02289238 0.20240262 -0.0033881802 0.062903054 0.08267966 0.0023522072 0.23252599 -0.0071419817 0.09573599 -0.038269464 0.081739075 0.06926424 0.0645239 0.07074949 -0.027385391 -0.135525 0.23691449 0.62862337 -0.062177073 -0.0957848 -0.068635896 0.025756264 -0.0016615852 -0.008832607 -0.076355755 0.0395291 0.0935358 0.026823599 0.22641109 -0.00624906 0.2322538 -0.111191794 0.12002411 0.014926966 0.06640802 -0.063730195 0.06975814 0.0641039 0.025252338 -0.22605567
-0.119480625 0.06530997 0.063637115 -0.104209416 0.11216253 0.049256843 -0.0663042 -0.0277971 0.019387204 0.11726602 0.07890552 -0.057612732 0.02825209 -0.0754918 -0.014116324 -0.033555716 0.03160606 -0.038679175 0.0016804404 0.010723565 0.0007614302 0.0032150925 0.03824623 0.004144975 -0.0751006 0.2285105 -0.018286046 -0.08918819 0.050026145 0.082611285 0.020528937 -0.13361172 -0.09830995 0.09656259 -0.028732598 -0.024652014 0.048602782 0.0215364 -0.01977282 -0.19237192 0.049399775 0.022032555 -0.018514518 -0.013066492 0.037973028 0.043237966 0.013507643 0.04049287 -0.087565444 0.3070701 0.060187235 -0.06751882 -0.09689744 -0.0019949987 0.011239064 -0.1428145 0.026174009 0.01765925 0.029943364 0.061519157 0.03211991 -0.09346206 0.067342006 -0.05363261 0.12593338 -0.075464144 0.0071060113 0.048986737 -0.020092372 0.0029729726 -0.07574622 -0.002407628 -0.20354974 0.3771713 0.09077506 -0.09270165 0.020744644 -0.07409335 0.025253598 -0.17807157 -0.022147337 0.043134082 -0.017569432 -0.061204873 -0.134623 -0.099543855 0.08218383 0.092852615 0.048367504 0.037804745 -0.042356804 0.023404185 -0.013089788 -0.010984202 -0.030738978 0.004002186 -0.10442839 0.5496545 0.11055828 0.046784226 -0.028335761 -0.016571775 -0.16132957 -0.129934 -0.1425796 -0.052706607 0.044482257 -0.15438676 -0.110049024 -0.115944736 0.16219477 0.15508504 0.14935061 -0.10354179 -0.09268571 0.016663073 0.010835943 0.07238018 -0.0061928835 0.07776998
0.06476573 -0.17123747 -0.031949338 0.021842228 0.11138402 0.1064173 0.04458323 -0.09828154 0.07293403 0.039049383 -0.070913605 -0.070966534 -0.040767103 -0.06313757 0.037120614 -0.13085692 -0.07281558 -0.12119284 0.015264255 -0.1132679 0.014243902 -0.07409182 0.018565204 0.0802451 -0.0058481805 -0.17877942 -0.0026441896 0.0619051 0.08730623 -0.11764328 0.16355243 -0.07616559 -0.0028870478 -0.030718228 0.0046281056 -0.123588726 -0.1312303 -0.07586997 -0.0022045542 -0.06842291 -0.0824566 -0.0849863 -0.002026088 -0.065690555 0.054948326 0.028875344 -0.0010954491 -0.06955663 0.14443615 -0.18392348 -0.0303786 -0.038869303 -0.056659296 -0.08586242 0.10789579 -0.004271465 -0.023737151 0.08838775 0.010809437 -0.0143800005 -0.07360409 -0.100438915 0.029036444 0.015439688 -0.00403693 -0.12702893 -0.1214062 -0.0056992834 -0.05595637 0.014013754 -0.021124117 -0.072139926 0.25557452 -0.3314002 -0.078872055 -0.07480321 -0.11108543 -0.0464088 0.0842618 -0.010769359 -0.02621303 -0.089364536 -0.09053383 -0.092095874 0.066189356 -0.10037729 -0.10778893 -0.14604001 -0.036146402 -0.042261817 -0.030729972 -0.05986625 0.089148924 -0.06719469 -0.021310754 -0.05694027 0.3326421 -0.5295482 -0.021840291 0.06238057 -0.10257757 0.009202149 0.046240624 -0.115852475 -0.11120692 -0.12284653 -0.028931528 -0.08851121 -0.16023393 -0.2660931 -0.049683932 -0.36941573 -0.0021086703 0.04697522 -0.08534827 -0.12988111 0.16305827 0.04980502 -0.01482962 -0.0905656
-0.0734218 0.034049444 0.09160255 0.026815481 0.060260467 0.10937006 -0.07546757 -0.006089617 -0.0009481492 -0.039382026 -0.1135899 -0.0699528 -0.07070396 0.036148842 -0.06755534 0.012553796 0.09062692 0.07126028 -0.025323542 -0.027944684 -0.0019103845 0.039684948 0.0152261825 -0.0012713184 -0.09387118 -0.08643691 0.006594977 -0.027637398 0.039151583 0.024978772 -0.066536 0.05516204 0.11202109 -0.16514732 -0.030948887 -0.032666776 -0.0010038369 0.0030857483 -0.04754663 -0.02056903 -0.07309343 0.1879775 -0.08866 0.044321124 -0.06833051 0.0010363851 -0.04177887 0.048691627 0.071408056 -0.23032543 -0.029204467 0.039718702 0.09002763 -0.045977864 0.043172706 0.07251848 0.12755102 -0.035362024 0.04870583 -0.05761401 0.052479934 0.17483543 -0.10203546 -0.02933296 -0.03581495 0.09916611 -0.04516231 -0.038256366 -0.13789009 -0.039386675 0.023246503 -0.0016910334 0.092277914 -0.4291677 -0.04476561 -0.0041570873 0.14786465 0.061331723 0.036880977 -0.004931731 0.049270913 -0.05523689 -0.118047565 0.0140155535 0.14451152 0.11059344 -0.040784404 -0.06415434 -0.07843846 0.09163415 -0.0565779 0.06370819 -0.2021367 -0.019378409 0.012130912 0.06467619 0.19062562 -0.6680928 -0.07426247 0.030040964 0.18020532 -0.099759035 0.0890885 0.08519822 0.014591503 -0.055535056 -0.008666473 -0.002404023 0.41955397 0.29322785 -0.11555474 0.0058101537 -0.072649606 0.13458204 -0.0044431235 0.04409201 -0.33866876 -0.05134099 -0.0019496894 0.09254737
-0.05322944 -0.07382636 -0.07601228 -0.040408038 -0.044424232 -0.0879002 -0.1292918 -0.08064802 -0.069527425 0.21403885 0.0664328 -0.047496065 -0.15582204 0.21957357 0.08782367 -0.015003508 -0.03426557 -0.05568969 0.038143434 -0.008064435 -0.019557893 -0.033672012 0.026588483 0.016525412 -0.09592175 -0.20128773 0.0012692271 -0.094284475 -0.014305913 -0.09039644 -0.010648667 0.035042644 -0.012682318 0.20663594 0.034251004 0.1083342 -0.033381972 0.15349817 0.04390858 0.01689879 -0.10454936 -0.02320948 0.070711404 0.016908986 0.0115657365 -0.032031372 0.043714695 -0.006025279 -0.27220723 -0.30023503 -0.006259283 -0.014797815 -0.03795563 -0.02816534 -0.15142944 0.030111339 -0.059796944 0.228404 0.10150524 0.10859223 -0.1405606 -0.01721288 0.034136817 0.028114673 -0.01889765 -0.025696084 0.03399147 0.06581312 -0.047021523 -0.06254541 0.00037985705 0.055650514 -0.22277977 -0.37797257 -0.06808573 0.035699874 -0.08116209 0.040546264 -0.033462863 0.031666353 -0.043224838 0.23987159 0.09503882 0.0022556072 -0.20948724 -0.03510738 0.08035597 0.22968452 -0.13113044 0.092272796 -0.04200342 0.019675924 -0.019566268 -0.0751391 0.042339727 -0.005032821 -0.54978305 -0.5764395 0.06096014 -0.025641166 -0.0506296 -0.0013530458 -0.2557505 -0.0616744 0.1153577 0.265477 -0.046314523 0.020271132 -0.5008845 -0.058359154 0.024725247 0.21237473 0.011512942 0.050559767 0.011640478 -0.07122132 0.011765889 0.007925384 0.016823836 -0.04445004
-0.08100162 0.014989562 0.027137652 -0.0075574033 -0.04021687 0.18815045 0.074128516 0.059008006 -0.1085571 -0.06628928 0.11026101 0.031173367 0.13649258 -0.082227536 0.014436318 0.09712485 0.3690924 0.015286014 -0.017161174 0.0029985923 -0.017811252 0.0044486863 0.009968782 -0.025819778 -0.03171249 -0.14260323 -0.034592904 -0.0936927 0.09319561 0.09788096 0.13275905 -0.020046886 -0.034142107 -0.121586 0.14926422 0.118038185 0.14493577 -0.089113645 -0.002600504 0.01537417 0.2679286 0.08741794 -0.009159559 -0.0033023185 -0.0019782116 0.080801584 0.063861154 -0.031906966 -0.10029948 0.03184315 -0.041729767 -0.032183792 -0.0066163414 0.036426656 0.1164573 0.002585273 -0.021206278 -0.098181985 0.072899304 0.10173964 0.0025857 0.0073787128 -0.008451661 0.026490843 0.27452984 0.058796328 -0.01987468 -0.060218737 -0.032131124 0.028230548 -0.0012585125 0.091646075 -0.17841268 -0.060598746 0.016671669 0.0067169126 0.00274712 0.04515267 0.09458914 -0.013543666 0.010347543 -0.063347585 0.059786223 0.0072547486 0.05015028 -0.09810996 -0.041275837 0.007150542 0.2193957 0.12656043 -0.08580522 -0.03100219 0.044396996 0.0661815 0.018972592 -0.038782567 -0.39913914 0.03193032 -0.027002983 -0.053595036 0.013420264 -0.08893455 0.1761632 -0.008920425 0.005731147 -0.119618244 0.2131491 0.13883896 0.14671531 -0.0023051556 -0.04634859 -0.23982503 0.44849402 0.11602151 -0.05294229 0.02817706 -0.0076135783 0.05187498 -0.024282562 -0.07610412
0.008966411 -0.27621672 -0.07997309 0.05137253 0.080374494 -0.10653142 0.015387771 0.05704014 -0.0070258016 0.15134785 -0.17820619 -0.057057977 -0.07755821 -0.19836357 0.025516456 -0.05208719 -0.2610817 0.005987516 -0.042575266 0.060755234 0.06420789 0.024277154 0.080688275 -0.05550649 -0.044752557 -0.40575388 0.06713341 -0.029768977 0.052200038 -0.101052076 0.08361805 0.08241201 0.018603813 0.14141686 -0.20362327 -0.01633267 0.057538956 -0.27360904 -0.06926042 0.04477509 -0.22753467 0.01486218 -0.04555114 -0.03320256 -0.012095827 -0.07171399 0.004004367 0.028138204 -0.011019333 -0.3393919 0.032755483 0.018061386 0.09239084 0.048206992 0.013361369 0.031217765 -0.01642893 0.09167977 -0.12046437 -0.0034341896 0.13220143 -0.06597276 -0.08899783 -0.022240551 -0.16213866 -0.055087067 -0.030136017 -0.06913808 -0.045132726 0.00057803525 0.028818784 -0.06751013 0.05186567 -0.5078183 -0.026208956 0.01736454 0.029045394 0.17267486 0.07821326 -0.014591618 0.0033648815 0.12482698 -0.22361475 -0.009646953 0.030191429 -0.04531102 -0.04371608 -0.06252275 -0.36635053 -0.051278528 0.02637565 -0.015149616 -0.02152761 0.033760075 -0.012776857 0.022083774 0.11280577 -0.78678775 -0.07421979 0.025027346 -0.007858488 0.25680235 0.07764532 0.0797946 -0.08198231 -0.02515912 -0.31159043 -0.1260485 -0.09614131 -0.152173 -0.0136874365 -0.28929052 -0.38325468 -0.028877651 -0.11052353 0.09083196 0.033061154 -0.042740386 -0.016050396 -0.01755211
-0.09842882 -0.16105409 -0.056163896 -0.016519604 -0.09219044 -0.025354434 -0.03217584 -0.054418016 -0.06498855 -0.09043882 -0.11915097 -0.09824801 0.06499808 0.106911294 -0.00580547 0.03793277 -0.030507896 -0.007699201 0.0060377796 -0.0015404641 0.018220581 -0.010942927 0.008441183 0.028371548 -0.2785627 -0.009863224 0.073111854 -0.095920704 0.10160154 -0.0058654994 0.10335938 -0.05047522 0.0700957 -0.09295938 -0.0011252328 0.04086296 0.100012414 -0.0352973 -0.0011254287 0.021877902 -0.10059621 -0.07253785 -0.022940984 0.0043329247 -0.030970762 0.015477675 0.11391954 -0.0402305 -0.57295275 -0.00665699 -0.0029857764 -0.097952336 0.05243179 -0.042934235 0.056667477 0.02489805 -0.050701898 -0.10890495 -0.033413474 -0.090666905 0.037635665 0.008212897 0.023458652 -0.03709612 -0.21810298 -0.07203555 -0.025501292 0.036064938 -0.05068871 0.0856797 0.09766119 -0.020728467 -0.59442425 -0.04966389 0.08909251 0.06065067 -0.00010558986 0.13095482 0.06103641 -0.039301928 -0.011541805 -0.096191175 -0.13384545 -0.05939194 0.07423586 0.04658162 0.04803841 -0.27670977 -0.3152932 -0.07560357 -0.044623554 0.04351962 -0.011749053 -0.020765875 -0.016889747 0.005626293 -0.9861658 -0.06120635 -0.09001456 -0.047108408 -0.11895747 0.21108314 0.062012717 -0.041083656 -0.09207567 -0.16072893 -0.1088638 -0.04022202 0.1708403 0.007501567 0.0031606501 -0.32862857 -0.43956995 0.015170031 -0.004223928 -0.007149865 -0.033682168 -0.034770533 -0.066414274 -0.030510278
-0.17139159 -0.009997648 -0.020964751 -0.114974536 -0.018601112 -0.04975817 -0.18341583 0.044918634 -0.058003154 0.19357371 -0.07604765 -0.043514516 0.013705091 0.032125812 -0.08129025 0.11644812 -0.046012025 -0.097371854 -0.008471148 0.0047087185 0.048450552 -0.06024936 -0.0018141835 0.039903305 -0.055593554 0.073125675 0.029807441 -0.006688697 0.042306714 0.02857328 -0.11037642 -0.08400506 0.1066752 0.11388891 -0.058237504 -0.08136796 -0.07149153 0.08327303 -0.0014538432 0.13277711 0.020924915 -0.04638946 0.02184368 -0.051182073 0.061702278 -0.0291405 -0.01417855 -0.004244442 0.08481215 -0.0008274106 0.09583664 -0.05970519 -0.05455996 -0.059925653 -0.13482094 0.031617377 -0.033130903 0.22192112 0.016098877 0.036861796 -0.075069174 0.041248374 -0.00475387 0.20359765 -0.0739556 0.03180658 -0.073281474 -0.035193503 -0.031028394 -0.044523638 -0.10149707 0.04110965 0.30250245 -0.32577124 0.07896786 -0.043220233 -0.02742091 -0.13754743 -0.18751746 0.048424166 -0.032320913 0.26631367 -0.09669803 -0.07979817 -0.20140931 -0.0765436 0.12201497 0.2393785 0.025541391 -0.01987799 0.012538864 0.0042693936 0.005156793 0.041948568 0.007887783 0.05619705 0.5075863 -0.5125526 0.0030477794 0.028666714 0.13618574 -0.042394977 -0.12087637 -0.036782116 0.06564736 0.27585503 -0.07730522 0.041761894 -0.18990675 -0.10014125 0.19755541 0.36481863 0.0058615715 0.08709289 -0.008811222 -0.049850315 -0.022050442 0.03228275 -0.07702674 0.0011573106
-0.102695435 -0.27078566 -0.042711668 0.04871998 -0.061174143 0.026574759 0.116359524 0.08516124 0.06494522 0.23225814 -0.038121495 0.022852432 0.023301452 -0.17777473 -0.046402935 0.17309283 -0.048309293 0.037705824 -0.0348481 0.004310871 0.003711214 -0.08723941 -0.0049352 -0.021714536 -0.007682497 -0.45067698 0.006725182 0.055598415 -0.09198921 0.105280064 0.20163988 0.007355514 0.0022514623 0.30044654 0.014233833 0.0174599 0.13130899 -0.061604798 -0.029737342 0.27503812 0.13334852 -0.039319456 0.02000715 -0.018773815 0.059846297 -0.01423047 -0.033609703 0.056743395 0.13206317 -0.6477453 0.033282977 -0.01673855 0.078151934 0.10332814 0.13510247 0.067834385 -0.075709894 0.2788564 -0.008435129 0.06448607 0.14721403 -0.014117844 -0.06997056 0.12376777 0.13738534 0.00047540315 -0.015239151 0.028621618 -0.0072797355 0.061088704 -0.04739365 -0.08039979 0.13761216 -0.9041448 -0.0050541284 -0.03138615 0.116637446 0.14822762 0.26557264 0.0060929316 -0.066346556 0.29566005 0.10860714 0.049453102 0.16713063 0.026157744 -0.05342518 0.0785103 0.049203504 0.15068243 0.02185429 0.04580268 0.016784262 0.013932689 -0.0035544417 -0.09318512 0.13922292 -1.1871583 -0.0796585 0.03728524 0.07831448 0.11796126 0.28591916 0.106798746 -0.15784834 0.40238732 -0.018951548 -0.009596998 0.3687998 0.10687334 -0.115853034 0.16760843 0.24230036 0.1578201 0.0063702622 0.052516412 0.12911473 -0.035201468 -0.035783514 -0.083895355
-0.08426485 0.10193817 0.03956315 -0.087024435 -0.0625663 0.10472129 0.06429378 -0.17173912 -0.02236722 0.06616309 -0.07162006 -0.055969857 0.050859943 -0.14305355 -0.16338016 0.04380723 -0.050075784 0.03222406 0.009940487 -0.005584638 0.042599995 0.013722337 0.019718986 -0.036845952 -0.15402065 -0.00069475773 0.047171034 0.014882049 -0.027191851 0.15283169 0.045370504 -0.11240733 -0.079110384 0.054361526 -0.08638856 -0.043872446 -0.0108268475 -0.12058012 -0.1248779 0.084268786 0.018760605 0.04147028 -0.011776643 -0.0044643115 0.037604928 0.021815274 0.040240396 0.006570226 -0.26821658 0.040946536 0.07252097 -0.03929307 -0.07881969 0.05555511 -0.010348049 -0.104067534 -0.09388522 0.060094744 0.040049404 0.02792038 0.027465146 -0.21625571 -0.10882005 0.024387728 -0.04323859 -0.029265752 0.0033043828 -0.033177886 -0.013821009 -0.01291089 0.06847445 0.045190252 -0.34587458 0.037896752 0.031926136 0.085008904 0.01476766 0.019210255 0.08532968 -0.21541078 0.003286548 -0.0019232859 -0.0009515861 -0.0189108 -0.10204716 -0.44911692 -0.041217297 0.04896785 -0.09026437 0.030716065 0.07622844 0.050967105 -0.03682686 0.027026962 0.02626974 -0.07047082 -0.40852797 0.025870783 -0.026510218 0.025095072 -0.018820774 0.008522556 0.05187962 -0.23318754 -0.15804231 0.059498213 0.012336718 -0.029174212 0.040924553 -0.39690423 -0.1577069 0.35172933 -0.059998173 -0.06416378 0.02229437 0.003522126 0.054884743 0.088340275 0.016190117 -0.08708671
0.050939146 0.033865694 0.086170256 0.07223694 0.05199321 0.028308261 -0.024975324 -0.08816282 -0.056996834 0.0101824915 -0.00013694439 -0.089794725 0.0022000729 -0.23773259 0.092074946 0.10561914 -0.15094844 0.050879687 -0.021435408 0.10257616 -0.040006936 0.025974363 -0.002925 -0.046823375 0.19479483 0.010815576 0.039586507 -0.019612838 0.10316514 0.013431928 -0.020535288 -0.06811112 -0.08994404 0.030879611 -0.102204666 -0.0044511235 0.15051971 -0.09350707 0.012594051 0.003226827 0.025817601 -0.031690333 -0.037946995 0.0733103 0.046052817 0.002094024 -0.10295047 -0.032311067 0.3406168 0.08701013 0.024595305 0.0642671 0.0003201249 0.15738027 -0.07000455 -0.058977634 -0.017229341 -0.014876198 -0.1371387 -0.06418817 -0.043141067 -0.009148164 0.025148062 -0.0162969 -0.0017219712 8.485933e-06 -0.07392396 0.034063302 -0.056689925 -0.021152353 -0.1113898 0.05599232 0.49612516 0.21848246 0.0007464128 -0.06754584 0.03265634 0.14948826 0.058640074 -0.04592238 -0.06401323 0.02561198 0.016440215 -0.00038559374 0.17519942 -0.03516824 -0.035438325 -0.056760225 -0.07361235 0.07694981 -0.03335843 0.102955885 0.060614675 0.08288049 -0.19163874 0.06860546 0.68765557 0.26799452 0.12912557 -0.0736839 0.068364754 0.20365755 0.042286623 0.0288172 -0.12168643 0.08249363 -0.124762915 -0.025276653 -0.008001794 -0.014685057 -0.11738287 0.08464377 -0.054315455 -0.07293722 0.018197352 0.13711442 0.02254052 0.008681735 -0.11171341 -0.03223702
0.12478319 0.020580223 -0.04287519 0.045607902 0.011859288 0.06492085 0.05716978 0.0678203 0.07293879 -0.02006374 -0.0875693 -0.08468172 -0.06554274 0.09046115 0.026509304 -0.081146285 0.10925272 -0.053270135 -0.04066053 0.095281705 0.03818529 0.049511485 -0.018630547 0.028832164 0.012264616 -0.21342283 0.07418024 -0.01530819 -0.08422237 -0.02419389 0.030944144 0.06427806 -0.014275578 -0.04658633 0.026116494 0.054330125 -0.0714017 0.02861349 0.038367257 0.05976277 -0.06828692 0.0014724568 -0.018057132 0.030989356 0.06364405 -0.08363724 0.02084404 -0.021532621 -0.17039698 -0.31150213 -0.0009671097 0.058954805 -0.08974366 -0.023376662 -0.052880827 0.055781305 0.123903796 0.08012146 0.0016981243 -0.10037992 -0.057832863 -0.009832317 0.06257019 0.076848835 -0.11126143 -0.065174684 -0.07796215 -0.009213996 -0.042105947 -0.06368863 0.032652892 0.025534999 -0.29172158 -0.49282667 0.038990367 -0.03958757 -0.036964387 0.00062512595 -0.12048298 0.08516564 -0.0148174735 -0.014780567 -0.019624881 0.009302939 -0.16570283 0.055354934 -0.06263848 -0.059563607 0.0047955904 -0.08234953 -0.05552004 0.07930732 0.040877603 -0.010305744 -0.053656 0.031040618 -0.28725424 -0.89153826 -0.044015475 -0.005753097 0.059362113 0.0039362074 -0.021275457 0.07932569 0.09782789 0.069747224 -0.08273423 0.015563761 -0.42493483 0.026189303 0.0018594445 -0.11254441 -0.035784453 -0.18863045 -0.10072715 0.05942809 -0.0850855 0.014422699 -0.053215627 0.06442147
-0.033520635 0.0037081577 -0.05794606 -0.00045041187 -0.06847855 0.1292262 0.009924454 -0.13844731 -0.073860675 -0.064767264 0.09938547 -0.036639184 0.046136916 -0.15427539 0.07857139 -0.060045183 -0.012913427 -0.001579382 -0.031209812 -0.042922154 0.02927076 0.054449726 0.030226627 0.0065730303 -0.0540422 0.12760814 -0.09617128 -0.019358119 0.025436403 0.07549453 -0.028940482 -0.17002116 -0.001726966 0.010826435 0.015746359 0.102878444 -0.11673079 0.014233222 0.015951442 -0.1530041 -0.017820282 -0.016815193 0.005514922 -0.03362564 -0.012691582 0.07121786 0.105874725 0.014303667 0.09224577 0.080510855 -0.0017716085 -0.028725313 -0.02842285 -0.034622252 -0.06327454 -0.108236216 -0.12890558 -0.11734835 0.0110761775 0.1160143 -0.1372426 -0.12251988 -0.058898356 -0.16846901 0.014051849 -0.036869176 0.015913736 -0.047879588 0.023648331 0.03006342 0.024752537 0.06707857 0.11847048 0.16540462 -0.037227795 -0.073345095 -0.03767215 -0.11519792 -0.05506398 -0.017458208 -0.050475206 -0.097245686 0.13551468 -0.018527541 -0.18862714 -0.09984282 0.009332275 -0.18495753 0.010956253 0.01255372 -0.059827633 -0.12559663 -0.005388424 0.00716876 0.09635135 -0.059052456 0.28072557 0.5400271 0.017779581 -0.03495225 -0.14570446 -0.0617042 -0.088278435 -0.15810816 -0.15375735 -0.24027349 -0.007698714 0.06917736 -0.18942545 -0.27716205 -0.020979336 -0.23087016 0.12177004 0.119725354 -0.05155754 -0.094839364 0.064524494 -0.03449651 0.08085868 -0.109154776
-0.009820245 -0.07062205 -0.09322054 0.028186299 0.15118897 -0.023719607 -0.011174002 0.0828938 0.044640955 -0.12361272 -0.1251018 -0.03305005 0.11834325 0.040614467 -0.0778257 -0.016445167 -0.13346069 -0.058483776 -0.00024663605 -0.03908508 0.06566904 0.009270841 -0.03399482 0.06887465 -0.04156745 -0.07912012 -0.08370671 -0.019058328 0.03217145 0.046740264 -0.0005137136 -0.07811095 0.12571475 -0.06261042 -0.033905137 -0.06879052 0.09868373 0.079212986 0.05634846 0.029519396 -0.09474741 0.013914298 -0.0031347102 0.01711304 0.032764222 -0.026613975 -0.04066545 -0.0092694545 0.09756305 -0.028977772 -0.001000414 -0.092030406 0.14449883 0.1786889 0.13019334 0.08977331 0.12859473 0.0072383904 -0.12235097 -0.06713778 0.15906884 0.041805554 0.098972544 -0.11463955 -0.119699374 0.118089974 -0.01695876 0.022236213 -0.022899177 0.038345855 0.009546298 0.0007548359 0.077923104 0.002877585 -0.08274555 -0.08700677 -0.05072965 0.23170897 0.21729967 0.034216493 0.096481666 -0.15523677 -0.048182312 -0.07964699 0.3175153 0.10222994 0.007584909 -0.03523603 -0.19137111 -0.051480096 -0.015494759 -0.07018654 0.019468578 -0.02934921 -0.031568624 0.018496009 0.111381255 -0.1489015 -0.06447839 -0.03732032 0.04417749 0.20011593 0.2839628 -0.027838202 0.13059354 -0.093792446 -0.21376346 -0.10522177 0.40629327 0.25058904 0.24112295 -0.17249563 -0.39158297 0.07389499 0.060819052 0.015274186 -0.11800437 0.03564181 -0.024407495 0.0430869
-0.18413244 0.13479753 -0.0070016347 0.02345236 -0.1378547 0.121468425 0.054074988 -0.05668886 -0.047095843 -0.02173078 0.00824949 -0.027723577 0.12401704 0.15829453 0.040130198 0.0548193 -0.009967667 -0.040438823 -0.06407739 -0.042536326 -0.040935077 0.013652748 0.0054374095 -0.006222308 -0.23867904 0.12889925 0.04998146 -0.025965791 -0.08688083 0.09085979 0.119457945 -0.14976066 -0.06433866 0.00413928 -0.074718595 0.052414197 0.12550184 0.031680048 0.05063753 -0.07538199 0.0040515643 0.002307424 -0.049332704 0.017618032 -0.05915937 0.020769995 -0.03747814 -0.05289692 -0.10144057 0.07676929 0.07135067 -0.050042003 -0.0021017613 -0.08600139 0.04030454 -0.061298266 -0.0830544 -0.07516036 0.011188563 -0.03713368 0.1890718 0.025084676 0.01024046 0.008142675 0.062593006 0.027016032 0.053101588 0.006783528 0.09010601 -0.04823864 0.010055209 0.021314852 -0.10898686 0.014945864 -0.03339293 -0.08557313 -0.0036968112 -0.14098422 0.007632461 0.0051927087 -0.031787798 -0.1150573 -0.09557508 0.06385174 0.11765743 -0.06490384 -0.004942699 -0.17089574 0.19040415 0.07624713 0.035864785 0.010447275 0.03113241 -0.039440025 -0.054544624 0.028839316 -0.22586444 0.079647705 -0.039201513 -0.110447004 0.031076912 0.07473548 0.22983366 -0.15798973 -0.070840456 -0.044131376 -0.08084384 0.12338561 0.47400904 -0.24560554 0.28012305 -0.24774206 0.10781324 0.24737129 0.061901614 -0.046514556 0.112191476 -0.04828307 -0.054318897 0.030911699
-0.023084486 -0.01775118 0.03876269 0.07623219 0.021516308 0.12509945 -0.08035156 -0.07830549 0.029312218 -0.11458248 0.06014141 -0.048780993 0.14762387 0.07960521 -0.026704429 -0.06652335 -0.10925899 -0.1146626 -0.005569943 0.021392563 0.035349198 0.025126342 -0.0007997414 -0.012680793 -0.06210337 0.17285515 -0.058567915 -0.071662016 0.1506922 0.16443475 0.063631296 -0.07152393 -0.04269512 -0.16274156 0.06330878 0.051723182 -0.012052086 0.07593271 0.006324628 -0.057016276 -0.13177626 -0.09641403 0.012773777 0.02780056 -0.008806443 0.023122998 0.040826153 0.064977355 0.082461186 0.20773563 0.09893713 0.018551545 0.10570189 0.17856412 -0.082914926 -0.14453338 0.029256474 0.014529806 0.03382463 0.046129487 0.00061655376 -0.036799096 -0.054455046 0.06016753 -0.1144637 0.02078623 -0.02308381 -0.025448525 0.05599656 0.069847465 -0.011076184 0.035880078 0.13156751 0.3081419 -0.016951527 0.026554845 -0.031480536 0.14707178 0.006908482 -0.023171194 -0.044283245 -0.09392263 0.12781596 0.07177655 -0.024035811 -0.074055485 0.015266526 0.03559036 -0.18621738 -0.04361883 -0.017957808 -0.07824353 0.031044368 0.055758122 0.022279987 -0.0082119955 0.19244719 0.58662397 0.09669512 0.06794019 -0.011487274 0.21586801 -0.1163923 -0.08399154 -0.078137726 -0.11167239 0.0627184 0.09229882 -0.019727886 -0.023022842 -0.019494327 0.03858745 -0.18502158 -0.024220306 -0.039407257 -0.09835477 0.018101543 0.08328476 -0.083586216 -0.092426665
-0.020717211 -0.0149386525 -0.07417847 -0.11247366 -0.07894651 -0.10219962 0.012806081 0.06417059 0.051426902 0.09054673 -0.002579666 -0.03243538 0.069893576 0.068256035 -0.019545997 0.20951343 0.123517156 0.037029255 0.042716622 0.05812276 -0.0071382876 -0.037489206 -0.0044655697 -0.059670486 -0.1715581 0.06895305 0.005400529 -0.040859655 0.03409572 0.094335414 -0.111305125 -0.013312687 -0.0018609806 0.10717852 0.0021536015 0.008843797 0.09089366 0.0392 0.051642377 0.15057664 0.08112936 -0.0054260837 0.027368112 0.014949778 -0.011026127 -0.047338422 0.023609957 -0.008161092 -0.3450927 0.023507819 -0.018407725 0.06737216 -0.07077759 0.1594662 0.012514012 0.06665331 0.13464142 0.039907366 -0.081571646 0.017951809 0.016887853 0.021582903 -0.05152894 0.27486673 -0.10460825 -0.015452665 0.042912316 0.08223114 -0.007536669 0.027113823 0.035511643 0.05105341 -0.5581801 0.1419509 -0.06748262 -0.0145338485 0.04977207 0.26114082 -0.0816348 0.07859261 0.027484125 0.12559807 -0.078226075 0.004741473 -0.007344746 0.16149691 0.0761777 0.34186175 -0.06046472 -0.07372877 0.06596471 0.11045093 0.049218535 0.029689856 -0.00096611347 0.009874939 -0.8137339 0.3009829 -0.03415001 -0.088467374 -0.034399834 0.029120535 -0.006130619 0.107886076 0.019967938 0.17505905 -0.05629782 -0.13618289 0.066722594 0.28372154 -0.048204094 0.5052311 -0.039531793 -0.18047407 0.10433309 0.08104545 -0.06045477 0.0038096341 -0.026933286 0.029293496
-0.0072843274 0.016535968 0.096218124 -0.09997121 -0.007208941 0.027749335 -0.0027269907 -0.0002519027 0.1903143 0.13320817 -0.052203063 -0.07392375 -0.055556152 0.17608531 -0.02487254 -0.015681202 0.04996348 -0.009566208 -0.0043803533 0.07035836 0.04300395 -0.028334165 -0.03691103 -0.029894575 -0.21819547 -0.08101845 -0.04331125 0.016224675 0.059875198 0.03886087 0.052551292 0.013029701 0.18363522 0.12677023 -0.0810929 -0.008415399 -0.07820519 0.16574608 0.0777947 0.13393655 0.12852283 0.007224249 -0.07550833 0.072673656 0.047383018 0.03341351 -0.058940858 -0.058176063 -0.34694457 -0.12883146 0.019556848 0.029560091 0.014198616 0.09416223 0.02040955 -0.00051392283 0.09612881 -0.010962757 -0.03804988 0.008526702 -0.11336661 0.20633478 0.017827405 0.17467758 -0.018383611 -0.059591472 -0.038607713 0.07691035 0.062123675 0.007068319 -0.049170345 -0.032282773 -0.5858795 -0.3401451 -0.06406572 0.060514215 -0.05024499 0.073437154 0.015021635 -0.03310692 0.19106445 0.04026297 -0.06668292 -0.0031669727 -0.29705602 0.24786553 0.023829922 0.088170536 -0.058687765 -0.0047472008 -0.010660104 0.08299639 0.015812568 0.045029875 -0.016220732 0.0050531216 -0.75317544 -0.4328639 -0.0067590224 0.01948465 -0.007949743 0.08435093 -0.06353783 0.06587231 0.010869837 0.14533046 -0.040342204 -0.07937776 -0.44731775 0.3929162 0.050863355 0.39066064 -0.15419902 0.023794457 -0.06609096 0.047524743 0.018660292 0.062474035 0.019719666 0.039874848
-0.15982483 0.168464 -0.010017787 0.022347469 0.16010636 -0.024930356 -0.15536316 0.000934173 0.0917518 0.11680613 -0.025021372 -0.08072093 -0.11516664 0.0065391967 0.03003558 0.061525654 -0.10743246 -0.0316332 0.02858354 -0.044771377 0.0012487161 0.038595997 0.070036456 0.007981795 -0.1438746 0.2279967 -0.08026417 0.06384656 0.008208338 -0.05903178 -0.14847426 0.03435976 -0.01885838 0.1324894 -0.08547275 -0.015789209 -0.19628973 -0.016562628 -0.08755471 -0.05550857 0.0051456364 0.019204617 0.07042343 -0.03239632 0.013536505 0.03750596 -0.006481529 -0.02986913 -0.049180433 0.25992426 -0.07286404 0.02431356 -0.066883795 0.013028495 -0.28399178 0.078409955 0.004852996 4.609761e-05 -0.073996946 -0.06519327 -0.12825689 0.020705046 -0.012301523 -0.0144575825 -0.10226421 0.014201592 -0.00092786975 -0.059603043 0.021471681 0.026906868 -0.034432087 0.0130833695 -0.04779271 0.35040092 -0.044895504 -0.01619168 0.055527993 -0.037169404 -0.20327312 0.08401424 0.021920195 0.09722123 0.026665403 0.09915967 -0.2608072 0.00048405453 0.09429959 0.18343261 0.05266833 0.0846975 0.053429417 -0.05126339 -0.05122259 0.014855635 0.061090197 0.049284972 0.028909689 0.7087691 0.0038382767 0.013261803 0.05880232 -0.051591333 -0.3679257 -0.109060206 0.16602862 0.08552801 -0.025574772 0.14642331 -0.2902626 -0.06324801 0.2251397 0.34128368 0.17363471 0.13460363 0.0672067 -0.060490534 0.01843721 0.079002365 0.08090015 -0.021552706
-0.0618583 -0.14896508 -0.027712297 -0.113408536 -0.06733926 -0.07351057 -0.101230696 0.00054633745 -0.034717306 0.12982944 -0.0047994507 -0.044995707 -0.084722444 0.07934041 -0.012900994 0.16236678 -0.0478729 0.065816894 -0.0032074526 0.09409069 0.024255037 -0.014250438 -0.03133531 0.024311757 -0.106254384 -0.17224772 0.011071981 0.008333573 -0.008322632 -0.06519969 0.013129525 0.066408716 0.06505196 -0.0002052092 -0.031117337 0.069799304 -0.13809559 0.03729351 0.050437815 0.060226273 -0.008606014 0.059491973 0.068967596 0.029234674 -0.06592504 -0.029831333 -0.0623956 -0.014204667 -0.14062802 0.014875368 0.10123974 0.023690466 0.07503662 0.13351448 -0.17259166 0.03837073 0.104374714 0.14056557 -0.14336288 -0.10917612 -0.09551087 0.2755111 -0.0029549033 0.058043584 -0.21741705 0.004590015 0.11491246 0.036957707 0.0310478 0.017589135 0.004038047 0.015457872 -0.08774946 0.07456011 -0.04254414 0.027778126 -0.0397642 0.24066721 -0.15753135 -0.032421805 0.01598516 0.09903168 -0.14241636 -0.11519231 -0.3081112 0.32941398 0.1418725 0.044939037 -0.27142522 0.035553847 0.04039732 0.10075607 -0.07066002 0.078294694 -0.029068306 -0.041222375 -0.03131348 0.14034791 0.10693192 -0.042867135 -0.02892011 0.18192564 -0.22312671 0.17742611 0.00020074987 0.20043536 -0.13220088 -0.12126135 -0.52619076 0.47568893 0.069329076 0.14828573 -0.31977633 0.038255684 0.021945382 0.048616156 -0.0427738 -0.033833496 -0.094459385 0.033660915
0.106447965 0.090242155 0.017703135 -0.02496617 -0.041986864 -0.05953117 0.10417018 -0.033036284 0.016691383 -0.14073594 -0.043656368 -0.05238913 0.16343297 -0.15423925 0.03579597 -0.10707881 0.020386845 0.04437328 -0.036738567 0.024139384 0.048181154 0.0077519696 0.061853707 -0.037187763 0.0007608492 0.10210528 -0.056405704 -0.046554998 0.0012891544 -0.02969894 0.23925106 -0.03419461 0.06990567 -0.043281488 0.028554704 0.038255326 0.05906319 -0.23276456 -0.023483971 -0.17929456 0.12196339 0.062443983 -0.06657776 0.019927192 0.03086936 -0.090881824 -0.017740536 0.019313246 0.038579226 0.057882436 0.072249636 -0.042012397 -0.08262311 -0.12320202 0.15709738 -0.08868072 -0.10346701 -0.21634528 -0.02146893 0.058732282 0.11393792 -0.20374057 0.03879716 -0.21191223 0.04744891 0.087372586 -0.06431682 0.0040244204 0.074475445 0.001431685 0.01617865 0.014852987 -0.08918873 0.005363078 -0.08484496 -0.05210166 -0.11569542 -0.12122631 0.25723782 -0.09149421 -0.010485366 -0.17613408 -0.009749257 0.046246897 0.2518097 -0.3302645 0.019030925 -0.3517467 0.034375336 0.061270095 -0.122462936 -0.049982984 -0.0335448 -0.0953516 0.06912105 0.023494564 -0.14581949 -0.024589645 0.007998835 0.060679477 0.058055915 -0.18879503 0.39356825 -0.08195027 -0.02427288 -0.38105112 -0.036989342 -0.059661537 0.23959312 -0.52254343 0.02550116 -0.5249624 -0.035530407 0.13169652 -0.084320284 -0.09696409 -0.020163093 -0.10132016 -0.00333411 0.00857368
-0.057355918 0.07864118 0.05793572 -0.016128263 0.0058256285 -0.06326349 0.02697568 0.10917101 -0.0054171877 0.16873854 0.06831532 0.008379369 -0.009458171 -0.020191519 -0.0020387133 0.21154045 0.032569565 0.029013151 -0.06415059 0.0308078 0.011957068 -0.081936605 0.0040524965 0.012773701 0.046737105 -0.05016077 0.09843473 0.0039807553 -0.03989769 0.0032746552 -0.02866855 0.0926121 0.049799066 0.2090089 -0.09104385 -0.068678245 0.10499181 0.051910926 0.025522666 0.30440223 0.17230898 0.028319372 0.003648352 -0.034238208 -0.062590696 -0.00795273 0.0111699505 -0.009718226 -0.07235909 0.06457406 0.047205262 -0.00019715019 -0.09593886 0.0557174 -0.121858835 0.10132998 0.01340904 0.14043152 -0.08472435 0.009036232 -0.0615405 -0.06326174 0.08367846 0.20659545 0.13346423 0.051402472 0.047775418 0.01074327 -0.05540502 -0.010332342 0.01550484 -0.022600617 -0.17401011 -0.16264799 -0.013063038 -0.0044217114 0.01645198 -0.016655682 -0.10586407 -0.015752148 -0.037652094 0.300738 0.058128927 -0.081428066 -0.1435205 -0.09663617 0.03165361 0.37432775 0.024050009 0.01786686 0.014061374 -0.045817204 0.021007158 0.0135115 0.09677599 -0.026737208 -0.14514822 -0.19215696 0.008367488 -0.023410235 0.15687856 -0.12274491 -0.05985135 0.0831474 0.15451959 0.3170741 0.06890915 0.10477935 0.053539153 -0.052013658 0.036102552 0.5968977 0.28622198 -0.15805729 0.097643904 0.009129128 0.016757978 -0.021998689 0.049558025 0.028957475
0.072033726 -0.06985025 -0.046118896 -0.04841666 -0.00095602503 -0.21071912 0.17999935 0.067368574 0.008629488 -0.11403121 -0.059259176 -0.073433444 0.16815239 0.10829756 0.11041532 -0.046836648 0.03976498 -0.038474925 -0.0218072 0.08646185 -0.015146283 0.009060848 -0.055112332 0.015274745 -0.07860653 -0.13973165 0.027449554 0.071916044 0.02796139 -0.23382264 0.22523431 -0.020704608 0.082165204 -0.11250121 -0.06520608 0.018964464 0.11096962 -0.048411697 0.101185 -0.07042352 -0.08019117 0.014211258 -0.043518286 0.06748176 -0.04681844 0.043064166 0.0005265147 -0.011607463 -0.20755212 -0.06615173 -0.037209135 0.03632306 0.09792837 -0.14490809 0.15604547 -0.013159445 0.1333733 -0.21241985 -0.0846106 -0.08302327 0.12317629 0.117134996 0.09526838 -0.25959733 -0.080445245 -0.0653444 0.014676076 0.025869688 0.024275597 -0.017360583 -0.103429675 0.055535432 -0.20057586 -0.14319798 -0.022364551 -0.014430776 -0.0015116584 0.022394672 0.20129256 0.04763069 0.04155469 -0.26235732 -0.14225355 -0.06411709 0.21828988 0.10824704 0.05968354 -0.26287583 -0.28916013 -0.009662354 0.058749933 0.055192497 0.013378664 -0.05633069 -0.032365456 0.060948525 -0.27454716 -0.19473176 0.05618919 0.0065478706 -0.06067414 0.024863085 0.35966173 0.06502872 0.08508445 -0.13847667 -0.18275204 -0.14534715 0.40987813 0.19589427 -0.007103136 -0.4049608 -0.35244313 -0.00093912904 0.06788437 0.02117961 -0.051870517 -0.031552356 -0.08007377 0.09190097
0.14236017 0.07454635 -0.041262046 -0.08040456 -0.064896554 0.06594628 0.0109530315 0.04369244 -0.04917546 0.04380223 0.014825662 -0.08979002 0.034778032 0.02247464 -0.0035122999 -0.10809027 -0.10354391 -0.023687717 -0.03913282 -0.09144884 -0.0149663575 0.08276508 0.07500073 -0.05784348 -0.047750536 0.00968488 0.030093148 -0.035665255 -0.03995247 -0.032506827 0.03543749 -0.08070151 0.014928736 -0.079036 -0.12150143 -0.037528645 -0.06779775 -0.011523991 -0.10045295 -0.15289365 -0.029773897 -0.032761056 0.014820444 -0.018227514 0.07924269 0.07316703 0.043875176 -0.030200334 -0.12071459 -0.01128723 0.02624892 0.065683536 0.036581486 -0.09753037 0.07120667 -0.017842397 0.017463418 -0.07293783 0.028568821 -0.12027445 0.028611064 -0.022734774 -0.09855693 -0.1541503 -0.09487462 -0.08449542 -0.05079719 -0.06821217 0.032956205 0.060324684 0.050856393 0.11583574 -0.07327848 -0.05082071 0.042238567 0.0919768 0.062288962 -0.057495136 0.08226661 -0.009313894 -0.084827825 -0.12689142 -0.10666417 -0.13038634 -0.051386334 -0.1556563 -0.09515393 -0.11068509 -0.18245913 0.0053520817 -0.075735256 -0.016620018 0.040927317 0.09832284 0.07248701 -0.01614526 -0.19939935 0.10598034 -0.068715185 -0.06483366 0.08608914 -0.03981001 0.111779146 -0.0773779 -0.11944313 -0.16251858 -0.061285324 -0.09547663 -0.03149523 -0.1849525 -0.009227578 -0.20701154 -0.16305088 -0.07547819 -0.010970905 -0.055621985 -0.039663285 0.067334615 0.04951139 0.01734073
-0.11243472 0.05323928 0.066287756 -0.11204247 -0.044272877 -0.12866138 0.08059783 -0.073264696 0.017619424 -0.08403366 0.018560389 0.14703926 -0.03275148 0.06830593 -0.012380739 0.0012632385 0.19507013 0.05033952 -0.06711566 0.03653776 -0.023155313 0.032510933 0.013570773 0.11665608 0.019913316 0.011356381 0.05227673 0.052022517 0.009653453 -0.08662553 0.082321204 -0.071416475 -0.016075717 -0.23449312 0.11409696 0.053055946 0.017100798 0.03312893 -0.08858272 0.024898756 0.13300481 0.12677288 -0.069322385 0.033078756 -0.0010468584 0.04511528 0.009625528 0.05277771 0.034747377 0.040912997 -0.08265794 0.04495481 0.078986265 -0.10196886 0.06926168 0.043101504 0.0533409 -0.20229675 0.070930436 0.06665861 0.100147806 -0.038663242 0.017900174 0.012962504 0.17186716 0.18897519 -0.07259364 0.009816949 0.015421581 0.0186258 0.026972504 0.02982707 -0.03233479 0.16336145 -0.055048365 -0.06636092 0.025255581 -0.109524846 -0.018535757 0.06575123 -0.018291134 -0.1689887 0.061211456 0.14648542 0.115754195 -0.057276744 -0.048059575 -0.11380838 0.2778428 0.20654649 -0.028103579 -0.002275517 0.0004741656 0.0418063 0.021228777 0.052063473 -0.018162351 0.41327175 -0.09154336 -0.05383583 0.050484866 -0.1523916 0.054347016 -0.050854232 0.036066055 -0.30253607 0.046774093 0.28138644 0.27975878 -0.06085672 -0.06418315 -0.15877481 0.34168023 0.3295958 -0.028721519 0.007509762 0.017948532 -0.020720275 0.08297293 0.0055866446
0.02121245 0.029319363 0.03808194 -0.0063343663 -0.007608425 -0.1932144 0.014789818 0.13347834 0.022950934 -0.0048734667 0.035536967 -0.011529528 0.017480202 0.29218164 -0.005410577 0.021296365 0.08305286 0.002821392 0.017170386 0.047100265 0.017584942 -0.079836436 -0.035277203 0.014422147 -0.05193521 -0.032223392 0.07022876 -0.011593708 0.005452304 -0.024775263 0.105762936 0.15700002 0.11563252 -0.013386535 -0.034468077 -0.080306575 0.01858795 0.17721775 0.06528765 0.065068156 0.11216008 0.07584196 0.026748063 -0.0015748605 -0.039191812 -0.039634746 0.009564898 -0.048794866 -0.03328559 -0.009931382 0.096781865 -0.030941674 0.013662039 -0.0016045524 -0.036565773 0.062392555 0.06159903 0.06296461 -0.076799445 -0.049448844 0.050787758 0.23590283 0.031015242 0.15137054 0.039964378 -0.024395565 0.019360024 0.072469875 -0.03568168 -0.025022443 0.074817464 0.013117822 -0.09274009 -0.19052953 -0.082778536 0.062691316 -0.029656503 -0.06766564 -0.02908657 0.137633 0.060622744 -0.05525758 0.0429467 -0.007057674 -0.10757755 0.26335496 0.10496832 0.24693052 -0.071606465 -0.007835232 -0.02668305 -0.005132531 -0.0020588152 -0.03669098 0.05497701 0.009107213 -0.20603363 -0.18011826 -0.017116923 -0.033150822 0.04412122 -0.15126659 -0.042565126 0.035089504 0.124046914 0.12660228 -0.03621744 0.027186094 -0.0870268 0.23138368 -0.015308756 0.29921687 0.020649966 -0.14321995 0.016698742 0.07411793 0.009184952 0.011271227 0.04241062 0.059241828
-0.06993046 0.15923549 0.04490106 0.06332664 0.011253065 0.0042705955 -0.24586372 -0.18211313 -0.010981367 0.114118665 0.060933467 -0.060316697 0.1529755 -0.0919402 -0.06581958 -0.008123788 -0.045733046 -0.057766937 0.110095404 -0.10641281 0.0955778 -0.06474839 0.041776065 -0.107587345 -0.060675584 0.05407268 0.034711707 -0.025253356 0.11090226 0.06177158 -0.17536356 -0.054992173 0.06357863 -0.03945688 0.014201834 0.012353757 0.12570252 0.022544602 -0.084701516 0.061574753 -0.064618625 -0.009270175 -0.050482467 -0.114856325 0.034222376 -0.043546017 0.015719468 0.0061099147 0.15344876 0.22014548 0.018708851 -0.027163373 -0.04998477 -0.11964743 -0.070389114 -0.1326357 -0.009606872 0.07949953 0.12512136 -0.006307988 0.18535449 -0.1301514 -0.06634369 -0.019882241 -0.047057506 -0.03989755 -0.06912982 -0.034898005 0.057333507 0.044861082 0.012676689 -0.030106245 0.18369573 0.20465282 0.04399203 0.07392295 0.100242734 -0.17454828 -0.0827099 -0.18305898 -0.062209893 0.055944577 0.06565334 0.02046032 0.3693716 -0.2588722 -0.02322705 -0.03843549 0.021257576 0.0045590475 -0.008091752 -0.011785422 -0.015526341 -0.010857503 0.041824304 -0.031671364 0.17591675 0.21874186 0.015310812 -0.010780498 0.13599145 -0.22776769 0.11287947 -0.24359192 -0.027405247 0.020831617 0.014342678 0.062297653 0.47836372 -0.44607863 -0.000649551 0.15053156 0.17060655 0.20790133 -0.011210395 -0.054029576 -0.05135599 0.07916994 0.039211802 -0.07634791
-0.12326905 0.09463398 -0.06953756 -0.03020077 0.1465148 0.21173784 -0.10773859 -0.17109127 0.048833627 0.029412106 -0.04721754 0.002072961 -0.032380033 0.07262348 -0.062159434 0.03197661 -0.03126534 0.091862746 -0.0030218945 0.036043342 0.032542083 0.028939169 0.026188206 -0.0035563074 -0.24292651 -0.0031714477 -0.052436627 0.052813195 0.016861703 0.15293987 -0.035676725 -0.29402974 -0.116376325 0.087064244 -0.13623042 -0.039941836 0.03168979 0.06708899 -0.0068561314 -0.0016766704 -0.08125575 -0.033082955 -0.031301737 0.061087064 0.021069927 -0.0048451493 0.028665554 0.018078757 -0.33189633 -0.15465163 0.049539875 0.06663705 0.027455445 0.019435188 -0.140378 -0.28795496 -0.09100874 0.005795965 -0.052152876 0.045685373 0.045524914 -0.058679238 -0.030052397 0.119829245 -0.12261178 -0.060169253 -0.0008785239 0.05145125 -0.0336969 -0.032672502 0.002822103 -0.018249325 -0.50605106 -0.15490079 -0.0043531926 -0.0135438545 0.18779717 0.04360606 -0.035775818 -0.20873198 -0.0597742 0.023014415 -0.009756787 -0.029024296 0.14431591 -0.12213196 -0.13891485 0.11320914 -0.04911039 -0.0063474984 0.086065225 0.07479656 0.013065378 -0.012347147 0.014037628 0.0021124107 -0.61935693 -0.32945576 -0.07732472 0.00928616 0.23750754 -0.06870994 0.019060628 -0.3219979 -0.06588035 0.11151866 -0.062162753 -0.070479184 0.1816879 -0.3991504 0.08474412 0.07281771 0.10226256 -0.0016517227 0.13498831 -0.040408537 -0.0077610514 -0.025971005 0.077266544 -0.055859726
-0.11151305 0.011784277 0.12932958 0.0023513166 -0.14022988 -0.16372165 0.1548571 0.010913072 0.04897832 -0.14190377 -0.09900914 -0.0026868249 0.1262504 -0.006728597 -0.06582743 -0.09885443 0.025210906 0.031224743 -0.11017888 -0.1048229 0.07062834 -0.06756523 0.022777297 0.039234787 -0.038498748 0.056209717 0.04521157 0.01204508 -0.18982427 -0.03761625 0.108404994 0.10167804 0.06669015 -0.012955779 -0.014538379 -0.10023182 0.020912848 -0.042582598 0.07039704 -0.16336593 -0.09562212 0.047058262 0.016293945 -0.08612115 -0.05642844 0.0018470902 0.054896116 0.027730888 -0.1028957 -0.0005950331 -0.013123743 -0.04140252 -0.008866952 -0.06803549 0.02676893 0.06947804 -0.05731053 -0.16530785 -0.12790193 5.2319843e-05 -0.03715889 0.17780939 0.020566558 -0.23966804 -0.097518094 0.06876332 0.06292432 -0.002334896 -0.055080425 -0.01568989 0.06125297 -0.04796737 -0.1659427 -0.0632359 -0.0042968444 -0.08981927 -0.01812052 -0.11018503 0.08117684 0.13757922 0.0534888 -0.08575662 -0.0067505557 -0.05899798 0.13903424 0.18545608 0.011421266 -0.20503089 -0.09064106 -0.04397468 0.0014229406 -0.056959864 -0.04093786 0.0058696168 -0.014898138 -0.030307537 -0.22790295 -0.11861645 -0.0022200062 0.0431804 -0.030775018 -0.22290857 0.23171985 0.1674938 -0.1120495 -0.22049518 -0.092305735 -0.13730986 0.3042877 0.039131515 0.15053654 -0.27765173 -0.109385125 0.02726038 0.015679656 -0.0818877 -0.08724612 0.13085145 0.012611189 0.04592534
-0.012437077 0.06428581 0.039744306 -0.08096153 0.02746275 0.11402187 -0.039049085 -0.054276604 0.014457565 -0.05732582 0.07997382 0.004995433 -0.032004032 0.050532512 0.13610348 -0.12670353 0.0033104299 -0.11393643 0.103058144 -0.033963222 -0.046877142 -0.082368344 0.032102615 0.05767547 -0.046119407 0.1330921 -0.028754264 -0.0038535672 0.03295981 -0.045086335 0.119258925 -0.08006339 0.10932468 -0.042939276 0.06639544 -0.050030127 0.09569958 0.15623543 0.06265294 -0.0043416778 0.05288893 -0.0023177029 0.031944193 0.042399906 -0.015558119 -0.010020205 -0.044357926 0.009745615 -0.031040076 0.11808258 -0.015971154 -0.073306866 0.010145725 0.11196552 0.1272976 -0.13194925 0.116432585 -0.017461257 0.107588425 0.0017478521 0.1125425 0.27511644 0.13775676 -0.06668625 0.13480186 -0.09346503 0.02730662 0.008441358 0.05084298 -0.013260471 0.02990809 -0.0067817443 -0.07978653 0.021864502 0.06330962 0.026911277 -0.057852507 -0.019330787 0.1549413 -0.12599033 0.07222692 -0.16013604 0.0129268 0.047699463 0.30247638 0.20630792 0.1929026 -0.15233257 0.03841758 -0.043560497 0.028429832 0.05573733 0.051001262 0.016512834 0.019781107 -0.0045190332 -0.033645775 0.035361703 0.033007037 -0.11561455 -0.028062474 0.02612517 0.04853865 0.060996428 -0.010870931 -0.20149338 0.17598504 -0.10200126 0.19561422 0.48643023 0.19123949 -0.2649948 0.26178387 -0.050531063 0.07748559 0.09130648 -0.019731939 -0.041915804 -0.0023559274 0.016420905
-0.009887553 -0.21701716 -0.060365774 0.0034332704 0.046358198 0.021401929 0.027704045 -0.05637888 0.031338975 0.070081405 -0.1008919 0.047628637 -0.16036023 0.0886456 -0.029467516 -0.1175157 -0.039308317 -0.06807359 0.011103482 -0.028339162 -0.05191422 -0.025459278 0.045458347 0.06266912 -0.108885415 -0.14977233 -0.035221677 -0.05858018 0.12535326 -0.051619068 -0.025741646 0.03134982 -0.044830713 0.120325424 -0.10631963 0.06578883 -0.03737565 0.12374833 0.001675543 -0.05258276 -0.034193136 0.0057782405 -0.06700783 0.03428684 0.061340537 -0.04456824 0.10735257 0.029837511 -0.25894952 -0.29412827 0.09243813 0.014765809 0.024827627 0.03498756 -0.068396844 -0.03669947 -0.06931721 0.116056345 -0.015134033 0.07149501 -0.1714754 0.0032364242 -0.044621643 -0.012526453 -0.17740633 -0.07533191 -0.01831329 0.0061483313 -0.0074116206 -0.059106555 0.035117324 -0.008428354 -0.45494387 -0.30053347 -0.042068988 0.007600373 -0.09977384 0.03365903 0.012498262 -0.0063752625 0.083588354 0.08542875 -0.10067323 -0.096550815 -0.3142235 -0.006883077 0.016007792 0.097246766 -0.15159218 -0.0973068 0.03171993 -0.043278124 0.023857905 -0.0043396843 0.033486575 0.04779796 -0.60869807 -0.6459887 0.020291822 -0.010635863 -0.032074146 0.09115665 -0.044846542 -0.05146969 -0.037279606 0.03345282 -0.1540786 -0.1153252 -0.5592372 -0.18174145 -0.11366637 -0.15176779 -0.15542966 -0.003495256 -0.050805774 -0.060169555 0.009264555 -0.041879106 0.0145582 -0.031259205
-0.15337627 0.068194546 -0.09205625 0.0031620674 -0.026428077 -0.002801749 0.11354665 -0.09649951 0.09388297 -0.16035597 0.060174208 0.043594908 0.11462668 0.060075946 0.061330132 -0.008248646 0.08326169 0.042297028 0.03508857 -0.073896945 -0.039576016 0.02297945 0.012994111 0.006773086 -0.19484615 0.1231562 -0.061170135 -0.004678122 -0.094708465 0.111917324 0.1277518 -0.16018364 0.04398717 -0.12543102 0.15175393 -0.055163 0.15099189 0.062265836 -0.01500669 -0.006507527 0.037289336 -0.044159982 0.0071655437 -0.06287891 0.043829385 0.04495217 0.038326286 0.015543479 -0.17123143 0.0025451318 -0.022975313 0.10205718 0.041636292 -0.0133336 0.13954847 -0.038749043 0.10099828 -0.18035343 0.05164946 0.055619657 0.14044416 -0.033938333 0.04408146 0.028037108 0.0149985 0.037206862 0.04829705 0.02962742 -0.030961545 0.048444264 0.0112385275 0.036033034 -0.16311051 0.11796643 0.028001191 -0.0010295805 0.036228992 -0.06566191 0.1760148 -0.08037525 0.13503918 -0.09706168 0.15593362 0.053852044 0.1605391 0.06871633 -0.050687928 0.028079474 0.07113582 0.009269948 0.05410836 0.05226665 -0.039831206 0.05015711 0.048107892 0.04165768 -0.37796572 0.05534501 -0.02134904 0.06376702 0.12994888 -0.07451996 0.22500461 -0.13360758 0.14552473 -0.16567582 0.13508806 -0.026850943 0.5547824 0.12300137 -0.019621301 0.27272514 0.19005463 -0.011437711 0.11472916 -0.006437208 -0.07680135 0.07270741 0.1450794 0.044241678
-0.07969389 -0.085342884 0.062224388 -0.010719333 -0.111913085 0.019888723 0.07191341 -0.020407423 -0.06754353 -0.15321825 -0.0019568836 0.17461535 0.23210147 0.08670883 -0.06885446 -0.13611007 0.0012624654 -0.020461624 -0.058643118 -0.06829129 0.015180366 -0.037495267 -0.057423875 -0.008169341 -0.021227824 -0.050022088 0.029044384 -0.07224314 0.011468724 -0.117681354 -0.010970685 0.02616055 0.03659897 -0.2828123 -0.08815919 0.19460942 0.15066546 0.09847107 0.04774193 -0.046398588 -0.09881423 0.01993827 0.0724898 0.044992328 -0.070804164 -0.048154615 -0.02739735 -0.030423377 0.0058627995 0.111882344 0.064476006 0.038992397 0.04865961 -0.0548436 0.073834494 -0.08069861 0.07017334 -0.22613922 -0.07553705 0.07902475 0.15711306 -0.011959995 -0.09838657 -0.10307796 -0.06865416 -0.07495218 0.025346614 0.04972451 -0.062444307 0.019535137 -0.09195593 0.06303269 -0.11553081 0.23233758 -0.048480533 0.0536054 -0.061922215 -0.14400436 0.083129525 -0.01739331 -0.030885836 -0.33477873 -0.16913481 0.21617438 0.103581764 -0.019354206 -0.0774712 0.07119421 -0.17270991 0.091675244 0.03789623 -0.07184199 -0.099634245 -0.02911474 0.01984834 0.014981642 -0.06089947 0.33541214 -0.027158918 0.037705284 -0.090755135 -0.12152134 0.18209425 -0.029950073 0.018855738 -0.35125053 -0.13765594 0.19729526 0.2370071 -0.094666496 -0.06564502 -0.06022105 -0.17026752 0.26743734 4.4773362e-05 0.00086847664 -0.001690681 0.095618784 0.026842766 0.025352564
0.02312837 0.22394124 -0.019243116 -0.11506014 0.0046718004 0.07241862 0.06412143 0.14031485 0.13550754 -0.11218729 0.06556135 -0.02214683 -0.1329628 0.13154233 -0.10411356 -0.05531775 0.23853724 0.043826047 0.050119847 -0.016201047 -0.004596872 -0.01981526 0.012588859 0.016143413 -0.07855937 0.18596342 0.06263523 0.02383891 0.09240333 0.05462828 -0.04826355 0.091829926 0.049996126 -0.011109881 0.12105283 0.0076306844 0.0033911448 0.030835545 0.024846258 -0.12628935 0.123278454 0.023262134 -0.031095987 0.041012112 0.012631692 -0.054175388 -0.014466182 0.008496736 -0.024945945 0.1557616 -0.037924796 0.024575103 -0.03243927 0.048949774 0.040056333 0.03061663 0.12254282 -0.03983145 0.0042711417 -0.14171708 -0.14197691 0.011737971 0.046721082 0.025525581 -0.028280683 0.08476092 -0.018590765 0.029545216 -0.043790955 -0.05139607 0.04009774 -0.0005438637 -0.27277586 0.11926512 -0.106777966 -0.06859215 -0.01827584 0.1534224 -0.0725573 0.01275322 0.033630576 -0.09802184 0.04085653 -0.024206616 -0.059456322 -0.07545786 -0.045658506 -0.04811959 0.017858654 0.007833903 -0.029706268 0.020689987 0.07243478 -0.029982043 0.020647436 0.043348357 -0.40186176 0.113089725 -0.011334211 -0.013980056 0.03339209 0.08409874 -0.042903766 -0.07504442 0.28234598 -0.15940756 -0.12934181 0.060998082 -0.040255744 -0.21297537 0.14668205 0.052959472 -0.11253271 0.06547429 -0.038856287 -0.0058947313 0.04969689 -0.063526995 -0.010736641 0.0017418542
-0.171608 -0.123396516 0.15677832 -0.046124794 0.020814087 0.14068721 0.12492979 -0.01724593 0.03256529 -0.07849794 -0.09010682 0.06288528 -0.01899783 0.08123955 -0.06655129 0.0055253333 -0.10848421 -0.046823274 0.10308453 0.032889128 -0.03547972 -0.07130873 -0.13339272 0.07147799 -0.25492066 -0.104499556 0.011696977 0.037794407 0.04307633 0.00639898 0.06517262 -0.027149761 -0.086136416 -0.14116491 -0.061310597 0.04339097 0.059779502 0.10770139 -0.08796117 -0.03920981 -0.063035704 0.018756043 0.09350603 1.9918489e-05 -0.059889797 -0.047594577 -0.05444292 -0.033352073 -0.12063752 -0.18249312 0.09810672 -0.044555645 0.03766964 -0.01022861 0.08787095 0.095383584 0.03243144 -0.07964099 -0.056529634 -0.03543401 0.04192351 0.13489346 -0.04429088 -0.06546597 -0.013916305 0.02264712 0.014460385 -0.054851774 -0.01065395 -0.021629484 -0.02514541 0.021403972 -0.09508945 -0.304214 0.07353621 0.048198257 -0.039009504 0.029212758 0.18389358 0.02299649 -0.053157076 -0.14669758 -0.11676378 -0.010437435 0.16323808 0.24112539 -0.014988132 -0.13463172 0.013735248 0.005041161 0.06773127 0.038967352 -0.00012450824 0.0054941014 -0.049216725 0.039975036 -0.18328178 -0.33284983 -0.025235577 0.021797976 -0.08637458 0.07394508 0.2916673 0.08459381 -0.11524993 -0.17106171 0.06184598 -0.15611316 0.113223545 0.22309825 0.095708296 -0.46073338 0.15295064 -0.10632252 0.03199938 0.05728996 0.035637833 0.032849148 -0.029401723 0.05953338
-0.15040748 -0.039048083 -0.042050805 0.07684661 0.059416324 -0.109938756 -0.0921575 0.10148731 -0.06899045 0.10154089 0.052674588 0.04095038 0.04246901 0.049548656 0.11438008 0.081237495 0.048097372 -0.012236953 -0.044363596 -0.056853794 -0.08913579 0.0006518055 -0.009698089 0.02680344 0.09081852 -0.053797897 0.05331332 -0.017491113 0.14128718 -0.063562796 -0.12241697 0.10391182 0.023775566 -0.004116468 -0.09644904 0.14783859 0.03428156 -0.06030301 0.004133605 0.005672184 0.05649509 0.042348843 -0.007576685 -0.030627754 0.005709207 -0.0002929095 -0.10454978 0.009582672 -0.024127191 0.14712992 0.005223485 -0.013619252 0.044880975 0.15609652 0.014427868 -0.0021300872 -0.06660634 0.14484262 -0.025446266 -0.020388296 -0.08806896 0.07369452 0.0737033 0.020433957 0.063571796 0.11979107 -0.040476535 0.026242537 0.039434854 -0.017804472 -0.02297836 -0.059967533 0.07443489 0.28238836 0.020831741 0.016204068 -0.029274585 0.1759332 -0.111912355 0.1270548 -0.09902323 0.13364369 0.03234724 0.09439149 -0.05359766 0.11900088 0.06818513 0.08746404 -0.085949026 0.06596663 -0.030329708 0.072643116 -0.018718397 0.04639833 -0.12408275 0.032813296 0.2062583 0.6518021 -0.05047598 -0.010236157 -0.04640558 0.27369425 -0.22971775 -0.060187228 -0.06360607 0.10262236 -0.0070518786 0.19437635 -0.25904295 0.14391543 -0.0245766 -0.030154767 -0.19852282 0.14031702 -0.049651545 0.069719285 0.06800061 0.027502697 -0.040733933 -0.060387157
-0.029214328 0.038897473 -0.11116183 0.043521922 0.07105641 0.05345545 -0.036088053 -0.09608945 0.10411274 0.116361566 -0.10381377 -0.03398219 -0.084526695 -0.26345682 -0.080073506 0.04062657 -0.0060225353 -0.06415525 -0.027610604 -0.031414766 -0.03481575 -0.024963737 0.0030741375 -0.057030376 0.07443456 -0.045539018 -0.11410525 -0.05707307 -0.007815835 0.020519758 -0.047906943 -0.016762296 -0.070783935 0.1299251 0.030306876 -0.02483118 -0.049241193 -0.117293045 -0.11561901 0.12034098 0.030509297 0.057265148 0.034551486 -0.025840577 0.046429202 -0.04012881 -0.022836031 -0.028723508 0.16795918 -0.09025997 -0.12173721 -0.037110858 -0.12723245 0.08605061 -0.13446778 -0.044099648 -0.02865423 0.16034117 0.007891163 0.045191243 -0.12154575 -0.19081526 -0.059014585 0.11225691 -0.07494936 -0.041105285 0.036438864 -0.04233407 -0.026241222 0.093736984 -0.0054592197 0.06416222 0.4574317 -0.17292449 -0.016095381 0.064782694 0.038577218 0.0011262328 -0.116925865 0.00048842834 0.06228318 0.11074189 -0.11149084 0.070347786 -0.119381964 -0.080041386 0.057286993 0.128458 -0.06391484 -0.040337563 0.031132642 -0.030743826 -0.052843187 -0.0076628295 0.011734337 -0.015258903 0.60650593 -0.1423464 -0.06443689 0.0077009154 -0.064441904 0.03411636 0.019584732 -0.054507382 -0.031168003 0.1827636 -0.12077969 -0.018374844 -0.12202338 -0.19092682 0.13571121 0.09349281 -0.2084467 -0.07568436 -0.04378879 -0.052557714 -0.0040623187 0.049873088 -0.0150457155 -0.028089032
0.11039903 0.09009139 0.021775816 0.015227735 -0.03412365 -0.023845738 -0.09636116 0.07866244 -0.09582558 -0.15874134 0.1115342 -0.06446803 0.14274624 -0.001839531 0.043163538 -0.11522943 0.2591091 0.1217146 0.0084284665 -0.001044543 0.022125091 -0.00725512 -0.06407503 -0.047113486 -0.061113335 0.09849514 -0.020979902 -0.013135595 0.018060995 0.03658063 -0.109183855 -0.059004556 0.003007226 -0.09717095 0.08560919 -0.05069963 0.00591603 -0.11680809 -0.04907785 -0.03452813 -0.064852044 0.035741944 -0.0075031607 0.04429645 -0.01571387 0.0028038113 -0.055664536 -0.07227904 -0.35731643 0.04543438 0.056829017 -0.056437843 0.040503956 -0.0017162722 -0.026299132 0.09254106 -0.09048241 -0.10792668 0.01328974 0.07658606 -0.0349434 -0.14997968 0.0015022939 -0.07928742 -0.04034642 0.0642433 -0.005773613 0.08809505 -0.037286293 0.028367626 -0.02903828 -0.027825082 -0.57843155 0.28756008 -0.046584394 0.0373987 -0.08061917 -0.06522862 -0.032286867 -0.06201639 0.00790403 -0.08816982 0.107521914 0.041655075 -0.12099775 -0.19145183 -0.05040999 -0.069418706 -0.07731905 -0.07484785 -0.014516086 0.10445818 -0.037838437 0.0044189943 -0.09668019 0.055296272 -0.7795268 0.18822289 0.0851932 0.08912812 -0.028908003 -0.07188533 -0.08289907 0.031945206 0.12822263 -0.2335451 -0.100593366 0.0015382842 -0.16276619 -0.0034936164 -0.20128763 -0.04677665 -0.11800463 -0.14122939 -0.033204187 0.049559277 0.007491734 0.09316414 -0.03923891 0.043564666
-0.032025233 -0.032727715 0.02996082 0.035835348 -0.06275575 -0.016834646 0.060145207 -0.111862995 0.08638381 -0.17871846 0.008183541 -0.005276556 0.06522885 0.12953484 0.03292838 -0.06950532 0.075246125 0.055322386 -0.032685746 -0.02581685 0.042882107 -0.088344544 0.012998306 -0.065230876 -0.17188245 -0.13185214 0.085016355 -0.004296014 0.032811653 -0.062844194 0.10197914 -0.08900853 0.0911679 -0.22605291 -0.074593514 -0.031791598 0.06631395 0.17792882 -0.01682372 -0.0050392137 0.047304485 0.06522691 -0.041018546 0.040434267 0.021045296 0.022786556 0.040731814 -0.041738924 -0.30751967 -0.1972239 -0.007929873 -0.01215835 0.021926543 0.008578733 0.21483561 0.012000567 0.036390703 -0.20990701 0.07601172 -0.0678341 -0.071757905 0.1955828 0.05715977 -0.017095253 0.10269534 -0.007823659 0.035513178 0.06425279 0.008197213 0.010589038 0.04079771 0.047897905 -0.48257616 -0.24328095 0.035538483 0.026829584 0.08000986 -0.10496285 0.10420627 0.018542817 0.082783625 -0.13481048 -0.04118603 0.05929483 0.038686845 0.15961184 -0.050487407 0.042226925 0.077400684 0.0031675298 0.02353414 0.034866396 -0.019139605 -0.010139366 0.031793747 0.04053477 -0.7148357 -0.4476281 0.07727098 0.05932162 0.045281705 -0.14380813 0.10387943 0.077211455 -0.059059616 -0.08244227 0.10184316 -0.028452506 0.067113146 0.049760513 -0.018090846 -0.14870174 0.22068717 -0.16446844 -0.030833824 0.0043815994 -0.06309767 -0.10824132 0.07007862 0.10630559
0.027388096 -0.042941704 -0.051609393 -0.088818535 -0.045896597 -0.048570387 -0.14877354 -0.07762985 0.063707635 0.021961298 0.07863679 0.11687035 -0.07720193 -0.0318257 0.054323804 0.03278504 -0.16627207 -0.099254124 0.023290187 -0.025571337 0.045189876 -0.008426273 -0.044517305 0.0321726 0.048591837 0.0342872 0.032558743 0.027559407 -0.01975007 -0.052203007 -0.15896478 0.010596469 -0.092879094 0.16778608 0.039411608 0.051147755 -0.10953628 0.11369835 -0.0919172 0.1436567 0.025836956 -0.08965626 0.023905309 -0.039731413 0.060018193 -0.004076934 0.05971471 -0.019273512 0.016105283 -0.005587721 0.0069298823 0.016467275 0.024411518 -0.110463984 -0.080432035 -0.085162 -0.03659678 0.14329194 0.034883436 0.044651724 -0.20899533 -0.058652904 -0.057544176 0.060337983 0.07210677 0.018641232 0.013756382 -0.11381645 -0.0013736429 0.10407253 0.008925884 -0.022390112 0.25510713 -0.18738978 0.11767736 0.016479135 0.033825174 -0.061625075 -0.18048595 -0.032575335 -0.083657146 0.14719982 -0.04956442 -0.038248267 -0.13321212 -0.23724686 -0.030146537 0.12321616 -0.04667542 0.034341395 -0.02984632 -0.051129296 0.08727693 0.091850966 0.025521569 -0.14271574 0.28652868 -0.13160299 0.08402978 -0.0040574754 -0.11791126 0.02940575 -0.27423823 -0.15673468 -0.06922679 0.2971017 -0.066529736 0.033078417 -0.4774621 -0.2406107 -0.17637344 0.101429395 -0.0135375485 -0.03986735 0.08759076 -0.07089724 0.08597057 0.098919064 -0.02428671 -0.03673562
0.026288452 -0.2302157 0.03929903 -0.090396166 0.018703941 -0.07866961 -0.1894259 0.056225646 -0.06527282 0.20539364 -0.022904532 0.018354537 -0.019306337 -0.14216924 -0.04290839 0.00640016 -0.015114378 0.077592805 0.038256753 0.10391605 -0.044118542 -0.028472466 0.043195818 0.005769569 -0.014856548 -0.2229256 -0.005766405 0.062200166 -0.028820103 -0.08273763 -0.110785745 0.0118355 -0.041240577 0.23128004 -0.08849242 0.07544726 -0.0016761268 -0.15952088 -0.08165694 0.09763017 0.006701024 -0.055908523 -0.039939597 0.064945616 0.04132441 -0.0063650706 -0.0068376972 -0.04334911 -0.114366375 -0.34712157 0.013860867 0.02324594 0.12378749 -0.030153632 -0.14564958 0.014207675 0.06283823 0.1937352 -0.041453946 -0.09456115 -0.016961765 -0.16021329 -0.05649335 0.0262808 -0.02209333 -0.02311882 0.012293411 0.03943657 0.016469352 0.019826688 -0.06379075 0.0013215473 -0.1076449 -0.47816128 -0.05344027 -0.019370116 -0.029890986 0.018181438 -0.008942338 0.023495734 0.051142275 0.25436556 -0.09780307 -0.07381949 -0.15029298 -0.08458297 -0.06713061 0.13638018 -0.070205666 0.021922473 0.0013845502 0.05586459 -0.025013432 0.028643891 -0.05558835 -0.05982675 -0.09015159 -0.6475614 0.022653596 -0.038205914 0.024364136 -0.027526516 -0.019670922 0.052155387 -0.11657581 0.28195262 -0.13510595 -0.124422014 -0.277569 -0.11317489 -0.15898132 -0.013840444 -0.17876136 -0.036831453 -0.07614796 0.06693007 -0.02802322 0.06626328 -0.00042045154 -0.013316978
0.20932621 0.1660276 0.042357292 -0.052733228 0.06415331 0.12819499 0.1173761 -0.048397865 0.044847544 0.05149341 -0.010470935 0.06385943 0.11050109 -0.18485348 -0.0773476 -0.1597601 0.052444704 0.034851916 0.019563828 -0.10050706 -0.019022916 -0.06956757 0.040687855 -0.0066168224 0.019984668 0.031671237 -0.11641122 0.10267568 -0.086545385 -0.049702782 0.17935881 -0.16247223 0.0012290817 -0.06197607 0.034492325 -0.04321511 0.23764579 -0.17156465 -0.02922749 -0.15707919 -0.017268581 0.024708206 0.027333716 -0.044884 0.03076624 0.026704142 -0.010787302 -0.010523233 0.19475852 -0.14339921 0.0064498726 0.043481026 -0.0096362885 -0.10731319 0.24259813 -0.033148047 0.043507062 0.008364609 0.061309572 0.00663366 0.2316012 -0.3068081 -0.009949678 -0.09573327 0.03891668 -0.04562408 -0.0136870975 -0.021088008 0.0037821901 0.007749587 0.038900983 0.03541573 0.11512267 -0.21691155 -0.05664055 0.08786835 0.03440709 -0.01630468 0.16130097 -0.19877398 0.067604646 -0.036361948 -0.060688734 -0.08732805 0.35702235 -0.3727694 -0.06812385 -0.15412523 -0.043672353 -0.05353824 -0.031088797 -0.089236856 0.0235227 -0.03883609 0.04503358 0.03417099 0.2579247 -0.37090272 -0.018567072 0.045171965 0.16385289 -0.23605181 0.4805023 -0.12005211 -0.13241576 -0.0947601 0.08589509 -0.10911094 0.36897615 -0.59264606 0.03299902 -0.21551195 -0.14813232 -0.09247775 -0.065428786 -0.04956562 -0.07985057 -0.046846297 0.019011186 -0.010010913
0.039309107 -0.056626406 -0.04547356 0.027513463 -0.08310559 -0.14675152 -0.01544592 0.16016525 -0.01493153 -0.0038087512 -0.12736392 -0.0037658375 -0.088068135 0.03800303 -0.01121452 0.049058847 -0.057690434 -0.008176939 -0.013738926 0.048733 -0.0095554 -0.02451143 -0.09422757 0.01772429 -0.024227684 0.0045268373 -0.12989776 0.06363993 0.062306825 -0.23284172 -0.054125533 0.044154588 0.07402764 -0.04798536 -0.024899937 0.027479047 0.009416495 -0.05950805 0.087617196 -0.063459665 0.13141707 -0.016258106 0.0009390391 0.041509546 -0.0123398 0.03002508 -0.08179309 0.012025965 -0.08570808 0.10018235 -0.07064402 0.015749285 -0.011360107 0.018181695 -0.066736445 0.09866021 0.089122675 0.121813565 -0.091747984 0.029659731 -0.022385538 -0.05420917 -0.026723076 0.070434615 -0.10143707 -0.08173832 -0.06814905 0.05047649 -0.015028149 0.0035854534 -0.098676376 0.039219208 0.017157992 0.13530517 -0.05631027 0.03815312 0.02241403 0.06405082 -0.050237276 0.075327866 0.11282251 0.018174428 -0.08709661 -0.06904791 -0.25385284 0.17323667 0.104669355 0.19092315 -0.09476126 -0.084786676 -0.128918 0.053148285 0.042233784 0.015520813 -0.11142871 0.03699373 -0.0050121523 0.12333843 0.027401064 -0.019912869 -0.09969448 0.060255602 -0.25700584 0.1306682 0.06683429 0.21931438 -0.17166543 -0.022536382 -0.43830532 0.2617699 -0.058478113 0.2324526 -0.12933873 0.06945215 -0.10617018 0.12647173 -0.117302254 -0.039530706 -0.09564726 -0.024482174
0.020799777 -0.10583785 0.050031457 -0.016790202 -0.05094965 -0.05057294 0.010137203 0.036551688 0.04430078 -0.046923127 -0.10519067 -0.09663384 -0.07205239 0.037551336 -0.09704564 -0.19463852 -0.15998907 -0.085648775 0.016069302 0.02750367 0.07464226 0.064037085 -0.038200367 0.02228469 0.08240285 -0.10053461 0.02350687 -0.009379093 -0.011232116 -0.021012237 -0.010576022 -0.031167533 -0.0035460684 -0.033852495 0.008085552 -0.07997875 -0.1562873 0.03615905 -0.04482956 -0.17377725 -0.04056275 -0.06648936 -0.081359856 -0.011744822 -0.045576382 0.010917923 0.07613741 -0.01667248 0.033845015 -0.17345497 -0.039311726 0.08574665 0.10161038 -0.103992976 0.11362125 -0.027216189 -0.077982165 0.027568245 0.0011392871 -0.05155704 -0.12487269 0.13264088 -0.06746372 -0.2148665 -0.12524736 -0.044708252 -0.053854402 0.008721287 0.011060391 -0.056723204 -0.004797084 0.037650112 0.078341454 -0.18744077 0.09337789 -0.07343728 -0.025062954 0.023586622 0.07705394 0.05441837 0.07535578 -0.026520079 -0.068094715 -0.09794433 -0.09523007 0.07670583 0.041963868 -0.22263512 -0.069130085 0.009169765 -0.016387828 0.09478109 -0.08918495 -0.109686024 0.002966314 0.027559958 0.2749615 -0.47676197 0.03528476 0.0736366 0.08491974 -0.029276647 0.00866949 0.03639157 -0.06870817 -0.09305544 -0.104834914 -0.17456189 0.06108629 0.053752705 0.017378 -0.43215135 -0.16922432 -0.05150592 0.016652534 -0.032848902 -0.11865125 0.004197763 -0.03605077 -0.020392545
-0.2340443 -0.018935317 0.11808242 -0.049820844 0.11203601 -0.0026782756 0.028810807 -0.09067194 -0.12861578 -0.30428314 0.024386965 -0.0006502483 0.06042883 -0.050437983 -0.053813376 0.12909204 -0.08160887 0.019935975 0.08329233 0.024856756 -0.030013504 0.047962815 -0.0033152017 0.0126890885 -0.19811936 -0.04571436 -0.030645559 -0.11045966 0.024949215 -0.045569498 -0.0076680603 0.0032339157 -0.06706059 -0.20351 0.011567395 0.109166406 0.075174965 0.018827697 -0.0955425 -0.011418807 -0.013910725 0.02172796 -0.08709288 -0.05549419 -0.038813807 0.0065085613 -0.041021418 0.057430387 -0.2205163 -0.11335787 -0.06113533 0.04458733 0.03295868 0.053409163 0.10163634 -0.124897406 -0.050539184 -0.18771659 -0.043500908 0.039791256 0.060200885 -0.017143024 -0.11007081 -0.06385308 0.07511013 0.0036127288 -0.07391026 -0.042959828 -0.12827091 -0.06103525 0.0029712752 0.0015690979 -0.09289246 -0.023070026 0.09488725 -0.05801085 0.22501057 -0.0014858964 0.09697539 -0.006605716 -0.078550056 -0.12550133 0.032585327 -0.02326391 0.13401133 0.1881915 -0.07803482 0.04661074 0.020921675 0.07161885 -0.03407443 -0.0009904645 -0.1612248 -0.07305117 0.07509913 0.13002856 -0.09798509 -0.1414435 -0.025938477 0.025812 0.17013565 -0.05272882 0.1819157 -0.10008959 -0.19329217 -0.14070755 0.033679105 -0.04415558 0.42616308 0.21819024 -0.12560587 0.2583453 -0.09686502 0.17373073 -0.017529493 0.028394079 -0.19605136 -0.078335285 0.043119688 0.10634099
-0.07335539 -0.03735851 -0.0044901576 0.020858388 -0.0074717393 -0.0035317023 -0.02324009 -0.0068139336 -0.08870754 0.036682837 -0.13167278 -0.0010914847 -0.14891748 -0.26865616 -0.1666649 -0.024103248 -0.04237329 0.0031518978 -0.0020865244 0.089048505 -0.004224127 0.016354699 0.061485566 -0.0057188054 -0.044691935 -0.030775862 0.03610023 -0.042029046 -0.10437883 0.06371677 -0.1364467 -0.11722213 -0.059633795 0.13928126 -0.12073324 0.05456763 -0.06718683 -0.26763502 -0.057792276 0.003913281 0.034947645 -0.013869587 -0.011322942 0.054405924 0.05259711 -0.029070636 0.043667812 -0.04303943 -0.09426508 0.028944455 -0.02828574 0.032479703 0.052064553 0.019620296 -0.13910948 -0.08106695 0.038029306 0.11923096 -0.12760565 0.01728028 -0.06961691 -0.21157633 -0.030100724 0.08807631 0.047130477 -0.055967793 -0.023142355 0.06143678 0.043547668 0.025423808 -0.0521109 0.00088588765 0.05277473 0.13818203 0.08146966 -0.014131492 -0.03158525 -0.02625238 -0.12988688 -0.13538833 -0.031861637 0.11442956 -0.06429868 -0.0016756043 -0.08508631 -0.082303084 0.0068907626 0.02114877 -0.020121358 -0.067870736 -0.041995976 -0.007734434 -0.035928108 0.03661798 -0.028869543 0.04327177 0.07478783 0.18718345 0.10149326 -0.0048399367 0.032068454 0.058458935 -0.13646263 -0.032326024 -0.1494393 0.08989128 0.0051390855 -0.16979799 -0.22626999 -0.2781275 -0.0585438 0.29714048 -0.047601927 -0.01704696 -0.07246862 -0.018662592 -0.038407013 -0.03453291 -0.05107494 0.03787711
