-0.06481579 -0.014541089 -0.03186789 -0.0071529 -0.04020024 -0.009529128 -0.013528733 -0.030966613 0.041148633 0.13533077 0.046464626 -0.03856343 0.059044536 -0.021455728 -0.037990853 0.031096093 -0.04069486 -0.017771654 0.011710089 4.3408905e-05 0.042549152 -0.10040068 -0.014319191 0.061480198 -0.048938096 -0.022909636 -0.062383246 0.08678948 -0.11852188 -0.015874047 -0.0010216881 -0.113134354 -0.05431493 -0.0037049016 0.0042500095 0.025054395 -0.15245551 -0.032639913 -0.028680038 0.005905786 0.05309801 0.07872979 -0.028079856 -0.035468962 0.010795146 -0.20482609 -0.011716838 0.06389436 -0.0010232456 -0.027140092 0.00878382 -0.012300818 -0.065553926 -0.01229784 0.05645438 0.007584551 -0.04698562 -0.0093371 0.016826656 -0.011273942 0.03379787 0.03667085 -0.016374374 -0.013728138 -0.019205606 0.07377734 -0.02304512 0.014307011 0.04151069 0.021440832 0.05953983 0.013001216 -0.017688628 0.020114537 -0.06360515 0.009234255 0.03839377 0.02056648 -0.003642712 -0.02364866 -0.034899764 0.045326408 0.118615314 0.015237374 0.072045095 -0.041996535 0.0034881884 0.011030096 -0.058857996 -0.06131097 0.006951717 -0.13745455 -0.030454038 -0.02651294 0.05756423 0.0057385615 0.031932797 0.00051766355 -0.008039211 0.10090201 0.04652268 0.017680133 -0.17847915 0.08968817 -0.14912292 0.09956597 0.0019418288 -0.0031358313 -0.013057163 -0.038730767 0.075024515 -0.07145213 0.021910762 0.071611874 0.09106323 -0.011965492 -0.013460175 0.05791696 -0.03412759 0.010284003 0.063097484 -0.043307062 0.07097111 0.031579453 0.02688287 3.066249e-05 -0.13510576 0.08859627 -0.0074913586 -0.02313404 -0.06402973 -0.010195252 -0.02212371 0.02008274 -0.028020654 -0.06516833 -0.015335186 -0.007896769 -0.010420902 0.018391447 -0.040053625 -0.027797557 0.0012526456 0.01758672 0.056240432 -0.002185986 0.025927657 0.00039574297 -0.062451363 -0.015184358 -0.050270047 -0.016015412 0.00010786105 0.069075294 0.12611535 0.022629473 -0.1076592 0.02655841 0.027990907 0.0014626133 0.01847795 -0.066543326 0.07778082 0.003070479 -0.05481091 0.0023777084 -0.03289724 0.024040982 -0.05435353 -0.0084556015 0.02060692 -0.03416455 -0.1017386 0.06434731 -0.0027846063 0.019955987 0.026769768 0.08353688 -0.031347338 -0.034135506 -0.016140271 0.015335731 -0.015902694 0.009579073 0.024373481 -0.050819043 -0.002545868 0.056663442 -0.0006679581 -0.041405562 -0.1100442 0.100011185 0.12325918 -0.034345478 0.043072026 0.016741075 -0.061192054 -0.053338494 -0.044822022 0.034179192 0.006929199 0.12557383 0.043159764 0.010504615 -0.042341147 0.00083225395 0.14146042 -0.023473548 -0.07532536 -0.063354805 0.014614898 0.07261354 0.010249612 -0.07969125 0.017553983 -0.0203385 0.057972983 -0.088785104 0.08204672 0.039148606 -0.04731769 0.021919908 -0.052285496 -0.043674476 0.12577516 0.038670156 -0.10058144 -0.04388988 -0.018088317 -0.085639216 0.048238974 0.0820001 0.033372197 0.05033682 0.009598711 -0.0144915385 0.03484023 -0.046622958 -0.027972873 0.0013863577 -0.03829768 0.04208188 0.00051625655 -0.03877125 0.034116637 0.061677564 -0.014402839 -0.03122402 0.23452018 -0.047140293 0.08358247 0.051220216 0.043121863 0.120198175 -0.111715026 0.085765354 -0.044263244 -0.05768215 0.0122016445 0.06137809 -0.049175054 -0.06487999 -0.09690346 0.042741194 0.11312447 0.015841255 -0.045235008 -0.031757813 0.0014033486 0.039797712 0.016870841 0.036593042 -0.026703445 -0.026455231 0.14945732 -0.046452124 -0.06797363 0.10603915 -0.02460373 0.08453982 -0.0042540836 -0.080709666 -0.0571207 -0.03751384 0.08948023 0.004466462 -0.014895051 0.040989496 -0.05014235 -0.0424424 -0.0024918325 -0.040798005 -0.04704149 0.010186181 0.015800662 -0.0424417 -0.07435693 -0.033008527 0.011118854 -0.039830424 0.06826689 0.017209947 -0.004263635 -0.053589113 -0.012059988 -0.0046148645 0.1539505 -0.012769046 -0.06955607 -0.025935113 -0.004221759 0.030273879 -0.025965635 0.13727482 0.054828446 0.029413875 -0.050932396 -0.02742943 0.04033283 0.08309924 -0.065408066 0.043471254 0.09401841 -0.055597633 -0.013901021 -0.031661637 0.0058158683 0.037040394 -0.058456536 0.04811965 0.020885265 0.01071074 -0.06308513 0.057773866 -0.059901696 -0.08417359 -0.0040645045 0.07681474 -0.015990444 0.0047164056 0.08903511 0.016833188 -0.06184634 0.07711155 0.07522476 -0.00041217875 -0.05878159 -0.01249473 0.010520572 -0.07149275 0.06866491 -0.027716905 -0.014651706 -0.06503558 -0.06780242 0.026992729 -0.009285569 0.084348835 -0.056283314 0.0053762407 0.08169232 0.01882881 -0.07513938 0.030398434 0.036677066 -0.02926242 0.00049841084 0.061170004 -0.104501896 0.0015283595 0.019043762 -0.012040798 -0.014347753 0.08603086 -0.024315456 -0.009731733 -0.0022031553 -0.042052124 -0.029719263 0.010242723 -0.083800845 -0.0258229 -0.1414941 0.097228 0.036280505 0.02979139 -0.1008886 -0.029957538 -0.025396885 -0.023951612 -0.022878025 -0.027537845 -0.026303414 0.06710964 -0.056601815 0.0015973314 -0.053437848 -0.034274165 0.0046767653 0.05460272 0.10921472 -0.05268563 -0.0070624477 -0.074040025 0.05127325 0.03321034 0.0057799476 0.022887241 -0.00458226 0.0726991 -0.030410748 -0.02448839 0.051451277 0.005358321 -0.03347906 0.026163498 -0.044467364 -0.07420043 0.0075207218 0.077508375 0.008050341 -0.09731085 0.055564832 -0.06439085 -0.035502408 -0.022203585 -0.029877033 -0.007977334 0.04713528 0.08661634 0.055545773 0.053674024 -0.068916276 0.07906136 -0.093603455 0.03739959 -0.10504377 -0.025799755 -0.0013734945 -0.05074397 -0.027946083 0.087260716 -0.08030122 -0.16394989 0.000755335 -0.06659675 0.053477388 0.013008576 -0.06136944 -0.024213606 0.11734271 0.04859059 0.05229582 0.0234066 -0.0017732226 0.060913716 -0.012497291 0.00024641116 0.028453039 0.040793896 -0.023700027 -0.021707142 -0.026812932 -0.023201872 0.051847443 0.018592928 -0.0680487 -0.0507704 0.05645285 -0.019983552 -0.017981658 -0.03042614 -0.038981255 -0.0050689173 -0.055611275 -0.025654601 0.009806311 0.021837438 -0.02192086 -0.0021864516 0.07266852 -0.06208519 -0.065914616 0.017226107 -0.044406544 0.111087054 -0.0072960067 0.011906765 0.005370226 -0.025774926 0.14189371 0.0043861493 -0.038945645 0.11082029 -0.08277275 0.08901704 0.018866781 -0.039954957 -0.17848274 0.003970352 0.030118436 0.09174949 -0.011542852 -0.008229133 -0.00094553904 -0.017145129 0.026727041 0.093708575 0.11110744 0.035551064 -0.092757925 -0.07276827
-0.017676463 0.025110975 -0.004042312 0.018350566 -0.04324723 0.03516218 -0.005921945 0.03665426 -0.015880506 -0.033841144 -0.01158384 -0.014141812 0.063137375 0.07652888 0.07931926 0.057220846 -0.01277267 -0.020827988 -0.021165855 0.06258507 -0.0007880634 -0.031858314 -0.06670058 -0.090858676 -0.062060334 0.040750924 0.0011800384 0.0029783545 -0.050279107 -0.06868392 -0.029601652 -0.11976063 0.004780888 -0.04723931 0.05068457 0.011742406 -0.040634356 -0.11506049 0.01603537 -0.016086385 0.03029899 0.031414643 0.02935218 -0.014913399 0.032526255 -0.015091898 -0.03856342 -0.026111007 0.06336091 0.023512244 -0.010025632 -0.022013288 -0.01283929 -0.061981242 0.062768 0.03242081 0.045439325 0.017649392 -0.0066180127 0.0013783928 0.10473677 0.09193341 0.031541962 0.026789749 0.080029584 -0.009043435 0.015530443 0.051353607 0.04418819 0.051634226 0.032248024 0.027082564 -0.025310751 0.066661336 0.033897296 -0.048963107 -0.03725032 0.051954597 0.049258903 -0.040951833 -0.041269895 0.026945509 0.06733543 0.010889142 0.061331887 -0.030340567 0.0071586035 -0.030032726 0.004935004 0.072657965 0.08394793 -0.015385205 0.027547963 -0.026699945 0.0065056486 -0.021723522 -0.038810953 0.049052663 -0.05054831 -0.05011946 0.06436313 0.018039063 -0.0015637001 -0.02451268 -0.027032785 -0.040965587 0.023912113 -0.03187442 0.0060956134 -0.06114398 -0.005109465 -0.033145733 0.079535365 -0.07018749 -0.060240693 0.022692598 -0.009117362 0.06031641 -0.016362943 -0.04824887 0.07452831 -0.018797731 -0.042185836 0.038385835 -0.027463676 0.06723274 0.07696496 0.036539298 0.13483414 -0.06787338 0.03340555 -0.020836122 0.034149695 -0.08124732 -0.003708358 -0.011374605 -0.0820522 0.017369868 -0.0221248 0.025559677 -0.054172948 0.009803036 -0.03289056 -0.014829614 -0.1342546 -0.087998495 0.0015536727 -0.024411172 -0.05168251 0.084630035 0.1521 -0.015151536 0.13362601 -0.0051478893 0.01569774 -0.02398993 -0.0150985 0.029312424 0.065344825 0.047219004 0.007018534 -0.017613096 -0.07166711 0.025158009 -0.09346773 -0.09119407 0.026660182 0.052365385 0.056253325 0.06609164 0.047109112 0.034062535 0.008982079 0.058536824 0.091703415 -0.008152541 0.0236991 0.058899425 -0.0101553565 -0.038621847 0.05283877 0.042900898 -0.01492201 -0.0273749 0.011670173 0.0028381636 0.087406754 -0.015291929 0.14389303 0.0005249953 0.09137904 -0.008001369 0.028297683 0.050951548 0.07727707 0.0042097075 0.029305654 -0.062998496 0.052210175 0.041338984 0.011352285 0.004884672 0.11815191 0.01697546 0.02807873 -0.036172125 -0.013855613 -0.07700872 -0.0005980761 0.003853869 0.110479556 0.07274681 0.08442026 0.00048314448 0.08510885 0.05764412 0.007753602 0.072682284 0.082132205 0.0012407599 0.006625754 -0.018614851 0.05277548 0.022686964 0.049827468 -0.061754134 -0.08012648 0.043373935 0.09102304 0.0018607215 0.004275785 0.052240245 -0.024535034 0.030852852 0.02575395 -0.047759622 0.010741975 0.032723777 -0.0012659145 -0.0038885113 0.039797843 0.035725158 -0.05116303 0.019381072 -0.053136576 0.017319622 0.07355298 -0.036161516 0.06862503 -0.09549524 -0.07852011 0.028072882 -0.0189704 -0.04776613 -0.003281569 0.023071878 0.015305618 -0.028209426 0.038930073 -0.025313951 -0.04996243 -0.022071972 0.0082096895 -0.020433199 0.0057671936 -0.003142392 -0.05953794 0.077150874 0.082037635 0.022683129 0.051447585 -0.10243906 -0.06266652 0.10705571 -0.016020589 0.033045385 0.034595937 -0.057548378 -0.03383657 0.1104518 0.07766063 -0.06627426 -0.0008355331 -0.034357898 0.062091805 -0.048798274 0.017038342 0.0564412 -0.074360386 0.012856514 -0.021360122 0.087477595 -0.050862957 0.035117764 -0.024981247 -0.012538316 -0.02055667 -0.12899685 -0.031344246 0.0035903202 -0.051512163 0.025400842 0.09182976 -0.03206925 0.018900596 0.007887349 0.005125432 -0.005550271 -0.008919451 0.035861414 0.080964975 -0.08968726 -0.07363347 -0.080248185 -0.05730917 -0.030099224 -0.042070404 0.00895484 -0.05355736 0.02740685 0.051818527 0.015695767 -0.007860915 -0.049928803 -0.11772985 -0.00939699 -0.042869195 -0.01882302 0.03655856 0.08659824 0.054693572 -0.06303292 -0.028495118 -0.029538222 0.02506786 0.013638053 -0.026050368 0.013104551 0.02635684 0.025051795 -0.019190028 0.019591501 -0.00442385 0.06851225 0.08215539 0.06198598 -0.035745226 0.02992734 -0.066867895 -0.050123267 -0.020802315 -0.07191272 0.048931077 -0.022080662 0.053406652 0.052936498 -0.034420956 -0.063101746 0.039338 -0.022398809 0.10193629 0.048989017 -0.06948283 0.03736428 -0.061193332 -0.058424965 0.007266777 -0.16201948 -0.116691515 0.0046264436 0.0058386633 0.030100757 0.016585132 0.11480769 -0.02708347 -0.18043278 0.05304641 0.06813375 0.007251664 0.014404259 -0.043911345 0.026396438 -0.11894716 0.02014852 0.07469863 0.0640625 -0.092445396 -0.0052308915 -0.001784451 3.9898507e-05 -0.020206522 -0.062880784 0.07642115 -0.06601143 0.04566957 3.9926024e-05 0.007612505 0.03335629 -0.015335862 0.011120646 -0.081457555 -0.061432164 0.035078045 0.053554397 0.02666081 0.0070051895 0.08848082 0.027761811 0.042527843 -0.024474787 -0.008103627 -0.007704271 -0.067685194 0.031939045 -0.114073135 -0.0079765795 0.08062319 -0.022157528 0.046372008 -0.014567556 0.048135657 -0.043825146 -0.05060292 0.0010853747 0.01588363 -0.0078512365 0.03818381 -0.02360034 0.077614516 -0.037663374 0.031877782 -0.008044153 0.010177119 0.029802835 -0.03476789 0.11198888 0.0129585285 0.014906183 0.033571344 -0.06758509 -0.09428708 0.005327019 -0.04716732 0.017457869 0.023627961 -0.060690768 -0.06820596 0.013134574 -0.005816253 0.05225591 0.13737547 0.01013661 -0.004221572 0.013485147 0.023075111 0.04459588 0.010592194 0.055925913 0.056873366 0.014769799 0.038597018 -0.05112892 0.048392177 0.12588054 0.01916737 -0.009426688 -0.021429755 0.07512417 0.021535244 0.0848642 0.046062253 -0.010689303 0.080334105 0.11125203 0.04939484 -0.066786796 0.030020092 0.11453128 -0.13410294 -0.13231882 -0.03291378 -0.009833252 0.015029664 -0.02616796 -0.03853579 0.03839343 0.09855975 0.010996522 0.069157675 0.027424574 -0.0074814074 -0.07157035 -0.13238615 0.016362976 -0.0056312988 0.024424361 0.01771454 0.012972856 -0.0016065582 0.039057538 0.0346551 0.053127576 0.009907279 0.041497495 -0.05127391 -0.013459164 -0.006662386 -0.05224336 -0.07669424 0.056343358 -0.04281476 0.07269566
0.10676198 -0.03954989 -0.034619786 -0.012749242 0.022531426 -0.006758774 -0.009845579 0.004602221 0.08803317 -0.021772036 0.07097777 -0.03856424 -0.10690283 0.04337766 0.036473498 -0.019524876 0.054968707 0.08510724 0.048558425 0.033967517 0.010982716 0.08901533 0.07114299 -0.005924053 0.019241082 -0.014088311 0.038086466 -0.08082358 -0.052436132 -0.107776426 0.094584875 0.08908259 -0.062901884 0.009232663 -0.04938447 -0.022281665 -0.005353263 0.010453932 -0.022487948 -0.05456874 0.020685771 -0.0062099975 0.03191004 -0.099329315 0.045986675 -0.0046008467 -0.058397762 0.07643995 -0.0049859397 0.06210748 0.05677601 -0.051898863 0.12516111 -0.07516387 0.06084654 -0.0009856675 -0.06741477 0.035984218 0.025291793 0.03828404 -0.116740845 -0.026896683 0.06633569 -0.009585861 -0.07302855 -0.04586111 -0.044868045 0.050646562 -0.04486912 0.0014910155 -0.12451943 0.0688414 -0.045374814 -0.03680388 -0.018316137 -0.015485123 -0.05232565 -0.0005935917 0.07611169 0.10025472 0.14031848 -0.093358174 -0.026789924 -0.016584318 0.07628466 -0.06574169 -0.06386 0.10082934 0.09330229 -0.021652922 -0.06612854 -0.005449927 0.0058765323 -0.0056998204 0.056415442 0.025476944 -0.0037241406 0.030544054 0.05452205 0.03433455 -0.05145006 0.06762061 0.05455764 0.014303638 0.16214958 0.033342596 -0.054750312 0.08236794 0.027379243 0.08217063 -0.01815255 -0.025660282 0.07328268 -0.06389505 -0.0366242 0.073447034 -0.046437766 -0.01001493 0.037412535 -0.018237082 -0.13280372 -0.045633156 -0.15539502 0.008661812 -0.0062064175 0.06824402 0.07034156 -0.01697772 0.024378818 0.016567113 0.09607217 0.09753702 -0.024528498 -0.022383701 -0.007293978 0.0751588 0.011784245 0.1378651 -0.08347293 0.0019272241 -0.04324673 -0.037565555 0.0665589 0.0727222 0.04057922 -0.14101039 0.04838257 0.009772316 0.01600398 0.0066090142 -0.01533299 0.05811963 -0.0052558156 0.0010498698 -0.062993355 -0.0040413737 0.10714511 -0.007946773 -0.051667675 0.026209006 0.056776892 0.14040746 0.013668038 0.06293124 0.13555627 -0.005726083 0.007704217 -0.046999756 0.0069771875 0.06440759 0.015708918 -0.014978677 0.012596823 -0.0019098871 -0.077699624 -0.022325495 0.05675899 0.01238799 0.015403993 -0.046004854 0.0010833798 -0.03677495 -0.055404145 0.032106686 -0.032216396 0.047411185 0.06030484 -0.006200528 -0.036009967 0.052811805 0.08048102 0.020645255 0.02037337 0.05791392 -0.0047961622 0.025031216 0.02844948 0.010724938 0.06501427 0.038680132 0.06892164 0.017917382 -0.03912065 -0.07134491 0.10771941 -0.110577375 0.017991045 -0.0408843 0.05343189 -0.034737136 -0.04935493 0.027028464 0.013616808 -0.005333043 -0.036447547 -0.06113224 -0.019530863 -0.011994056 -0.070066586 -0.0099681895 0.07737526 -0.12070404 0.046284188 -0.013553857 -0.014821502 -0.0181021 -0.03277766 -0.017498957 0.009949062 -0.023041151 -0.06954967 0.0037490572 -0.057999134 0.015206521 0.022453962 0.06129239 -0.04498055 0.07190894 0.044087373 0.050697587 -0.064268574 -0.07828587 0.01253043 -0.009639091 0.0216432 -0.021416647 -0.105410226 0.07723768 -0.016273268 0.041927706 0.04372683 0.019577764 -0.04859573 -0.035050664 -0.04242443 0.013581158 -0.048480146 0.05590074 0.013541157 0.01109044 -0.09095402 0.08264244 0.11468591 -0.00065217586 -0.06516041 0.014149371 -0.07305846 0.12405474 0.0817465 0.0023062285 -0.0017137984 0.058765322 -0.013836349 0.043747257 -0.034276552 0.12114222 0.0010575468 -0.013635237 0.08716495 -0.09422857 0.043108065 0.13735555 0.063820876 0.0375527 -0.038515728 0.022683248 0.029137371 0.062248982 -0.046074968 -0.03826538 -0.12371359 0.0822893 0.035084717 -0.02129312 0.0017813542 -0.024846602 0.10534896 -0.002637907 -0.15402159 -0.02239017 -0.102912374 -0.035598755 0.06505755 -0.077480204 -0.043686967 0.017756578 0.06550133 -0.016316494 0.095157206 -0.028089376 0.07344468 0.07722342 -0.024456933 0.024679024 0.008514996 -0.056730036 0.021797875 0.032321762 0.059560087 -0.10177317 0.0459699 0.04850392 0.048477244 -0.052483004 0.00093361904 -0.00366197 0.020509945 -0.0061020087 0.062653884 -0.02131022 -0.02572182 -0.11950294 -0.019174518 -0.031063832 0.041449368 -0.013152222 0.042723324 0.0069732335 0.10552744 -0.01891119 -0.07083459 0.0699722 -0.039270375 -0.020733207 -0.010330769 -0.08658751 0.026366102 -0.00841674 -0.013058637 -0.012521691 -0.06356802 0.04877976 0.04535108 0.10671121 -0.040002022 0.062353563 0.096912295 -0.076794945 0.032360543 0.034243144 0.021397822 0.061925806 0.031147307 0.065409675 -0.011123133 0.049543824 -0.02301044 -0.015700322 -0.016254198 -0.028676935 0.008318267 -0.025209704 -0.014288686 -0.046881437 -0.07712898 -0.025246937 -0.01451226 -0.006706601 0.02188983 -0.0758119 0.07603605 0.028200427 -0.07095366 0.04337751 0.021336127 -0.012500933 0.031992935 0.09942313 -0.03387448 -0.0076910527 0.039851964 0.031871453 -0.13029996 -0.07893406 -0.011768956 -0.021664064 -0.058678646 0.0024570478 0.024868926 0.009602753 -0.10050496 0.08001738 0.06377974 0.056732625 -0.01269404 -0.017503712 -0.0780354 0.0041346946 0.013127338 0.036914475 0.009908278 0.018951677 0.010245465 0.029425247 -0.02171169 0.06641356 -0.013328853 0.06755847 0.058542684 -0.013559284 -0.09033377 -0.0076944586 -0.0154245 0.026238713 0.056841508 -0.098802164 -0.031290777 -0.0003591279 -0.05469232 -0.057239357 -0.097813435 0.11094041 -0.026653238 0.056081608 0.07743943 0.06183389 -0.008924951 -0.01773181 -0.04157767 -0.04390137 -0.012272577 -0.00722126 0.010410245 0.0057395063 -0.016125387 -0.059298664 -0.08830543 0.048926357 0.12829472 0.03523497 0.014098385 0.12508427 0.0030966331 0.022317594 0.03701145 -0.2176869 0.010354657 0.030004596 -0.011463651 -0.052204683 0.033788837 -0.04768823 -0.06458617 0.004952793 0.024919 0.014951704 0.107797466 -0.05135088 -0.063478924 0.07066672 -0.039930105 0.04581871 0.006998999 0.063484855 -0.06411654 0.011370484 -0.09198515 -0.047244225 0.012866636 0.07826958 -0.066973455 0.08531307 0.0268446 -0.04072181 0.12032095 -0.045937344 -0.012037567 -0.032912564 0.050016787 0.0004006884 -0.01706689 0.035382263 -0.028010143 -0.07014933 0.020708084 -0.114608474 0.013108416 -0.025566686 0.07711315 -0.028680861 0.02917571 -0.012648652 -0.0766341 -0.0031689066 0.034265228 0.020972691 -0.029185854 -0.0633025 0.068569794 0.048532892 0.042850256 0.14196886
0.0012003471 -0.043701436 -0.034844186 0.023266427 0.02200341 -0.06539413 0.060429513 -0.04231547 0.08432295 -0.048695717 -0.036751054 0.0012730733 0.028716635 0.03704018 0.21618198 0.030642847 -0.0040328493 -0.006980257 -0.09201593 -0.0057390216 0.025092501 -0.029341545 0.044675075 0.017207973 0.030456822 0.06128943 -0.13747866 0.051038068 0.01777265 -0.12234483 -0.043628205 0.053336874 -0.05350319 0.077341355 -0.08912705 -0.008411771 0.010470366 0.037141692 -0.0140081905 0.038863696 0.06533517 -0.03277327 0.087281704 0.01701389 -0.020060807 0.0374878 -0.0143014835 0.045145985 -0.05613433 -0.052938193 -0.053429067 0.04826003 0.013443595 -0.061663844 -0.011401107 0.042044587 -0.03820579 -0.026501479 -0.044898916 0.009812095 -0.08082878 0.05434499 0.014165508 0.02721744 0.0257686 0.078618445 0.029605389 0.05313067 0.041201774 0.022427557 0.02658605 -0.033451285 0.11704454 -0.071677364 0.02254401 -0.06467344 -0.025512422 -0.08540453 0.039011236 -0.066693045 -0.09389588 0.0270719 -0.057985585 0.0784414 -0.021729024 0.09882076 0.035570595 0.046893932 0.029301535 -0.047877993 -0.24492794 0.007563341 0.031188073 -0.0041675377 -0.13230166 -0.03526234 -0.058483556 -0.030396763 -0.08367072 0.0470926 0.0892623 0.060253628 0.035115648 -0.12472009 -0.056269806 -0.009189913 0.016017023 -0.028238505 0.0826612 0.010769181 0.027539363 -0.020911755 -0.013160894 0.08292816 -0.043307327 0.06940771 0.052716542 -0.039661527 0.008527699 -0.031990875 -0.07626421 0.0038379806 -0.103307866 0.07325273 -0.07245295 -0.0067482223 -0.05524203 0.0056155664 -0.12832537 0.0644617 -0.07980157 -0.0023037908 0.027040338 0.029256817 -0.04882244 -0.024400568 -0.0643779 0.023012387 0.0154354535 -0.04282547 -0.014237318 -0.04215589 0.05340423 0.050017696 0.12486523 -0.035621323 0.057974037 -0.049218044 0.18022455 0.0091888085 -0.16654667 -0.018274814 -0.024448112 0.107007235 -0.099567816 0.009944891 -0.070266105 0.0034537613 0.0042449804 -0.010539283 0.037646294 -0.10580447 0.041427653 0.08925497 0.026977496 0.00029915865 -0.11574988 -0.0749044 -0.041461896 -0.023361513 0.09749838 -0.03899511 -0.05045265 -0.12999795 -0.014856828 -0.056350157 0.04310693 -0.08856384 -0.12229247 -0.0144914 0.080384225 -0.047949027 -0.039046038 -0.0671177 -0.042916574 -0.08691368 -0.0029064456 -0.045310915 -0.11677277 0.024284955 -0.10077824 -0.05213159 0.038774814 -0.044456847 0.003699934 0.04011298 -0.03141157 -0.039953705 0.02507911 -0.015234507 -0.042072173 -4.0931183e-05 0.0073946672 -0.025088372 -0.023066878 0.056781027 0.061871246 0.06973416 -0.014953441 -0.052306995 -0.11078356 -0.08487697 -0.0009464377 -0.029219113 -0.0471455 0.03422141 -0.22483826 -0.031684402 -0.066806614 -0.07763459 -0.07863102 -0.02129525 -0.010284975 -0.032531023 -0.057656113 -0.011143557 -0.016606348 -0.013018639 0.0019768667 0.08910067 -0.048834898 0.08406662 -0.041672643 0.035098933 -0.08183571 0.020487988 0.0033007234 0.0145279905 -0.030998072 0.015837666 -0.06766108 0.082834 -0.009661467 0.012906538 0.05142289 0.056021787 -0.06737104 -0.022516163 -0.09879803 0.052586004 -0.016728941 -0.08131801 -0.0007109552 -0.06914014 0.025091667 -0.0066739134 -0.053316165 -0.0054149358 -0.023562964 -0.0056809396 -0.032009374 -0.009131864 -0.030148672 -0.09620127 0.0049042115 -0.0485917 -0.011576413 -0.035415776 0.01285781 0.11707253 -0.03255831 0.010704902 -0.026447088 -0.081903204 0.040372457 0.052840587 -0.07330739 0.022443352 0.07407695 0.022482494 -0.062109716 0.044765674 -0.12770244 0.03470745 0.028578747 -0.02078487 0.0035679317 -0.024506915 -0.06840538 -0.029794732 -0.036173053 -0.037846796 0.008449471 0.082888976 -0.020293636 -0.06710674 0.022858355 -0.04900286 0.059317946 -0.035619624 -0.018240321 0.044703078 -0.038123854 -0.09233645 0.002401887 -0.03194501 -0.011028581 -0.014816571 -0.0951396 0.020172263 -0.014225347 -0.07437206 0.08149424 0.047691394 0.04252959 -0.01504539 -0.0602252 -0.108372115 0.016177252 -0.052259166 0.0020051931 -0.059948873 -0.03631454 0.07195091 0.03845446 0.048712324 0.012932895 -0.028117627 0.01651653 -0.08141439 -0.047013674 0.024230167 -0.014750625 0.022601845 -0.03707695 -0.05746447 -0.0133559005 -0.10842607 0.10373411 -0.05744273 -0.027221914 0.04823248 0.02154947 -0.03715056 -0.062918 0.031567264 0.05486339 0.03127338 0.053953275 0.014254531 0.004252854 0.06917534 -0.012447963 -0.03275473 0.062320255 0.044525303 0.012623167 -0.02920999 0.067427844 0.0018686269 -0.047102913 0.0019588051 0.05893299 0.1538731 0.06602017 0.026691852 -0.055073816 -0.07969658 0.062136054 0.073238164 0.041604877 0.12214295 0.0284267 -0.12090764 0.036490023 0.069119 0.0013842742 0.06145846 -0.09129219 0.08721777 -0.062077735 0.04331889 -9.5089184e-05 0.022094637 -0.03363683 0.009205929 0.07019598 0.013371361 0.035126247 -0.02989556 -0.024760947 0.00020003482 0.055937104 -0.08690606 0.067046106 0.014176136 -0.043512728 -0.038183305 -0.017910995 -0.025501141 -0.010478228 -0.0040756417 0.0950277 0.005329423 0.06539812 0.007859307 -0.12140821 0.030559476 0.008772185 -0.023002692 0.010833162 0.022018053 -0.041456513 -0.06984078 0.039324105 0.059667706 -0.069347404 0.013639674 0.012470297 -0.08122177 0.02546187 -0.073896736 -0.031418063 0.048814762 0.09289785 0.0252594 0.053111017 -0.026998231 -0.1273209 0.05589243 0.015765645 0.03002726 -0.0074870093 0.051560797 0.052217185 -0.030609688 0.046411667 -0.08062001 -0.05731959 0.07221112 0.037235323 -0.021301173 0.004064265 0.03424517 0.04873929 0.03353925 0.014997087 0.005225297 0.058808457 -0.0116423415 -0.3061072 0.021934705 0.043367874 -0.07470673 -0.04900877 -0.13242623 -0.027870089 -0.039575636 0.030529309 0.070438646 -0.05734943 -0.058490794 -0.028738892 -0.048926808 -0.009761376 -0.07211919 -0.086040266 -0.022319492 -0.036369514 -0.069342285 0.019170115 -0.014771238 -0.010359011 -0.009948772 -0.05436777 0.03624765 0.029662384 -0.044951115 0.15087384 0.04098311 -0.047758922 0.013325624 0.09102955 -0.006911488 0.03780327 0.024506034 -0.033163685 0.05866026 0.026513198 -0.043849513 -0.0034011032 0.06872339 0.024529608 -0.032146756 0.0036085523 -0.08551679 -0.06656389 -0.042327806 -0.045960225 -0.048970427 -0.017063107 -0.05003182 -0.10263597 -0.006008039 -0.08282747 -0.026962532 0.088596925 -0.03956704 0.08015852 -0.007289018 0.031676825 -0.07245258
0.07423243 -0.0017736602 -0.083722405 -0.02522462 0.030496018 0.01676613 0.031276245 0.043415997 -0.023007784 -0.034967232 -0.0019408495 0.08267309 -0.069741055 -0.00066600734 0.00058033096 -0.12633695 0.06674208 -0.026221963 0.008828883 0.062877096 0.09083046 -0.052411795 0.049231317 -0.014109008 0.062345747 0.01773447 -0.035352815 0.0092144795 -0.02941817 -0.1024677 -0.038636997 -0.07178743 -0.11380512 0.046781577 0.03394946 0.025190752 0.00038908946 -0.15178527 0.09548364 -0.07293681 0.080403976 0.07114679 0.03845289 -0.01639472 0.03728021 -0.06924018 -0.056686375 0.08314971 0.08975075 -0.03975324 -0.12030914 -0.087377295 0.06649949 -0.04744632 -0.061198775 -0.028206075 0.052617487 -0.013158475 -0.011393162 0.007912422 -0.09000277 0.0079538785 0.020170206 -0.12411882 -0.051407967 0.032829545 0.01418964 -0.09569571 -0.10901103 -0.01989895 0.037686933 -0.03148349 -0.06795155 -0.023473343 0.08369308 -0.06551548 0.028268967 0.06137376 -0.0074991346 0.0033470457 0.085299 0.0016355834 0.10371617 -0.15417472 0.016002296 -0.019746412 -0.07455209 -0.029077992 0.16585788 0.06877215 0.05653581 -0.07118401 0.04816914 -0.11247565 -0.06361727 -0.008323983 -0.13460842 -0.016786402 -0.036882695 -0.049016453 0.05964953 -0.00035173813 0.063537724 -0.099398986 -0.05450039 -0.000695633 0.042225286 -0.06925672 -0.1268926 -0.072451785 0.08523742 0.010905184 -0.030835407 -0.019154146 0.07201954 -0.0049825143 -0.12139126 -0.051598147 -0.05236269 0.11615031 -0.035923764 -0.05266088 -0.10370697 -0.0032870886 -0.029471215 0.17183407 0.079812035 -0.014502105 0.13845484 0.064487554 0.05219821 -0.024433075 0.03785433 0.08854297 0.022107305 -0.012177794 -0.10069086 0.25627136 -0.14408702 -0.0059060133 -0.09790385 -0.05730294 -0.074660294 -0.06666544 -0.035969257 -0.13428919 0.04942077 0.062719494 -0.079672605 0.09705137 -0.033436134 -0.05343185 0.07075683 0.046023425 -0.04155683 -0.005395193 0.06577499 0.014948434 -0.007218581 0.005371092 -0.025733171 0.036891893 -0.025144966 -0.047946785 -0.124343224 -0.0066638812 0.004335313 0.006171815 -0.033181712 0.05628218 0.108996116 0.06160221 -0.003604384 0.12477783 -0.10394046 0.026839113 0.075031325 0.051345453 -0.06682642 -0.005842747 0.08835161 0.0203133 -0.04962324 0.05055315 0.06760133 -0.0023502796 0.01184431 -0.10209451 0.0661032 0.034633137 0.07322979 -0.09527692 -0.07139506 0.030078497 0.13777715 -0.13856366 -0.13554934 0.007816583 0.03743194 -0.027629465 0.03368073 -0.00087620603 0.039686896 -0.058496978 -0.0029280935 -0.07735916 0.022788877 0.010136925 0.12228059 -0.06629842 0.13894515 -0.11108866 0.09966301 0.20408906 -0.01562595 0.08489131 -0.018084776 -0.12404504 0.0034170963 -0.080373704 0.023689851 0.043772418 0.10837785 -0.068284936 -0.024609366 -0.07945009 -0.047841907 -0.00067438907 0.0064241285 -0.00045236605 -0.08002404 -0.061913237 -0.05583906 0.016671952 0.04368889 -0.085434936 -0.028490582 0.0045920066 -0.06392945 -0.064495124 -0.07180388 0.055384472 -0.11563325 0.06522619 -0.062452484 -0.0032982433 0.030834366 0.036699366 0.10732174 0.045086756 -0.04440095 -0.12745838 -0.0898931 -0.0028450142 0.020508492 -0.0058844066 0.12167049 -0.09804983 0.015518997 -0.10571599 -0.028421901 0.060397353 0.0884502 0.077304915 -0.025421312 -0.04317927 0.012503219 0.20802191 0.06365653 0.028353857 0.084569626 0.06284353 0.036202107 0.09377153 -0.07040968 0.027093532 0.008682465 0.016809572 0.059373226 -0.004610935 0.08730632 0.24885805 0.113927364 0.019641394 0.03487119 -0.021653866 0.10009868 0.044117715 -0.02220453 0.023795439 0.06545737 -0.015160872 0.11996443 0.015548873 -0.030777864 -0.06937489 0.10374777 -0.023703896 -0.038598977 0.07365927 0.03421428 -0.014894184 -0.0043634973 -0.061804097 -0.02597547 -0.036610465 -0.016046215 0.029883614 0.028474236 0.03368882 0.027257238 0.09031945 -0.028962405 -0.010534717 -0.07707834 0.02153331 0.09526514 0.04338259 -0.18001673 0.0025565852 0.07295417 0.08138445 0.008536708 -0.12556507 0.058239866 0.046737213 0.10212101 0.0065474776 0.068455 -0.00072281616 -0.062985204 -0.0035412933 -0.04658349 -0.038721092 0.002133453 -0.052153353 0.09143885 -0.0260893 -0.0034717459 -0.010664358 -0.082203194 -0.027886055 0.067783244 0.028781012 0.0553746 -0.0016863319 -0.06554254 -0.005873883 -0.075556256 -0.06733786 -0.0663368 0.12496171 0.088661686 0.01579957 -0.025395175 0.033827152 -0.08082628 -0.039358657 -0.022708619 0.098086715 0.079774275 0.057658512 -0.0073334347 0.048978947 -0.03812339 0.026618142 -0.12131982 0.07169735 -0.20874648 0.016336028 0.047148846 -0.16316195 0.027392343 0.06952556 -0.044879504 -0.10700957 -0.032949585 -0.04222029 0.039956335 0.016143095 -0.02295289 -0.0002150737 0.059173927 -0.04705293 0.1293932 -0.090640955 -0.058464997 0.043049492 -0.06960773 0.002081312 0.052460525 -0.15380077 -0.1380938 -0.024519723 0.009579839 -0.072384 0.13951115 0.07903198 -0.022108773 -0.057691127 0.11459162 0.123758234 0.07059878 0.07665559 0.077970505 -0.022264639 -0.18568055 -0.0047662677 0.019698171 -0.017865334 0.033899087 0.044875205 -0.014842172 0.09157384 -0.04556659 -0.019484758 -0.008226983 -0.12731475 -0.03240652 0.06848171 -0.05350317 0.088830575 -0.14280845 0.03245911 -0.06546724 0.0847665 0.042936794 0.09672337 0.028329704 -0.061050482 0.006429467 0.027642997 -0.012166373 0.0302499 -0.09257701 -0.04097855 0.066481926 -0.033412028 -0.08508081 0.021342069 0.0040752143 -0.09526547 0.08310886 0.13445157 -0.0029848604 -0.0040296586 -0.033102814 -0.026694922 0.16008352 0.038281243 -0.17727917 0.02072519 0.04703514 0.08578198 0.0057057575 -0.09040823 -0.040359486 0.11051147 -0.03648166 0.009706281 -0.034443565 -0.007190571 -0.0082457345 -0.0025126995 -0.11392179 -0.017425865 0.03837057 0.12317773 -0.026003871 0.15677169 0.07647205 0.06233373 0.004800137 -0.040291216 0.05340295 -0.05955505 -0.098716155 0.03307032 -0.06747092 -0.002187971 -0.018966889 -0.028317869 -0.056088056 -0.049081977 0.06546802 0.027610693 0.024757154 -0.0038983293 -0.06526199 -0.0015764242 -0.07017099 0.10284443 0.05039383 0.030910922 -0.020047396 -0.102111585 -0.048530575 -0.08997693 -0.020749154 0.035966992 -0.011766742 -0.054100506 0.025500657 -0.15365274 -0.03518363 0.06345482 -0.0713794 0.0041565727 -0.014308881 -0.002238031 -0.13609132 0.1447707
-0.04852157 -0.0014403722 0.017513316 0.07906864 0.006661653 -0.019104835 -0.036187995 0.003326989 -0.04622115 0.1262794 0.11816838 -0.030293109 -0.06976053 0.1429709 -0.0649666 -0.17742136 0.15657058 0.1043723 0.070415035 -0.011611124 0.051233273 0.013163285 -0.013736573 -0.036400344 -0.10121923 -0.06996473 0.054042645 0.0326315 -0.033735443 -0.041342594 0.04198454 -0.11702837 0.017135547 0.043404177 -0.0002603436 0.028344236 0.055036098 -0.008170087 0.073712744 -0.11128041 -0.05332428 0.03350974 0.065981194 0.03257426 0.11928908 -0.07940194 -0.131974 0.077352956 0.022791123 0.015073141 0.00948466 -0.0019791028 -0.15332435 -0.06387681 0.044083375 0.042774603 0.018999271 -0.122819744 0.0798953 -0.042110264 -0.036957942 -0.039580073 0.029775899 -0.029698692 -0.060600527 -0.012336327 -0.0576644 -0.07693018 0.0016602287 0.011407928 -0.05078387 0.1503824 0.028645054 0.13937443 -0.020520322 0.017536147 0.07516428 -0.12588152 0.052496508 -0.010316992 0.04119475 -0.075493634 0.060663402 -0.20908518 -0.031377852 -0.025256358 0.012618336 0.015808694 0.03258983 -0.033335336 -0.015321552 0.0647441 0.04092143 -0.08473679 0.111572325 -0.053676423 0.04169952 0.033714525 0.09510661 -0.0029983826 0.012535964 0.08524444 -0.0003572675 0.0720837 0.025576048 0.07243663 0.050114512 0.07858068 0.02823377 0.009590795 0.15196344 0.079433575 0.07886241 -0.0816254 0.07025644 0.09310716 -0.16493043 -0.08206557 -0.08512621 -0.068459 0.032762367 0.11173641 -0.119923145 -0.06662663 -0.054617465 -0.06800035 -0.042831343 -0.0319363 0.042811178 0.023885299 -0.0077992245 -0.037414588 -0.06214734 -0.0060243728 -0.097001635 0.009704806 0.07515462 0.02891989 -0.095279284 -0.057450894 -0.008584225 -0.09387793 -0.066670045 -0.042446382 -0.00052513735 -0.12247652 0.01899781 -0.07391417 -0.08865593 -0.001496709 0.04059242 -0.032050967 0.053552862 0.011244392 -0.14850931 0.1514698 0.12374804 0.0025955918 -0.030804485 -0.024512436 0.026758721 0.025720544 0.1132216 0.06137389 -0.09810619 -0.07098674 0.11256329 -0.05155688 -0.038657773 0.14896834 -0.09990552 0.10166786 0.07963795 -0.041199517 -0.020631382 -0.094441466 -0.007537785 0.1146424 0.029068943 0.058865134 -0.00091704587 -0.0057110814 -0.050188497 0.09645005 -0.12459213 0.087794065 0.05972979 -0.0013564874 -0.1349222 0.08743815 0.11928387 0.01897888 0.0840347 -0.020991344 0.047470048 -0.08531117 -0.002952078 0.052278597 0.015685143 0.0366577 0.15575932 0.0190614 0.031475816 -0.046225116 -0.036758903 -0.15440854 0.042693153 0.015181585 0.032991286 -0.17568193 -0.0549666 0.1239589 0.12126768 -0.047357272 0.05384714 0.117065966 -0.022705305 0.1329389 0.14245597 0.06836634 0.044455018 -0.04318672 0.04431524 -0.0588327 -0.13618973 0.021047924 0.032997668 -0.030757802 -0.1491359 0.024531102 -0.013179922 -0.040021334 0.037422426 0.07463389 0.24511418 0.09238381 -0.0048307036 -0.0031167346 0.06354596 0.022529522 0.038353313 -0.019247742 -0.021081831 0.047861923 -0.0075773853 -0.01004188 0.088509835 -0.11049623 -0.0057141045 0.0074064974 -0.0056711873 -0.037299786 -0.05935831 0.00541758 0.08594331 0.12703346 0.009018436 -0.05813123 -0.0009506136 0.15997252 -0.013217462 0.05291875 0.1396487 0.014439141 -0.005805976 -0.072017595 0.0009196031 0.027571026 0.17470768 0.10350436 0.016611729 0.008541341 0.10003423 0.004562264 0.026674673 0.12122745 0.094920345 -0.04889761 -0.04696531 0.042698767 0.07461357 -0.0022942715 0.029196423 -0.15341501 0.064896286 -0.08831084 0.03686496 0.03654382 0.013114709 -0.11931171 -0.0030053782 -0.012064773 -0.075405665 -0.03946038 0.10472141 0.042056527 0.014087812 0.008246629 -0.097259186 -0.04554803 0.0731821 0.07404576 -0.011307858 -0.048473023 -0.008704048 0.030270198 0.10346185 0.07325486 0.050657965 0.038008858 0.039493393 0.0018171553 -0.009911913 0.028383898 0.08155662 0.08669678 0.011356049 0.012707579 -0.05897478 0.03909419 0.012869462 0.05870969 0.070446104 -0.10931284 0.0005407084 0.028908892 -0.01895549 0.063794196 -0.035271708 -0.053440474 -0.015181809 -0.024955438 -0.059283435 0.011281772 0.049354058 -0.11923835 0.18831299 0.066034295 0.054475468 -0.021276077 0.058020193 0.0024241856 -0.17825055 0.1681686 0.120616026 -0.038311273 -0.04414992 -0.082889885 0.03735076 -0.04665436 -0.02150089 -0.015798694 -0.023157902 0.02464289 0.030991603 0.15324014 0.0037204253 -0.028260272 -0.00087663025 0.022458337 0.11782601 0.08333413 0.06912083 0.10919368 -0.1315464 0.0005128175 -0.052423723 -0.021379415 -0.1296187 -0.0685832 0.051907215 0.0025375776 -0.119121514 0.13194714 0.05333551 -0.037596714 0.03268404 -0.0015912182 0.03353466 0.071163915 0.037198402 0.05528501 0.0049862163 0.017206233 0.113256544 -0.14402945 -0.06596706 -0.051948298 -0.09666425 0.03729966 -0.00573054 -0.13130246 -0.039130356 -0.020993568 -0.14652112 -0.17360356 0.14673692 0.12667932 0.017283233 -0.0002811702 0.058154784 -0.054939847 -0.05378022 0.047092218 0.042009085 -0.13273291 0.025453696 -0.049364854 -0.02479731 0.062261254 0.06571957 -0.058035616 0.04242476 0.056279123 -0.112446345 -0.016422573 0.082336165 -0.0145483045 -0.069497116 0.019767188 0.025378224 0.013506779 -0.04958645 0.029547364 0.06742565 -0.08076019 0.03505739 0.0850906 0.114097975 0.029482417 0.06018967 -0.012623114 -0.10437751 0.07151801 0.05440104 0.023619095 -0.060561933 -0.15595256 -0.055823475 -0.0010848035 -0.0025975213 -0.00538664 0.023493627 -0.1046709 -0.022961233 -0.042957507 -0.0148181645 -0.13075827 0.03856943 0.0066122604 0.09540414 0.074674726 0.016803524 0.036721755 0.08627004 -0.10576019 -0.065724395 0.097842775 0.013827988 0.08519852 0.055738393 -0.14723459 0.055225585 -0.004179349 0.058365155 -0.036398392 0.035687834 0.032918036 -0.052945673 0.049564186 0.02968633 0.15843092 0.036344357 -0.032243524 0.09621005 -0.04125598 -0.077898145 0.0829904 0.051709205 -0.042302568 0.04679921 0.061411317 0.032774586 0.05404156 0.072778426 -0.0092927655 -0.028186385 -0.059577856 -0.06230568 0.024353677 -0.055303495 -0.03798998 -0.032906514 -0.036500704 0.119204774 0.07893624 0.03203196 0.104568936 0.11862138 0.029245598 0.09868922 0.22325306 -0.071522005 -0.19837163 0.08506366 0.083081976 0.015088106 -0.017615095 0.022890773 -0.053950895 -0.123410694 -0.021033706
-0.00552765 -0.109667294 0.10045034 0.064453565 0.057221193 0.15566316 0.0038529842 0.06503072 0.11723805 0.079408646 0.016926415 -0.10284217 -0.08423477 -0.046334364 -0.03586263 0.050359007 0.07692126 0.08480959 0.019374747 -0.03781937 -0.07676035 0.16487016 0.006549405 -0.0996763 0.016335832 0.050363593 0.124557674 -0.0722024 0.06613751 -0.014535099 0.08766143 0.119397044 -0.08510935 -0.106243625 -0.09228872 -0.025063666 0.023434877 0.03939775 0.028609473 0.073084645 0.051907398 -0.0017448321 0.013710999 -0.05570376 0.07104808 -0.002092469 -0.066121556 -0.04168145 -0.016688904 -0.0196891 0.082136385 -0.08382007 0.013750767 0.11166788 0.039626583 0.06178807 -0.06561742 0.0050498256 0.012697606 0.0132448375 -0.1521513 -0.054330096 0.052224476 0.012701398 0.012927436 0.0033106566 -0.04922406 0.01656074 0.01653905 -0.013094564 0.01551121 -0.050380107 0.041171696 0.050719917 0.058659807 -0.023270935 0.0077920216 -0.06853529 0.05181487 -0.023447463 -0.08574333 0.067167304 -0.13931386 -0.038618203 0.009405408 -0.09835654 -0.01937854 0.053487927 -0.109141365 0.036376428 -0.1004658 0.15014994 -0.017254483 -0.041216858 0.016247157 -0.020876521 -0.020331148 0.09619146 0.17685872 0.025339952 -0.15514621 0.111410126 0.052991148 0.053409275 0.023742365 0.051585943 -0.064066626 0.107770465 0.12004331 0.20377623 -0.04155362 0.057705473 -0.061327267 0.058244962 0.14179528 -0.029960962 0.13061492 -0.047352623 -0.059608605 -0.06412635 0.038989913 0.18033725 0.07378093 0.09185913 0.10474255 -0.10806708 -0.02269476 -0.008453571 -0.16457821 -0.03124218 0.031325553 -0.022510765 -0.07319577 4.5128352e-05 -0.14322339 0.075170375 0.08406548 0.027347183 -0.11103736 -0.09740435 0.016658567 0.034207486 0.08631342 0.03455875 -0.020734215 0.13286483 0.041114766 -0.0842559 0.0384447 -0.026035897 -0.0072042467 0.06151381 -0.1314983 -0.016060466 -0.13838707 0.041277166 -0.019689683 -0.028544443 -0.016004436 0.025229763 0.041626517 -0.034970824 0.0797732 0.047182236 0.14833646 0.028460335 -0.009977182 -0.070775464 -0.18235627 -0.0006735361 0.048450544 0.026094468 0.01987225 0.03444136 0.003853572 -0.023223601 -0.030344214 -0.047899608 0.00825238 -0.1435942 -0.036109325 0.03436422 -0.029347463 -0.012221121 -0.11525413 0.16618115 0.0491464 -0.047789834 -0.18239154 0.06600665 -0.060329553 0.07077788 0.057790905 0.09985061 -0.007753328 -0.046479993 0.063907094 0.15122834 0.03931688 0.053577643 -0.053898398 0.06127972 0.026446555 -0.02135589 0.00826359 -0.06264542 0.034944844 -0.020408172 -0.078807935 -0.053390127 -0.0915717 0.061654102 -0.001043023 -0.054784182 -0.11867817 -0.03482409 0.04274338 0.019217473 -0.047587696 0.050558124 -0.010029336 -0.033179328 0.111818075 -0.085053496 0.03836871 -0.024627952 0.19607383 0.08181624 -0.03611071 -0.060428545 0.011152138 -0.04340405 0.002828048 -0.025784666 0.054100923 0.08027167 0.013715346 0.088881485 0.12264167 -0.029136408 0.036513276 -0.040684123 0.080355726 0.01715445 0.04675634 0.017108917 -0.09809051 0.01621594 -0.06115738 -0.12603833 0.00030602165 0.01711699 0.14507546 0.08861122 0.16823496 0.11017956 0.041957602 0.11373301 0.05343937 -0.041203164 0.103377424 0.066538244 0.049086507 0.03339192 -0.060735554 -0.0087711 0.019017909 -0.086854026 0.05912392 0.088072605 -0.03700084 0.08032901 -0.026254926 -0.059495006 0.033174075 0.062721364 -0.058124542 0.04570297 0.038675614 -0.01840435 0.083909154 0.083437584 -0.025189301 -0.026617954 -0.022121666 -0.11117162 -0.041185133 0.0065641063 -0.028764717 -0.059434418 -0.018036494 -0.073225684 0.08508167 -0.009893424 0.11817751 -0.048653334 -0.06948458 0.041851237 -0.2167031 0.028304178 -0.1302286 0.016076576 0.046062365 0.1293373 0.014002895 -0.013592884 0.027043134 0.00897754 0.132557 0.09610209 -0.075452834 0.03549297 -0.001267369 -0.0274659 0.081205055 -0.03860177 -0.0074825687 0.08401931 -0.039497145 -0.03784897 -0.012666565 -0.02416498 0.021652225 -0.0055871815 0.04935765 -0.13101481 0.0020355417 0.14855206 -0.014043662 0.023128213 0.120996915 -0.072586544 0.14827767 -0.12508972 -0.0750689 0.02333336 0.06922525 0.033422444 0.09856621 0.112067476 -0.012338852 -0.0908519 -0.026176035 -0.041375536 0.057090707 -0.060800776 0.066095255 -0.08021792 0.10999839 0.01806693 0.029069554 -0.095870696 0.02149726 0.04811119 0.06957612 0.09858091 0.050727755 -0.07080852 -0.026188206 -0.049453847 -0.046405412 -0.07866166 0.033142395 0.12625562 -0.09935037 -0.012075869 0.038189143 -0.05129571 0.09218681 -0.14981094 0.13169686 0.066504054 -0.046612073 -0.020448735 0.12732162 -0.013011939 0.07048474 0.02961782 0.04912576 -0.03308221 -0.04453465 -0.023287835 -0.0782631 0.12706909 -0.11229676 -0.12771088 0.13031866 0.07380314 0.05978298 0.07775396 0.018335862 0.1183749 -0.069362424 -0.055749547 -0.050506573 -0.0922064 0.106947936 -0.072590046 0.053564753 -0.036414187 -0.07945029 0.046992164 -0.0038722523 -0.00391147 0.0146611845 -0.036032356 0.09169836 -0.017346952 -0.087388076 -0.0025323452 0.015585738 0.055710744 0.025281126 -0.07714006 0.034029838 -0.008834571 0.028507745 0.08892519 0.014055805 0.00058305706 -0.09803521 0.052353818 0.005966018 0.09170283 0.06280052 -0.014854488 -0.014596709 0.11701681 -0.06789675 -0.12063838 0.003281826 -0.08330998 -0.044404503 -0.009100247 -0.08331102 0.017122196 0.007856383 -0.024917455 0.062877625 0.036179397 0.007599723 0.05183588 0.065569595 0.11229783 -0.01767256 0.19762711 -0.040713 -0.060239155 0.028299429 -0.06891037 0.060833137 0.05008326 -0.043887973 0.10946591 -0.028116807 -0.059232846 0.069800176 0.01254212 0.04185308 0.034463126 -0.037049826 0.037323877 -0.007283434 -0.037542325 0.02552284 -0.07273135 0.023832612 -0.120553896 -0.026985884 0.014639425 -0.028972657 0.08668514 0.077895015 0.0069083553 0.02274719 0.017519832 -0.030380195 -0.005079822 0.011437545 -0.10659877 0.0729784 0.038806245 0.0079018455 -0.098888926 0.091588974 -0.027582515 -0.004149093 -0.099303454 0.03251017 0.08006238 -0.024258716 0.06803276 -0.038119897 -0.039857198 0.12836775 0.0091665 0.19073473 0.03178642 -0.017413601 0.016808743 0.026774837 0.14431892 -0.032568272 0.08498061 0.021417394 -0.084547035 0.039684713 -0.07139534 0.07502028 -0.031655185 0.09351772 -0.03263642
-0.15684736 -0.00982681 0.020832883 0.019697012 -0.051819127 -0.021913959 0.007375138 -0.0013170792 0.0027485369 0.061092343 0.034172963 -0.02295466 0.037230287 0.03061235 -0.09604935 -0.054059833 0.053664923 -0.07365049 -0.04224421 -0.0068393922 -0.018874988 -0.071376674 -0.06806561 0.0249956 0.017939439 -0.06606786 -0.049506214 -0.0064443788 -0.0011211804 0.122876205 -0.016746916 -0.07026317 0.03438169 0.013060237 0.023043776 0.08307826 -0.043548476 -0.03367223 0.011622573 0.0303634 0.031731214 0.02762238 -0.053187262 -0.042824775 0.04004278 -0.10782694 0.037932865 -0.024224967 -0.027506934 0.018141273 0.049686488 -0.053420242 -0.0717975 -0.005007188 -0.033311114 -0.040320657 -0.020728365 -0.10856932 -0.0046741185 0.009986248 0.023930967 -0.04412012 0.054414045 -0.015624387 -0.08930683 -0.048262663 -0.078639224 -0.0837126 -0.0050951447 -0.06422503 0.04144566 0.03722866 0.01437816 0.05409314 -0.018358963 0.011982128 0.085910104 -0.10681035 -0.025937354 -0.005943945 -0.034442574 0.023128824 0.084650256 0.026975418 -0.012169032 -0.018357648 0.05296871 -0.032408517 0.0010167257 -0.039498903 0.062745474 -0.01867673 0.031689394 -0.0053126584 0.016409114 -0.035691224 -0.02979948 0.032007758 0.01870133 -0.037084833 0.006872883 0.024546096 -0.013472556 -0.03530865 -0.015035724 -0.0012615519 0.1415603 -0.021129385 0.050013363 -0.042042907 -0.04300464 -0.06403557 0.062895365 -0.019441972 0.070511915 -0.023705894 -0.06877746 0.08066017 -0.007549533 -0.015809624 -0.025549127 -0.024948722 0.18586095 0.027523758 -0.022367597 -0.049511496 -0.06951982 0.0046289386 -0.011870273 -0.16865042 -0.09646691 0.008262578 0.0038220917 0.007426208 -0.0707104 -0.045976315 0.055333972 -0.02685191 -0.001739934 0.03331909 -0.05915294 -0.06934623 0.050596762 -0.030725252 -0.07972612 0.1119768 0.024901545 -0.08327444 -0.0069842148 -0.048485417 -0.023216786 -0.09866497 0.002624163 0.05052219 -0.011741337 0.054051813 -0.09000059 0.087331206 -0.013750172 -0.062088598 -0.07057344 0.021768797 0.100914784 -0.048512477 -0.07920799 -0.06526791 -0.01299094 -0.060648944 -0.0140669765 0.020782933 0.036705457 0.0074959425 -0.046632726 -0.0077544833 0.11282647 0.05784052 -0.042370908 -0.0129698515 -0.07046521 -0.039059214 -0.033909082 0.100147106 0.042242374 -0.012545446 -0.015335391 0.06500317 -0.042764254 -0.05282679 -0.047098078 -0.03702029 -0.028685557 0.0030558496 0.013617326 -0.0655318 -0.0025314058 0.058216855 0.024325617 -0.021201225 0.058129087 0.06780847 0.088087395 0.03139575 0.0023187117 0.11723035 -0.016235856 0.03362975 0.026514102 -0.048060134 -0.04628685 -0.046723865 0.044939045 0.05715859 0.044958822 -0.025089085 0.02200691 0.009993856 0.008192667 -0.033060662 0.11173833 0.06833917 -0.1631667 -0.06381321 -0.057342842 0.045016836 -0.024612011 0.018248277 -0.010275446 0.02579228 0.055809166 -0.01106157 -0.013881669 -0.025672823 -0.033522878 0.06943824 -0.044283897 0.07312022 -0.048124604 -0.01171127 0.016244395 0.07325224 0.06478836 0.040699854 0.06749267 0.03044698 -0.026274478 -0.048767548 0.05130568 -0.11297176 -0.015320465 -0.005850485 -0.071633026 0.02323596 -0.009338744 0.015273139 -0.013391042 0.07834912 -6.0822138e-05 -0.02483857 -0.026332602 0.037026294 -0.06060838 -0.0036794685 -0.056303967 0.027054511 0.028558426 -0.039765064 -0.021980504 -0.14553978 0.033298578 0.051930033 0.0018450159 -0.06074234 -0.114922754 -0.10083723 0.11208752 -0.08442159 -0.116100945 0.013819998 -0.05730505 -0.025813965 -0.07496325 -0.05639346 -0.0382094 -0.1077574 0.098001674 0.05004586 -0.01868556 -0.011198283 0.044231575 0.016122973 -0.085689805 -0.12002284 -0.0408193 -0.05523641 0.048487216 0.0003833729 -0.012337755 -0.002360452 -0.090448365 0.05333288 0.013581156 0.0029181163 -0.055817507 -0.024278717 -0.022149082 -0.03292374 0.03476334 -0.030910531 -0.101828486 -0.016757524 -0.0061566504 0.03421101 -0.080655225 0.012738657 0.022614246 0.06854339 -0.10075089 -0.028160917 0.01909178 -0.0018755634 0.07896288 -0.08444246 0.0137628475 0.102732375 -0.060392905 0.0043315557 -0.113716856 0.09051359 -0.04644854 0.012039862 -0.007832806 0.041332155 0.034343805 -0.07534493 -0.080055475 -0.05835091 0.014622949 0.087503694 -0.12580848 -0.00082409213 -0.027278349 0.021282528 0.03578454 -0.021146677 0.007568437 -0.06085571 -0.018231625 0.015815713 0.021339465 -0.07497955 -0.0028847794 -0.07041022 -0.031065602 -0.041769262 -0.03238036 -0.011275772 -0.08251575 0.10608467 -0.08380387 -0.012424822 0.029320441 0.015364909 -0.034485932 -0.057761684 -0.124928676 0.11091195 0.017733425 -0.020796029 -0.026248125 0.014618867 -0.053451765 0.121039264 -0.04571571 0.061193865 -0.0012066354 0.0072407904 0.006792065 0.11853876 -0.14537168 -0.020867981 -0.14305618 0.03336559 -0.0019142223 0.0013644485 0.02842625 -0.09037061 -0.05328152 -0.026887244 0.019581102 -0.074071616 0.012537814 0.070961796 0.090543754 0.015738191 -0.024760745 -0.00356802 0.0067662634 -0.07039433 -0.056706414 -0.045465417 0.009246853 -0.004858832 -0.02128218 -0.031076638 0.09564229 -0.037381332 0.041952617 -0.06472909 0.0046151867 0.022403102 -0.046979584 -0.050219286 0.0032403106 -0.03734482 -0.007396754 0.051175535 0.028009234 -0.04697871 -0.047878135 0.020739058 -0.025730237 -0.07368949 -0.028658565 0.09082744 0.039078455 -0.008749398 -0.029109556 -0.02482421 0.05466168 0.03740745 -0.022519156 -0.052860893 -0.06366374 0.011168682 -0.047797598 -0.007940132 0.056017295 -0.035184775 -0.08916984 0.027814396 -0.049772438 0.07408133 -0.048984457 -0.021688707 0.008309338 0.09785496 0.020592798 0.05886326 -0.0054855435 -0.043725092 0.023466427 -0.024496093 -0.036330678 0.009744837 0.06856491 0.10447475 -0.090179905 -0.034483556 -0.02469554 0.021932019 -0.0054619676 0.012530611 0.0055600465 -0.0173348 0.01010155 0.02192308 -0.09785964 -0.019370051 0.08156686 -0.006606794 -0.030757513 -0.06730749 -0.046491634 0.029625366 -0.025518566 0.008037577 0.110290445 0.024811942 0.016695576 0.0061370074 0.0069119544 0.024180165 -0.09279602 0.10322718 -0.08782072 -0.062429376 -0.085430086 0.0731805 -0.0014876828 0.08914505 0.10516687 -0.040683385 -0.033119433 0.051797125 -0.04742013 0.081745744 0.11413242 0.0632099 0.024416808 -0.03535556 -0.027166683 0.08731657 -0.05296492 0.024352288 0.017251747 -0.07209305 0.020793596 0.051579945 -0.046816763 0.037232954 0.044616416 -0.06676811
-0.060980655 -0.0802798 -0.106457934 -0.034182407 -0.020552387 -0.043258324 0.013370096 -0.09116081 0.05541733 -0.057038587 -0.043395158 -0.024696851 -0.017084638 0.082462355 0.029132003 0.007947055 0.06850629 0.02678372 0.075718336 -0.035394415 0.014852952 -0.026631493 -0.08002985 0.057322904 -0.009826768 -0.035002638 -0.007584105 0.025380006 -0.08360262 0.019210417 -0.06473324 -0.017084286 0.04023337 -0.043245923 -0.037891828 -0.026948186 -0.007266758 -0.0087991655 0.0183182 0.06693403 0.050570417 -0.026538877 -0.11371184 0.031583723 0.025152596 -0.047798872 -0.022540344 -0.10670907 0.03278512 0.030036736 -0.09426863 0.008470503 0.07029036 0.003147267 0.043021403 -0.004439047 -0.055357534 -0.07833706 -0.11406606 0.03136718 -0.027908916 0.0068708565 0.01591314 -0.0014166145 0.15923843 0.068300605 -0.10348471 -0.023891771 0.059631385 -0.0007732535 0.025834097 -0.0067486023 -0.053853493 0.048736256 0.017601214 0.009994551 -0.06302974 0.059137993 -0.06189348 -0.0783792 -0.1455305 0.003580526 -0.050539512 -0.012681085 -0.106061615 0.050384983 0.019190917 -0.11474043 0.035583217 -0.016278265 0.026664471 -0.09906074 -0.0012857261 0.0106145 -0.06629675 0.08988707 -0.039365623 -0.06506985 0.014285661 -0.0116682695 0.12412115 -0.014933445 -0.0816456 -0.06599739 -0.1014555 -0.07417801 0.0816108 -0.139748 0.03890806 -0.10149591 0.060252324 -0.0124613065 0.010179411 0.16561411 0.036776893 0.012080896 -0.021617947 0.010600461 -0.0875496 0.052057054 0.010567663 -0.06685305 0.07420633 0.0321575 0.006141056 0.044497147 -0.052350946 0.06584155 -0.08865236 -0.074359715 2.0503196e-05 -0.08051144 0.04321299 0.035438627 -0.110216804 -0.07021948 -0.1264362 -0.020152017 0.0038431282 0.0097790975 0.0042979405 0.0018342346 0.011637106 0.030319119 -0.023059255 0.050540928 -0.039419 0.10227538 -0.033361007 0.0029388217 0.0023767385 -0.023878597 -0.01910298 -0.02899471 0.05482763 -0.10613934 -0.10960059 0.017521672 0.0027832561 0.044737585 0.08937682 -0.036917448 0.07115033 -0.055074457 0.032039184 -0.077684864 -0.06543578 0.023678385 -0.10108868 -0.06139086 0.05965636 -0.0070306887 -0.034052733 -0.018750424 0.06508031 -0.023315748 0.054801654 0.0052881 -0.07330744 -0.0846101 0.058825452 -0.059604023 -0.03534695 -0.011147156 0.027941488 0.006154049 0.036921266 -0.08177557 0.07134547 -0.01073982 -0.07554991 -0.009963568 0.034044288 0.01883597 0.08508319 -0.06434492 0.0023484328 -0.012067971 -0.04916188 0.023416273 -0.015597239 -0.037684985 0.05172482 0.032507945 -0.08134369 0.030514095 0.01494062 0.011870756 -0.07804961 -0.011541642 0.02447626 0.103977375 0.02850606 0.072177276 0.07248591 0.04878271 -0.028737504 -0.058755297 0.016539888 -0.027101627 -0.08676716 -0.1179135 0.03656364 -0.061242692 0.081248395 -0.11881257 -0.09743383 0.07999574 -0.03279434 -0.0007050044 0.04616662 0.104488246 -0.02369024 -0.051562108 -0.04637271 -0.008872569 0.011982431 0.024232883 -0.087179646 0.00847924 -0.01733223 0.007342327 0.03896747 0.01040382 0.11930239 0.0017605022 -0.13490222 -0.06902103 0.04679618 0.03350268 0.0018138309 -0.085393414 -0.014275252 -0.015937274 -0.06225669 0.028455414 0.027436968 -0.113195226 0.08843208 0.046236295 0.0027251116 0.044522166 -0.07697493 -0.064550266 4.0709285e-05 0.017227529 -0.027217971 -0.080979794 0.12404476 0.1583761 0.12392369 0.07161346 -0.17121316 -0.056558 0.06073178 0.029329132 -0.118612096 -0.075081974 0.06380397 0.028035315 0.074117795 0.026139842 -0.041196886 -0.029906204 0.05777486 -0.011969974 0.082606554 -0.05692047 -0.088051744 -0.013553526 -0.008881541 0.05818487 0.054141987 -0.04119267 0.020492867 -0.032867312 -0.030150698 -0.03883234 0.032015897 0.024404025 -0.0144723775 0.07166953 -0.018329691 -0.042857066 -0.023617018 -0.014772894 0.05139798 -0.011743835 0.0019898855 0.022689756 0.043655615 -0.005143469 -0.02741931 -0.03906833 0.008657735 -0.0068893577 -0.04858114 0.047771163 0.07233188 -0.018486409 0.0056008925 -0.066234924 0.06275945 0.036167316 -0.03095397 0.019961895 0.05382803 0.06993227 -0.028728558 -0.09557035 0.0052035614 0.06536881 0.064975746 0.07211756 -0.12994654 -0.120112255 0.026595477 -0.033828188 0.08888712 0.07431641 -0.07166791 0.05286029 -0.027839148 -0.13424894 0.014953771 0.008139629 -0.035090603 0.0647711 -0.016323252 -0.18087853 0.0072774035 0.047410287 0.044194862 0.010946112 -0.062658854 0.08291637 0.0082864715 0.03524639 0.051702395 -0.04728553 -0.07076383 -0.015990432 -0.020545004 0.023377903 -0.052440543 -0.04662597 -0.018953286 0.046189573 -0.085966915 -0.038051642 0.07376752 0.038049318 0.02910083 0.058559127 0.1375002 0.048516244 -0.016867196 0.05236677 -0.053677425 0.020762848 -0.060805257 0.014446439 -0.056294464 0.0701972 -0.02763988 0.02975976 -0.052193865 0.049913544 0.08269065 0.01565353 -0.08384225 -0.039814804 0.05544364 0.01185784 -0.076419614 -0.065586306 0.13327387 0.017659834 -0.04468181 -0.027574101 0.0513302 -0.12689495 0.01185898 -0.006107474 0.026815591 -0.058411606 -0.023328511 -0.024693549 -0.09612527 -0.056086577 0.047298282 -0.03703014 -0.036078088 -0.04646978 -0.05785865 0.035661407 -0.01748779 0.052910507 -0.05925788 -0.098699026 0.012702607 -0.052570477 -0.06343952 -0.013632641 -0.005395942 0.025213346 -0.04673892 -0.07801462 0.00044919332 0.05817191 -0.1240313 0.03454209 -0.07083566 -0.025952695 -0.09909339 0.029189855 -0.021953743 -0.09641325 0.015088657 -0.070614584 0.0928664 -0.025946658 -0.035009213 -0.046620306 -0.037536465 0.05236771 0.047684617 0.032514017 0.09519906 0.0319799 -0.039159495 -0.00054116914 0.0023264992 -0.05034682 -0.023405552 0.025695095 0.071283944 0.13384788 0.022946414 -0.025714815 0.013284712 -0.06715591 0.024024304 0.065765455 -0.01977563 -0.008303423 -0.024042387 0.031736743 0.056968044 0.039655566 0.04576606 -0.020560384 -0.031815674 -0.016641485 -0.027013589 -0.0805379 0.09284069 0.08614237 -0.093299896 -0.081669174 -0.029048055 -0.017390762 0.014864065 -0.07106761 -0.09109461 -0.107533716 0.122571975 0.08563208 -0.027253173 0.09166378 -0.009780619 0.05037961 -0.030989066 0.008718705 -0.02207978 -0.11151162 0.024702111 0.11640883 -0.18965705 0.018158631 0.041240923 0.051850665 -0.08733163 -0.049368564 -0.039579988 -0.011952994 -0.041026894 0.06383482 0.07674198 -0.044842254 0.029128373 0.015797244
0.010963124 0.02634941 0.09490267 0.056566745 0.032427184 -0.080415316 -0.06048969 0.0055125426 0.016001472 -0.0017341677 -0.017471148 -0.016702386 0.00951467 0.052722 0.008427198 -0.00040384755 -0.029484496 -0.07415831 -0.011184543 -0.011827069 0.03549182 -0.02107283 -0.009155995 0.13775846 -0.057604585 -0.01802281 -0.1539237 -0.0016212581 0.04619035 0.15436426 0.007916777 -0.05442317 0.009841551 0.12958398 0.007927951 -0.05350447 -0.005491592 0.069245346 0.01094241 0.014503624 0.05154349 -0.071946554 0.09122938 0.066918276 -0.034061547 0.02269177 0.0030709214 -0.030273307 -0.029350191 0.029506702 0.07892929 -0.008518166 0.05001328 -0.14032964 -0.030407771 0.102868184 -0.0071744747 0.02617927 -0.067430034 -0.06428971 -0.01058724 0.04168788 -0.055805236 -0.011462194 0.018333597 -0.01673336 0.024971299 0.0010294807 0.047740776 -0.06189678 -0.018266087 0.029711751 -0.019191612 0.04415449 -0.050766606 0.008951527 0.0197566 -0.032830376 -0.06534179 -0.02886946 0.054764856 0.06428914 -0.06607312 0.1034269 0.05670131 0.03482679 -0.05048187 -0.027756134 0.08496663 0.016657835 0.05015543 0.064011715 -0.009587437 0.05389416 0.013099687 -0.04874091 0.0035687704 -0.03573225 -0.01739644 0.04996253 -0.03504681 -0.022587288 -0.017441109 -0.048464626 -0.035192054 0.010067789 -0.00460627 0.007118921 -0.037415452 0.05844648 -0.032584943 -0.08051504 0.10312573 -0.10894487 -0.009888351 -0.045043413 -0.036741212 0.031738568 0.09993562 -0.037360594 -0.033784565 0.1074661 0.018123835 -0.01583201 0.034874536 0.08243013 -0.027098347 0.03338655 -0.061016824 -0.06623461 0.025301166 0.0075365137 -0.026601857 -0.028025491 0.10094339 0.048125576 0.038650118 0.15313654 -0.009851121 0.018952169 -0.010424573 0.0074446965 0.036096856 0.0007726587 0.0600168 0.0612539 -0.039849125 0.059296664 -0.0010125404 -0.065441795 0.047772903 -0.011424957 0.06921443 -0.047889747 0.113441534 -0.015461252 0.017778229 -0.044173002 0.033231527 -0.13832353 -0.0008183921 0.061454073 0.02752585 -0.06264249 0.043262076 -0.10922798 -0.058671623 0.048479892 -0.022532381 -0.018797759 -0.030797614 0.004212546 -0.019927721 0.0075841425 0.12001088 -0.04203868 0.00615537 0.016639825 0.050467674 0.09612332 -0.018177986 -0.033088233 -0.03381827 0.0040867766 -0.09566614 0.00799231 0.006927233 -0.1342803 -0.08553512 0.02058191 0.039025713 0.006553955 -0.039102018 -0.06215086 -0.03662376 0.07506107 -0.04836674 -0.068917796 0.020619841 0.02315114 0.013176579 0.017825423 0.042791076 -0.23269762 0.081142455 0.069940574 -0.054836266 0.037347443 0.051264685 -0.04064124 -0.03463752 -0.104492396 0.004681699 0.026018366 0.011014494 -0.07424389 -0.059498277 0.13465013 -0.009364314 -0.021228172 0.07754953 0.007039049 0.104639 -0.026409494 -0.0005322025 -0.0478801 0.018900955 -0.12538014 0.13365583 0.16460994 0.031145308 -0.0047901683 -0.024996988 -0.097184464 -0.012265355 -0.059561353 -0.054379117 0.021836499 0.042119566 0.07400442 0.054271784 -0.01585617 0.006620537 -0.018172737 0.0574393 0.023718875 0.01677425 -0.012012362 0.026405234 0.04648184 -0.066839926 0.070772395 -0.06626356 -0.011022005 0.018164795 0.0022088713 -0.026414454 0.011201001 0.044563733 0.0008951689 -0.15136775 0.075928584 -0.030925725 -0.15087093 -0.03959323 -0.042383257 -0.013747906 -0.027147831 0.08200621 0.0050399723 -0.058811776 -0.0032566572 -0.009298104 -0.009842735 -0.0055195168 0.121375576 -0.033129312 0.019036233 0.00049577 -0.088626415 -0.14492702 0.16390285 0.08006998 -0.02594761 -0.03811867 0.03483179 -0.028645378 -0.0014914817 0.12529306 -0.024491236 -0.18389766 0.09529103 -0.033400036 0.016794069 -0.046145294 -0.06106449 0.04705281 -0.07945196 -0.04508717 0.09857487 0.00066976267 -0.10697995 0.0010738857 -0.14023544 -0.07703501 -0.009773745 -0.06750165 0.017360779 0.0056405864 -0.009523375 -0.069044106 -0.08055882 0.06328511 0.02880217 -0.054389283 -0.06272369 -0.042329833 0.004167447 -0.10912147 -0.0047789714 0.04194106 -0.04827875 0.0003635621 0.11411211 0.0071915966 0.059803672 -0.14920731 -0.077141844 0.028965957 -0.023416245 0.009997683 0.00776978 -0.11371265 -0.00087931985 -0.012392012 0.07415087 -0.08255038 -0.08620077 -0.029998101 0.007403523 -0.025504865 -0.049245477 -0.06569571 -0.034178603 0.005311338 -0.010818104 0.003317329 -0.09481663 -0.016891398 -0.0039975597 0.024180885 0.061763927 -0.056198835 0.15535387 0.13480286 0.0033850113 -0.024222447 0.09972107 -0.056634407 -0.020738121 -0.027785499 0.060075216 0.0063439654 -0.012531546 0.06333385 -0.0103001855 0.015937224 -0.037633866 0.045441233 0.06752122 -0.010004748 -0.0013684907 -0.035325646 -0.06048309 -0.03934296 -0.02343972 0.031071706 -0.016265742 -0.071492516 -0.029888779 -0.031881303 -0.076450154 0.0029949157 -0.12913415 -0.017084433 0.08068638 -0.014609852 0.033106238 0.01997952 0.054858755 0.017475793 -0.10342209 0.0258688 -0.12799977 0.016826022 0.014817568 0.008374094 -0.0011557614 -0.03198114 -0.008948905 -0.113707595 0.008642796 0.03331587 0.010133787 -0.05641648 0.052395534 0.15095548 -0.03488463 0.020224476 -4.8734904e-07 -0.030718135 -0.023830492 -0.06967704 0.0050569903 0.028049344 -0.032846507 0.0954245 0.057250887 0.0661071 -0.07160997 -0.07846339 -0.054235682 0.059089974 -0.024056874 0.026426919 -0.03721379 -0.031729538 0.018338202 0.007937189 -0.021641701 -0.006948292 0.058214203 0.007347566 0.021041099 0.109747246 -0.05611954 0.070671655 0.08134437 -0.05382175 0.13572048 0.028453115 -0.036492873 -0.01943666 -0.062174674 0.001207351 -0.04677399 -0.10781663 0.10960996 0.14747442 -0.062275663 0.0074977805 -0.031511646 -0.019953644 0.047080174 -0.02327575 0.028549924 0.005085395 -0.01826074 0.024110492 -0.0232498 -0.030371156 -0.07414646 -0.036028933 -0.011878154 -0.06618202 -0.11470003 0.051514454 -0.015107 -0.08544678 0.18737502 -0.08349105 -0.016298017 -0.008867042 -0.01732348 -0.09162804 0.024614807 0.07334627 -0.048197314 0.0013606562 0.07373573 -0.04023671 0.016652431 -0.05354608 0.06474306 0.09153409 -0.08310646 0.11102417 0.04382909 0.06644555 -0.011885329 -0.013268403 -0.034194008 -0.12915756 0.019931326 0.008285797 0.013174465 -0.07065352 0.03078218 0.1135599 0.03071256 -0.0953715 -0.079355754 -0.044163715 0.040608477 -0.012182791 0.06890937 -0.057058297 -0.12183442 -0.050328787 0.010569711 0.015729917 0.043974407
-0.015455288 -0.021407701 0.0013743466 0.05152671 -0.065292194 0.0491917 0.08660964 -0.047506787 0.030458858 0.047819383 -0.03617181 -0.033269674 0.0316482 0.00020337841 -0.12569141 -0.018359782 0.049976535 -0.023758603 -0.060105577 0.021452226 0.012530373 0.027869219 -0.025538268 -0.049439862 -0.013304606 -0.028710186 0.12754405 -0.031661052 0.009727659 0.016845558 -0.010826584 -0.036097225 0.034876607 0.0124489395 0.07412846 -0.031295717 -0.09491118 -0.092271514 -0.017436018 0.0778368 -0.014205024 -0.039252367 0.1048687 -0.055684067 0.08379046 -0.05425742 -0.056968052 -0.045986835 0.097387865 0.00011087125 -0.00147297 -0.04080969 0.02864461 0.057230636 -0.08062944 0.0022541408 0.0022798467 -0.07298109 -0.018848062 -0.045684904 -0.008516092 0.010489888 0.055116814 0.09429653 -0.031758364 0.08137839 -0.017904736 -0.046165753 0.07578055 -0.014401946 0.03428699 -0.0031997152 0.02649707 0.073153794 0.038481485 0.04465838 -0.016977277 0.028183633 0.00026754843 0.034012098 -0.009633311 -0.008622366 0.02080765 -0.09172978 -0.081156515 0.012928357 0.089187205 -0.017874807 0.016166348 -0.04233612 0.0010333379 -0.07046038 0.04882632 0.056341063 0.11646672 -0.12956636 -0.11741075 -0.0053746877 0.037903287 0.025700696 0.008634963 -0.046712387 0.029344933 0.17017265 -0.0077313352 0.030517174 -0.025320016 -0.04494289 -0.0005250297 -0.06448546 0.02648565 -0.02774959 -0.042642053 -0.02779496 0.06861343 -0.04372775 -0.08976154 -0.050805684 0.0035848024 -0.014142588 0.0016928387 -0.034059674 0.025585573 -0.03301361 -0.015747325 0.04152914 -0.04355245 0.062393833 0.0017157521 -0.09653007 -0.03214081 0.009882299 -0.015652442 -0.05092092 -0.05242019 0.0051104743 -0.048763428 -0.029216446 0.037008353 -0.022639606 0.025493039 -0.025124174 0.014487303 -0.03409481 -0.008091621 0.044478685 0.014580308 -0.017394662 -0.082551405 -0.074505046 -0.010274495 -0.0064907437 -0.020246144 -0.033729084 -0.033206504 0.0060280636 -0.013143489 0.04789906 -0.044141155 0.015376619 0.017325869 0.05066815 0.05726989 -0.031884383 0.0345072 0.023175634 0.043264564 0.034347445 -0.079370014 0.002694818 -0.013163137 0.0067171683 0.02523837 -0.03275115 -0.028552655 0.0046174037 -0.0030075924 -0.0038679766 0.0050475355 0.063788906 0.011220182 0.10956821 -0.053543344 -0.026314879 -0.0661243 -0.031384397 -0.018331649 -0.049269635 -0.093857706 -0.014192035 0.05262673 0.07348543 0.13077135 -0.013298912 0.020775475 -0.07444162 -0.0571279 0.03552563 0.077466674 0.037644748 0.048610732 0.05521618 0.042309076 -0.11027167 0.030713895 -0.044376574 0.025160521 -0.0847353 0.0031363268 -0.051161148 0.0010618746 0.0716312 0.016513936 0.0045823604 0.021741055 -0.040205583 -0.018695679 -0.019780857 0.105986774 0.11898509 -0.06633294 -0.057890397 -0.02682594 -0.092474595 0.122871034 -0.07990771 0.048177123 -0.00082630565 -0.04435168 -0.045454144 0.009524993 0.025724 0.068509005 0.078915276 0.02921344 0.08964463 -0.06054177 0.073092304 -0.075898774 0.040964264 0.025039976 -0.031946972 0.016860886 0.029901588 -0.0039786333 -0.03488569 -0.039365068 -0.02767841 0.12769873 -0.019907791 0.07742254 0.07685967 -0.011504821 0.029966744 0.05968238 0.023574073 0.049197335 -0.06613175 -0.003587415 0.036589816 -0.051154774 -0.03205837 -0.053501718 0.09667272 0.04465482 0.036551867 0.009478566 -0.0797252 0.014807194 0.034729563 0.058047518 0.059601016 0.025610164 -0.018266542 0.0663306 -0.031140238 0.020923248 -0.026964914 0.003598503 0.010060118 0.037627827 -0.0038511152 -0.041612394 0.034751035 0.062678196 -0.008230429 -0.038640387 0.0019685165 -0.03495731 -0.09669476 -0.014937737 0.003757444 -0.08912174 -0.07481902 -0.0068765553 -0.06554803 0.006057942 -0.0066940677 -0.028186675 0.026805261 0.069429755 0.041447543 -0.025406789 0.050771527 0.05553178 -0.065669924 0.08632537 0.0069071315 -0.06486885 0.033369683 -0.072631195 0.01632011 -0.1245531 -0.02612401 0.01794592 -0.027890215 -0.05244314 0.05273709 -0.03610454 0.06706695 -0.03234601 -0.009414565 0.087292865 0.046864748 0.012262603 -0.037353355 -0.062045846 0.03895269 -0.122188985 0.021476822 -0.010317093 -0.014512533 -0.080778226 -0.011125113 -0.11059239 -0.051456083 0.046574116 0.04606808 0.03862226 0.007425742 0.12790176 0.021665135 0.011197094 0.063176855 0.060443852 -0.058242712 -0.038806565 0.0016005327 -0.07760097 0.018108899 -0.065797776 -0.033652104 -0.018536387 -0.01508633 -0.057390973 -0.0017432871 0.05694172 -0.037543274 -0.047861878 0.008874113 0.01988881 0.0429734 -0.057569843 0.01208596 -0.09708492 -0.06451149 -0.04505835 0.03434099 -0.020507082 -0.011034693 0.024615554 0.07942348 -0.027888214 0.18799394 0.033222802 -0.029822497 0.03723295 0.035659514 -0.0031266962 -0.043540645 -0.099919744 0.02091876 -0.018120678 0.09105355 0.036366295 -0.08879844 -0.09240986 -0.02486344 -0.011662341 0.05827417 0.011783762 0.028433518 0.018597845 -0.004628981 -0.03201034 -0.02631903 0.086196266 -1.4544937e-06 -0.04045309 -0.040610217 0.03251925 -0.05211888 -0.002615271 -0.038044725 -0.030657642 0.009759312 -0.034212314 0.00017567287 -0.04976766 -0.011335996 0.033668336 -0.01853181 -0.02686026 -0.08468045 -0.054812405 0.03352105 -0.003068405 0.07084982 -0.04318623 0.030502468 -0.06725074 -0.071518555 -0.00081681175 -0.002231876 0.0027009007 -0.04590216 -0.02231563 -0.06321869 0.0789665 -0.035837106 0.043888725 -0.08280999 -0.014873102 0.0013516522 -0.034621995 -0.026040204 0.08366222 -0.029513285 -0.019163786 -0.068291984 -0.031186163 -0.07785871 -0.066125154 -0.021705445 -0.075580604 0.16431707 -0.090195365 -0.00594385 -0.025745336 -0.049349137 0.0036305264 0.039096776 -0.057230137 0.13570377 0.080928266 -0.026268374 -0.02289644 -0.04000756 0.04787853 0.054217607 0.041596644 0.067256264 0.015983386 0.03571931 0.0033762981 -0.054778427 -0.07116877 0.012829186 -0.052913014 -0.07427793 0.032975424 0.0055238353 0.050307292 -0.060774334 0.015750483 -0.033504907 -0.017661136 0.023803834 -0.14583687 0.00024611596 0.048415232 0.031607084 -0.09751236 -0.030309001 -0.031467475 0.025911707 -0.076571286 -0.035097282 -0.0054025925 0.08772264 0.019215893 -0.013242434 -0.028568106 0.026221743 0.033166848 0.024872849 0.08387231 -0.070021056 0.012560441 -0.050313257 0.0057677273 0.11774054 0.058042835 -0.0002048455 0.023590904 0.06614728 -0.12752971 -0.007930419 0.039914344 0.03739467 -0.045025755 0.018658176
0.0019752246 0.021333316 -0.008914662 0.042822286 0.08275099 -0.0809816 -0.0740542 0.038547732 -0.0432655 -0.07551994 0.10555864 0.029678533 -0.032906923 -0.09458143 0.01001438 -0.01592939 0.014244062 -0.015487053 0.009386694 0.0060481904 0.02960797 -0.025177771 -0.00424971 -0.07198934 -0.032335993 -0.006149359 -0.07483282 0.03492173 -0.0055979704 0.08194385 -0.11022892 0.0077043814 0.009837446 -0.03121965 0.0051226686 -0.027401067 0.0437759 0.02854827 -0.05188777 -0.099098675 -0.019204602 -0.04894049 -0.029645354 0.10911697 -0.1330781 0.0982821 -0.044535644 0.06462341 -0.0549618 -0.0036796902 0.01855874 -0.017776998 -0.02647407 -0.020290846 -0.025341256 0.09425458 -0.062650554 0.013544515 0.021491636 -0.021650067 0.10101772 0.023468623 -0.052039396 -0.029730363 0.010487048 0.039584484 0.013785675 -0.0059911665 0.03427378 0.024571663 -0.0032788052 -0.007671363 0.03422304 0.042366534 -0.09206859 -0.11560404 -0.012665849 -0.07741743 -0.038048245 -0.13029762 -0.059445817 -0.025416223 0.040712032 -0.021454412 0.16600867 0.012424652 -0.030068034 0.11862965 -0.07973296 0.30308345 0.003727314 0.07886877 0.061418295 0.06859826 -0.13798213 -0.06290525 -0.0862423 -0.13728532 -0.016836656 0.049077854 -0.029048884 -0.035161212 0.031185733 -0.13551122 -0.107231334 0.054741174 -0.010062461 -0.023065316 0.08800972 -0.0012381461 0.057646133 0.05036694 -0.03265431 -0.08457829 -0.051222406 0.06606438 0.025605872 -0.020361371 -0.0029900083 0.005796335 0.020385705 0.03991037 0.0557311 0.08628418 -0.07342586 0.053639505 0.060654454 -0.06830341 0.044130296 0.0619423 -0.105636075 0.11848286 -0.060518097 0.086898774 0.0016236489 -0.08153731 0.019334054 -0.02108011 0.027643552 -0.020698756 0.03222764 -0.010324209 0.0057150153 0.0037674143 -0.095272735 -0.064361535 -0.03472541 -0.11015685 0.09347827 -0.054775864 0.027662216 -0.008576807 0.0008611623 0.011151541 0.01879659 -0.059461903 0.0065963254 0.1317022 0.0073125726 0.012192957 -0.013240021 -0.06400102 -0.034666546 0.084847316 -0.013884116 0.009770104 0.07329919 -0.06951611 0.09805517 -0.015409127 0.0013876192 0.09893108 -0.017015178 0.07553502 0.007817794 0.120082565 -0.057453554 -0.0986017 0.006168711 -0.052710358 0.027064864 -0.007155149 0.12362829 0.10976607 0.09401045 -0.02216339 0.050937835 0.00654439 0.02509902 -0.02519757 -0.065694675 -0.033106897 -0.07810366 0.018447664 0.079161696 0.11335089 0.0033061947 -0.046596255 -0.1131074 0.010525015 0.02258294 -0.05072418 0.014984964 0.020393714 0.013881863 0.013432166 -0.02737938 0.02540443 -0.0071036317 0.019863172 -0.11207971 -0.068130605 0.12161465 -0.015966004 0.046866514 -0.009141463 -0.057893116 0.010241092 0.033023305 -0.12972777 -0.089261204 0.009293975 0.020603674 0.04000949 0.063325204 -0.017363235 0.08728857 0.075903594 0.0160764 -0.048805527 -0.005425324 0.17297977 -0.087628156 -0.005358135 0.042463478 -0.023148706 0.08848197 -0.1446558 0.005832318 0.02221649 0.06719972 -0.019707382 -0.06469751 -0.11075768 -0.020292185 -0.013287778 0.015490758 0.05703488 -0.13465661 0.038361605 -0.13359699 0.11922239 0.028789895 0.08132519 -0.08799075 0.06606885 -0.03420062 0.08794066 -0.048201736 -0.019457623 -0.07273738 -0.106901355 -0.09086012 -0.029614666 0.040115472 0.0034104474 -0.037596315 0.021239672 -0.066777304 0.0059890137 0.026962075 -0.025603302 0.008393777 -0.035127304 -0.11926329 0.038837433 -0.06453545 0.046873122 -0.09697868 -0.04747023 -0.092858754 0.035398982 -0.14013484 -0.0047941194 -0.04502469 0.018788012 0.12826058 -0.03689259 0.011498013 0.04051238 0.039313212 0.027432451 -0.020314908 -0.033877995 -0.0031376455 0.05696836 -0.0077299727 -0.12136536 0.12017321 -0.029537568 0.04432362 0.032362398 0.014314924 0.14673847 0.022183059 0.033637084 0.07840829 -0.06142145 -0.040798005 0.13545436 0.040829137 -0.0045213564 -0.008275386 0.02770235 0.099517874 0.014671193 0.17066596 -0.0039190347 -0.07183459 -0.089863524 -0.039814007 0.049238004 -0.10950032 -0.030448519 -0.07595314 -0.03323724 0.027784111 0.03729124 0.00924984 0.065569416 -0.051029515 -0.03416431 0.14473698 -0.013154465 -0.11509073 -0.010357202 -0.0031920339 -0.105614625 -0.0625986 -0.010322572 -0.16046903 0.11615327 0.06696801 0.022463774 0.054806404 0.022782525 0.032874383 -0.057755757 0.029626554 0.029435396 -0.012444066 0.0064823306 0.021121299 -0.05524799 -0.0109135285 0.043423764 -0.13378465 -0.05156134 0.076695524 -0.0069882255 0.055146854 -0.06219633 0.03599585 0.032818165 -0.058718484 -0.036147352 0.0029616086 -0.11477927 -0.029939776 0.02494418 -0.025776174 0.0651983 -0.053922463 -0.017828625 -0.048530746 -0.0077461996 0.016885748 -0.028225323 0.06531961 0.08500063 -0.014723586 0.04869664 0.053351343 -0.1315092 -0.14119785 0.012809528 -0.028888559 -0.10796217 0.037771173 -0.034658693 0.054946803 0.065686144 0.21304873 0.027719835 0.021810483 0.029193047 -0.16171539 0.04506966 0.035240687 0.026345648 -0.11314423 -0.023342483 -0.06431743 -0.03982774 0.058243442 -0.022438003 -0.0742083 0.06379209 -0.052754175 0.084262945 -0.020145306 0.03191218 -0.16187891 -0.040071588 -0.03643469 -0.15245216 -0.04190865 -0.11516894 0.040660556 0.015367335 0.032626394 -0.015666956 0.008258446 -0.07459819 0.024116926 -0.037995867 0.082287855 0.05880149 0.03287564 -0.028034559 -0.08935526 -0.016849184 0.057092268 0.06396401 0.04571688 -0.00410466 -0.0046708575 -0.11005041 -0.0022641583 0.04894043 -0.03620506 -0.11069054 -0.052968957 0.011678872 0.002206879 0.002063311 -0.04226446 -0.047741372 0.008656066 -0.08500219 -0.15868221 0.010672448 0.019577302 -0.098772384 0.05051397 0.008396694 0.08463326 -0.039760936 -0.08789699 0.0051404973 -0.09075096 0.05268067 0.028995614 -0.014084883 -0.07496109 -0.09497047 -0.027953165 0.032020025 0.020855514 0.044279255 -0.042007815 0.0052535515 0.14009228 -0.010486872 0.015097062 0.007723835 0.07109409 -0.045682136 0.06543658 0.0038028876 -0.02348366 -0.019366475 0.05892148 -0.02505604 -0.07558839 -0.036228497 -0.106441006 0.1226475 0.015431317 -0.014592275 -0.038967784 0.048748273 -0.040058214 0.05695991 0.03889389 0.094184496 -0.047199443 0.08128062 0.04744588 -0.0146509595 0.0006592635 -0.13132101 0.11145753 -0.01236248 0.06351994 -0.06134654 0.11452622 -0.09448372 -0.06502349 -0.03901601 -0.05116603 -0.0013305221
0.07947178 0.024247834 0.06633963 0.057208903 0.045620453 -0.016748615 -0.15911402 0.10776448 0.021461604 0.11299195 0.051838003 0.05093184 -0.017217416 0.03566031 -0.03841448 -0.03964666 0.09095746 0.009944845 0.015683597 0.013739108 -0.10442675 0.010197413 0.08112466 0.028483778 -0.05577437 -0.025778685 0.07737771 -0.0523367 -0.03260799 -0.008887411 -0.020619415 -0.0013675125 -0.07866631 0.004115982 0.041822627 -0.048245545 0.053697485 -0.034503173 -0.010218105 0.094780624 0.15989241 0.043653555 0.04515898 -0.046746083 0.0133827925 0.052462388 -0.05788527 -0.037009116 0.014328417 -0.08345505 -0.035940424 -0.037095465 0.040964056 -0.007414664 -0.0028116913 -0.051909856 0.051813386 -0.09080931 0.056611802 -0.04264163 0.00639952 -0.07554211 0.018641943 -0.03212335 -0.17317425 0.0748838 -0.030690592 0.0040744646 -0.07621351 -0.016310716 0.023924999 0.06930254 -0.033158913 -0.037555248 -0.02306707 -0.005512335 -0.00046488052 0.054875076 0.008134324 0.18763107 0.05584818 0.053146917 -0.11475195 -0.020528035 0.014439 -0.12994888 -0.031359702 -0.045525994 0.06374614 -0.10020274 -0.051112007 0.011594452 -0.0013762153 -0.047574554 0.019395212 -0.030758504 -0.064723745 0.05143888 0.054123737 0.008016034 -0.015438628 -0.020674922 0.0122004915 0.013053209 -0.005851546 0.042713515 0.002835352 0.026227 0.01211999 -0.020306535 0.015634548 -0.007909991 -0.013695567 0.042289514 0.18044613 0.017293595 -0.0074494723 0.015635405 0.041878667 0.061062843 0.057391055 -0.012862778 -0.010810785 -0.036321826 0.10712116 0.040379174 -0.09008865 -0.032599226 -0.035043795 -0.050290532 0.015697846 -0.0360359 0.04535421 0.08292134 -0.0037770113 0.018474916 0.025936836 0.15365954 0.027740348 0.073566705 -0.08995775 -0.03311412 -0.010214462 -0.076117255 0.009739171 0.060436256 0.085294284 0.05104555 0.026284339 0.01324828 -0.087148234 -0.014391284 0.008294625 -0.0610215 -0.024422305 0.0700454 0.07983635 -0.011219305 0.07967521 -0.053549446 -0.14125389 0.017832236 0.039649967 -0.0040486236 -0.07086985 -0.11564554 -0.059412353 0.037004855 0.028961029 0.08554794 -0.014036056 0.08921062 0.05234091 -0.075386114 -0.1447837 -0.013848599 -0.05093397 -0.093705304 0.02739089 -0.023602635 -0.054147556 -0.030872824 0.007090691 0.14598823 0.0046511306 -0.009645578 -0.05017186 -0.07832299 0.0039958553 0.08934047 0.04071829 0.04418014 -0.02077614 0.031048166 -0.007699847 -0.034254666 -0.043886714 -0.0388691 0.00259637 -0.035301216 0.026646007 -0.06631068 -0.05788937 -0.02829113 -0.06049518 -0.0022162213 0.044029895 -0.08923759 0.03437229 -0.05285217 -0.06017508 0.065521516 0.08594179 0.06961937 0.06256271 0.03160615 0.08017714 0.0067243995 0.068969056 -0.0041715065 0.11390644 0.059548978 0.17935959 -0.0923293 0.020203229 0.07292726 0.10976251 -0.026312206 0.026106173 -0.012361859 -0.051492438 0.009207214 0.033567 0.06642667 0.034525603 0.030583149 0.015711075 -0.009262827 -0.043900963 -0.11282253 -0.060974684 0.08977237 -0.0186531 0.039348386 -0.05883564 -0.060798362 0.10612619 0.082206026 -0.050256617 -0.012844112 -0.009013599 -0.025602309 -0.060103 0.03012516 0.016840594 -0.037452977 0.01902026 -0.018488724 -0.008548005 -0.00423358 -0.040851086 0.0828552 0.05835216 0.10409115 -0.029926173 0.042670865 0.07091384 -0.023502784 0.0131133385 0.0152288545 0.030280165 0.017349401 0.035012133 -0.035548586 -0.014426966 0.10542022 0.07887166 0.031708434 0.03733191 0.028244447 -0.039913196 0.2798564 0.027568376 -0.105737604 -0.034665857 -0.042193394 0.17891632 0.024098948 -0.024537867 -0.02793897 -0.02583842 0.047167916 0.040607944 -0.07480276 -0.02208807 0.027796736 0.0041016554 0.035441708 -0.024006812 0.031866364 -0.0217221 -0.038806953 -0.052523945 -0.0021278125 -0.019687314 -0.10349296 -0.09881689 -0.044835597 0.046297144 -0.023162667 -0.091093995 -0.017191218 0.07161052 -0.012826057 -0.0744947 0.011280513 -0.0122615835 0.03299216 -0.045913756 -0.038886856 0.08119882 -0.010347847 0.0063503017 -0.06770779 0.043710988 0.0636431 -0.12847777 -0.09104539 -0.008817531 0.022147339 0.124739125 0.013171267 -0.11393891 -0.010278771 -0.06784233 -0.0015510673 0.10809247 0.014560255 -0.123363994 -0.10617143 -0.030058105 -0.080481656 -0.024092011 -0.041532997 -0.011127349 0.0050213067 -0.03749253 -0.13056043 -0.021178512 -0.011252534 0.011517554 0.04962525 0.05723564 0.19051084 0.040048342 0.04812693 0.03715105 0.02711742 -0.0009455467 0.0968572 0.029067898 0.01660441 0.028502382 0.047589973 -0.009576535 0.072109506 -0.038786903 0.07627964 -0.011467022 0.060285665 0.19573042 0.037639335 0.019631954 -0.08501692 -0.13965864 -0.05638099 0.043459427 0.05496815 0.029642351 -0.014235322 -0.006813243 0.002760212 -0.004846405 -0.04994072 -0.06545968 -0.11657663 -0.011933863 0.121485375 -0.018608127 0.014891118 0.09887818 -0.01679798 -0.037745986 -0.05886743 0.05825283 -0.023208486 0.038166612 0.09611144 -0.04325031 -0.04147297 0.07531353 0.17540191 0.0326946 -0.0129071055 -0.06394685 0.0071791736 0.052340966 -0.041358527 0.0018007698 0.065884694 -0.030125158 -0.0152326515 0.081916146 0.103603266 0.01727886 0.0023194987 -0.06501802 0.0628496 -0.09424855 -0.056385066 -0.030626014 0.059547022 -0.05525182 -0.008760848 -0.05448198 0.010223159 0.026035642 0.19359213 -0.057709765 -0.07288608 0.054445952 0.00919131 -0.015778065 0.062892005 -0.024554348 -0.049364135 0.0816209 0.06605425 0.07527942 0.06377056 0.029546749 0.072868116 0.057103872 0.059829216 0.053867757 -0.013170186 -0.083192095 -0.023701947 0.06781582 -0.08592762 -9.4494215e-05 -0.03811695 0.0021716817 0.056280598 -0.015349049 -0.029404154 -0.14114021 0.09908995 -0.013408576 0.04621712 0.06639369 0.025352353 0.023770535 -0.106513634 -0.0013352348 -0.058275525 0.07836573 0.092686795 0.01810102 0.09021376 -0.020089969 0.06486988 -0.032564793 -0.07177809 0.043538485 -0.12986298 -0.037524935 0.018885478 0.0017615843 0.09123428 -0.011597496 0.057200793 -0.103015736 -0.0028677585 0.085127935 -0.011472671 0.01197006 -0.016521847 -0.009819326 -0.032857582 0.080424905 0.14970729 -0.04237184 0.076835096 -0.023652883 -0.05353793 0.0069279955 -0.009470466 0.00070294156 0.006124335 0.034351904 0.07919762 0.0684663 -0.021904381 0.05566349 0.009626043 0.04955011 -0.020014765 0.0059892284 0.03540531 0.013654563 -0.070786
-0.009714335 0.013969519 -0.031434026 0.084715866 0.0114015415 0.03121429 -0.09529871 0.050108667 0.0090707075 0.09067954 0.049793437 0.05465353 -0.015371575 0.060828116 -0.008141785 0.10374911 -0.040274 -0.00020179326 0.05372827 0.026536308 -0.0765032 -0.0028178368 -0.039389372 -0.0650195 0.010391016 0.01898259 0.031061508 0.04387305 0.048910514 0.07037596 -0.0045716846 -0.028596612 -0.024204895 0.0005951024 -0.0042605316 0.019356007 0.0028193207 -0.009612672 0.048910245 -0.019463738 -0.049267996 0.049756445 0.0043208 -0.04606473 0.058807075 0.003591128 -0.02775264 0.02277948 -0.055258732 0.048195407 -0.04856976 -0.02084397 -0.11899627 -0.05936901 -0.0015828527 -0.009448608 -0.05152707 -0.078618295 0.050474852 -0.1185611 0.05464404 -0.06547626 0.07547701 0.030795421 -0.06256556 0.08521847 -0.05752626 0.03811649 -0.034297913 0.00052974984 -0.04572857 0.07709803 -0.055520583 0.06313677 -0.04304736 -0.030975375 0.015219816 0.008418896 -0.019950297 -0.10282701 -0.05546973 0.00555889 0.037512742 -0.07468241 0.021670116 -0.036905874 -0.012314246 -0.032782808 -0.051112134 0.03314826 -0.06827401 0.029330483 0.058737416 -0.015010266 0.10432599 0.006668532 0.08904622 0.008337185 0.08635812 -0.07749481 0.036434557 0.022769177 -0.09187011 0.067737795 -0.008650575 -0.0036234595 0.03445053 0.029549118 0.023124961 0.040221047 0.09385986 0.0044760765 0.104286075 0.02618787 0.03424272 0.03437653 -0.025162507 -0.022358002 -0.16924557 0.011998643 0.06981442 0.00609518 0.10619472 0.00435674 0.080741614 -0.056978308 -0.09784387 -0.10063453 0.058747344 -0.024038265 0.061712183 -0.029598566 -0.015958838 0.05426137 -0.03052507 -0.0127300415 0.09679916 -0.009066425 -0.05857401 0.041186254 -0.024354612 -0.08638621 -0.084654555 -0.07770738 -0.013619206 -0.0075166062 0.0630595 -0.057499144 -0.07876692 0.042170104 -0.014258566 -0.024351427 0.030704403 -0.0012415263 -0.044902373 0.0032603138 -0.11210057 0.01533401 0.024650244 -0.042594753 0.035048835 -0.14100392 0.07628493 0.0957906 -0.08794911 -0.13943402 0.062092192 -0.009099482 0.044686027 0.051809188 -0.07675095 0.051583428 -0.02039194 0.016871355 0.0047413884 -0.06782376 0.04571102 -0.05236916 -0.012562783 0.02794757 0.0834864 0.0383626 0.046292413 0.11188291 0.06406042 0.009491778 0.05110811 0.0024413622 0.017359754 0.025833644 -0.0032689746 0.053984925 -0.0025973236 0.06165808 -0.039608743 -0.0034624492 0.028091488 -0.08346409 -0.10061339 -0.051151425 0.049846787 -0.00472877 -0.02695173 -0.013244399 -0.09160049 -0.008331085 0.05685906 -0.07871637 -0.08719775 -0.054057237 -0.12210362 0.09825558 0.0661355 -0.0011698178 0.030813415 0.09538704 0.04419829 -0.004886555 0.092269175 0.13451664 0.05921453 -0.004973242 -0.043397088 0.086042315 -0.0678114 0.044560008 -0.006658556 0.043162216 -0.092177175 -0.01002113 0.033850484 -0.01079209 0.05530555 0.10529881 0.037982237 0.035227206 0.07284237 -0.03122336 -0.01957012 0.036104605 0.07774342 0.01593358 0.052333325 -0.023624947 -0.005259264 -0.020647693 0.13743001 -0.10904523 0.0032591778 -0.06183364 -0.02240163 -0.033687428 0.012694664 -0.025255688 0.010869629 0.03881449 -0.010271845 -0.011194416 0.029239012 -0.0152093135 -0.035867393 -0.0854471 0.015429662 0.022624912 -0.024316061 0.015036845 -0.029192306 -0.049765088 0.1047384 0.045210324 0.0036949762 -0.04621728 -0.08090471 -0.034061205 -0.04894267 0.05310005 0.061320085 -0.021421349 -0.02774389 0.08981353 0.023620958 -0.03741313 -0.022341829 -0.15112823 0.06811351 -0.02267152 0.07319163 0.036233205 -0.035438098 0.058564126 0.09048474 0.03013815 0.0066619217 -0.10410222 0.061384782 0.098783776 -0.045204885 0.104878455 -0.06376714 0.004506042 0.080574565 0.02288485 -0.05457416 -0.042041056 -0.017065316 -0.06728279 0.025717443 -0.0036880865 0.08334361 -0.0076520294 -0.026549608 -0.08070859 0.059159294 -0.013694734 -0.016461037 0.01091556 0.009070822 -0.013182184 -0.017716214 0.06392966 0.020780046 0.054519016 0.049012836 0.04921182 0.045919567 0.015624157 0.0009419158 0.00804052 -0.017226104 0.12309679 0.09372096 0.01784307 -0.094696775 -0.023369819 0.039129958 -0.08569116 0.054110732 0.03838074 0.022372952 -0.01651719 0.10248546 -0.015101377 -0.036690485 0.053948164 0.09562495 0.10853444 0.010127121 0.045195043 0.088952795 -0.0059300913 0.053747155 -0.05716012 0.08072427 0.015194288 0.04237263 -0.0076821027 0.10219486 0.08442529 0.007237283 0.030700281 0.11202553 0.058790755 0.037350383 -0.053432133 -0.023129523 0.011030601 0.025438467 -0.087569855 -0.048065428 -0.061969947 0.067811 0.04088273 -0.056933515 -0.06723343 -0.021274371 -0.085099496 0.016472902 0.0020361769 -0.08335589 0.016290808 0.02051728 0.0665089 0.01108283 0.08243019 -0.011780257 -0.06486286 -0.099280275 0.034657046 -0.032005586 0.047151666 0.04588327 -0.044868544 0.10579606 0.020408502 -0.0243116 0.00035142564 0.050634857 0.13227984 0.006597183 -0.026548421 0.09138987 0.055117615 -0.047144704 0.024232928 0.0678167 -0.10271602 0.04688046 0.02802613 0.04947823 -0.036053345 0.03688635 -0.02225602 -0.055056103 0.06960556 -0.06434149 0.06809026 -0.02046158 -0.005889588 -0.021314314 0.0382985 -0.009911709 0.014511609 -0.08635561 0.019050175 -0.005386555 0.014100259 0.045033738 0.055339955 0.025748141 0.03967888 0.008124497 -0.09626194 -0.026122045 -0.044347968 0.03361687 -0.0054079765 -0.056277826 -0.09029183 -0.026849331 0.0362439 0.06954702 0.14240263 0.008004562 0.055482067 -0.027016249 -0.18229662 -0.033710536 -0.09276732 -0.05713508 0.018643567 0.06443415 0.109939456 -0.05242728 -0.037899498 0.018062072 0.03162171 -0.042442724 0.12044833 -0.052535504 0.07493455 0.0014255398 -0.11165385 -0.0008851864 0.037027795 -0.016795065 -0.04715951 -0.0053516245 -0.060408954 0.04934504 -0.013293363 -0.017173845 0.025232045 0.021863993 -0.048982956 0.0313494 -0.055358686 0.04696389 0.094363116 -0.0032015047 -0.01938867 0.09416842 0.039699055 0.0020077538 -0.008069639 0.013239495 -0.046154525 -0.010868243 0.008506218 -0.048481345 0.06338921 -0.056563135 -0.04287407 -0.086449295 0.017113948 -0.031940993 0.1431059 -0.006173248 0.06244359 0.028597012 -0.010962398 0.03435471 0.11822493 0.06568489 -0.056268554 -0.020309761 0.020652836 -0.008874276 0.024435194 -0.009579341 0.06652428 -0.12262351 -0.08415226
0.086235166 -0.06986917 -0.073780484 -0.00068903185 -0.04099793 0.03408997 0.098227106 -0.011710827 -0.067899816 0.07894742 0.07072161 -0.017602114 -0.03353423 0.014670636 0.078979544 -0.00066836516 -0.0075347316 0.09566879 0.043920532 -0.053223487 -0.013478091 0.107241094 -0.010633467 -0.023744065 -0.110711925 0.02614373 -0.037788842 0.055210333 -0.14437614 -0.129683 0.0078079794 0.09374581 -0.02620447 0.0090443995 -0.016057093 -0.030150231 0.0059509543 -0.025138492 0.006961157 -0.02526335 -0.021718603 -0.030525519 -0.030687215 -0.03406176 0.0069326987 -0.07386714 -0.13693216 0.1372568 -0.03434872 -0.025213625 -0.009420476 -0.07849551 0.11863874 -0.058337927 0.13871084 0.05516963 0.0043067625 0.04094492 0.035491697 -0.031859998 -0.015422774 -0.00027372595 0.0042793313 -0.014661197 0.016125556 0.020098561 -0.09228867 0.04052887 0.005568805 0.021151867 -0.054601423 -0.07777392 0.050223917 0.0640725 0.0068425816 0.054997962 -0.007374512 0.004238583 0.009994145 0.032676525 0.0008866144 -0.058360636 0.008904899 -0.07707072 0.032254215 -0.02641031 -0.0078393165 0.004607562 0.05640057 0.02271329 -0.059369568 -0.050608505 0.035130113 -0.017643705 0.0017445307 0.051123198 -0.014564239 -0.072472095 0.17701425 0.09766094 0.057950906 -0.04643405 -0.0095317615 -0.005796983 0.0014720429 0.008387098 -0.039210737 -0.040510893 -0.0034458062 0.010320541 0.06629969 0.03401366 0.025187816 0.08283329 -0.023583071 0.09806206 -0.0707665 0.006930109 -0.06798687 -0.052903295 -0.029254042 0.0045107137 -0.18532611 -0.08363021 -0.035354584 -0.02063635 0.028416457 0.0058451924 0.061086867 0.06272653 0.09093133 0.09669793 0.024485935 0.027601205 -0.062150773 0.03734967 -0.04513808 0.010156671 -0.05205146 -0.02640705 -0.001097081 -0.047618024 0.1251935 0.03837498 0.08622967 -0.1658057 -0.02100976 0.02870279 -0.034064356 -0.025376467 -0.12897073 -0.03552834 0.03554696 -0.055208493 -0.00042746603 -0.018514283 0.074799314 -0.056439582 0.009016382 -0.022858119 0.10859743 -0.027211173 -0.034352988 0.109984525 0.030861614 -0.04165156 0.007016674 0.015671648 -0.022592943 0.043147538 -0.06318814 -0.06506107 0.0022715887 0.08502179 -0.073494054 0.00070514256 -0.0025147917 0.025386656 0.080181494 -0.019914562 0.020017486 0.07672264 -0.19850565 0.0063409004 0.054977465 0.010763617 0.14485738 -0.038750138 -0.04042901 0.06474025 0.059298627 0.0779971 -0.017003803 0.015049505 -0.039660946 -0.023206955 0.011911083 -0.0121485805 -0.053635966 0.00905098 0.039672907 0.04246093 -0.0051893373 0.009807123 0.008152746 -0.1492417 0.07954265 -0.0007338988 -0.0009973228 -0.07003808 0.052772842 0.103581145 0.04318695 -0.022287082 0.045469746 0.051985886 -0.07902186 -0.048914623 0.056012258 0.11612862 0.07617943 -0.10462936 0.034374703 0.011137061 -0.080229454 -0.00048243257 -0.14833295 0.015193614 -0.04330768 0.06699372 -0.07080643 0.029477878 0.07227911 -0.05344622 0.024173276 0.07437325 0.050060473 -0.017995 -0.10647722 -0.053297367 -0.07382705 -0.04258327 0.13272159 -0.03744477 0.14039011 0.025907813 -0.07223794 0.0026421535 0.02096598 -0.025245655 0.09399434 -0.010672765 -0.05134957 -0.06927074 -0.035897266 -0.025914581 0.04948563 -0.14734013 -0.035829253 0.13372009 -0.06117537 0.00762454 -0.015256326 0.037192073 -0.07447509 -0.036941484 -0.018109439 0.10905317 0.064757064 0.06441182 0.12608504 -0.0007990568 0.04365621 0.07003167 0.028833138 0.06564225 0.039108474 -0.08792706 0.016241202 0.005537606 0.029765781 0.035847925 0.06009963 -0.012473624 -0.009317231 0.089093424 -0.0026465065 0.020445788 -0.1367277 -0.0042716097 -0.038788833 0.08935484 0.07891954 0.010855012 -0.023957215 -0.027444974 -0.0048752106 -0.020768171 -0.040233325 -0.01579076 0.09753507 -0.026702618 0.08320687 -0.038294014 0.02318755 -0.009060338 -0.0011040174 -0.022122499 0.09730544 0.03849575 0.08269598 0.014030484 -0.054382145 0.039381377 0.07786119 0.0063102706 -0.0006231386 0.08143224 0.05367165 -0.049192674 -0.013881529 0.097983114 0.09620925 -0.10464612 0.006299443 0.008724295 0.09223153 -0.038625676 -0.056877546 0.058520466 -0.04467728 -0.10069854 -0.014928435 0.06208128 0.01860448 -0.13484956 0.043042596 0.012945397 0.14254883 -0.00810485 0.057774357 0.009327508 -0.16848254 0.029775305 0.006995807 -0.039083246 -0.057927657 0.032878727 0.013953707 -0.06706731 0.008315583 -0.036190018 -0.06654176 0.055320147 -0.05895891 0.086783424 0.07497654 -0.037001528 0.07951097 0.0017187198 0.038097627 0.045941457 0.025938343 0.12725808 0.014593769 -0.1090552 -0.0048253145 -0.0349897 -0.023007112 -0.030133342 0.0042771776 0.07639743 0.060413092 0.008203575 -0.003985112 0.010861986 -0.030821817 -0.14228338 -0.002111945 -0.0044175885 0.060010903 0.025908833 -0.03205853 -0.042264488 0.08309409 0.037674755 -0.029495692 -0.022911796 -0.03185972 0.063899286 0.018874643 -0.00906321 -0.071401015 -0.051914625 0.010774012 -0.076430894 -0.012986846 0.05068009 -0.045751333 0.016790371 -0.0045711906 -0.0072001154 -0.031148162 0.0067228735 0.13144736 0.01742548 -0.09749516 0.074969396 -0.05160903 0.036974847 -0.032878403 -0.050008126 0.033791345 -0.079140946 -0.044577654 0.020392047 0.021904953 0.014486938 0.015995368 -0.04261659 -0.042968538 0.058599457 -0.006167525 -0.031066537 -0.005520618 -0.045422684 0.0767147 -0.04205223 -0.010253913 0.020637762 -0.0050391904 0.016516184 -0.061164495 0.010863714 -0.03386049 0.05629075 -0.056530986 -0.021888478 0.03977217 -0.1209958 -0.014063613 -0.06529342 -0.022256231 -0.0013114027 -0.020169491 -0.099662244 0.010016804 0.007336865 0.06257799 0.037695456 -0.023581518 0.14193739 0.07737244 -0.13606074 0.0036856222 -0.09265537 0.09416214 0.0057944194 0.071937546 0.06759527 0.040645856 -0.04708299 0.02167719 0.019637862 0.030620527 -0.03218831 0.019470293 0.07127823 -0.0841277 0.034784537 0.0648643 0.049185 -0.015014691 -0.029194625 -0.0012346937 -0.027528865 -0.04054832 0.07432204 -0.072126724 -0.04874047 -0.07648032 0.047813263 0.09647597 -0.105423 0.08800139 0.02797386 -0.0051190904 0.009867922 0.016339544 0.0064189113 -0.103168346 0.07869349 -0.06343418 -0.056515966 0.05059257 -0.019667229 -0.11709034 0.0460564 -0.019189125 -0.0018157733 0.072097555 0.07273682 0.05457624 -0.06839852 -0.037301645 0.04014917 -0.026986538 -0.013375322 0.11873202 -0.043803446 -0.08190554 0.13468269
0.12531053 0.020680267 -0.17073284 0.03367674 -0.037165526 0.033621173 0.124588154 -0.060768615 -0.0074346517 0.055324342 0.00027397127 0.056453034 -0.03515412 -0.07037763 0.054833874 -0.039690647 -0.041363373 0.05389583 -0.008495944 -0.053967297 -0.023154153 0.041613758 0.017790632 0.0077040126 -0.014299818 -0.042416587 -0.005658815 -0.013877032 -0.039665036 -0.19162071 -0.025214393 0.07641199 -0.08123623 0.019932086 0.04831939 -0.041964922 -0.0292083 -0.07382184 -0.012347319 -0.03182645 -0.057574205 -0.03829175 0.029925078 -0.06921948 -0.011045042 -0.07823693 -0.13600387 0.084547594 -0.058202907 -0.028174803 -0.028562585 -0.10595203 0.097993456 -0.09148081 0.042130105 -0.019604266 -0.12686135 0.079398155 0.03751337 0.061371643 -0.026667327 0.019555744 0.02724172 0.059035044 -0.0040619206 0.050012857 -0.01692112 -0.037538845 0.07470965 0.045765795 -0.079340465 -0.07590297 0.02372603 -0.07652546 0.04303812 0.07712614 -0.10042626 0.019320337 0.035654776 0.022440527 -0.0326256 -0.13465859 -0.0051303413 -0.029448688 -0.056047756 -0.034230378 0.047394704 0.06307076 0.08022084 0.01853671 -0.10737047 -0.00042903304 -0.037714727 0.047693208 -0.021971459 0.07652285 -0.06292522 -0.064370655 -0.012170172 0.04932444 0.012414958 -0.056863237 0.028462859 0.008583092 0.14046709 0.08250217 -0.023470404 0.035068996 -0.12766606 -0.022030273 0.046512343 0.066658214 0.033986077 0.034660455 0.05571919 -0.02929089 -0.19182007 0.034177225 -0.19557999 0.021028636 -0.0018290938 -0.10648358 -0.15844338 -0.039163865 -0.049706317 -0.0041535846 0.08666303 -0.057243723 0.100564465 0.09823954 0.036658127 0.08137848 -0.024519017 0.041059718 -0.09207628 -0.005914258 -0.11005265 -0.019999072 -0.042864516 -0.04184443 0.027510168 0.03791003 0.051287267 -0.018927911 -0.083631516 -0.27178046 -0.013440841 0.04784277 -0.042271633 -0.020882659 -0.100829154 0.033083417 -0.0069276975 -0.036851697 -0.09715203 -0.19333869 0.055301208 -0.09527562 -0.008314596 0.026551511 0.083283745 0.026071338 -0.011555199 -0.010267113 0.0754808 0.0041394695 0.0584633 0.001137596 -0.07792634 -0.0822399 -0.07675385 0.010607979 0.06759126 -0.00518805 -0.2447826 0.015407617 0.0060058995 0.09704721 -0.012128983 -0.05118553 0.1519753 0.11173711 -0.06588439 0.046251997 0.085109085 0.012153345 0.08056377 0.02839088 0.04802994 -0.11042344 0.005845957 0.043862484 -0.012166826 0.0032388084 -0.0620991 0.03078784 -0.0831935 -0.03194189 -0.052247837 0.00016810962 -0.033680506 0.0022351188 -0.06806312 -0.085347496 -0.0006859091 -0.05020444 0.07856159 -0.012088678 -0.033459883 -0.07349503 0.12577522 0.041531198 0.008186761 0.085831836 -0.07233832 0.008129918 -0.08197522 -0.17795755 -0.03310302 0.055476733 -0.057305634 -0.018570425 -0.032409735 0.011333849 -0.012626885 -0.10884868 -0.1629204 0.053786576 -0.027221557 -0.029865814 -0.09661177 -0.060082905 0.09255689 -0.016386583 0.0018687348 -0.008928522 -0.008352543 -0.05078169 -0.06999979 -0.078300245 -0.1772834 -0.023456333 0.0014349943 -0.14019312 0.14150682 0.037104495 -0.12945701 -0.0122800125 0.10822657 0.08697754 0.051829282 -0.053810183 0.0010981873 -0.013228796 -0.061937317 -0.0017207362 -0.0016696872 -0.11278996 0.020517422 0.0035568976 0.06503515 0.051569577 -0.032146066 -0.016262978 -0.023351613 0.08495097 0.02716144 0.11488404 0.014867762 -0.06343605 0.08764454 0.10379764 0.025245233 0.08584167 0.009344415 -0.025239784 0.046359662 -0.07467403 -0.027793093 0.06520289 0.070761226 -0.0072346907 -0.026246443 0.052447047 -0.04736222 -0.015915606 -0.007402292 -0.034075685 -0.101350315 0.070175625 0.11397794 0.09514401 0.053052466 -0.0020342409 -0.06942476 -0.01583527 -0.033877824 0.023931995 -0.054239333 -0.072131366 -0.0133084 -0.006119019 0.104624465 0.036032774 0.046444353 -0.09524081 0.06364443 -0.050277777 0.07213412 0.052781705 -0.04861026 0.03154332 -0.017191125 0.059751566 -0.030529566 0.025114434 0.031810593 0.041639853 0.06048404 -0.010630481 -0.061061054 0.06543916 -0.045362227 -0.15209024 0.07434051 -0.010449094 0.114305764 -0.010642843 -0.10265541 0.033329636 -0.10959267 -0.105480246 -0.17612496 0.047398176 -0.09299777 -0.08617297 0.008508647 -0.022607844 0.03771311 -0.10288082 0.038378797 -0.031492338 0.018962657 -0.014316674 -0.069993466 -0.045780987 0.011440412 0.07742096 -0.059605602 -0.010765555 -0.08624138 -0.04078243 -0.015206625 -0.054365557 -0.051705033 0.0042447443 0.05814125 -0.120185465 0.0019386329 -0.0058414373 -0.0020115953 0.008917565 0.0045145308 0.13091959 0.01616669 -0.13524105 -0.07538961 0.008421291 -0.13102494 -0.047212955 0.08180872 -0.030579347 -0.007698326 -0.1084281 0.04464731 -0.058879193 0.039949417 -0.12776169 0.00022767419 -0.04994981 0.06840654 -0.022024509 -0.04946759 0.069671154 0.011692636 0.042774014 0.010963887 -0.09343956 0.053277697 0.0038515036 -0.056648005 0.005479941 -0.16712071 -0.07126834 -0.055499375 0.07997465 0.0577951 0.028880235 -0.04180243 -0.05109999 0.007353123 0.0112224575 -0.03132374 0.04498258 0.09750756 -0.014317384 -0.192418 0.06589292 -0.06581584 0.0007040614 0.04311618 0.013179079 -0.04808172 -0.05662194 -0.07454713 -0.00701241 -0.1525885 0.03523549 -0.016920568 -0.025529329 -0.03664217 -0.0005476061 0.023673981 -0.060233157 -0.10910893 -0.077160686 -0.008229277 0.072991446 -0.026995465 0.049872942 -0.018400367 0.032479055 0.005619128 0.011418047 -0.0922232 -0.010348197 0.10230547 -0.1221986 -0.0022548824 -0.056035317 -0.027853092 -0.04820127 0.047294475 0.044452377 -0.047063824 0.06198445 0.0010717333 0.016284786 0.04237413 0.02564702 -0.18268713 0.09659502 0.055402577 0.018655395 -4.6470283e-05 -0.112055585 -0.05657378 0.052738257 0.006826757 -0.024721742 -0.019412192 0.057851765 -0.01659162 0.027402533 0.021593615 -0.0059055076 -0.03488749 0.010782155 0.07350915 -0.056991328 0.10545349 0.050842956 -0.03377072 -0.07240662 -0.0024084295 -0.06159589 -0.12660113 -0.019220784 -0.089604944 0.0410799 -0.0639887 -0.0032382503 0.039453086 -0.05116862 -0.007855092 0.039121155 0.04055541 0.021657454 0.049734477 -0.001526765 -0.08408232 0.006776518 0.06467512 -0.08636625 0.0128427865 -0.1487683 -0.13303539 -0.09997054 -0.052265234 -0.079527415 0.11634943 0.17415895 0.0613982 -0.016014628 -0.09848999 -0.020555075 -0.05497469 0.045187294 0.102120265 -0.057343207 -0.082381144 0.1399734
